40 200
w8 -0.321815 -0.188955 -0.0714053 0.127018 -0.0055467 -0.05782 -0.123308 0.381765 -0.150303 -0.21372 -0.0106623 0.0428458 -0.0318757 -0.00441377 0.0641864 -0.0659057 -0.0161576 -0.0226398 0.0313845 -0.145279 0.0763761 0.136842 0.130648 0.12475 0.171955 -0.211669 -0.0209006 0.0700464 -0.372242 0.105184 0.243934 0.457801 0.122244 0.140922 0.119132 -0.512533 -0.0543582 0.185056 -0.105757 0.0289638 0.258585 -0.139874 -0.0799201 -0.070823 -0.0402416 -0.291399 -0.144253 -0.122426 0.429575 0.11606 0.0171701 -0.0563851 0.212809 -0.102144 -0.19479 -0.487612 0.424678 -0.0240169 0.253129 0.203292 -0.149305 -0.065043 -0.253625 -0.0106371 -0.284821 -0.143687 -0.5052 0.0668905 -0.0397711 -0.225459 -0.333202 0.00585686 0.140974 0.237131 -0.243064 -0.39058 -0.121975 0.218405 -0.231177 -0.184203 0.174003 0.23965 -0.181819 0.110331 0.00307116 0.0252562 0.26202 -0.140686 -0.249846 0.08011 0.313087 0.0372765 0.120613 0.105062 -0.262243 0.123115 0.0669306 -0.294704 -0.318589 -0.370163 0.102236 -0.156774 0.0263953 0.217807 0.273902 0.0644888 -0.0294041 -0.220346 -0.3385 0.163675 -0.422765 -0.313803 0.0197974 -0.0485704 0.389405 0.178992 -0.0567001 0.0805084 -0.136075 0.25921 -0.53444 -0.109119 0.00993555 0.121584 -0.476552 0.00206675 0.15891 0.125908 0.373621 -0.0572339 0.117409 -0.483277 0.0355621 -0.00651298 0.315021 0.166221 -0.0597632 0.459695 0.0717348 0.0147213 -0.0140903 0.0855283 -0.0503384 0.0603629 0.273039 0.0830956 0.0498344 0.273353 -0.208989 -0.332112 -0.36216 -0.118781 -0.0316298 0.529802 0.116063 -0.0878706 -0.244285 0.18832 0.128562 0.126436 0.0320229 0.260068 -0.0435592 0.113477 -0.312832 0.231675 0.0333193 -0.320728 -0.0456718 0.0348594 -0.0663697 -0.309694 0.065424 0.113977 0.0801492 0.145144 0.106202 0.186503 -0.24124 0.271968 0.0280776 -0.0508201 -0.147351 0.130467 -0.226654 0.142701 -0.190027 0.386563 -0.00111094 0.261816 -0.1745 -0.00225553 0.130838 -0.118251 -0.0759674 -0.0795239 0.0591358 0.0506039 -0.458625 0.218878 
w6dim -0.0593873 -0.0480603 -0.076891 0.0408109 0.00819223 0.0315404 -0.0597533 0.15516 -0.0802893 -0.0403583 -0.0356454 0.0897499 -0.0522613 0.0265306 -0.0212252 -0.0310993 -0.00299636 -0.00126963 0.0428449 -0.0486138 0.0218207 0.0956996 0.0257281 -5.18162e-05 0.0382058 -0.0297164 0.0440977 -0.00728317 -0.137663 -0.0328159 0.119136 0.134359 0.012394 -0.00508731 0.0701187 -0.171657 -0.0751939 0.0833755 -0.00615063 -0.0376876 0.0125474 -0.152277 -0.00971777 -0.0310619 0.0128668 0.00786068 -0.0442117 -0.033868 0.0893278 0.0512578 -0.00314649 -0.0448408 0.0748298 -0.0259311 -0.0630064 -0.147044 0.12447 -0.0406814 0.0564176 0.00058833 -0.00468472 0.0788077 -0.0959422 -0.0538006 -0.0630203 -0.0617625 -0.162191 -0.0163885 -0.00410939 -0.0302049 -0.110081 0.00154319 0.10695 0.120568 -0.137452 -0.0824862 -0.0147729 0.127371 -0.0649816 0.0409114 0.0416076 -0.0286996 -0.0199889 -0.0230168 -0.0398692 0.0613305 0.0481529 0.0262082 -0.119076 -0.00620124 0.0467703 -0.0166727 0.0655046 -0.0496665 -0.024535 0.0154922 0.0614267 -0.085182 -0.0394174 -0.083051 -0.0388674 -0.0578573 -0.0315405 0.0418419 0.133158 0.0210376 0.0225398 -0.0991242 -0.102408 -0.0235591 -0.108053 -0.104651 0.0368391 -0.0447713 0.136616 0.0444856 -0.0420086 0.00301068 -0.053014 0.0336282 -0.111441 -0.0787092 0.0161362 0.0563937 -0.102408 0.0215134 0.0175323 0.0434075 0.113211 0.0523628 -0.0153595 -0.140396 0.0322349 0.0158089 0.0521081 0.0556724 0.0194237 0.102227 -0.0311036 0.0490679 -0.0170744 -0.0319665 -0.00196879 0.00676384 0.0437086 0.0138841 0.00155668 0.0567811 -0.0957911 -0.0759251 -0.130152 -0.0760551 -0.00387577 0.0989801 -0.0156359 -0.0579627 -0.0759232 0.0537937 -0.012261 0.0191372 0.0358228 0.091229 0.0276034 0.050472 -0.0455461 0.0142764 -0.0463914 -0.0790945 0.0311642 0.00848704 -0.0315611 -0.0902524 0.0153543 -0.0645416 0.0698248 0.060484 0.0599708 0.091279 -0.120994 0.105245 0.0446443 -0.0471825 -0.120984 0.0490364 -0.0519662 -0.0271776 -0.0639713 0.108548 -0.0391931 0.0460439 0.00945913 0.0296492 0.0334065 -0.0186226 -0.0233003 -0.0191263 -0.021018 -0.00140771 -0.0907618 0.092031 
w6m 0.0266596 0.0900199 -0.19174 0.15447 -0.180056 0.0934183 0.200369 0.282888 -0.0284906 -0.0608336 -0.274764 0.315785 -0.128186 0.165875 -0.0688572 -0.120249 0.142009 -0.0231965 0.292999 -0.2759 0.0857089 0.19781 -0.0795517 -0.0576216 0.250757 0.0131602 0.117302 -0.153609 -0.629382 0.207942 -0.00394194 0.274278 -0.171492 -0.144305 0.103094 -0.344185 -0.0661609 0.292764 0.364838 -0.194924 -0.185942 -0.475063 0.146667 0.207692 0.0253033 0.24701 -0.335055 -0.146141 0.255836 0.0860515 0.0557651 -0.0394717 0.147743 -0.0602435 -0.311799 -0.238348 0.196609 0.0738598 0.0801176 -0.185118 0.0936488 0.326016 0.0194644 -0.160308 0.0706397 -0.277679 -0.494281 -0.139667 0.0940365 0.0280267 -0.144985 0.220567 0.108778 0.324948 0.0277712 -0.102355 -0.069076 0.215511 -0.248817 -0.214265 0.1336 0.107145 -0.108819 -0.22195 -0.126634 0.311969 -0.144746 0.207425 -0.352453 0.0233933 0.0920041 -0.19247 0.104454 -0.17032 -0.103376 0.150073 0.210921 -0.160377 0.0794289 -0.272157 -0.207915 -0.255259 -0.312394 0.196238 0.356943 0.160779 -0.107433 -0.190263 -0.260819 -0.0731286 -0.327562 -0.0520101 0.0689728 0.0814386 0.248981 -0.244952 -0.322114 0.00686482 0.0214759 0.016127 -0.389701 -0.337622 -0.201565 0.0915406 -0.461412 -0.0851044 -0.124206 0.154302 0.122242 0.357056 -0.391631 -0.249889 0.10078 -0.0342959 -0.0363787 0.151991 -0.0890441 0.243858 0.0515134 0.0988963 0.0382474 0.0890004 -0.109333 -0.0998774 0.179513 -0.279704 0.249219 -0.0309855 -0.198668 -0.0977352 0.000315221 -0.00982409 -0.0193982 0.28747 -0.143614 -0.00153472 -0.339536 -0.0329001 0.00210269 0.055151 -0.0552107 0.295839 0.00194698 -0.00198575 -0.185766 -0.225295 0.0422466 -0.0549166 0.308081 -0.0124102 -0.0353262 0.196335 -0.110284 -0.220219 0.0744739 0.0841973 0.0592553 0.227266 -0.419643 0.393856 0.175605 -0.0806503 -0.280434 0.117254 -0.082883 -0.0483509 0.165299 0.395471 0.232521 -0.253613 0.210842 -0.0711458 -0.10078 -0.0913058 -0.0397739 0.0992105 -0.0858724 0.101655 -0.326375 0.233951 
w67 0.0168597 0.0391327 -0.126956 0.102443 -0.0969141 0.120396 0.0880862 0.208989 -0.041694 -0.0307583 -0.0969094 0.215814 -0.143833 0.197635 -0.0955214 -0.133952 0.0291438 -0.000664342 0.22737 -0.210664 0.0435279 0.182327 -0.0832033 -0.0673571 0.158856 -0.0386726 0.0604249 -0.141154 -0.436702 0.136037 0.130586 0.232319 -0.0947926 -0.11264 0.0549801 -0.338476 -0.0981022 0.288862 0.220257 -0.152144 -0.120865 -0.416356 0.0779577 0.159421 0.0446015 0.123519 -0.243436 -0.175321 0.217569 0.116156 0.0305826 -0.0653237 0.0944405 -0.0399159 -0.302975 -0.197941 0.173565 0.0630268 0.140935 -0.149299 0.0948671 0.254438 -0.00903281 -0.159645 0.0196313 -0.197832 -0.402412 -0.097304 0.118957 -0.00966619 -0.118175 0.132288 0.0844783 0.286747 -0.108126 -0.137325 -0.0593345 0.216976 -0.185834 -0.0801673 0.102474 -0.0249874 -0.0575499 -0.143724 -0.0901022 0.229513 -0.0495616 0.171853 -0.305683 0.0491312 0.0595238 -0.138159 0.0180698 -0.179238 -0.0381586 0.133031 0.239279 -0.102272 0.0349163 -0.288123 -0.129772 -0.178354 -0.217867 0.117204 0.321714 0.188698 -0.0366159 -0.147529 -0.175297 -0.111893 -0.227897 -0.101353 0.10188 0.029834 0.199664 -0.211948 -0.246999 0.0342256 -0.00576481 0.115421 -0.302205 -0.204597 -0.142651 0.0231841 -0.324663 -0.0215927 -0.0488386 0.135584 0.0825836 0.287865 -0.298955 -0.230453 0.131024 -0.00648114 0.0531212 0.130808 0.015781 0.165908 0.0244765 0.0950756 0.0397538 0.0730617 -0.0763739 -0.0532961 0.138152 -0.212608 0.163639 0.00978662 -0.147853 -0.132447 -0.0379355 -0.0946201 -0.0467151 0.261689 -0.0747195 -0.0897822 -0.299324 0.00728154 -0.0545296 0.0803055 0.0478503 0.188301 0.0364383 -0.0482505 -0.0881256 -0.164663 -0.0516692 -0.118718 0.201036 0.00221077 -0.0751655 0.0884672 -0.0708141 -0.166343 0.0742581 0.0604693 0.092924 0.244066 -0.275979 0.349325 0.111844 -0.120393 -0.298884 0.0952108 -0.0249705 -0.0137266 0.0344996 0.310092 0.169377 -0.133061 0.118188 -0.0832483 -0.010482 -0.0421618 -0.0411721 0.0562544 -0.0437998 0.0433213 -0.249874 0.232746 
w6 -0.188143 -0.0305382 -0.0794711 0.194862 -0.135695 0.0452292 -0.039765 0.409573 -0.0551432 -0.113427 -0.0948048 0.154499 -0.0409264 0.176064 -0.0725689 -0.187602 -0.0364284 -0.00507638 0.248156 -0.260738 -0.0283723 0.200941 0.0151481 0.0296681 0.189094 -0.177423 -0.0512716 -0.0193198 -0.613916 0.277064 0.146026 0.436211 -0.0634977 0.094689 0.0842013 -0.517468 -0.059841 0.411578 0.229973 -0.0625016 0.083233 -0.44474 0.0959571 0.165304 0.0290532 -0.131802 -0.244488 -0.168074 0.339053 0.119787 0.0275975 -0.037609 0.130092 -0.0540992 -0.388215 -0.345838 0.308064 0.151922 0.206043 -0.0825017 0.00559389 0.201731 -0.0255785 -0.129349 -0.174702 -0.133154 -0.669355 -0.00812857 0.105211 -0.211489 -0.256221 0.0698347 0.0852023 0.332865 -0.113364 -0.271422 -0.11633 0.295496 -0.226637 -0.29609 0.201325 0.158867 -0.207281 -0.0844521 -0.0569345 0.0820099 0.136078 0.000588199 -0.280312 0.173561 0.228263 -0.186724 -0.065691 -0.0698239 -0.151155 0.15978 0.29419 -0.167651 -0.13967 -0.545314 -0.050098 -0.160931 -0.194904 0.349027 0.384106 0.231441 -0.126781 -0.13019 -0.331046 0.0760261 -0.420823 -0.202807 0.108548 0.0331073 0.250844 -0.165812 -0.298544 0.0500956 0.00584014 0.321833 -0.56548 -0.184329 -0.216715 -0.0323881 -0.463856 0.014319 0.117522 0.168736 0.158201 0.180788 -0.279884 -0.458876 0.0873131 -0.0638071 0.239066 0.151849 -0.0086234 0.420976 0.0629097 0.0790571 0.0550324 0.215826 -0.100141 0.0645903 0.282127 -0.23148 0.337573 0.0472315 -0.19384 -0.242683 -0.098982 -0.167012 -0.0484959 0.503748 -0.0087348 -0.118095 -0.448351 0.0952522 0.0553512 0.0969128 0.0270998 0.28246 -0.0406938 0.0211311 -0.349602 -0.048298 0.0895857 -0.191447 0.125713 0.0670455 -0.0170314 -0.0289309 0.0214838 -0.0305077 0.0974857 0.0431462 0.0655608 0.296593 -0.419186 0.463005 0.107732 -0.0165299 -0.243063 0.219093 -0.0551744 0.0765782 -0.0909898 0.475596 0.122287 -0.0762649 -0.111148 -0.136785 0.0583219 -0.137684 -0.0879888 0.0222627 -0.0506321 0.00631093 -0.401099 0.303199 
w37 -0.19073 -0.120478 -0.14287 0.113264 -0.0302894 0.0129683 -0.110912 0.307745 -0.186825 -0.0767156 -0.0193414 0.177382 -0.105505 0.0367446 -0.0489282 -0.0826525 -0.00904272 0.0445632 0.120348 -0.109825 0.0160553 0.166049 0.0777265 -0.00790854 0.0949559 -0.10145 0.0234878 0.0178573 -0.319722 0.0231821 0.235364 0.331463 0.00666957 0.0336363 0.130116 -0.398816 -0.108451 0.175412 0.00022297 -0.0489203 0.0241377 -0.292977 -0.0252871 -0.0709669 0.0317078 -0.0652549 -0.11206 -0.104426 0.230073 0.119201 0.000892942 -0.0718323 0.180793 -0.0206055 -0.169169 -0.311256 0.26423 -0.028638 0.149443 -0.0221607 -0.0203297 0.101334 -0.189928 -0.085207 -0.15813 -0.103058 -0.429462 0.0218813 0.0180899 -0.09565 -0.254609 0.00894454 0.216722 0.30559 -0.25762 -0.196083 -0.0267923 0.250913 -0.109703 0.0104242 0.0936548 0.0087978 -0.116374 -0.0568528 -0.0812618 0.0929755 0.134565 0.0134804 -0.261262 0.0445285 0.10578 -0.0168874 0.117806 -0.0440881 -0.0920162 0.0551017 0.145459 -0.22291 -0.13811 -0.231624 -0.0429558 -0.141246 -0.0733322 0.135914 0.264597 0.0813017 0.0227683 -0.207874 -0.287555 0.0128371 -0.258921 -0.254494 0.094515 -0.0791078 0.276896 0.0504638 -0.107523 0.0302705 -0.124524 0.10107 -0.310833 -0.135566 0.0204204 0.13434 -0.230243 0.0143108 0.0767663 0.133389 0.224332 0.132992 -0.0204176 -0.331358 0.0790737 -0.0138575 0.155779 0.141105 0.00723445 0.277475 -0.0217197 0.0341463 -0.0583327 0.00756726 -0.00932349 0.0531697 0.142215 0.0157636 0.0700695 0.108981 -0.17874 -0.197181 -0.289234 -0.172611 -0.00139688 0.312947 0.0129099 -0.128307 -0.220812 0.149891 -0.0233959 0.0597774 0.0368834 0.220596 0.0243524 0.115514 -0.18739 0.069451 -0.0753047 -0.185263 0.0296804 0.0409799 -0.0506336 -0.197335 0.0502022 -0.073246 0.162678 0.0952543 0.0865033 0.16493 -0.265213 0.261388 0.092291 -0.0942387 -0.262455 0.121065 -0.115473 -0.0431861 -0.152535 0.246578 -0.0715265 0.130451 -0.0467952 0.0362008 0.0700672 -0.0809843 -0.0267721 -0.0337768 -0.0317006 0.0105808 -0.204132 0.22279 
w3 -0.277137 -0.228872 -0.0183213 0.0897258 0.0878982 -0.156858 -0.127139 0.23489 0.00689723 -0.271736 -0.120847 -0.0659065 0.0518192 0.0874394 0.0874975 -0.0258735 0.0130468 -0.123526 -0.0130858 0.0546769 0.0102467 0.271961 0.112158 0.0978611 0.211389 0.110808 0.161634 0.228241 -0.348639 -0.0470438 0.44957 0.314229 0.204784 0.226919 0.17112 -0.513663 -0.14025 0.124739 -0.0460829 0.0462346 0.235093 -0.0448697 0.113741 -0.220689 -0.1454 -0.111499 -0.111883 0.0833906 0.46406 0.209721 -0.0390578 -0.131517 0.0914044 -0.302447 0.00192104 -0.584549 0.377565 -0.315332 0.187459 0.27144 -0.212102 0.0721818 -0.32952 0.0165428 -0.327115 -0.0122306 -0.402806 0.00277917 -0.158843 -0.232762 -0.362939 -0.174426 0.240769 0.154591 -0.298978 -0.304721 -0.137142 0.216032 -0.33517 -0.0922709 0.201141 0.249663 0.0280139 0.323768 -0.101648 -0.0299318 0.369112 -0.181434 -0.249032 -0.00756798 0.396731 -0.0458993 0.199159 0.0379429 -0.254249 0.00505333 0.0272175 -0.211086 -0.170205 -0.364386 -0.106233 0.0122614 0.106493 0.254586 0.256999 -0.0597837 -0.050147 -0.296887 -0.154403 0.00720486 -0.357403 -0.18924 -0.120627 -0.0691663 0.478578 0.430863 -0.0319289 0.103411 -0.177991 0.203958 -0.36959 -0.180641 0.153715 0.114522 -0.503067 -0.0512306 0.1778 0.0639284 0.440227 -0.281245 0.049346 -0.617978 0.00987489 -0.0163832 0.229337 0.125808 0.0738204 0.437447 0.162797 0.127592 -0.0822052 0.0572562 0.0999849 0.0426324 0.219715 0.279402 0.017561 0.389061 -0.298359 -0.115287 -0.503229 -0.143894 -0.0606135 0.350334 0.138946 -0.0136348 -0.132602 0.103727 0.134223 0.19019 0.0548353 0.171447 0.0758253 0.0819265 -0.196886 0.151675 0.213817 -0.381403 -0.023583 0.215737 -0.0893269 -0.37309 -0.0192981 0.0102768 -0.081334 0.188484 0.0273534 0.0416875 -0.242694 0.265066 0.173816 0.0990145 0.0966494 0.0154086 -0.224987 0.156335 -0.219088 0.346163 -0.069849 0.0795409 -0.0306433 0.062012 0.146787 0.0720627 -0.322724 -0.136451 0.254916 0.0469975 -0.32175 0.213184 
w10m -0.285343 -0.230006 -0.129274 0.163532 -0.101542 -0.0350633 -0.102856 0.320689 -0.262715 -0.0813988 0.120252 0.207961 -0.183402 0.0627589 -0.123058 -0.170392 -0.0661167 0.144814 0.217723 -0.132093 -0.0251194 0.166271 0.116286 -0.0583095 0.140213 -0.166525 -0.0508845 0.0424857 -0.427356 0.139389 0.385576 0.484597 0.00865166 0.0946075 0.101301 -0.596045 -0.0976727 0.247164 0.000412385 -0.0399462 -0.0532545 -0.365549 -0.0270453 -0.139463 0.078886 -0.169929 -0.171206 -0.213586 0.33196 0.192613 0.0082834 -0.100772 0.268267 0.000105888 -0.279631 -0.392206 0.292969 -0.03368 0.293365 -0.113895 -0.012756 0.0902758 -0.229368 -0.115033 -0.225798 -0.078266 -0.697852 0.0840281 0.0902883 -0.151969 -0.331792 -0.0144118 0.313179 0.536186 -0.360534 -0.308457 -0.0171919 0.31583 -0.0850038 -0.00679263 0.101282 0.0384651 -0.220478 -0.100476 -0.118467 0.09048 0.204332 -0.00268339 -0.392878 0.144009 0.130799 0.0137295 0.132547 -0.0341636 -0.1271 0.135567 0.297298 -0.361016 -0.226507 -0.372431 -0.00725843 -0.207849 -0.120827 0.181668 0.327124 0.200097 0.0426233 -0.294051 -0.464908 0.0325421 -0.354811 -0.404519 0.185431 -0.10483 0.362383 -0.0230004 -0.136133 0.118434 -0.192061 0.192394 -0.470337 -0.101194 0.0674374 0.195421 -0.281228 -0.0342067 0.150753 0.23913 0.233629 0.267642 -0.00522041 -0.481814 0.218719 -0.0986796 0.282667 0.271667 0.0205816 0.38344 0.0203647 -0.0168941 -0.11979 0.0821552 -0.0344667 0.106784 0.252377 0.0176453 0.181736 0.121891 -0.17849 -0.285762 -0.414034 -0.331607 -0.0185032 0.537121 0.0780367 -0.208934 -0.393596 0.250902 -0.104816 0.0929396 0.0539077 0.305828 -0.0113921 0.134208 -0.345817 0.120514 -0.126418 -0.305313 0.00280271 0.0911092 -0.0665587 -0.261041 0.0561538 -0.0511847 0.25488 0.0721512 0.0514441 0.205368 -0.3286 0.426455 0.154361 -0.145684 -0.423134 0.203401 -0.141136 -0.0194753 -0.288468 0.31446 -0.0580322 0.225193 -0.123561 0.0361353 0.11184 -0.16906 -0.0360159 -0.0834303 -0.00949588 0.00651815 -0.252398 0.395601 
w107 -0.183257 -0.19179 -0.0533431 0.0944994 -0.0074835 -0.0784012 -0.117394 0.356158 -0.175975 -0.150935 -0.0463362 0.114132 -0.0881881 0.0191103 0.0167827 -0.0813789 0.0245868 0.0423902 0.0233842 -0.0855278 0.0352608 0.163944 0.115517 -0.00265201 0.188915 -0.0438606 0.0452459 0.0820264 -0.317416 0.00923104 0.335094 0.408199 0.127571 0.123229 0.112072 -0.467032 -0.0800127 0.176891 -0.0922623 0.012111 0.0700607 -0.191019 0.047325 -0.101525 0.05955 -0.0939953 -0.139945 -0.0830308 0.29866 0.130408 0.0120843 -0.0903605 0.190655 -0.12532 -0.101744 -0.378546 0.318332 -0.158601 0.244803 0.0564029 -0.0557289 0.104371 -0.200027 -0.0569865 -0.173301 -0.0861475 -0.497916 -0.014438 -0.0055802 -0.196863 -0.278034 0.0187026 0.293053 0.300474 -0.267632 -0.309017 -0.0536415 0.205097 -0.193216 -0.0256885 0.134833 0.0805154 -0.110513 -0.00603794 -0.0756255 0.0598527 0.233284 0.00975633 -0.280782 0.031374 0.196047 -0.016668 0.136508 0.00610656 -0.151229 0.106589 0.162543 -0.228472 -0.17326 -0.286891 0.00573067 -0.123306 -0.0520321 0.200682 0.193939 0.0841198 -0.00853034 -0.260342 -0.279952 0.0427041 -0.386023 -0.26844 0.0351643 -0.0814195 0.34564 0.153995 -0.0552114 0.0750242 -0.13228 0.176375 -0.386729 -0.140578 0.0503619 0.137778 -0.304942 0.0035384 0.111814 0.0956406 0.235907 0.0629941 0.00977829 -0.350629 0.103639 -0.0937622 0.208421 0.211193 -0.0284805 0.345289 -0.00199027 0.101187 -0.0758664 0.0388491 0.00661162 0.0387753 0.218578 0.0450053 0.116057 0.152897 -0.149012 -0.175746 -0.386632 -0.21135 -0.0883538 0.394955 0.0396267 -0.126824 -0.258698 0.204199 0.0135681 0.0760748 0.0547219 0.205915 0.0198665 0.131715 -0.229329 0.113127 -0.00870274 -0.228208 0.0273468 0.0435664 -0.0313272 -0.263784 0.0213395 -0.0396909 0.114359 0.136763 0.0374215 0.170022 -0.24585 0.251684 0.147887 -0.0334315 -0.22052 0.180164 -0.156518 0.0439607 -0.201166 0.253252 -0.0168485 0.152868 -0.0767247 0.0648757 0.0997188 -0.14839 -0.166742 -0.141817 0.0199131 -0.00539119 -0.269096 0.260587 
w1 -0.294299 -0.178469 -0.128417 0.122955 -0.158008 -0.0473975 -0.00449479 0.457719 -0.244288 -0.152446 -0.0572886 0.194233 -0.00986093 0.0828671 -0.0903961 -0.153095 -0.0347499 0.0768609 0.0382726 -0.293092 0.0942 0.0703417 0.0459577 0.174201 0.230538 -0.159391 -0.0468083 -0.0562962 -0.57609 0.245869 0.176476 0.591192 0.102102 0.0163711 0.0925782 -0.530663 -0.0660604 0.357944 0.0634451 -0.0425536 0.119122 -0.351738 -0.0469604 -0.0475124 -0.011574 -0.236904 -0.251024 -0.176547 0.419041 0.109371 0.145832 -0.137447 0.260521 -0.0483513 -0.215905 -0.436398 0.35222 -0.0572652 0.261937 -0.042249 0.00819327 0.0618641 -0.150336 -0.108269 -0.146122 -0.195824 -0.750004 0.057741 0.104356 -0.239838 -0.289981 0.179971 0.178523 0.467145 -0.205221 -0.504448 -0.180464 0.350218 -0.230681 -0.189266 0.11302 0.276159 -0.297506 0.00933897 -0.0816724 0.0760644 0.122294 -0.0483144 -0.377344 0.065532 0.422731 0.0753842 0.19037 0.0514002 -0.15033 0.242658 0.122385 -0.43742 -0.312647 -0.392526 0.0605169 -0.190939 -0.12962 0.163259 0.406319 0.185271 0.0453121 -0.340811 -0.487581 0.150006 -0.485974 -0.380382 0.0707975 -0.0831812 0.405425 -0.0315124 -0.185655 0.18188 -0.0602627 0.203566 -0.610646 -0.126331 -0.150781 0.134381 -0.574599 -0.0409101 0.123902 0.0706671 0.304787 0.283071 0.0513854 -0.553047 0.191284 -0.0608175 0.373658 0.252385 -0.144421 0.59998 0.0997975 0.0454232 0.0439283 0.168605 -0.0844916 0.106288 0.292687 -0.0656647 0.168567 0.248446 -0.306413 -0.356234 -0.327034 -0.205221 -0.029647 0.683572 0.00499447 -0.169866 -0.44154 0.0954477 0.0981563 0.0114923 0.100632 0.393277 -0.0500659 0.137588 -0.391719 0.163125 -0.0702408 -0.20535 0.0686246 0.161113 -0.00982468 -0.187945 -0.00155714 0.0999679 0.107965 0.080999 0.0900533 0.380863 -0.338603 0.353211 0.0269 -0.158903 -0.318967 0.293222 -0.183298 0.109339 -0.159045 0.454675 0.088854 0.229008 -0.0736517 0.0400567 0.0665115 -0.311947 0.00605814 0.0231125 0.0202183 0.158301 -0.533336 0.251447 
V7 -0.128769 -0.00759272 -0.264639 0.0340579 0.140665 0.209688 -0.344466 0.408721 -0.327503 0.00101984 -0.0175578 0.3224 -0.107351 0.0517139 -0.08225 0.0257984 -0.0977271 -0.0178256 0.00905133 0.00139691 0.0756935 0.209938 0.02792 -0.00439883 -0.148191 -0.0224198 0.115054 0.017021 -0.04278 -0.397337 0.26403 0.136913 0.0369378 -0.0756051 0.274838 -0.107544 -0.369143 0.0286151 -0.171994 -0.0502704 0.0472417 -0.384078 -0.193622 -0.171852 -0.0387519 0.0779172 0.119652 0.0559675 -0.0578982 0.0927756 0.0163779 -0.120624 0.132846 0.0838726 0.0212566 -0.142343 0.210957 -0.0715878 -0.0416263 -0.0501699 -0.000319224 0.231123 -0.324346 -0.147426 -0.082975 -0.173538 -0.00858333 -0.0551173 -0.026728 0.109401 -0.236034 -0.0649517 0.190663 0.177292 -0.463255 -0.00686628 0.0403962 0.375819 0.0371406 0.470078 -0.0549703 -0.388135 0.0739089 -0.130864 -0.0940993 0.165485 0.0315733 0.073253 -0.0991692 -0.2184 -0.113361 -0.00420869 0.222792 -0.169477 0.165125 -0.141607 0.0145194 -0.0679805 -0.0199843 0.0959706 -0.142883 -0.0665612 -0.00173161 -0.11176 0.293775 -0.0672726 0.17773 -0.12456 -0.162183 -0.191585 0.084571 -0.160008 0.0964792 -0.240297 0.167454 0.234827 0.0130685 -0.141675 -0.195222 -0.165333 0.139595 -0.141494 0.184205 0.0926504 0.129463 0.230462 0.0119361 0.0266494 0.183208 0.081987 0.115201 -0.101783 0.00364191 0.178013 0.0889721 0.000166277 0.135752 0.0181958 -0.247065 0.0525337 -0.0201265 -0.338812 0.101287 0.0283592 -0.126658 0.111835 -0.230155 0.161202 -0.232323 -0.156492 -0.273945 -0.177255 0.0775275 -0.182613 -0.134521 -0.188473 0.113872 0.160173 -0.0250195 -0.0266481 0.199949 0.0890079 0.188165 0.188422 0.12179 0.120231 -0.369546 -0.0455654 0.045354 -0.0125774 -0.108198 -0.346026 0.211944 -0.229615 0.207805 0.124238 0.298747 0.162832 -0.143995 -0.027263 -0.022307 -0.231858 -0.28196 0.0475542 0.00937997 -0.248221 -0.210742 0.0691645 -0.372414 0.28326 0.0848827 0.20573 0.0599222 0.119319 0.163127 0.0227869 -0.1858 -0.0938308 0.075237 0.0703244 
w1dim -0.0334766 -0.0344642 -0.11178 0.0392751 0.02814 0.0592194 -0.0817403 0.189645 -0.0998543 -0.0305257 -0.0629951 0.124454 -0.0958305 0.024929 -0.00870585 -0.033478 0.0162786 -0.00494235 0.0495299 -0.0772483 0.0233445 0.118074 0.0318923 -0.0197177 0.0477932 -0.0274492 0.0791815 -0.0323391 -0.130573 -0.073755 0.124268 0.142008 -0.00321954 -0.0248687 0.0919817 -0.18376 -0.0893535 0.0894761 -0.0194743 -0.0539921 -0.0076491 -0.201163 -0.012935 -0.00862384 0.0380431 0.0540438 -0.0441481 -0.0475195 0.0738342 0.0466897 -0.0113789 -0.0453162 0.0768031 -0.0295129 -0.07584 -0.155546 0.139559 -0.0440442 0.0602136 -0.00386186 0.022983 0.115065 -0.103954 -0.0761043 -0.0455719 -0.0898598 -0.152289 -0.0433548 -0.00894803 -0.00708217 -0.113159 0.02192 0.129214 0.120663 -0.162915 -0.0782324 -0.00372104 0.14015 -0.0817432 0.0692092 0.0469463 -0.0874954 -0.0061227 -0.0597245 -0.0390991 0.0973893 0.0419289 0.0746701 -0.144863 -0.0161517 0.0112625 -0.0289074 0.0608897 -0.0797216 -0.0108347 0.0154604 0.0762575 -0.0713325 -0.0218878 -0.0632209 -0.0703733 -0.08124 -0.0463194 0.0266336 0.144927 0.011342 0.0373644 -0.115306 -0.0827525 -0.0457496 -0.113339 -0.112705 0.0462641 -0.0466363 0.148426 0.0395771 -0.0503823 -0.0254805 -0.0488855 0.0211977 -0.104319 -0.116034 0.011521 0.0562978 -0.0843328 0.0427404 0.00255496 0.0397254 0.126187 0.0696877 -0.042013 -0.1163 0.0250537 0.0330324 0.0262921 0.04796 0.031972 0.0792254 -0.0681572 0.0793958 -0.0221056 -0.0630068 -0.00403324 -0.0183006 0.0445391 -0.0159468 -0.0217768 0.0327674 -0.107967 -0.0751318 -0.136114 -0.076155 -0.00541634 0.0729559 -0.0470951 -0.0647362 -0.0721196 0.0569036 -0.028297 0.00673589 0.0331667 0.0985077 0.0476609 0.0535623 -0.00456998 -0.0110719 -0.0653121 -0.0762741 0.047863 -0.0333226 -0.0378599 -0.0919376 0.0126382 -0.120898 0.0917689 0.0845267 0.0846883 0.104337 -0.139447 0.119092 0.0556898 -0.0596117 -0.167716 0.047655 -0.0581754 -0.0474701 -0.0567507 0.1023 -0.0440264 0.0349521 0.0267607 0.0240154 0.0349512 -0.0136122 -0.0218454 -0.0314224 -0.0652179 -0.0155494 -0.0815923 0.0993396 
v -0.0658194 -0.205838 -0.059731 -0.00825663 0.122242 -0.0643212 -0.177365 0.342949 -0.203735 -0.0950446 -0.0145338 0.159314 -0.141638 -0.0237713 0.00459991 -0.000369749 0.0389897 0.0881585 -0.0656112 0.0543851 0.0779198 0.155123 0.129243 -0.109599 0.135554 0.0389583 0.117112 0.085312 -0.106523 -0.16451 0.445542 0.271389 0.190561 0.0643006 0.102258 -0.348821 -0.127875 0.0802161 -0.217042 -0.00218555 0.00629725 -0.143495 0.0471589 -0.180284 0.164587 0.0644185 -0.0509593 -0.0468102 0.11701 0.112155 -0.0210848 -0.126548 0.186955 -0.135215 0.0414899 -0.249284 0.253358 -0.274479 0.199249 0.0252879 -0.0463673 0.173136 -0.236614 -0.054691 -0.0887793 -0.0136076 -0.298186 -0.0686489 -0.0121234 -0.150617 -0.198998 0.00965386 0.403025 0.279899 -0.332877 -0.215165 0.0656151 0.167821 -0.108622 0.231713 0.0843368 -0.148472 0.0124675 -0.0873573 -0.082222 0.0837304 0.217308 0.154007 -0.222673 -0.0522511 0.035104 0.0203695 0.184987 -0.0780406 -0.0456862 0.0103547 0.166745 -0.131463 -0.0484918 -0.0895922 0.0155774 -0.0538947 -0.00836529 0.0986156 0.055676 -0.00338723 0.0447692 -0.234575 -0.186683 -0.0670661 -0.285117 -0.237102 0.0518555 -0.15043 0.279064 0.225618 0.0524307 0.0236515 -0.168457 0.0650842 -0.130202 -0.0864961 0.14331 0.174651 -0.029523 0.0386429 0.0380066 0.0536455 0.132488 0.104534 0.0268633 -0.110227 0.138465 -0.111633 0.0720291 0.1871 0.0285325 0.144359 -0.129373 0.13906 -0.140304 -0.0950938 0.0750107 0.022174 0.0577683 0.12589 0.0107053 0.0751747 -0.0462769 -0.0548909 -0.421629 -0.241763 -0.119473 0.159034 0.00153919 -0.153519 -0.130683 0.228534 -0.105433 0.0320932 0.110802 0.070777 0.0834625 0.180438 -0.0743098 0.104191 -0.15345 -0.149596 0.0219461 -0.0308103 -0.0587678 -0.2862 0.0251464 -0.155108 0.176632 0.159978 0.0446907 0.121595 -0.110909 0.118051 0.20727 -0.0956187 -0.231203 0.186053 -0.101887 -0.0753053 -0.190705 0.0536493 -0.147587 0.165013 -0.00640607 0.155443 0.0563148 -0.116386 -0.219799 -0.210669 -0.00604729 -0.0900811 -0.0449384 0.210536 
V 0.0750862 -0.0893384 -0.0739232 -0.0475065 0.0430945 0.158218 0.104061 0.0897889 0.0146357 -0.090433 -0.208665 0.0141006 -0.0381868 0.0806885 -0.0715858 -0.0221094 -0.0677362 -0.139516 -0.116424 -0.146833 0.16874 0.047876 -0.0798802 0.189646 0.0182832 0.0225904 0.177553 -0.209635 -0.122962 -0.0785 0.0942532 0.0520315 0.167154 -0.24338 0.00676529 -0.0838035 -0.129535 0.120453 0.0473329 -0.198324 -0.00519654 -0.160606 -0.0322841 -0.0762997 -0.0636723 0.0777806 -0.128073 0.0170981 0.0516168 0.011871 0.0330732 -0.108777 0.0763443 -0.178285 0.0520711 -0.220085 0.0358055 -0.260273 0.0385735 0.0612464 0.0376224 0.105382 -0.0852026 -0.0802386 -0.0294754 -0.114339 0.044739 -0.0881588 -0.042723 0.022955 0.029373 0.0515767 0.0402572 0.0433976 -0.146607 -0.139367 -0.109671 0.196694 -0.116757 0.122888 -0.0377076 0.021649 0.108143 0.169311 -0.0576746 0.148388 -0.103004 0.0904797 -0.125875 -0.113629 0.309471 0.113258 0.200898 -0.182719 0.0618902 0.0751162 -0.106894 -0.163364 0.0713127 0.0311727 -0.0506653 -0.0198752 0.0861781 -0.233093 0.195217 -0.0650531 0.18741 -0.175571 0.038668 -0.163935 -0.0362457 -0.0381472 -0.0408781 -0.048144 0.248516 0.110542 0.0136734 0.128502 0.0809088 -0.0440124 0.0561165 -0.0337156 0.0190546 0.059478 -0.245679 -0.0779263 -0.110276 -0.14129 0.222892 0.10605 0.136954 -0.124837 0.101132 0.15449 0.00604285 0.0247969 0.06809 0.057801 0.010643 0.237412 0.0704128 -0.123132 -0.0839237 -0.100367 -0.112962 0.122175 -0.261915 0.167342 -0.242317 -0.00843146 -0.0733432 -0.0247041 -0.00417059 -0.0013622 -0.0909697 0.00519602 -0.000137729 -0.22099 -0.0363258 -0.12138 0.17024 0.072163 0.0341183 -0.00935594 0.168436 -0.0460481 -0.152713 -0.0795066 0.0632554 0.0851517 -0.0670429 0.0168821 -0.190179 -0.0652738 -0.0522583 0.151441 0.16595 0.267432 0.0179053 0.0236902 -0.015616 -0.105903 -0.0846868 -0.00402026 -0.0786195 0.0741546 -0.00693312 0.0711991 0.0424552 0.0440543 0.211601 0.0925193 0.0472556 -0.0583149 -0.0655803 0.0715233 0.108335 0.155237 -0.239431 -0.0200743 
w8m -0.129351 -0.0387376 -0.106604 0.116497 -0.119519 -0.0146375 0.0278846 0.266494 -0.0915501 -0.0817709 -0.0647055 0.173442 -0.0451827 0.0853168 -0.0428531 -0.10772 0.0546377 0.0430187 0.161139 -0.171579 0.033332 0.11725 0.0182096 -0.000630846 0.189568 -0.0735279 -0.00926451 -0.0362187 -0.449446 0.190383 0.0944164 0.33495 -0.0449542 0.0135733 0.0692135 -0.364238 -0.0192825 0.2541 0.153849 -0.0532496 0.0162037 -0.293497 0.0483114 0.0683378 0.0218303 -0.0314512 -0.206571 -0.141524 0.292271 0.0851241 0.0495959 -0.0663157 0.137941 -0.0204865 -0.238139 -0.2559 0.231582 0.0557337 0.145801 -0.0774278 0.0183768 0.12527 -0.0640494 -0.088579 -0.0568185 -0.138253 -0.521838 -0.00582099 0.0831072 -0.129002 -0.186912 0.12308 0.110908 0.294931 -0.0759912 -0.230819 -0.0735508 0.196071 -0.176106 -0.18388 0.137215 0.152171 -0.174844 -0.0878663 -0.0627304 0.100085 0.0658596 0.0248916 -0.26759 0.0839426 0.148993 -0.0696205 0.0523702 -0.0216299 -0.128735 0.123727 0.165691 -0.197426 -0.113014 -0.310473 -0.0303044 -0.144282 -0.171454 0.208663 0.264104 0.146754 -0.0607561 -0.167131 -0.287093 0.0578276 -0.350899 -0.181967 0.070547 -0.00183177 0.224045 -0.110147 -0.198917 0.0433587 -0.0458471 0.149557 -0.420578 -0.153557 -0.151948 0.0669892 -0.371122 -0.0305198 0.0456334 0.121602 0.145943 0.207089 -0.163391 -0.326991 0.0891942 -0.0756139 0.14124 0.147871 -0.0884651 0.32676 0.0520373 0.0130539 0.0185639 0.140028 -0.0494473 0.0386234 0.222668 -0.131866 0.212079 0.0722284 -0.151882 -0.18567 -0.141234 -0.0940466 -0.0343161 0.411868 -0.0029527 -0.0904893 -0.315982 0.073706 0.0457173 0.0828984 0.000934674 0.24269 -0.00793789 0.0540501 -0.256031 -0.00158686 0.0312454 -0.124058 0.113492 0.0469292 -0.0154669 -0.0226905 -0.00335531 -0.0273854 0.0767352 0.0436584 0.0163897 0.186653 -0.306826 0.308656 0.0865026 -0.0664455 -0.207075 0.153306 -0.096689 0.0194719 -0.0138277 0.332856 0.105283 -0.0240452 -0.011012 -0.0421036 -0.000115105 -0.12768 -0.0273301 0.0193157 -0.0162592 0.0663494 -0.298711 0.197434 
w3m -0.132107 -0.0671151 -0.0225105 0.116701 0.00655964 0.0386724 -0.131316 0.533541 -0.154484 -0.128743 -0.0385143 0.205513 0.0402052 0.0654567 -0.106811 -0.028241 -0.0576504 0.0673983 0.0134115 -0.00359562 0.133405 0.160518 0.00898988 0.00644151 0.0321218 -0.130491 -0.0801297 0.0905083 -0.403469 0.104732 0.300037 0.322551 0.133281 0.0375315 0.0769733 -0.307927 -0.129721 0.229474 -0.0208019 -0.057836 0.102896 -0.285133 -0.000767522 -0.0675027 0.0485929 -0.1234 -0.124486 -0.0510121 0.130232 0.101125 0.0402485 -0.0883619 0.232671 -0.0165897 -0.081248 -0.206699 0.303562 0.0111324 0.153727 -0.0292176 -0.110001 0.191962 -0.139997 -0.03493 -0.108974 -0.0725195 -0.380672 -0.0289165 0.0678348 -0.240264 -0.233296 0.0689475 0.248789 0.325391 -0.185322 -0.152563 -0.0217073 0.312398 -0.0575137 0.0510515 0.0844715 0.0179373 -0.109209 -0.123199 -0.100142 0.0707022 0.136559 0.0476266 -0.0907824 -0.000198986 0.115988 -0.0514727 0.162016 -0.0244117 -0.0590791 0.0457252 0.178269 -0.131301 -0.0580259 -0.321352 0.131733 -0.0307186 -0.0827563 0.279058 0.163526 0.12149 -0.0717094 -0.0918488 -0.330408 -0.0127653 -0.314447 -0.121793 0.110806 -0.0849506 0.176535 0.0971766 -0.107055 0.0365783 -0.0979837 0.0943328 -0.238868 -0.0234022 -0.0131576 0.162911 -0.159584 0.0963849 0.0395439 0.125588 0.0243687 0.179648 -0.0630638 -0.158348 0.0945316 -0.132484 0.128747 0.131865 -0.0398006 0.273578 -0.0705967 0.0513005 0.00452103 0.0335209 -0.00999064 0.144683 -0.0338955 -0.0126732 0.176776 0.0376363 -0.0533899 -0.188072 -0.19246 -0.202976 -0.0625321 0.282996 0.00875563 -0.155916 -0.212296 0.210675 0.0314013 0.0649327 0.135257 0.0922188 -0.0377629 0.143059 -0.250182 0.0745103 -0.214113 -0.0287146 0.151076 0.0622705 -0.0447354 -0.159992 0.137498 0.019455 0.12227 0.11526 0.127538 0.29795 -0.159546 0.115309 0.11369 -0.130266 -0.18739 0.261188 0.0103246 -0.113165 -0.101766 0.248194 -0.118477 0.126523 -0.0305137 0.0798968 -0.0265197 -0.206769 -0.125386 -0.0206891 0.0186171 -0.0320175 -0.180941 0.157553 
VIdim -0.020615 -0.0218784 -0.0496785 0.017843 0.0107323 0.0218647 -0.0249945 0.0922718 -0.0479955 -0.0174537 -0.0317775 0.0626879 -0.0403645 0.014001 -0.00651504 -0.0137378 0.00983232 -0.00189752 0.0189323 -0.0356843 0.023816 0.0511723 0.0149902 -0.00437858 0.0309456 -0.0134169 0.0348717 -0.0174078 -0.0788759 -0.0241667 0.062683 0.0732984 0.00713265 -0.0123377 0.0365906 -0.0900925 -0.039231 0.0449831 -0.00173479 -0.0297556 -0.00441759 -0.0922265 -0.00427164 -0.00805082 0.0126471 0.0238786 -0.0271934 -0.019355 0.0422034 0.0236896 0.000221079 -0.0270149 0.0458922 -0.0185426 -0.0331726 -0.0778676 0.0690638 -0.0267458 0.0339838 -0.00514015 0.00453599 0.0552542 -0.0493947 -0.0327779 -0.0214605 -0.0420564 -0.0826913 -0.0215424 -0.0045669 -0.0100088 -0.0574059 0.016582 0.0652214 0.0672322 -0.0720905 -0.0435159 -0.00341946 0.0697264 -0.0401246 0.0249644 0.0217179 -0.0236678 -0.00920469 -0.0291785 -0.0231948 0.0486629 0.0164885 0.032716 -0.0681152 -0.00922281 0.0190543 -0.0105089 0.0411637 -0.0342593 -0.0116331 0.0117104 0.0343609 -0.0441037 -0.0113079 -0.0340527 -0.0245565 -0.03685 -0.0243623 0.0173496 0.0674815 0.00801232 0.0148298 -0.0557173 -0.0515849 -0.0214169 -0.0668391 -0.0506966 0.0187513 -0.0244261 0.0753832 0.0185606 -0.0244122 -0.00450369 -0.0240873 0.00657103 -0.0562516 -0.0519468 0.00713214 0.0386328 -0.0549235 0.0137424 -0.00323936 0.0204994 0.0593717 0.0424589 -0.017717 -0.0602071 0.0185008 0.0086946 0.0158822 0.0288656 0.00310091 0.0485224 -0.0216533 0.0375961 -0.00801767 -0.024957 -0.0013291 -0.00650568 0.020861 -0.00527472 -0.00551144 0.0211202 -0.0493602 -0.0379837 -0.0701222 -0.0385385 -0.00523561 0.0441006 -0.0216888 -0.030075 -0.0415602 0.0261193 -0.0061846 0.00627603 0.0193384 0.049664 0.0162105 0.0291163 -0.0118223 -0.00452204 -0.0330697 -0.0352593 0.0280624 -0.00500949 -0.015659 -0.0403864 0.00507797 -0.0504396 0.0395687 0.0416941 0.0406019 0.0518843 -0.065804 0.054313 0.029487 -0.0301516 -0.0755112 0.0309983 -0.0286155 -0.0190009 -0.0215961 0.0540617 -0.0119585 0.0182271 0.0204618 0.0164246 0.00866847 -0.0152268 -0.0146896 -0.0142827 -0.0195366 0.000225771 -0.0485 0.047373 
ii 0.118179 -0.00721059 -0.115659 0.046382 0.162743 0.189279 -0.0846287 0.272252 -0.0105397 -0.140596 -0.167302 0.118791 -0.0792128 -0.0627787 0.0548046 0.0246919 0.083091 -0.104503 -0.0136158 0.00826081 0.194047 0.220032 -0.000904865 0.010777 -0.00797808 -0.0877269 0.165089 -0.0960103 -0.177528 -0.147085 0.193817 0.0500577 0.0608612 -0.127151 0.0533453 -0.13665 -0.0311183 0.068637 -0.0770975 -0.183255 0.0710138 -0.197233 -0.0479301 -0.0144037 0.00250392 0.099335 -0.0479838 -0.0213202 0.0695171 -0.0261326 -0.110181 -0.0867333 0.122666 -0.0682267 -0.0149968 -0.249478 0.210564 -0.0622301 0.0542681 0.175894 -0.0475935 0.176797 -0.190518 -0.0632265 -0.0041164 -0.137174 0.025963 -0.138132 -0.11724 -0.103741 -0.116801 0.0249815 0.174273 0.00966725 -0.164655 0.00756379 -0.031231 0.192431 -0.108144 0.157121 0.105423 -0.0578474 0.112924 -0.0767159 -0.0399092 0.156858 0.0482896 0.0817857 -0.0461629 -0.0448164 -0.0118528 0.0108527 0.120745 -0.115482 -0.0341356 -0.0382049 0.00932774 -0.00941793 0.0882427 -0.0580087 0.053518 0.00434378 0.0162724 0.0503936 0.0569322 -0.0820075 0.0540042 -0.037011 0.0444038 -0.142171 -0.232559 -0.0305688 0.0813747 -0.0294107 0.190682 0.201444 0.0241485 -0.0729211 -0.0359128 -0.00375059 -0.0196602 -0.0488046 0.0660684 0.168773 -0.127568 0.102092 -0.107303 0.0462535 0.169772 0.027319 -0.0124226 0.0073637 -0.0654493 0.038837 -0.119911 -0.0167565 0.0370026 -0.0428034 -0.169295 0.152556 0.0250935 -0.164563 -0.0480958 -0.0143239 -0.0945465 0.0726219 -0.180435 -0.000873508 -0.0627756 -0.0925367 -0.101309 -0.0377021 -0.0265945 0.0049106 -0.0164494 -0.0632337 0.0833892 0.0527479 0.032886 0.0536214 0.0945924 -0.0315662 0.0378415 0.0306371 0.136902 -0.0748108 -0.165414 -0.0319789 0.179095 -0.136775 -0.0792831 -0.0481772 0.0656718 -0.127785 0.0286521 0.254753 0.159848 0.171453 -0.0614011 -0.0374328 0.03152 -0.0808068 -0.123499 0.00915626 -0.0910324 -0.110416 0.0419372 0.0749462 -0.0642808 -0.00716301 0.143462 0.0806431 -0.00199563 -0.0326072 -0.12574 -0.0883354 0.0189149 -0.00287608 -0.131764 -0.0423243 
IV -0.0476936 0.0457453 -0.253474 -0.0244076 0.104152 0.0377893 -0.135202 0.421608 -0.127095 -0.0893404 -0.387623 0.168784 0.051307 -0.104023 0.149724 0.104037 0.151702 -0.138873 -0.188993 -0.181424 0.119813 0.0991284 0.0700285 0.196874 0.0871868 0.0215404 0.232947 -0.0757968 -0.139695 -0.207362 -0.169486 0.168037 0.0393089 -0.0992893 0.217367 -0.0201805 -0.0945298 0.0280705 -0.100644 -0.0204494 0.226059 -0.137546 -0.0858786 0.0435131 -0.0149575 0.130562 0.0122969 0.105029 0.0583633 -0.104193 0.0488502 -0.0483022 0.0921805 -0.0813909 0.0938607 -0.219649 0.260858 -0.125774 -0.126734 0.206725 -0.00863758 0.0624337 -0.14546 -0.0554594 -0.010789 -0.207525 0.0160501 -0.0981927 -0.160009 -0.00648028 -0.116488 0.152595 0.0741539 -0.117693 -0.0546158 -0.126944 -0.0727304 0.122401 -0.231243 -0.00592038 0.0758593 0.0514708 -0.00825841 0.0370316 0.00171317 0.0920969 -0.00992819 0.0413785 -0.0553585 -0.187923 0.169219 0.0193661 0.165109 0.0223819 -0.0480974 -0.0489477 -0.232061 -0.0651245 -0.0863389 0.14959 -0.087515 -0.0811737 -0.00824837 -0.0088605 0.15669 -0.19617 0.0377072 -0.172975 -0.0190759 0.0747157 -0.212847 -0.0785174 -0.121973 -0.0572221 0.211615 0.257763 -0.0178051 -0.130655 0.0266616 -0.104587 -0.0979993 -0.240707 -0.132985 0.0442712 -0.232768 0.104114 -0.0554855 -0.161248 0.318579 -0.104563 0.0556741 -0.0813013 -0.200101 0.166978 -0.0527644 -0.0960399 -0.122735 0.210214 -0.136104 0.171652 0.0815562 -0.164683 0.0249036 -0.0515525 0.0104074 -0.00179934 -0.207641 0.136317 -0.274516 -0.0693657 -0.130763 0.144106 0.0601951 -0.004247 -0.180853 0.0502488 0.0821251 -0.0672791 0.205198 -0.131972 -0.0294401 0.16377 0.0679564 0.168856 0.063105 0.0212872 0.0446995 0.112583 0.0829532 -0.0824874 0.0237483 -0.131011 0.0214783 -0.103324 -0.00159589 0.186865 0.146041 0.156361 -0.191383 -0.0846545 -0.0670463 -0.00807623 0.0077342 0.0517368 -0.191994 -0.0433431 0.109145 0.155834 -0.090331 0.0542865 0.089717 0.0941042 -0.0185157 -0.038459 0.0361789 0.02998 -0.155543 0.0823867 -0.233796 -0.16409 
w0 0.0861767 0.048673 -0.101732 -0.068884 0.211821 0.162913 -0.206261 0.201564 -0.0413858 -0.0558492 -0.0865198 0.0216037 -0.110306 0.146604 0.0504768 0.0122911 -0.0241886 -0.136282 -0.101116 -0.126876 0.0372888 0.199851 -0.0615447 0.0241612 0.00732232 -0.0335472 0.16544 -0.11232 0.0328699 -0.248236 0.190436 0.069549 0.109791 -0.102932 0.10978 -0.15554 -0.191022 0.158278 -0.188926 -0.036692 0.206585 -0.193467 -0.053694 0.130464 0.062249 0.083441 -0.00146139 -0.0630559 0.0974089 0.0650387 -0.0516922 -0.0859348 -0.0511768 -0.116104 -0.117388 -0.165423 0.228089 -0.0973905 0.0784799 0.203599 0.0418129 0.113867 -0.107599 -0.148549 -0.023246 -0.149687 0.0707017 -0.141972 -0.0223991 -0.0309751 -0.0696224 0.00342525 -0.0243609 -0.11206 -0.294242 -0.14729 -0.0611841 0.123004 -0.207715 0.172994 0.104909 -0.255545 0.207853 0.0910892 0.0559601 0.11917 0.155435 0.133695 -0.115521 -0.0810693 0.0373769 -0.0583768 -0.100954 -0.175788 0.0346569 -0.0364306 0.0558545 0.146676 -0.0181116 -0.0609797 -0.053216 -0.0436227 0.0292277 -0.0717656 0.196074 -0.010744 0.0697602 -0.0852053 0.191696 -0.163083 -0.0558796 -0.113121 -0.0147713 -0.0411532 0.178236 0.122618 -0.0270311 -0.0661765 -0.020372 0.192937 -0.041348 -0.11561 -0.0931825 -0.164422 -0.125403 0.155817 0.0273539 -0.0609397 0.180944 -0.119257 -0.0942205 -0.0807069 -0.0655634 0.204601 0.0747318 -0.0808024 0.154654 -0.0330066 -0.139321 0.20817 0.100869 -0.103548 0.0539148 -0.071223 0.00100947 -0.0502007 -0.227425 0.156465 -0.147658 -0.105238 -0.0759952 -0.0101349 -0.0702737 -0.0107959 -0.0606172 -0.0893867 0.00673125 -0.0156674 -0.00253216 0.0627935 0.182678 -0.0845617 0.178234 -0.0431859 0.287814 -0.0723414 -0.072345 -0.121122 0.00768225 -0.117435 -0.133733 -0.160778 -0.0237474 -0.148148 -0.0198488 0.153422 0.216605 0.234135 -0.00243277 0.0676201 -0.0703145 -0.142531 -0.129174 -0.030336 -0.0150095 0.0450411 -0.0421752 0.160638 0.000983338 0.0392275 0.0239839 -0.0525571 0.141297 0.166556 -0.0603443 -0.0508705 -0.0468691 -0.0578626 -0.151186 0.0110396 
vii 0.131717 0.0540999 -0.196078 0.0614536 -0.0948956 0.0351477 0.252094 0.261728 -0.0189316 -0.084956 -0.425703 0.304686 -0.169561 0.0382314 0.0779368 -0.0476719 0.263042 -0.0572902 0.113466 -0.258376 0.163164 0.139277 -0.0121909 -0.0429372 0.344758 0.163807 0.296206 -0.185013 -0.457923 0.0168947 -0.0344239 0.207942 -0.0833628 -0.174648 0.103112 -0.23456 -0.0447543 0.132739 0.231574 -0.183948 -0.230107 -0.305199 0.180055 0.152385 0.0531027 0.414308 -0.291312 -0.0488457 0.170352 0.00107271 0.0893593 -0.048478 0.14478 -0.187803 -0.0854544 -0.238042 0.179217 -0.165107 0.0478517 -0.102577 0.0957121 0.342625 -0.0129909 -0.116877 0.153231 -0.317881 -0.304518 -0.243748 -0.0201557 0.104751 -0.0713228 0.28977 0.214859 0.198029 0.0770948 -0.124339 -0.0550357 0.0928026 -0.322177 -0.132783 0.0945135 0.089252 -0.0399185 -0.211885 -0.124528 0.350261 -0.217231 0.29386 -0.330936 -0.116633 0.110474 -0.121039 0.242123 -0.140152 -0.0942255 0.160844 0.0584176 -0.154879 0.137081 -0.0177397 -0.255887 -0.249085 -0.2467 0.0563734 0.207091 0.00684745 -0.0362985 -0.25899 -0.161189 -0.0772251 -0.332594 0.00623407 -0.0603103 0.0543586 0.296107 -0.0842407 -0.173037 -0.00453323 0.0475066 -0.140509 -0.24865 -0.399606 -0.0940329 0.155758 -0.420527 -0.101634 -0.22559 0.0164769 0.16959 0.272422 -0.27726 -0.0841538 0.0803741 -0.0161981 -0.156643 0.161706 -0.149788 0.172923 0.0159606 0.214488 -0.00874313 -0.063193 -0.0859811 -0.225709 0.163051 -0.192581 0.10452 -0.0229498 -0.18942 0.0244043 -0.0841425 0.0507329 -0.0545561 0.104522 -0.227462 0.0788491 -0.187417 -0.0746479 0.0351668 -0.0453782 -0.0853562 0.29488 0.0195304 0.0365702 -0.0631046 -0.213858 0.0547246 -0.000854092 0.331418 -0.0978265 -0.0103766 0.172715 -0.193112 -0.302582 0.0315547 0.156132 0.0396193 0.141686 -0.333568 0.23868 0.219862 -0.000722443 -0.199391 0.11036 -0.190787 -0.0184658 0.213631 0.231377 0.250083 -0.236384 0.334079 0.0387631 -0.1413 -0.11194 -0.133838 0.00287342 -0.124859 0.108272 -0.296844 0.153045 
III7 0.0509914 0.0652049 -0.397922 0.0139695 0.0850138 0.252929 0.0197567 -0.0853866 -0.169349 0.171171 0.105491 0.27808 -0.405076 0.0402591 -0.0422301 -0.0220236 0.0774212 0.0324847 0.247969 -0.220303 0.046331 0.165889 -0.0496544 -0.152009 -0.0548163 -0.190337 0.198092 -0.348033 0.0389564 -0.116732 0.00996803 -0.0109336 -0.294816 -0.365308 0.101369 -0.201187 -0.117927 -0.000836547 -0.0420271 -0.235373 -0.198183 -0.351873 -0.297558 0.105168 0.0708271 0.217713 -0.0377256 -0.307921 0.0826754 0.0808823 -0.0700426 -0.0346201 0.0947132 0.136558 -0.319732 -0.150266 0.174567 0.159477 0.00266438 -0.0267534 0.168171 -0.0411833 -0.179924 -0.163014 0.05549 -0.289753 0.0446694 -0.012029 0.0107896 0.37229 -0.0847456 0.0949585 0.0419259 0.152092 -0.246401 0.0495409 0.0636459 0.0973885 -0.0644781 0.216059 -0.0146953 -0.366306 0.0493497 -0.144147 -0.0168268 0.377528 -0.213454 0.222347 -0.381209 0.00672362 -0.295978 0.0808392 0.0511531 -0.182736 0.0205524 0.0107281 0.0339059 -0.162379 -0.030558 0.170441 -0.190351 -0.30444 -0.0980628 -0.32756 0.323657 0.0270123 0.199961 -0.215196 0.0118945 -0.155584 0.132923 -0.244038 0.197 0.00770108 0.149088 -0.208775 -0.103502 -0.0996247 -0.122752 -0.152018 -0.057122 -0.220875 0.0298516 0.199253 -0.0478833 0.0192094 -0.183217 0.209549 0.306953 0.210185 -0.0885176 -0.0819589 0.00442017 0.355826 -0.157153 -0.0589423 0.110962 -0.183919 -0.0719831 -0.0597186 -0.0702995 -0.199531 -0.0353247 -0.142683 -0.0499609 -0.0683539 -0.377657 0.0172903 -0.176826 -0.218732 -0.109428 0.0726751 0.161801 0.0238888 -0.0316258 -0.056631 0.0336943 -0.0288338 -0.228027 0.0973957 -0.0594787 0.150221 0.0710277 -0.0862623 0.291676 -0.164026 -0.285082 -0.134997 0.0449843 -0.243326 -0.242889 -0.001212 -0.0668602 -0.287491 0.23349 0.0868284 0.290861 0.0559391 -0.0912477 0.243686 -0.0513908 -0.357832 -0.477282 -0.254295 -0.172377 -0.20476 0.114441 0.069235 -0.00309365 0.101323 0.173259 -0.104213 0.0208201 0.208687 0.279656 0.111039 -0.166356 0.0928699 -0.0695166 0.0662272 
II 0.0803414 -0.0657643 -0.105962 0.0115328 -0.0551039 0.0248967 0.0982767 0.104862 -0.00192439 -0.0574603 -0.370945 0.0675809 -0.165809 0.0346146 0.0799798 -0.107233 0.162153 -0.126603 0.0591613 -0.25484 -0.0134821 0.130506 0.084225 0.0161916 0.266975 0.164655 0.283977 -0.108689 -0.211039 -0.118128 0.0138913 0.167844 -0.0192926 -0.0217638 0.107305 -0.261382 -0.0516413 0.140843 0.159651 -0.110641 -0.148144 -0.229111 0.221075 0.0721962 0.056777 0.296273 -0.162458 0.00953554 0.128634 0.000821145 -0.00681257 -0.00841191 -0.0145248 -0.2345 -0.0363987 -0.2722 0.063775 -0.24986 0.0552308 -0.0326746 0.160746 0.256659 -0.00887878 -0.108762 -0.0116559 -0.112205 -0.23578 -0.162741 -0.0795916 0.0553332 -0.0332856 0.0947421 0.197934 0.0448365 -0.0561103 -0.155856 -0.0554876 0.0632959 -0.279324 -0.0978593 0.0887417 0.0137548 0.0311709 -0.00776472 -0.054456 0.151149 -0.0412659 0.198572 -0.294662 -0.0312699 0.19658 -0.125683 0.0534087 -0.189942 -0.0523384 0.1213 0.0536377 -0.113872 0.0902209 -0.0429512 -0.311547 -0.136281 -0.0834428 -0.00579997 0.186625 -0.0359515 0.0382427 -0.243276 0.0363782 -0.039792 -0.209226 -0.0748895 -0.0920551 0.00291454 0.280342 0.0110076 -0.0881659 0.0221568 0.118043 0.0354603 -0.183869 -0.335452 -0.0284662 0.00243839 -0.282688 -0.093696 -0.0598925 -0.111564 0.240053 0.065316 -0.140789 -0.185375 0.0487282 0.0200818 -0.0346234 0.109835 0.0165141 0.135143 0.0049327 0.316722 -0.0480434 -0.0568239 -0.0641019 -0.21883 0.210114 -0.0812449 0.0399392 0.00262988 -0.20597 0.121795 -0.142834 -0.0260611 -0.074526 0.0355139 -0.197705 0.0394707 -0.166768 -0.123428 -0.0457422 -0.126536 -0.0707913 0.246021 0.0858995 0.010112 0.0449722 -0.163526 0.217519 -0.123186 0.0719923 -0.0149655 0.0607191 0.0431033 -0.246612 -0.289229 0.0297814 0.11663 -0.0157562 0.0649412 -0.306389 0.264812 0.179966 0.144939 -0.139389 0.0493017 -0.144025 0.101355 -0.0141173 0.0941677 0.176811 -0.223642 0.138438 -0.00479397 0.0697558 -0.0479198 -0.178385 -0.0822894 -0.101722 0.0518961 -0.190757 0.171073 
w17 -0.109081 -0.0897373 -0.204122 0.0916932 0.0177108 0.0772696 -0.186938 0.337729 -0.238015 -0.0110694 -0.0601106 0.240787 -0.198206 -0.0132277 -0.0243026 -0.0830042 0.0311407 0.0466074 0.127529 -0.129963 -0.00663737 0.189753 0.119267 -0.0728163 0.062149 -0.0913965 0.100079 -0.0284994 -0.20652 -0.122924 0.20055 0.275365 -0.0466463 0.00841796 0.163584 -0.340604 -0.13054 0.137839 -0.0472823 -0.0683466 -0.050395 -0.364777 -0.0305191 -0.0387677 0.106737 0.0596526 -0.0378942 -0.0961287 0.097 0.0627437 -0.0347134 -0.0494559 0.152574 0.0154302 -0.141703 -0.238847 0.226168 -0.021002 0.103776 -0.0728886 0.0568923 0.177306 -0.188413 -0.120675 -0.107249 -0.104966 -0.327121 -0.0292328 -0.0078774 -0.0115586 -0.223924 0.0141405 0.275239 0.261237 -0.293514 -0.120004 0.0402261 0.24261 -0.073506 0.13301 0.0713665 -0.180194 -0.0719392 -0.17949 -0.0632291 0.137656 0.0818727 0.12169 -0.250047 0.0139662 -0.0463954 -0.0509598 0.0903772 -0.115749 -0.0124288 0.0150088 0.163054 -0.163353 -0.0673696 -0.103453 -0.115837 -0.164697 -0.0902848 0.0767669 0.228883 0.0347292 0.0655223 -0.184605 -0.216673 -0.0255403 -0.200509 -0.247125 0.122646 -0.112514 0.219008 0.0354081 -0.0732212 -0.0602414 -0.102531 0.0321925 -0.193361 -0.188096 0.0498428 0.122684 -0.0496846 0.0840335 0.0357012 0.0980708 0.200748 0.166303 -0.0496287 -0.187134 0.0514234 0.0132706 0.0599802 0.11176 0.0461074 0.141648 -0.145183 0.092637 -0.0878698 -0.108905 -0.00876526 -0.00129009 0.109079 -0.0324389 0.0173552 -0.00183225 -0.149856 -0.134866 -0.269261 -0.185992 0.00254811 0.140323 -0.080916 -0.149637 -0.157889 0.166812 -0.090239 -0.014509 0.0206497 0.208528 0.0621567 0.138351 -0.0768424 0.0144974 -0.118602 -0.1216 0.0334866 -0.0689553 -0.0324991 -0.195584 0.0653462 -0.220511 0.249729 0.103378 0.110437 0.130878 -0.286141 0.219213 0.108795 -0.0849049 -0.349956 0.121563 -0.0963169 -0.12707 -0.15913 0.125183 -0.134053 0.0946569 -0.0262144 0.0512431 0.0687376 -0.064388 0.00295447 -0.080309 -0.180182 -0.0658185 -0.0804508 0.209538 
II7 0.112502 -0.0466943 -0.262604 0.0511845 0.110883 0.293624 -0.21438 0.228105 -0.181526 0.0341597 -0.251813 0.173733 -0.343956 -0.10308 0.0740166 -0.115856 0.0734775 -0.107489 0.0859165 -0.251113 -0.0114997 0.219962 0.144247 -0.0313431 -0.0175237 -0.0855383 0.296395 -0.21519 0.0280463 -0.415698 0.0797237 0.0750476 -0.107535 -0.10729 0.153561 -0.196393 -0.135086 0.0680009 -0.0708361 -0.195604 -0.146421 -0.42429 -0.044914 0.0282064 0.105529 0.241376 0.0663561 -0.0432397 -0.104873 -0.0786605 -0.129654 0.0158363 0.0267643 -0.0339037 -0.0628225 -0.237424 0.095794 -0.087651 0.0176924 -0.00967799 0.217526 0.273256 -0.158982 -0.166512 -0.0565694 -0.147061 0.0299481 -0.158604 -0.149157 0.153181 -0.0905137 -0.00909277 0.27866 -0.00777125 -0.321588 0.0228346 0.0331542 0.214022 -0.0829993 0.269639 0.0213545 -0.384299 0.085226 -0.196124 -0.0132718 0.200354 -0.0516657 0.229217 -0.192455 -0.0342929 -0.130409 -0.0699838 0.0173372 -0.282498 0.11368 0.00894927 0.0661787 -0.0648225 0.104833 0.110172 -0.271975 -0.146198 -0.00439532 -0.166648 0.181974 -0.10014 0.225029 -0.135379 0.115164 -0.138524 -0.0339435 -0.161069 0.0962133 -0.107023 0.183085 0.0786439 0.028661 -0.139293 0.0708252 -0.0548183 0.0510051 -0.257777 0.143381 0.0679597 0.0920133 0.154528 -0.0700171 -0.0676604 0.276281 0.0654051 0.00945002 -0.00129352 -0.04895 0.183893 -0.105478 -0.00623594 0.177303 -0.141346 -0.28179 0.317804 -0.0723154 -0.343801 -0.0909231 -0.185331 0.025766 -0.036216 -0.246739 -0.1291 -0.177007 0.0121024 -0.151545 -0.135968 0.0176705 -0.217926 -0.23797 -0.110997 0.0543472 0.012065 -0.138703 -0.18387 0.00557548 0.175893 0.109294 0.0391742 0.266987 -0.143425 -0.127692 -0.0988569 0.0259725 -0.223395 -0.00496626 -0.119822 -0.0236991 -0.424127 0.240221 0.195893 0.203424 0.101894 -0.245242 0.117743 0.0467072 0.0292013 -0.393645 -0.00710987 -0.108359 -0.124106 -0.160707 -0.106739 -0.11445 -0.0134714 0.0768161 0.0426471 0.149418 0.00915486 0.00440613 -0.139288 -0.325172 -0.0936739 0.00639105 0.0989292 
III 0.0283087 0.108478 -0.266908 -0.0291589 -0.0589141 0.0274655 0.25586 -0.210836 -0.0138302 -0.00664276 0.0215087 0.0942033 -0.172125 0.128836 0.0480707 -0.0345848 0.194697 -0.0279271 0.117342 -0.253262 0.0759823 0.0668006 -0.140053 0.0198063 0.214562 0.00871026 0.155695 -0.261533 -0.200254 0.109179 -0.107857 0.122916 -0.156753 -0.283264 0.0705718 -0.209146 0.010749 0.0712514 0.0722744 -0.122738 -0.00463128 -0.103595 -0.141567 0.176654 -0.113709 0.130846 -0.20422 -0.26113 0.455916 0.102757 0.0652397 -0.117593 -0.0208139 0.00997524 -0.300977 -0.253923 0.206103 0.0384396 0.0747685 0.12093 0.123733 -0.136917 -0.102397 -0.130918 0.160307 -0.372794 -0.149362 -0.0242099 0.0483082 0.17845 -0.070388 0.208981 -0.182553 0.0803335 -0.0326411 -0.249277 -0.162539 -0.0175501 -0.331143 -0.15249 0.093052 0.125349 0.0317514 0.119705 0.0220917 0.271987 -0.075518 0.0265985 -0.409161 0.00566722 0.0772742 0.0954293 0.0494146 0.0200248 -0.174445 0.125762 -0.0804166 -0.171294 -0.185516 -0.0137993 -0.121475 -0.251717 -0.115496 -0.19402 0.360281 0.0814677 0.0783981 -0.265298 0.000722727 -0.0238619 -0.0992379 -0.204956 -0.0155515 0.100736 0.289861 -0.187314 -0.149318 0.0607028 -0.0958403 0.0291671 -0.372956 -0.242592 -0.195672 0.059183 -0.571071 -0.108472 -0.0930677 0.115421 0.36019 0.0918188 -0.114886 -0.335587 0.00751292 0.207049 0.0873016 0.00352076 -0.0907949 0.144532 0.197513 -0.109156 0.0948827 0.106335 0.0117714 -0.115108 0.231961 -0.111083 -0.216672 0.301667 -0.251224 -0.27489 -0.0878025 0.218939 0.0713023 0.389088 0.0415362 0.00811026 -0.115233 -0.15262 0.0726583 0.226397 -0.0540968 0.1684 0.0981334 -0.175097 0.15138 -0.07627 0.0554042 -0.222581 0.0741454 -0.0492647 -0.172716 0.0528435 -0.16483 -0.0254258 -0.111783 0.057347 0.115154 0.0616817 -0.0764694 0.275115 -0.139621 -0.271994 -0.192477 -0.206503 -0.225928 0.110667 0.230947 0.351143 0.346623 0.0183472 0.212812 -0.152131 -0.010764 0.187422 0.224822 0.142315 0.103626 0.271246 -0.398725 0.0300164 
Idim -0.0882561 -0.0691645 -0.173879 0.0439908 0.0548359 0.0715797 -0.162291 0.268451 -0.177405 -0.0203008 -0.0418564 0.162563 -0.137043 -0.0119629 -0.00822801 -0.0308935 0.0156259 0.0126541 0.0482721 -0.106728 0.0170305 0.152174 0.0749683 -0.0161271 0.0270253 -0.104763 0.0822732 -0.0419965 -0.128601 -0.104425 0.152221 0.207316 -0.00742404 -0.0306282 0.129416 -0.257121 -0.10662 0.104379 -0.0887851 -0.0574809 0.0329888 -0.24947 -0.0763499 -0.03137 0.0763621 0.0121474 -0.0233005 -0.0851471 0.0966817 0.0480797 -0.0359244 -0.0526965 0.124138 0.00185453 -0.113241 -0.211891 0.208523 -0.0256607 0.0766867 0.0242955 0.0211194 0.0761565 -0.174167 -0.0976541 -0.0945858 -0.0996932 -0.199883 -0.0137364 -0.0233695 -0.0222746 -0.172478 0.0106493 0.17606 0.160245 -0.249726 -0.112624 0.0155408 0.18537 -0.0780155 0.109465 0.065111 -0.124196 -0.0295058 -0.0726449 -0.0314351 0.106075 0.0903253 0.0693753 -0.188422 0.00364407 -0.00722064 0.00535656 0.065697 -0.0744845 -0.0277169 -0.00317958 0.0836372 -0.117676 -0.0891004 -0.0633422 -0.0482969 -0.122376 -0.0356472 0.0241536 0.188926 0.00463987 0.0629716 -0.155281 -0.127593 -0.0221093 -0.156938 -0.214099 0.0889094 -0.0799078 0.195547 0.0698847 -0.0454933 -0.0473314 -0.090209 0.0449399 -0.152786 -0.124922 0.016641 0.0899992 -0.0769381 0.0707202 0.0286648 0.063062 0.20387 0.0767497 -0.00159747 -0.15888 0.0016037 0.0629697 0.0525657 0.0482302 0.0381442 0.113264 -0.118364 0.068734 -0.0453282 -0.0879566 -0.000922051 0.00890612 0.0552398 0.00585772 -0.0693167 0.0480193 -0.139296 -0.137988 -0.216502 -0.104969 0.0178775 0.135682 -0.0349853 -0.108148 -0.0893472 0.106599 -0.0507457 0.00481764 0.0347969 0.13064 0.0573708 0.103821 -0.0147429 0.0270346 -0.109831 -0.101698 0.00393458 -0.0661544 -0.0558126 -0.173609 0.0521939 -0.13594 0.16791 0.112763 0.122763 0.131677 -0.179202 0.143874 0.0402621 -0.107709 -0.247695 0.0571751 -0.0987812 -0.0827636 -0.0995696 0.123097 -0.111097 0.120456 -0.0297587 0.0324036 0.069568 -0.0257711 0.0155333 -0.0475008 -0.102724 -0.0227249 -0.105692 0.106978 
VI7 0.0653142 0.0183184 -0.123955 0.0698699 0.0909076 0.0725984 -0.135581 0.472346 -0.192401 -0.0215034 -0.152745 0.405736 -0.200653 0.068139 0.0164699 -0.028994 0.124331 0.0631499 0.114267 0.0283469 0.114591 0.256621 0.069925 -0.264962 0.180653 0.157242 0.198703 0.0545375 -0.23653 -0.25651 0.369112 0.179951 0.00412955 0.0403495 0.179711 -0.251465 -0.267137 0.0877098 -0.0118023 -0.0692996 -0.211463 -0.389543 0.148754 -0.0214116 0.139646 0.359061 -0.0562684 0.0211043 -0.0402574 0.10574 0.0384309 -0.0769871 0.146953 -0.0834594 0.0193075 -0.11068 0.23751 -0.129275 0.100055 -0.22066 0.0246738 0.518014 -0.175984 -0.0960455 0.0650251 -0.181011 -0.258267 -0.244319 0.0206924 0.0568783 -0.188684 0.111582 0.454004 0.309684 -0.23318 -0.011047 0.108624 0.223763 -0.136905 0.290257 0.0476214 -0.371293 0.0285391 -0.408313 -0.159575 0.279074 -0.043715 0.347928 -0.215113 -0.173936 -0.213187 -0.21742 0.23101 -0.195006 0.0727635 0.0152154 0.258777 0.0056097 0.192526 -0.0571248 -0.22801 -0.107627 -0.198454 0.170885 0.116003 0.046633 -0.0433865 -0.134472 -0.216581 -0.189052 -0.196097 -0.0108241 0.0511668 -0.154826 0.15007 0.0691611 -0.0714686 -0.12633 -0.123446 -0.144386 -0.000970341 -0.316917 0.178621 0.181315 0.0909496 0.158157 -0.118429 0.101912 -0.039402 0.228911 -0.262593 0.0895944 0.139979 -0.121941 -0.111694 0.188621 0.0196114 0.0175125 -0.183973 0.180746 -0.133961 -0.233159 0.0607983 -0.11553 0.0250867 -0.107339 0.184679 -0.1018 -0.000508499 0.0351526 -0.267859 -0.227265 -0.119951 -0.15492 -0.213982 -0.149545 -0.0840469 0.274231 -0.0721666 0.0250178 0.0696429 0.137019 0.110685 0.128134 -0.0393689 -0.0783834 -0.213768 0.000508972 0.288663 -0.124997 -0.0498915 -0.137625 0.0892115 -0.413863 0.218723 0.123032 0.125622 0.0779084 -0.27955 0.130857 0.323037 -0.0380215 -0.293031 0.226592 0.0130099 -0.232616 -0.0675732 0.0377273 -0.102421 -0.0536852 0.193746 0.145648 -0.10498 -0.0332586 -0.20433 -0.151319 -0.243197 -0.195731 0.0937019 0.278196 
VI 0.100642 0.0666774 -0.0532232 0.0407197 -0.0447753 -0.0524986 0.196081 0.106766 0.0850488 -0.123133 -0.293575 0.202482 -0.0954375 0.240746 0.077792 -0.0678033 0.180488 -0.0972935 0.155391 -0.0761456 0.0577706 0.207932 -0.063879 -0.136486 0.389704 0.381292 0.290154 0.00894083 -0.403065 -0.0647558 0.216162 0.146416 -0.0134995 0.0239504 0.126973 -0.264987 -0.171335 0.140137 0.247635 -0.0447776 -0.184061 -0.227623 0.326977 0.105802 -0.0496463 0.429307 -0.253972 0.0510312 0.261346 0.157334 0.0968717 -0.103595 -0.0113598 -0.283213 -0.0654999 -0.225253 0.142271 -0.265868 0.0974553 -0.117711 0.0344747 0.454474 -0.0379788 -0.119409 0.12272 -0.239097 -0.337406 -0.273739 0.0147173 0.0819656 -0.110816 0.11857 0.149597 0.175137 -0.017843 -0.143406 -0.0915239 0.0701281 -0.379561 -0.0876624 0.118894 0.0325142 0.0966413 -0.0896336 -0.148918 0.267297 -0.0545555 0.211588 -0.326236 -0.158172 0.120581 -0.257334 0.156589 -0.170075 -0.0646658 0.104183 0.171058 0.0128057 0.175057 -0.16062 -0.377462 -0.122475 -0.233844 0.137042 0.23659 0.0570326 -0.111361 -0.214115 -0.0771424 -0.191906 -0.230648 0.0869576 -0.149682 0.022678 0.288742 -0.0118879 -0.181718 0.0122939 -0.0429983 -0.020174 -0.196236 -0.406008 -0.000114239 -0.0236656 -0.416779 -0.0836647 -0.100676 0.03544 0.0815274 0.085143 -0.387979 -0.222651 0.141406 -0.0576504 -0.020873 0.190856 -0.0123818 0.164822 0.126053 0.190648 -0.0082185 -0.00246438 0.0529562 -0.216496 0.258733 -0.141285 0.228454 0.124975 -0.168773 0.0987941 -0.144296 -0.0454306 -0.136623 0.0225608 -0.15681 0.0547197 -0.175662 -0.0203532 0.0696064 0.115745 0.0139386 0.18092 0.155445 -0.0478431 -0.0457131 -0.184079 0.184483 -0.148511 0.308841 0.0448893 -0.0518535 0.068881 -0.165969 -0.315074 -0.112336 0.0798432 -0.0203763 0.0192093 -0.310035 0.303988 0.288953 0.0752692 -0.0220504 0.0648881 -0.0797849 0.0869227 0.0897087 0.287771 0.262268 -0.299765 0.32722 0.0246586 -0.0808564 0.120676 -0.267609 -0.0563516 -0.000143073 0.003597 -0.181116 0.273051 
IV7 -0.224902 -0.108512 -0.292847 0.0697628 0.193835 -0.00693328 -0.323163 0.446454 -0.319082 -0.0350226 0.112909 0.311052 -0.210193 -0.130537 0.0663065 0.0776599 0.0895882 0.131752 0.0859743 0.0406476 0.0880725 0.229519 0.177486 -0.1683 0.0372841 -0.216045 0.0846311 0.050493 -0.109065 -0.138571 0.311653 0.286305 -0.0391858 0.0108315 0.215536 -0.381173 -0.136677 -0.0166267 -0.319245 0.00302683 0.116556 -0.226828 -0.219707 -0.106402 0.164836 -0.0159572 0.0370229 -0.168612 0.165973 0.109505 -0.0798025 -0.0714752 0.298521 0.081268 -0.159673 -0.281387 0.452385 0.0523191 0.122584 0.108017 -0.14005 -0.0193878 -0.38562 -0.0285933 -0.166093 -0.133113 -0.251792 0.0430898 -0.0562056 -0.0327724 -0.349143 0.000185741 0.338714 0.287555 -0.375246 -0.102845 0.141586 0.179809 -0.0703494 0.214639 0.130725 -0.224905 -0.0885789 -0.199414 -0.0293617 0.160611 0.194943 0.0848263 -0.241636 -0.00415782 -0.221793 0.0568795 0.183676 0.0455699 -0.137835 -0.0995559 0.115706 -0.163377 -0.198749 -0.0277641 0.0665754 -0.203045 -0.0356434 0.145682 0.146711 -0.0427338 -0.00251531 -0.191016 -0.315836 0.0320741 -0.277226 -0.342504 0.155025 -0.137056 0.249451 0.195795 0.00520859 -0.158797 -0.318717 -0.0118561 -0.224383 -0.142284 0.126938 0.293271 0.0161142 0.14196 0.0310111 0.262118 0.278372 0.0480889 0.0293957 -0.123472 -0.0359659 0.0406186 -0.0230349 0.0736879 -0.025056 0.137054 -0.198758 -0.09044 -0.165506 -0.158527 0.0765492 0.0733813 0.0435471 0.100934 -0.105757 0.0601219 -0.0739212 -0.275557 -0.445542 -0.111833 0.0509759 0.220293 0.0737878 -0.147103 -0.0388791 0.369932 -0.0659254 0.14749 -0.0357979 0.136032 0.0350425 0.229922 -0.119967 0.162623 -0.239231 -0.136785 0.00068348 -0.220203 -0.16249 -0.369843 0.226776 -0.154643 0.327175 0.173181 0.170577 0.0391436 -0.198611 0.131274 0.108839 -0.221214 -0.324376 0.0636312 -0.211676 -0.237511 -0.085707 0.151844 -0.305264 0.317636 -0.101078 0.0726024 0.00773706 0.00949655 0.0185749 -0.13268 -0.149908 -0.108547 -0.0714147 0.149723 
I7 -0.292616 -0.218488 -0.300396 0.118506 0.0373956 0.12936 -0.358566 0.194613 -0.318667 0.0417548 0.0351247 0.184428 -0.166105 -0.0824139 -0.122532 -0.0591676 -0.131144 -0.00253885 0.190565 -0.0331624 -0.136399 0.216831 0.193149 0.013829 -0.20982 -0.17999 0.0718686 0.0387141 -0.041901 -0.241541 0.214136 0.188345 -0.107029 0.0255716 0.248863 -0.310763 -0.167037 0.0373812 -0.0790919 -0.0714661 -0.00293736 -0.364598 -0.1923 -0.292969 0.0137401 -0.0766469 0.119067 -0.0132787 0.00856569 0.0874026 -0.172047 -0.0334863 0.181089 0.0972903 -0.107689 -0.323566 0.113404 -0.036669 -0.037859 -0.0211529 0.0242702 0.0099097 -0.341729 -0.142158 -0.337403 0.0785327 -0.21493 0.165524 -0.121644 0.0549359 -0.294936 -0.268894 0.256311 0.223631 -0.486686 0.0441963 0.0978361 0.338509 0.150214 0.28183 -0.00631197 -0.200445 -0.0595497 -0.00379769 -0.104363 0.00715754 0.160539 -0.103865 -0.207761 0.057473 -0.0436675 0.0643846 0.0902098 -0.151161 0.0511597 -0.16605 0.0526044 -0.269709 -0.134656 0.016984 -0.171003 -0.0947445 0.0554581 -0.075099 0.29216 -0.108347 0.212525 -0.217296 -0.175247 -0.0380962 0.0201871 -0.360962 0.213595 -0.178111 0.236747 0.205939 -0.0129454 -0.101723 -0.181209 -0.0301606 -0.0219377 -0.0704232 0.213561 0.168295 0.11805 0.0426153 0.139861 0.110745 0.382382 0.0353804 0.220112 -0.384841 -0.0507806 0.195677 0.07244 -0.00346787 0.210085 0.0931499 -0.201785 0.0148295 -0.170039 -0.228938 0.0208278 0.111469 -0.0243858 0.253233 -0.22664 0.0679067 -0.289844 -0.12844 -0.374512 -0.235466 0.186994 0.0366651 0.0191529 -0.128612 0.00116354 0.115547 -0.201095 -0.0852118 0.00131249 0.215168 0.104852 0.247529 -0.0265583 0.103862 -0.141872 -0.180165 -0.184394 0.0523658 -0.0311559 -0.331383 0.1265 -0.187344 0.3436 0.107153 0.128264 0.0331855 -0.307919 0.186592 0.0377196 -0.0940332 -0.324433 -0.0799139 -0.128537 -0.237988 -0.333332 0.0325728 -0.465803 0.238165 -0.139881 0.14344 0.228886 0.0566657 0.15878 -0.00932676 -0.131489 -0.0284265 0.0938347 0.12862 
VII -0.0626271 0.119717 -0.244822 0.145969 -0.256191 0.183125 0.164505 0.374375 -0.0579499 -0.0598102 -0.34185 0.326423 0.0992285 0.140083 -0.1615 -0.134496 0.0468932 -0.0774501 0.228502 -0.323281 0.121518 0.0970297 -0.105225 0.173824 0.131922 -0.0555027 0.0297205 -0.209452 -0.717886 0.275043 -0.235185 0.28102 -0.165768 -0.202375 0.116809 -0.169161 -0.0551646 0.382687 0.509748 -0.230733 -0.0444156 -0.56835 0.0665052 0.171988 -0.102647 0.115338 -0.282331 -0.0418526 0.173861 -0.0292172 0.111065 -0.0769724 0.133679 0.0514262 -0.245676 -0.186381 0.0857123 0.162071 -0.0688759 -0.258904 0.118264 0.295552 0.0474461 -0.170892 0.0474181 -0.226141 -0.486893 -0.0439722 0.102829 -0.0543065 -0.0845469 0.239894 -0.0396998 0.284845 0.0892803 -0.111219 -0.148911 0.380145 -0.142406 -0.253406 0.0784571 0.256901 -0.216737 -0.156486 -0.11958 0.173195 -0.236052 0.0617229 -0.202883 0.0015685 0.277647 -0.100127 0.128786 -0.157562 0.0131701 0.102789 0.0371531 -0.234041 0.0500744 -0.244803 -0.137721 -0.128014 -0.262155 0.157924 0.434926 0.0942168 -0.0363095 -0.0950575 -0.318018 0.00564976 -0.316863 -0.0292943 0.0720173 0.00934059 0.167152 -0.261885 -0.353541 -0.00161065 0.135657 -0.0246477 -0.317494 -0.209313 -0.348954 0.019777 -0.480349 -0.0569192 -0.0900216 0.00287999 0.128016 0.44445 -0.230166 -0.299118 0.0554244 -0.00360915 0.0182658 0.068879 -0.156589 0.368183 0.0205929 0.0841249 0.171733 0.105614 -0.164576 0.0099022 0.103835 -0.252971 0.223381 0.0023822 -0.325828 -0.134186 0.133367 0.0189453 0.0700554 0.284138 -0.208007 -0.0423998 -0.307912 -0.187329 0.116522 -0.112934 0.0143868 0.35867 -0.0120537 0.0756254 -0.240511 -0.141197 0.0161079 0.102898 0.289989 0.13112 0.0820742 0.262952 -0.039567 -0.0843323 0.0358464 0.0314642 0.0670403 0.349171 -0.475471 0.259832 0.0099122 -0.0733897 -0.178994 0.191424 -0.0265206 -0.0513108 0.180275 0.41013 0.130756 -0.230263 0.179288 -0.0154637 -0.119564 -0.207848 0.139212 0.2733 -0.0952712 0.190556 -0.376509 0.0439992 
w87 -0.19053 -0.116512 -0.156196 0.17032 -0.0882961 0.048478 -0.128496 0.42469 -0.23335 -0.0686335 -0.0527789 0.267418 -0.134336 0.0367504 -0.0830193 -0.14289 -0.00414789 0.0714715 0.200824 -0.148949 0.0173872 0.194962 0.101842 -0.0432628 0.114884 -0.128342 0.00695518 0.00836429 -0.444257 0.0537404 0.244144 0.407965 -0.0350081 0.0562508 0.141891 -0.459431 -0.109492 0.251202 0.0781027 -0.0821993 -0.0469886 -0.430502 0.0145557 -0.0517412 0.0621797 -0.0458199 -0.14269 -0.119131 0.208668 0.110751 0.00495802 -0.0644315 0.222813 0.00629582 -0.214098 -0.320053 0.270745 0.0267046 0.172841 -0.13444 0.0237819 0.216044 -0.172547 -0.120902 -0.155225 -0.116035 -0.571092 0.00323506 0.0533638 -0.11178 -0.288867 0.0439641 0.296404 0.409978 -0.259858 -0.19129 -0.00931645 0.331771 -0.0951985 -0.000941701 0.102086 -0.0189051 -0.18563 -0.193719 -0.110427 0.127359 0.101492 0.0555475 -0.294543 0.0744243 0.0737433 -0.0791928 0.12229 -0.08062 -0.0725881 0.0918393 0.234627 -0.25798 -0.108902 -0.304884 -0.0685524 -0.172033 -0.153522 0.20854 0.301537 0.135489 0.00263395 -0.202066 -0.379269 0.0136582 -0.331919 -0.264245 0.156345 -0.0928641 0.268155 -0.0219982 -0.160758 0.0107877 -0.0987646 0.0992957 -0.363309 -0.1767 0.01177 0.162045 -0.212041 0.0413171 0.0676007 0.161768 0.185118 0.256134 -0.0859198 -0.33421 0.119862 -0.0770702 0.152229 0.199099 -0.0119094 0.31142 -0.0688834 0.0632293 -0.0718041 0.000129053 -0.0542173 0.0573842 0.179045 -0.067853 0.188054 0.0205357 -0.167594 -0.201924 -0.280227 -0.244077 -0.011914 0.339583 -0.041161 -0.1755 -0.304055 0.200863 -0.0407628 0.0261551 0.0320716 0.295582 0.00427532 0.145986 -0.274098 0.0412604 -0.1076 -0.161847 0.0949867 0.0281997 -0.0154406 -0.168544 0.0846726 -0.138576 0.236688 0.0937922 0.0872193 0.210694 -0.383198 0.320784 0.148232 -0.0767241 -0.363663 0.210883 -0.0882315 -0.0947183 -0.179924 0.263134 -0.0708204 0.0869383 -0.0512969 0.0478238 0.0507518 -0.168624 -0.0300969 -0.0477183 -0.114963 -0.0238732 -0.2048 0.297349 
w1m -0.0460346 -0.00935919 -0.112412 0.107181 -0.14227 0.0563166 0.0862275 0.187884 -0.0560484 -0.0499421 -0.0997489 0.15416 -0.103602 0.139496 -0.0697844 -0.163885 0.0281371 0.017909 0.186783 -0.259471 0.0133961 0.111411 -0.0334889 0.0051969 0.184833 -0.0698862 0.0281084 -0.138933 -0.43937 0.189213 0.0578688 0.291296 -0.0764072 -0.0648547 0.0373047 -0.350588 -0.0315673 0.297882 0.218082 -0.114721 -0.0655623 -0.363828 0.071056 0.141257 0.0321231 0.0310656 -0.233575 -0.173084 0.257599 0.0754635 0.0515578 -0.0563304 0.0897735 -0.0361816 -0.2918 -0.225001 0.155554 0.0510426 0.156616 -0.131929 0.102701 0.172546 0.00985381 -0.134597 -0.0129337 -0.16451 -0.474749 -0.0455858 0.109807 -0.0665904 -0.121423 0.138161 0.059022 0.280392 -0.0672462 -0.218262 -0.0928659 0.200434 -0.18731 -0.179599 0.110944 0.0899823 -0.13004 -0.0928307 -0.0528734 0.149872 -0.00567513 0.0929029 -0.29245 0.0965448 0.156527 -0.0884907 0.00421778 -0.105117 -0.0712911 0.163031 0.194758 -0.175456 -0.0526739 -0.298441 -0.0908821 -0.176856 -0.186981 0.122357 0.311308 0.175597 -0.0180434 -0.159806 -0.217395 -0.00443306 -0.283689 -0.158594 0.0725135 0.0231191 0.213108 -0.210435 -0.224974 0.0713345 0.026034 0.161258 -0.38348 -0.168674 -0.182237 -0.00103787 -0.378857 -0.0494425 0.0147795 0.0869902 0.13213 0.264759 -0.213651 -0.302646 0.127814 -0.0299618 0.128168 0.144501 -0.0323259 0.261415 0.0605431 0.0816374 0.0475689 0.133974 -0.0956229 -0.0263625 0.214693 -0.199269 0.182809 0.032958 -0.173479 -0.150748 -0.053915 -0.096362 -0.0395751 0.363804 -0.0599149 -0.0879998 -0.341475 -0.012389 -0.00979215 0.0381007 0.0232372 0.242374 -0.00109841 -0.0227003 -0.169698 -0.0949558 0.0203558 -0.134941 0.132939 0.0374401 -0.0213926 0.0671197 -0.0779539 -0.0857919 0.066262 0.0289587 0.0386825 0.23567 -0.296696 0.35469 0.0693517 -0.0719533 -0.265933 0.134044 -0.0621472 0.0572164 0.000346769 0.316518 0.190573 -0.0895651 0.0393048 -0.0911674 0.0158687 -0.110231 -0.0123875 0.0413321 -0.0444985 0.0742832 -0.313337 0.222218 
VII7 0.109531 0.202452 -0.226431 0.118586 -0.00217553 0.246219 0.0246126 0.455146 -0.0365091 -0.0175628 -0.280078 0.362296 -0.0712992 0.113081 -0.0536166 -0.0135819 0.125213 -0.0615286 0.19333 -0.180526 0.160329 0.256875 -0.0997153 -0.068322 0.0580553 -0.100194 0.113813 -0.164304 -0.470701 0.0689216 -0.0360952 0.125007 -0.164654 -0.211998 0.127427 -0.162819 -0.126668 0.243255 0.230579 -0.235469 -0.0579703 -0.50485 0.0205023 0.247647 0.058765 0.257445 -0.188106 -0.0955666 0.036582 0.0144011 0.000270638 -0.0224382 0.137852 0.0250061 -0.235368 -0.121514 0.249795 0.204626 -0.0457659 -0.0975546 0.0565942 0.345603 -0.015173 -0.12955 0.0897263 -0.268692 -0.181549 -0.176011 0.0411213 0.0283022 -0.108986 0.220514 0.11103 0.156197 0.0080437 0.0813668 -0.00236544 0.252698 -0.162887 -0.0273884 0.118165 -0.11414 -0.0234827 -0.292074 -0.0926314 0.311365 -0.177074 0.259721 -0.146903 -0.0386087 -0.0883879 -0.202019 0.0716041 -0.193869 -0.00856037 0.0163291 0.138053 0.0146035 0.163884 -0.164282 -0.111167 -0.148961 -0.242685 0.193857 0.270582 0.0793935 -0.109503 -0.0324665 -0.125402 -0.116599 -0.227084 0.0502623 0.115307 0.0415813 0.0887234 -0.148967 -0.273534 -0.14605 0.0399616 -0.0662549 -0.164131 -0.266112 -0.196957 0.11396 -0.199998 0.107893 -0.195936 0.131258 0.0397376 0.269752 -0.387259 0.0180446 -0.0505832 0.0500455 -0.195069 -0.024508 -0.0441526 0.0558351 -0.128866 0.120336 0.077746 -0.0543738 -0.0869652 -0.0542764 -0.0833136 -0.273241 0.101857 -0.139948 -0.103629 -0.0966662 0.104213 0.0497638 0.0142805 0.042709 -0.179669 -0.036818 -0.129389 0.00553095 0.0159768 0.0333371 -0.0103693 0.129648 0.00500801 0.0178451 -0.00960714 -0.257816 -0.134579 0.124165 0.346598 -0.138426 -0.0666368 0.168887 0.0318335 -0.242317 0.110619 0.142712 0.20762 0.270526 -0.303442 0.16904 0.102516 -0.136531 -0.243293 0.090238 0.00680843 -0.222755 0.243445 0.269595 0.04487 -0.225628 0.205574 -0.0634694 -0.150871 -0.0492579 -0.00991919 0.124253 -0.168893 0.0156242 -0.178067 0.0454211 
i -0.301221 -0.217562 -0.129561 0.137214 0.0773029 -0.067223 -0.326082 0.447957 -0.287132 -0.144792 0.00111515 0.146128 -0.114873 -0.0289429 0.0094237 -0.0266294 -0.0194236 0.0492009 0.0327124 -0.00468278 -0.0217835 0.265959 0.172846 -0.0236224 0.0498808 -0.11299 0.0277705 0.195055 -0.230861 -0.135472 0.424232 0.409504 0.107975 0.165986 0.223634 -0.496352 -0.16688 0.0950723 -0.248055 0.0546567 0.139641 -0.211277 -0.0695155 -0.213175 0.0608971 -0.155278 -0.0323718 -0.0525581 0.26668 0.184509 -0.069064 -0.0717257 0.253941 -0.0588464 -0.0972751 -0.434382 0.413399 -0.147202 0.202503 0.155186 -0.136299 0.0412802 -0.354831 -0.0584784 -0.301605 -0.0606981 -0.420429 0.0390652 -0.08687 -0.173418 -0.403923 -0.119276 0.369203 0.274921 -0.456382 -0.205117 0.0136968 0.264425 -0.115313 0.122668 0.121951 -0.0379575 -0.0862482 0.0194803 -0.100682 0.0385582 0.363895 -0.059302 -0.244985 0.015297 0.0764269 -0.0149751 0.171091 0.030002 -0.15645 -0.022089 0.147341 -0.213447 -0.229502 -0.240048 -0.00219289 -0.142192 -0.00512716 0.21894 0.213186 0.0304984 0.00799442 -0.286965 -0.289965 0.0169013 -0.308831 -0.337799 0.0809413 -0.136138 0.384216 0.33981 -0.0229335 -0.000976517 -0.249266 0.136143 -0.328772 -0.134444 0.17724 0.206401 -0.167538 0.0871665 0.189337 0.168503 0.323464 -0.0810239 0.0934198 -0.408925 -0.00211321 -0.0173306 0.211752 0.138365 0.0476457 0.322783 -0.103364 0.0559818 -0.132722 -0.0754376 0.0837186 0.11293 0.13015 0.167779 -0.00458435 0.192381 -0.184859 -0.231655 -0.506988 -0.252124 -0.0086454 0.340933 0.0869547 -0.150549 -0.154328 0.326257 -0.0048137 0.115806 0.0425654 0.181235 0.0597069 0.204269 -0.188022 0.161069 -0.0810247 -0.245202 -0.0490944 0.0339115 -0.0783296 -0.473174 0.153167 -0.0585114 0.204111 0.194993 0.105976 0.141766 -0.252959 0.204429 0.11897 -0.0747485 -0.257753 0.102517 -0.180476 -0.0888315 -0.307312 0.25033 -0.24289 0.294073 -0.154634 0.114813 0.167368 -0.0395092 -0.118426 -0.158295 -0.0110021 -0.0515778 -0.153718 0.255796 
iii 0.124062 0.00151727 -0.0258341 -0.0196641 0.0100703 0.183915 0.0573997 0.300586 -0.0529894 -0.0545602 -0.155177 0.160536 -0.00099021 0.184641 -0.163587 -0.0393142 -0.103872 -0.0402071 -0.101128 -0.132934 0.193624 0.0682602 -0.155741 0.0962518 0.0113889 -0.00213178 0.0500027 -0.183041 -0.24241 0.0046168 0.157132 0.125382 0.177916 -0.246842 -0.0122625 -0.0754722 -0.177853 0.254626 0.066734 -0.177311 -0.0266043 -0.299457 -0.00542885 0.0177896 0.0310859 0.0785494 -0.169064 -0.0339769 -0.0116731 0.0487361 0.0967735 -0.134739 0.126378 -0.0971779 -0.0108239 -0.0770582 0.0824733 -0.142503 0.0862978 -0.0834565 0.0631427 0.254842 -5.78127e-05 -0.13046 0.0679111 -0.1519 -0.0847836 -0.138692 0.105816 -0.0628215 0.0266249 0.162777 0.0779066 0.165423 -0.141921 -0.13268 -0.0763693 0.270705 -0.0824529 0.159055 -0.0359027 -0.085927 0.0484322 -0.0224978 -0.10025 0.187446 -0.105837 0.198276 -0.0962636 -0.120808 0.201177 0.0178418 0.153421 -0.206835 0.129229 0.1062 0.0628199 -0.0648022 0.112591 -0.0949777 0.030535 -0.0147338 -0.072677 -0.0907904 0.191523 0.0969725 0.0989264 -0.115556 -0.0655592 -0.209674 -0.101231 -0.00115704 0.0349035 -0.061175 0.142611 -0.0200344 -0.0932581 0.108417 0.0796133 0.00235908 0.0264818 -0.00331806 -0.101846 0.0261696 -0.166657 0.0228027 -0.112162 -0.0851291 -0.0149661 0.280047 -0.0546906 -0.00207453 0.163065 0.0357051 0.0301055 0.0617976 0.0235795 0.0749028 -0.066957 0.223593 0.12411 -0.0628634 -0.0644858 -0.0182477 -0.157693 -0.0637675 -0.0611335 0.0695287 -0.130661 -0.052674 0.0198598 -0.109615 -0.0744352 0.0495597 -0.139395 -0.105086 -0.126099 -0.104037 -0.0348608 -0.0873256 0.258305 0.0202665 0.030892 0.00181719 0.0914937 -0.106279 -0.299788 0.0533745 0.206716 0.0768191 -0.0625285 0.0542999 -0.090534 -0.0689904 -0.00723047 0.118967 0.191341 0.426785 0.00763015 0.020907 0.0108026 -0.199776 -0.195691 0.163072 0.0693135 -0.0261492 0.0214426 0.142066 0.060457 0.0204335 0.207338 0.0870482 -0.0316768 -0.14942 -0.0740239 0.100082 0.0360548 0.0847653 -0.191914 0.0307653 
iv -0.209883 -0.110944 -0.245581 0.0937828 -0.019809 0.103541 -0.292814 0.228811 -0.28627 0.0338017 -0.00715392 0.0907917 -0.16767 -0.0991232 -0.0499301 -0.0836132 -0.0267252 0.0125089 0.0943565 -0.180137 -0.117278 0.154756 0.156592 0.0598076 -0.106293 -0.230839 0.0175359 -0.0142563 -0.0757333 -0.142584 0.0404447 0.252751 -0.0822695 -0.0023467 0.199353 -0.293504 -0.0754873 0.0929002 -0.107363 -0.0583259 0.0650494 -0.288471 -0.162889 -0.0832686 0.0569787 -0.133849 0.0641855 -0.0902347 0.0965335 0.0291869 -0.120015 0.00958404 0.0902394 0.11148 -0.171203 -0.255242 0.18109 0.072653 0.0286444 0.048187 0.0873017 -0.073004 -0.204082 -0.115159 -0.229994 -0.02646 -0.197717 0.118551 -0.0595425 -0.0106928 -0.227703 -0.0999397 0.154418 0.126549 -0.347525 -0.0823838 0.0360547 0.233426 0.0213819 0.113031 0.0424372 -0.143811 -0.0718672 -0.00594676 0.00978606 0.0134491 0.174718 -0.0496346 -0.179242 0.107092 -0.0148316 0.0326247 -0.0203527 -0.0574935 -0.0398156 -0.0570669 0.0390942 -0.197285 -0.209588 -0.0582589 -0.0652619 -0.158206 0.0388682 -0.00835176 0.256501 -0.0106178 0.1311 -0.169362 -0.127066 0.0680498 -0.0663344 -0.342694 0.153847 -0.0897809 0.193124 0.0825849 -0.0369304 -0.0619407 -0.0797965 0.0836061 -0.193492 -0.121987 0.0239533 0.0810999 -0.000303512 0.08953 0.137671 0.0625614 0.335402 0.030396 0.132313 -0.284558 -0.0931146 0.115215 0.143306 -0.0132898 0.0865541 0.142814 -0.164844 0.0326408 -0.0747562 -0.0936867 -0.00647474 0.0700786 0.0729173 0.0531287 -0.146477 0.0419117 -0.215805 -0.197563 -0.250099 -0.107552 0.114063 0.187296 -0.0156783 -0.150125 -0.101415 0.0975684 -0.0985677 -0.0517542 -0.0260911 0.187507 0.0580185 0.142605 -0.0101128 0.0871203 -0.0580721 -0.163713 -0.18375 -0.0334527 -0.00163994 -0.278525 0.0900743 -0.105008 0.265106 0.0863226 0.121494 0.101765 -0.243143 0.177669 -0.0549298 -0.0873549 -0.338368 0.00421886 -0.101425 -0.115646 -0.233832 0.0874005 -0.222009 0.195256 -0.183025 0.00420315 0.199186 -0.014404 0.186804 -0.00986218 -0.151977 -0.00993971 -0.0657742 0.109384 
w10 -0.169634 -0.208333 -0.0279047 -0.0153222 0.113743 -0.134982 -0.0721028 0.213853 -0.115112 -0.196784 -0.0192849 0.0911262 0.0213063 0.0667506 0.0342314 0.0369556 0.0109204 -0.0215921 -0.107568 0.123691 0.13062 0.145584 0.0595768 0.0186173 0.180731 0.181865 0.146265 0.148573 -0.16986 -0.145813 0.455055 0.250887 0.2557 0.102364 0.134129 -0.310938 -0.178906 0.0296606 -0.1504 0.0488635 0.115658 -0.012117 0.0387403 -0.285475 -0.077722 0.00926372 -0.083112 0.0696917 0.28576 0.174982 0.0546743 -0.190372 0.152675 -0.219936 0.132617 -0.368293 0.263302 -0.386926 0.162173 0.124562 -0.156683 0.118818 -0.318617 -0.0137005 -0.122261 -0.0691372 -0.294064 -0.0416792 -0.064532 -0.128272 -0.242127 -0.0436968 0.266117 0.226483 -0.29933 -0.285532 -0.0743236 0.177733 -0.200435 0.155645 0.0727061 0.0841267 0.0357712 0.147338 -0.126618 0.0510244 0.202139 -0.0394467 -0.233269 -0.160154 0.253717 0.0755261 0.316743 0.011181 -0.0891898 0.0120176 -0.00477395 -0.201471 -0.101313 -0.103569 -0.0441563 0.0160288 0.0494696 0.0496809 0.151408 -0.0617901 0.0531988 -0.292113 -0.190256 -0.074226 -0.251787 -0.168681 -0.0829156 -0.160177 0.381032 0.366038 0.0537997 0.0865406 -0.22395 0.0127017 -0.148049 -0.0949296 0.20626 0.173787 -0.28775 -0.0345636 0.0609139 0.0219596 0.257402 -0.0585136 0.144598 -0.343611 0.132277 -0.0300859 0.168558 0.184933 -0.00460086 0.2858 0.0638561 0.0713927 -0.0802756 -0.0706698 0.117861 0.0161894 0.112557 0.270261 -0.0526779 0.352599 -0.193218 -0.0879055 -0.482877 -0.170945 -0.0800694 0.192268 0.0733531 -0.0704009 -0.0375759 0.138792 0.0693755 0.114672 0.147698 0.107054 0.121433 0.145903 -0.0987176 0.198254 -0.0462641 -0.225161 0.0419935 0.148356 -0.0901645 -0.326968 0.00597382 -0.0213359 -0.0296765 0.152995 0.046189 0.0635427 -0.0986535 0.0795503 0.151563 -0.0694597 0.00102514 0.0699844 -0.168454 0.0484324 -0.17124 0.182687 -0.0972729 0.208111 0.0908981 0.212084 0.0530106 0.00150075 -0.215633 -0.126326 0.182229 0.0407377 -0.175158 0.151443 
vi -0.0472457 0.172473 -0.146207 0.0849339 0.109729 0.248426 -0.114914 0.190157 0.0806532 -0.0455796 -0.171357 0.0837774 0.0242843 0.286244 -0.0719826 0.057126 -0.101978 -0.249641 0.152127 -0.0702556 0.0067302 0.327449 -0.159367 0.0505656 -0.153282 -0.0516994 0.106101 0.000551051 -0.207851 -0.0963314 0.075691 -0.0451877 -0.0818522 -0.113939 0.205656 -0.135057 -0.294493 0.14208 0.131214 -0.113102 0.169152 -0.31232 -0.0517935 0.130878 -0.144311 0.0934944 -0.067209 0.036203 0.092028 0.165047 -0.0751274 0.00451492 -0.0285754 -0.0787069 -0.213772 -0.203133 0.235111 0.118422 -0.133958 0.163131 -0.0720126 0.150445 -0.108906 -0.113987 -0.153802 -0.15616 0.103613 -0.078627 -0.05766 0.122562 -0.158968 -0.115789 -0.145818 -0.10536 -0.169429 0.151084 -0.0596112 0.218391 -0.141769 0.0294227 0.0848454 -0.138881 0.192699 0.156081 -0.0574353 0.18707 0.00852075 0.00531087 -0.0620495 -0.0851044 0.0461778 -0.222593 -0.04871 -0.220741 -0.01659 -0.144747 0.00872063 0.131858 0.0855711 -0.17413 -0.221291 -0.047394 -0.0171055 0.0499201 0.385267 -0.0158888 -0.0740821 -0.0230764 0.12268 -0.199628 0.141838 0.08567 0.0118301 0.0611842 0.129739 0.103162 -0.217127 -0.128365 -0.0413839 0.0388105 -0.0144284 -0.215 -0.0623479 -0.0951893 -0.2166 0.0885632 -0.0351225 0.1019 0.214401 -0.203642 -0.237569 -0.257692 -0.181843 0.342236 -0.0234873 -0.197818 0.226351 -0.00741162 -0.00909934 0.086863 0.10375 -0.0850309 0.0388597 -0.0426077 -0.174222 -0.0189576 -0.161214 0.171287 -0.251287 -0.0843673 0.0697808 0.119593 0.100045 -0.120216 -0.0231419 0.0814429 0.0746763 -0.102016 0.023546 0.152673 0.0616813 -0.0242693 0.126207 -0.0648372 0.178799 -0.170881 0.00236833 -0.0854559 0.0933377 0.0373505 -0.188852 -0.0360047 -0.00118853 -0.12534 -0.0563797 0.12019 0.298477 0.16513 -0.139633 0.168317 -0.023136 -0.122762 0.0188888 -0.232108 0.0355652 -0.101922 0.0784943 0.328408 -0.103165 -0.123187 0.108625 -0.108854 0.0696421 0.347901 0.0241148 0.207152 0.0341149 0.0225586 -0.109327 -8.73163e-05 
