40 200
w8 0.0596421 -0.219038 -0.0456735 0.0107134 -0.0835292 -0.170058 0.138113 0.0246683 0.112227 0.0344873 -0.0687937 -0.123933 0.168362 0.153547 -0.308752 0.169696 0.109726 -0.0668311 0.0253856 -0.123807 0.302413 0.204182 0.267871 0.166667 0.125884 0.0254661 -0.0113937 0.166103 -0.0328071 0.0538834 -0.0750639 -0.0226503 0.0709652 0.137616 0.0829912 -0.0616318 -0.0436861 -0.173459 -0.0137561 0.050089 -0.196034 -0.0634037 -0.205415 -0.0714141 0.197069 0.279021 -0.0431097 -0.0245999 -0.00137271 0.353975 0.0496491 -0.179382 0.095088 0.0981792 -0.0287514 0.428013 -0.0692669 -0.199171 -0.164351 -0.00972851 -0.152113 -0.0661157 -0.0936662 0.0138302 0.137063 -0.0191871 -0.235764 0.0919175 0.325379 0.0665681 -0.0730724 0.0768744 0.094116 0.089132 0.0105019 0.0919151 -0.460577 -0.0936704 0.0155623 0.0941632 -0.0794488 0.00932966 0.0551136 0.175314 -0.0893726 0.179936 0.0708751 0.0513066 -0.197023 -0.131129 -0.175239 0.101809 0.0095789 -0.0824861 -0.0120997 0.152469 -0.097341 -0.160012 0.0720579 -0.268998 0.300851 -0.132323 0.222182 0.307727 -0.205329 0.21855 0.10938 0.00996171 0.0236766 0.14848 -0.20352 0.070442 0.113386 0.213989 0.258198 -0.216237 -0.100169 0.0375375 0.0558167 0.0255097 -0.0163418 0.211359 0.206419 0.219585 0.288843 -0.0445669 -0.223441 0.378823 0.00405745 -0.100571 0.33521 0.133664 0.0330067 0.242923 0.332571 -0.103306 0.0589441 -0.0314895 0.152605 0.0368185 0.157974 0.0447667 -0.120604 -0.0560613 0.0111201 0.211659 0.0199941 0.222687 -0.269503 0.0490545 -0.0169895 0.275436 0.155169 -0.0740542 -0.205761 0.151071 0.204814 -0.0588544 0.0876775 -0.054184 0.0560581 0.154152 0.113886 -0.030286 0.0159968 -0.0361777 0.41561 -0.16815 -0.138241 -0.296655 -0.00962685 -0.147568 0.111997 -0.00389487 0.170212 -0.0253896 0.162505 -0.0240285 0.0869157 0.0231312 0.0279119 -0.192128 -0.16014 0.0150755 0.26293 0.357081 0.0912205 0.0803475 0.106331 0.185868 -0.182601 -0.0699071 0.154924 0.116625 -0.182386 -0.0645196 0.154169 0.25124 -0.0905796 -0.22176 
w6dim -0.00302346 -0.0378055 -0.0133179 -0.00662062 -0.0080075 -0.0642891 0.098824 0.0106631 0.0201192 0.0350324 -0.00891468 -0.0142465 0.111374 0.0933609 -0.125062 0.0442288 0.025298 -0.0166775 0.00511245 -0.0465772 0.0390836 0.00450589 0.0841656 0.119551 -0.0276734 0.0156568 -0.028173 0.0574568 -0.00867129 -0.0348389 -0.0219975 -0.0452434 -0.00422329 0.0316352 -0.00716318 0.0467671 -0.0305472 -0.0509727 0.00806183 0.0498217 -0.0895803 0.0555036 -0.0160172 -0.122196 0.0999557 0.0535252 0.0367011 0.116053 0.0837803 0.148658 -0.0781982 -0.0918419 0.0600583 0.0148282 0.0509891 0.146523 -0.0877408 -0.0407225 -0.0122764 -0.00293084 -0.0295703 0.0179351 -0.0659407 0.0490268 0.00799193 0.0272711 -0.0387907 0.0921438 0.0310112 -0.0793315 0.00976016 0.0690926 -0.034188 0.0680241 -0.0659011 -0.0169586 -0.167745 0.0321121 0.0193576 0.0411199 -0.022317 -0.0491431 0.0311237 0.0232173 -0.0229228 -0.00765725 -0.00207179 -0.00779444 0.028792 -0.0359206 -0.0546765 0.00137689 -0.0303614 -0.103368 0.00645328 0.0738905 0.00754698 -0.059971 0.0153954 -0.0742217 0.115376 -0.0319556 -0.00304373 0.0883949 -0.0910146 0.000703292 0.00561024 0.0533711 -0.0196317 0.099359 -0.116446 -0.0140697 0.0223209 -0.00327804 0.0497706 -0.09587 -0.0263401 -0.00550583 0.0180773 -0.00643251 0.00261539 0.028396 0.175692 0.132982 0.0779794 -0.0274767 -0.0168031 0.099792 0.0128401 -0.0766137 0.148639 0.0223485 -0.0655896 0.133078 0.0498899 -0.0191388 0.0893548 0.00141534 0.0570443 0.092042 0.0150616 -0.0347239 -0.00296217 -0.0346022 0.0293058 0.142618 0.0524672 0.102339 -0.031807 -0.0230767 0.0409981 0.0375451 0.0277425 -0.0837823 0.0145904 -0.040188 0.0193851 0.0377094 0.00299988 0.0238519 0.0538288 -0.0287488 0.0462854 -0.0363181 -0.0244019 -0.0411479 0.106279 -0.0889441 -0.0576396 -0.00360984 0.0259399 -0.0403629 0.0577345 -0.0350822 0.0831255 -0.031482 0.0435291 -0.063951 0.0463102 -0.00903385 0.0147669 -0.088101 -0.0410922 -0.00423302 0.0913343 0.0833974 0.0387883 -0.00371251 0.0669091 0.0250866 -0.0660724 0.0396907 0.00013125 0.00788847 -0.105394 -0.0347806 -0.0371294 0.0565282 0.00399248 -0.0535995 
w6m 0.0085066 -0.0308353 -0.0200009 -0.193794 0.180357 -0.149017 0.0140088 0.206291 -0.060348 0.236358 -0.0601347 -0.258876 0.310366 0.164738 -0.351692 -0.0342208 0.11302 0.145734 -0.107324 0.0155909 -0.0849113 0.0528843 0.0626361 0.0571451 -0.121943 -0.208208 -0.174569 0.106595 -0.0746278 -0.0690165 0.127135 -0.0809277 -0.104147 0.0307443 0.0607144 0.191272 -0.080721 -0.291158 -0.124493 0.273666 -0.0194475 0.152405 0.159155 -0.141202 0.0159284 -0.0301192 0.0417182 0.329093 0.45673 0.386976 -0.0672428 0.00974166 0.0245854 0.0400301 -0.142022 0.27389 -0.210914 -0.085665 -0.0426989 0.0476811 -0.110786 -0.142637 0.0958336 0.13509 0.00166264 -0.0287864 0.0346704 0.229477 -0.142341 -0.171688 0.0126578 0.107308 -0.0562518 0.165738 -0.294705 -0.0720184 -0.407478 0.176997 0.267706 -0.0606105 0.00753754 -0.172141 0.0799451 -0.0369395 -0.00508015 -0.158551 -0.0696393 -0.0817881 0.105507 -0.147503 -0.138107 -0.0603412 0.269194 -0.216071 0.170877 0.316719 0.0357711 -0.165879 0.13411 -0.00526748 0.2774 -0.00696851 -0.0420075 0.0471189 0.052435 -0.0768391 -0.157332 0.263009 0.0472657 0.346487 -0.201696 -0.155837 0.0953943 -0.105533 0.150439 -0.251875 -0.250271 -0.0900516 -0.00216057 -0.0338841 -0.144658 -0.0205146 0.235938 0.204244 0.108166 0.0572616 0.170523 0.0889521 0.0131078 -0.453185 0.347562 0.0783388 -0.0647611 0.139731 -0.0734535 0.0531816 0.0794976 -0.15556 0.0776568 0.16216 -0.0555113 -0.20889 0.0742592 -0.2959 0.0941722 0.222852 0.160048 0.311079 0.100817 0.0120443 0.09522 0.00272066 0.0933534 -0.0513465 0.132611 -0.0627515 -0.0860856 0.0861753 0.038448 0.178655 -0.0839376 0.046937 -0.0250479 -0.0966313 -0.0613847 0.00703522 0.147687 -0.173663 -0.125548 0.0172675 0.104223 -0.200205 -0.0204719 -0.109645 0.0479762 -0.0271475 0.0468966 -0.108089 0.199923 -0.00921692 -0.125023 -0.258319 -0.0823666 -0.0717477 0.132574 0.0230479 -0.00764115 0.0673673 0.204821 0.0224738 0.188732 0.193002 -0.0844561 -0.0711779 -0.186299 0.131316 -0.0896011 -0.0242346 -0.165335 0.00564339 
w67 -0.0339921 -0.075735 -0.0244457 -0.137557 0.121171 -0.177669 0.0387252 0.20346 -0.0707683 0.166219 -0.0402277 -0.199251 0.274609 0.137083 -0.358937 -0.0539123 0.133607 0.136507 -0.0759592 0.0469819 -0.106669 0.070961 0.130511 0.103149 -0.129691 -0.124433 -0.202675 0.139066 0.0063535 -0.0412134 0.0708394 -0.0637084 -0.0921106 0.0358575 0.0568078 0.172901 -0.0280738 -0.251772 -0.0924421 0.247899 -0.0661286 0.16879 0.160483 -0.203244 0.0568325 0.00272419 0.0864047 0.363101 0.428869 0.381716 -0.136568 -0.0925368 0.117006 0.0799858 -0.0537781 0.330785 -0.279526 -0.0166543 -0.0886042 0.033404 -0.131819 -0.11511 0.034833 0.180961 -0.0548805 0.0448681 0.0397696 0.258106 -0.136582 -0.212608 0.0463551 0.119779 -0.0831182 0.129482 -0.339148 -0.104239 -0.395858 0.189603 0.224047 0.0128163 0.0104725 -0.126295 0.0750024 -0.06167 -0.0416189 -0.158573 0.0333563 -0.0894939 0.127664 -0.138355 -0.182689 -0.00697739 0.1954 -0.246943 0.146383 0.291499 0.05979 -0.19896 0.0803719 -0.0382126 0.302073 -0.0205959 -0.112974 0.0962399 0.0179919 -0.100297 -0.136756 0.216558 0.0545454 0.308981 -0.24069 -0.142719 0.115946 -0.116382 0.101265 -0.250945 -0.194832 -0.0402844 -0.000362699 -0.0161469 -0.119455 -0.0133294 0.313413 0.272456 0.154096 0.048181 0.156784 0.075884 0.0134955 -0.345505 0.416453 0.0566776 -0.145572 0.193234 -0.0702988 -0.00253872 0.0650985 -0.146277 0.153885 0.172532 -0.0568837 -0.250858 0.0493478 -0.227337 0.0512505 0.245172 0.172421 0.243295 0.113195 -0.0070883 0.106963 0.00840115 0.0747314 -0.0942652 0.163959 -0.0578147 -0.06666 0.107886 -0.0113599 0.165022 -0.0667647 0.0611849 -0.0105061 -0.0838406 -0.0601197 -0.0532843 0.171289 -0.16639 -0.118817 0.0800534 0.116741 -0.181921 -0.0147101 -0.127496 0.113494 -0.0641894 0.071056 -0.0945201 0.205251 0.0140586 -0.122282 -0.226833 -0.0791721 -0.060406 0.14774 0.0501407 0.0348353 0.0662051 0.153896 0.0695282 0.156965 0.194935 -0.0777101 -0.0244007 -0.274542 0.0625345 -0.150478 -0.0320133 -0.0971433 0.0219277 
w6 0.00107863 -0.355728 -0.0213428 -0.100261 0.0703176 -0.182015 0.0601146 0.180795 0.0222587 0.0918264 -0.0487166 -0.195338 0.239034 0.104577 -0.420726 0.0593512 0.224494 0.131984 0.0383001 -0.00377173 -0.0413159 0.307509 0.074425 0.18584 -0.0584554 -0.0224155 -0.253441 0.219421 -0.0419603 0.0182153 0.215911 0.0283322 0.0520484 0.124628 0.067439 0.0620349 0.0163737 -0.281407 -0.0401262 0.0982791 -0.0664284 0.178785 0.111491 -0.0849393 0.0451282 0.0590409 0.046525 0.183084 0.288558 0.46174 -0.07925 -0.253272 0.138407 0.164499 -0.154945 0.470937 -0.248668 -0.0759179 -0.209111 0.0592877 -0.159678 -0.172524 0.109531 0.076633 0.0154977 -0.00779324 -0.0568889 0.152541 0.12415 -0.0450014 0.00170239 0.12521 -0.0150623 0.195365 -0.302493 -0.0732099 -0.451262 0.0726079 0.266153 0.192039 -0.0189744 0.00854615 0.000175298 -0.0252605 -0.00176052 0.00994958 0.0970273 0.0459123 -0.0393694 -0.193726 -0.268266 0.0895044 0.237135 -0.176712 0.183177 0.299143 -0.0960813 -0.243924 0.0959161 -0.124654 0.361344 -0.0971298 0.055371 0.237844 0.0230961 -0.0109126 -0.0666386 0.183074 0.0244409 0.260184 -0.193143 -0.10453 0.17999 0.0755832 0.175901 -0.227031 -0.231441 -0.0240802 -0.0643532 0.096876 -0.0859991 0.0559946 0.297775 0.234819 0.27429 0.0281665 0.079617 0.224498 -0.0712832 -0.398187 0.396269 0.0459154 -0.108223 0.187696 0.0548642 -0.0725687 0.0425142 -0.154654 0.243364 0.0345641 0.0402882 -0.179337 -0.071907 -0.105766 -0.117076 0.329428 0.104659 0.271127 -0.0344381 0.0241095 0.151448 0.164639 0.076759 -0.0185784 -0.0559822 0.016374 0.0549021 0.0235632 0.143317 0.0223759 -0.156132 0.19599 0.0745918 -0.120707 0.0853765 -0.0739076 0.251884 -0.300342 0.00270892 -0.0843217 0.108875 -0.15964 0.0724226 0.0317151 0.19234 -0.00919717 0.131076 -0.107522 0.243677 0.0538229 -0.195188 -0.313537 -0.111611 0.0526466 0.211284 0.209289 0.0768183 0.127035 0.153033 0.236214 0.112774 -0.0635567 -0.00747484 0.0626291 -0.24247 0.0481101 -0.123877 -0.0488438 -0.108243 -0.0369764 
w37 0.025998 -0.16835 -0.0499583 -0.00314401 -0.0126294 -0.187665 0.174739 0.0665441 0.022798 0.0426532 -0.0437496 -0.0858528 0.24061 0.13848 -0.308533 0.0565664 0.0775881 -0.000554333 0.0311069 -0.0631555 0.0968267 0.0803341 0.201056 0.216958 -0.0189908 0.0415354 -0.082399 0.145671 -0.000589016 -0.0327484 -0.00435424 -0.0917327 0.0135755 0.0692174 0.0144139 0.0539646 -0.0366305 -0.10982 0.00967136 0.110977 -0.180168 0.0932264 -0.0618657 -0.211702 0.205337 0.12747 0.076501 0.192397 0.195062 0.343818 -0.128683 -0.208338 0.139654 0.0890776 0.0653539 0.335239 -0.237588 -0.0809301 -0.0731877 0.0271122 -0.109407 0.0173254 -0.0877079 0.119113 -0.00341972 0.0265714 -0.0853926 0.182254 0.1296 -0.120152 0.000965545 0.130893 -0.0244602 0.101475 -0.152481 -0.0316465 -0.362489 0.0602351 0.0599575 0.0832081 0.00667078 -0.0360828 0.0261956 0.0600748 -0.0468231 -0.0308717 0.0461447 -0.000229036 0.0464924 -0.085912 -0.188958 0.0897104 0.0208363 -0.191881 0.0324104 0.163514 -0.0107097 -0.158997 0.010124 -0.16769 0.261985 -0.0646885 0.0136198 0.204325 -0.154734 0.0537883 0.0232698 0.0859675 -0.0245687 0.233396 -0.205125 -0.0674614 0.0866809 9.48574e-05 0.121103 -0.199324 -0.0945137 0.03179 0.0102123 0.0182973 0.0205467 0.0853105 0.328292 0.28943 0.234929 -0.0594496 -0.0499286 0.260289 -0.0118439 -0.155078 0.368271 0.0738238 -0.122989 0.246865 0.116085 -0.0755854 0.161197 -0.0792668 0.137098 0.121326 0.042546 -0.107781 -0.0626401 -0.0839263 -0.00525012 0.224932 0.0822398 0.176715 -0.0548692 -0.0251077 0.0732446 0.0960205 0.0693511 -0.1486 -0.00438183 -0.027898 0.0787596 0.028174 -0.00541053 0.0309912 0.0565184 0.0226223 0.0649424 -0.0404453 -0.0350462 -0.0905492 0.239712 -0.178601 -0.101767 -0.0224304 0.0696167 -0.101132 0.0992754 -0.0301971 0.179681 -0.0292229 0.130055 -0.116551 0.115474 -0.0171589 -0.02223 -0.184189 -0.0913362 0.00838739 0.193465 0.205971 0.0844562 0.0285235 0.0969005 0.167318 -0.0941237 0.048258 0.018455 0.0469032 -0.208133 -0.0721614 -0.064732 0.133698 -0.00777233 -0.115695 
w3 0.0316254 -0.0499249 0.00968931 0.0235275 -0.0371038 -0.196937 0.0868455 -0.0231646 0.206857 -0.0125416 0.0760263 -0.0758434 0.10235 0.375237 -0.215065 0.372969 0.207276 -0.122919 0.190908 -0.108094 0.295018 0.317353 0.199115 0.0216125 -0.0192687 -0.0656742 0.0693764 0.122371 -0.00190865 0.101167 0.140866 0.104863 0.0847559 0.189398 0.0770472 -0.193527 0.0660226 -0.088438 0.0833165 0.141539 -0.116154 0.0680851 -0.330183 -0.0788206 0.270167 0.272124 0.273349 0.131052 -0.147726 0.278803 0.102498 -0.081745 0.232741 -0.0870565 -0.00422698 0.441444 -0.0819208 -0.229545 0.0068579 -0.0757702 0.0594876 0.0916262 -0.0759217 0.0495499 0.0689398 -0.0845374 -0.0834992 0.0909386 0.265835 0.035886 -0.0784315 0.0339033 0.226343 0.130056 0.0849189 0.135659 -0.438665 -0.0721744 0.0854855 0.0630296 -0.00553918 0.126767 -0.149319 0.263117 -0.10466 0.00443972 0.0193142 -0.0919865 -0.248355 0.0298322 -0.162659 0.014379 -0.0468078 -0.00796986 0.0843442 0.211351 -0.126512 -0.272322 0.267121 -0.133439 0.15995 0.0363394 0.156937 0.332342 -0.271766 0.256987 0.285487 0.180633 0.0462438 0.253027 -0.11049 -0.0217929 0.147991 0.270675 0.131292 -0.112496 -0.148117 0.041757 0.0564402 0.0872265 0.0743725 0.130548 0.155439 0.357655 0.30913 0.0391029 -0.11127 0.374821 -0.143542 -0.0469257 0.200678 0.0756306 0.0483354 0.092437 0.253711 -0.00670488 0.184298 -0.0207156 0.139364 -0.0900405 0.175344 -0.0752976 -0.074591 -0.302795 0.016005 0.162741 -0.0554454 0.272825 -0.299066 0.0398594 -0.101562 -0.0386716 -0.114623 -0.168477 -0.203673 0.0423615 0.131999 0.0695336 0.168241 -0.0365769 0.253419 0.0014757 0.0140828 0.000298912 0.0763002 0.0929697 0.283116 -0.186332 0.0495177 -0.328582 0.0273208 -0.0934856 0.186929 0.0656665 0.169649 0.1134 0.114327 -0.0326934 -0.00556321 -0.0914243 0.164213 -0.094982 -0.101522 0.136065 0.228957 0.248694 0.132806 -0.0118461 0.0697758 0.267751 -0.291304 -0.0647819 0.0591302 0.086779 -0.0163287 -0.0568979 0.214408 0.374657 -0.026246 -0.251863 
w10m 0.036327 -0.234546 -0.0303031 -0.00547437 -0.135248 -0.132586 0.174086 0.0280714 -0.0639412 0.0633192 -0.0620747 -0.118196 0.286428 0.120889 -0.36548 0.0316349 0.0545177 0.0689948 0.00857229 -0.00895704 0.0777853 0.13741 0.356671 0.272785 -0.0080764 0.098763 -0.0959839 0.26267 0.0803704 -0.0509776 -0.144048 -0.0507719 -0.0303799 0.0420058 0.0319152 0.0136408 -0.0580681 -0.105335 -0.0243665 0.121149 -0.253417 -0.0260119 -0.111262 -0.266883 0.207513 0.167586 0.0243405 0.206744 0.134839 0.423647 -0.192034 -0.272791 0.159662 0.147616 0.0707762 0.437382 -0.296081 -0.0540231 -0.211199 -0.0477332 -0.166436 -0.027286 -0.100847 0.0697698 0.0191002 0.0522772 -0.109443 0.225063 0.189135 -0.148904 0.0176366 0.11521 0.0664747 0.0225371 -0.145434 0.00191845 -0.464564 0.076818 -0.0373669 0.0443694 0.0207132 -0.0779182 0.0990104 0.0854101 -0.0553548 0.0321228 0.160706 0.0185777 0.105959 -0.0919956 -0.245413 0.101721 0.0327768 -0.293096 -0.10845 0.162926 0.000781183 -0.224283 -0.0512414 -0.160438 0.320895 -0.0636884 -0.000968876 0.186035 -0.158359 0.062459 -0.0682685 0.018119 -0.00991995 0.167963 -0.296172 -0.0260943 0.0772711 -0.007489 0.21047 -0.21086 -0.0603556 0.0289168 0.0535301 0.0040878 0.0728312 0.12646 0.346004 0.361962 0.336294 -0.0935154 -0.109311 0.248291 0.0889613 -0.0762957 0.545563 0.114663 -0.0370511 0.285666 0.222598 -0.157097 0.124761 -0.171799 0.308786 0.118554 0.0313891 -0.0605543 -0.100553 0.0281357 -0.0345479 0.217321 0.102481 0.170467 -0.0462762 0.0288154 0.0719369 0.113962 0.168153 -0.0810741 0.00873994 0.0956784 0.0794985 -0.0426191 -0.0270544 -0.0393597 0.0105052 0.126057 0.0884786 -0.0980956 -0.0237803 -0.147526 0.304002 -0.188323 -0.0997449 -0.124439 0.0152311 -0.207555 0.0884964 -0.00329873 0.281749 -0.087753 0.145499 -0.0768966 0.238019 0.00298268 -0.0549207 -0.244314 -0.107275 0.0498284 0.260095 0.317266 0.144034 0.0379303 0.0683107 0.222177 -0.0947714 0.0617699 0.108814 0.129725 -0.323638 -0.0562029 -0.0589657 0.125617 0.0156443 -0.128645 
w107 0.042513 -0.0985909 -0.0218711 -0.0611121 -0.0263337 -0.182186 0.197366 0.0635456 0.0075245 0.0663377 -0.0717602 -0.101922 0.24833 0.126623 -0.337544 0.0709749 0.0756628 0.0105467 0.118282 -0.071665 0.135419 0.13048 0.294956 0.241406 0.0100731 0.0744458 -0.0646303 0.220926 0.0660727 -0.0103546 -0.0256814 -0.108265 -0.049885 0.0632075 0.0229672 -0.0306569 -0.0161746 -0.0926319 0.00550674 0.171579 -0.220108 -0.0278921 -0.184555 -0.164011 0.264294 0.187276 0.138535 0.184773 0.13692 0.307273 -0.140253 -0.179677 0.183289 0.0766289 0.0516691 0.360392 -0.281193 -0.0860546 -0.0621456 0.0496532 -0.126947 0.00358276 -0.0686174 0.169149 0.000445192 0.0263134 -0.0961601 0.230149 0.191897 -0.185286 -0.0046401 0.101582 0.000516887 0.0226242 -0.0856252 -0.0165259 -0.42515 0.0394506 -0.0489937 -0.0165822 0.0503925 -0.0118952 -0.00588617 0.0191947 0.0290418 -0.0343595 0.0921896 -0.0492584 0.0431552 -0.131982 -0.171247 0.130804 0.014559 -0.215111 -0.0360154 0.230408 0.0444985 -0.145314 0.00840968 -0.133281 0.26768 -0.0624614 0.0368162 0.191646 -0.15938 0.219552 0.0154357 0.103843 -0.0567556 0.226926 -0.17838 -0.0444846 0.0997765 0.0635598 0.205814 -0.149322 -0.12102 0.0604077 0.00417236 -0.0182784 0.0861046 0.0487268 0.291924 0.298093 0.292202 -0.121667 -0.0488773 0.324698 -0.0233661 -0.0423073 0.428292 0.144755 -0.00136827 0.255256 0.177535 -0.027285 0.0957443 -0.159072 0.157034 0.111377 0.0846287 -0.0673829 -0.023335 -0.0820267 -0.00225402 0.1448 0.103846 0.197949 -0.09629 0.0319246 0.0382662 0.0538895 0.0562805 -0.128098 -0.0178255 -0.039938 0.073603 0.0029524 -0.101886 0.027586 0.141878 0.0108552 0.066076 -0.0643042 -0.0714695 -0.0412835 0.240416 -0.184331 -0.0856045 -0.149969 0.106925 -0.160232 0.101957 0.0261255 0.252499 -0.0331029 0.186778 -0.0670895 0.0605921 -0.0115645 -0.0219326 -0.148537 -0.0736505 0.00802551 0.207008 0.318548 0.156656 0.0566817 0.0766521 0.234427 -0.0911637 0.146452 0.0612159 0.0675639 -0.169581 -0.126435 0.033641 0.184918 -0.0328651 -0.107729 
w1 0.00790834 -0.225713 -0.0499648 -0.0328042 -0.0421653 -0.242104 0.140647 0.162677 -0.00144355 0.10478 -0.130408 -0.203859 0.275599 0.152131 -0.414383 0.00533289 0.191359 0.0838369 0.0148637 -0.0539535 0.191202 0.190746 0.358111 0.277643 0.0217944 0.00874621 -0.103453 0.244857 0.0642438 0.00413849 -0.0717256 -0.101469 -0.0635329 0.116898 0.0954526 0.0321806 -0.00324266 -0.206634 -0.133967 0.188105 -0.220515 -0.0550181 -0.0784896 -0.18645 0.138415 0.272113 0.0578538 0.176485 0.260374 0.380406 -0.0461658 -0.255633 0.178845 0.16323 0.0206446 0.532423 -0.27015 -0.084549 -0.277045 0.0343216 -0.271001 -0.181041 -0.00931777 0.15661 0.0602724 0.10666 -0.156274 0.236024 0.180813 -0.142938 -0.0524788 0.110624 0.0314351 0.0464722 -0.160139 0.0218419 -0.550152 0.0551867 0.0435963 0.0414523 -0.0285516 -0.0701106 0.0963552 0.0815451 -0.0688649 -0.0307064 0.171158 -0.0857863 -0.0313306 -0.221711 -0.25131 0.16248 0.0933776 -0.241956 0.0188915 0.346134 0.0788197 -0.195693 0.0688688 -0.160572 0.422176 -0.147818 0.0638451 0.228856 -0.140072 0.135278 0.0399397 0.0555894 0.0380085 0.221311 -0.277688 -0.0133881 0.128607 0.029752 0.285024 -0.267803 -0.156337 0.0345216 0.0352682 -0.0123878 -0.0289831 0.115768 0.326198 0.340799 0.397628 -0.135509 -0.0896084 0.321699 0.0081531 -0.184651 0.540575 0.133757 -0.0243867 0.292727 0.239303 -0.0806454 0.00496134 -0.130963 0.275231 0.0779726 0.159144 -0.0835435 -0.0379303 -0.102871 0.0446228 0.20316 0.137523 0.186736 -0.106801 0.0544321 0.0486296 0.231727 0.243577 -0.0644904 0.0214282 0.0745304 0.0606006 -0.0304553 -0.0759098 0.0242835 0.0230838 0.163962 0.0938923 -0.0877846 -0.087426 -0.0809579 0.449319 -0.152169 -0.226444 -0.146759 0.0183625 -0.169759 0.0581526 -0.0900084 0.263998 -0.133477 0.219568 -0.0412971 0.139401 0.0239786 -0.0143524 -0.188209 -0.164845 -0.0483786 0.277606 0.375225 0.141315 0.107385 0.0670426 0.230542 -0.0173153 0.107246 0.071499 0.0620954 -0.285996 -0.0931091 -0.000905988 0.133001 -0.136377 -0.112947 
V7 -0.0242035 0.0744429 -0.094898 0.0717161 -0.121471 -0.0401144 0.296931 -0.189502 0.0685702 -0.0969673 -0.00716089 0.309079 -0.014007 0.13989 0.0042708 0.0423945 0.0360811 -0.181104 0.046169 -0.221806 0.0871665 -0.244366 0.0656009 0.333314 -0.0581673 0.167766 0.00605662 0.0430812 -0.0286351 -0.107409 -0.202408 -0.113194 -0.00830271 0.10764 -0.187538 0.148566 -0.0578737 0.180624 0.155876 -0.119663 -0.177566 0.129304 -0.0502113 -0.356995 0.175855 0.082484 0.0840679 0.129241 0.00771687 0.0334473 -0.244602 -0.295244 0.114364 -0.00725249 0.410387 0.0784845 -0.0912185 0.0482431 -0.0251707 -0.0391726 0.0567515 0.160733 -0.398772 0.0803876 -0.056026 0.238911 -0.0424036 0.12898 0.0389764 -0.180317 0.0569314 0.200652 -0.223549 0.15184 -0.0392325 -0.00535312 -0.0021729 0.0658736 -0.113879 0.214706 -0.104606 -0.125982 0.0325423 -0.0711433 -0.0163925 -0.00160055 -0.0141482 -0.0397463 0.0597487 -0.0599783 0.074698 0.0066839 -0.46432 -0.213038 -0.121005 -0.0572056 0.0456646 0.0583832 -0.00891362 -0.227274 0.0691207 -0.0985754 -0.104388 0.189342 -0.228844 -0.101442 0.184368 -0.0187874 -0.0787643 0.00793046 -0.155223 0.0380396 -0.0399349 -0.0301688 -0.11672 -0.0321993 0.162114 0.0366224 0.0869018 -0.00499724 -0.0190071 -0.0279729 0.424011 0.170755 0.0407251 -0.161133 -0.0907377 0.0356455 -0.0241468 0.0619103 -0.107364 -0.159594 -0.200443 0.279478 0.115973 -0.0605503 0.169039 0.292964 -0.0278584 0.271854 0.117031 0.0360427 0.0469326 0.142646 0.0564241 0.375211 0.0726948 -0.0221621 -0.0438616 -0.123071 0.135039 0.108555 0.0224153 -0.282523 0.127971 -0.266512 0.075777 0.112542 -0.103653 -0.0860602 0.282676 -0.254973 0.194613 0.0146643 -0.067541 -0.185 0.155696 0.0158824 -0.123232 0.220469 -0.05435 0.19722 0.154173 -0.200824 0.149047 -0.153417 0.00330952 -0.161928 -0.107835 -0.0573936 0.174825 0.0641655 -0.037861 -0.0257072 0.111775 0.110001 0.14788 -0.0651406 0.0522158 -0.130169 -0.318664 -0.00259766 -0.0646224 -0.0559315 -0.133911 -0.258476 -0.243087 0.0296985 0.130636 -0.0564778 
w1dim 0.00358656 -0.0346759 -0.00569767 -0.0140688 -0.0090729 -0.0693256 0.135624 0.00144661 0.0112105 0.0383727 -0.00265019 0.00154842 0.14431 0.104191 -0.157235 0.0496619 0.00499273 -0.0191516 0.0222608 -0.0608356 0.0147364 -0.00324055 0.0965499 0.162077 -0.0379968 0.0379373 -0.0456329 0.0724043 -0.0126599 -0.0462673 -0.0228132 -0.0616795 0.000257817 0.0335021 -0.0212309 0.0598793 -0.0475437 -0.055599 0.0293109 0.0531364 -0.113153 0.0780004 -0.0154084 -0.1595 0.140799 0.0390883 0.0586935 0.156175 0.104699 0.189927 -0.124409 -0.113327 0.0754726 0.0151753 0.066899 0.170255 -0.11376 -0.0436378 0.0185644 -0.00141506 -0.0214971 0.0408265 -0.0912867 0.062777 0.00134536 0.0359608 -0.0365184 0.117951 0.0350503 -0.113683 0.0234559 0.0863401 -0.0640834 0.0816559 -0.0921504 -0.0454525 -0.194909 0.0482882 0.00959556 0.0556785 -0.0250831 -0.0638169 0.0339215 0.00380665 -0.00975881 -0.00951333 -0.00203816 -0.00210527 0.0656031 -0.0396383 -0.056119 -0.00348273 -0.0474393 -0.140271 -0.00150868 0.0724339 0.00791236 -0.0751346 0.0107297 -0.0841876 0.124523 -0.0320833 -0.018522 0.0992955 -0.106915 0.00176337 -0.00638047 0.0843588 -0.0377918 0.125752 -0.146451 -0.0203219 0.0269461 -0.0135156 0.0530043 -0.106927 -0.0204906 -0.00984114 0.0156764 -0.0107963 0.0144829 0.0208724 0.232735 0.158128 0.0777052 -0.0346273 -0.00386935 0.118369 0.0244681 -0.0750381 0.183394 0.0276267 -0.0895897 0.176256 0.0475605 -0.0161788 0.123452 -0.00996923 0.059589 0.141845 -0.00765212 -0.0402839 0.00118773 -0.0256755 0.0286105 0.1831 0.064634 0.140303 -0.0318155 -0.0324407 0.0601126 0.0239177 0.0106455 -0.119321 0.0207487 -0.0705194 0.0223146 0.0539432 0.00178826 0.0407818 0.0725394 -0.0549965 0.0570829 -0.0472968 -0.0308737 -0.0545356 0.0996004 -0.120748 -0.0529815 0.000555184 0.0592272 -0.0540565 0.0789639 -0.0284037 0.104413 -0.0314154 0.0498079 -0.0832943 0.0553891 0.00230442 0.00550818 -0.116076 -0.0458869 0.00967156 0.100229 0.0988478 0.0458653 -0.00727216 0.0993491 0.0280362 -0.0804213 0.0677857 -0.00409382 0.0148446 -0.133997 -0.0421197 -0.0579267 0.0632424 0.0215871 -0.0572268 
v 0.044272 0.101015 0.0528324 -0.0272711 -0.00529547 -0.086844 0.286178 -0.0424255 0.0603153 0.0394015 -0.00931398 0.0528509 0.168732 0.141565 -0.15976 0.159962 -0.0672667 -0.107061 0.197864 -0.122985 0.156351 0.0343939 0.216773 0.259348 0.00295264 0.128787 0.040423 0.134827 0.0231091 -0.0204916 -0.0486293 -0.113703 -0.015718 0.0374523 -0.0379905 -0.084525 -0.0517276 0.0262435 0.122298 0.101632 -0.218313 -0.0417394 -0.273076 -0.154872 0.35319 0.162537 0.229782 0.147238 -0.0392896 0.109653 -0.160917 -0.0963857 0.168346 -0.060402 0.119682 0.196366 -0.128026 -0.109414 0.197611 0.0496143 0.0418885 0.157679 -0.155866 0.148503 0.0266552 0.0255476 -0.0969167 0.171803 0.201895 -0.213354 0.00300243 0.0639483 -0.0526526 -0.0150417 0.0659985 -0.0442751 -0.26919 -0.0375152 -0.181954 -0.0696472 0.0342176 -0.0407046 -0.0449475 -0.00236015 0.101445 -0.0144856 0.00329604 -0.0435341 0.0540467 -0.0481269 -0.00902519 0.0567664 -0.13861 -0.115753 -0.0939773 0.102419 0.0653423 -0.0502446 0.0326898 -0.0629264 0.0778404 -0.0273842 0.0518155 0.109916 -0.253465 0.313974 0.0715842 0.137769 -0.170866 0.143303 -0.120554 0.0250762 0.0290218 0.0840536 0.12772 -0.034502 -0.000987807 0.0291167 -0.0260582 -0.0494828 0.186399 0.0209461 0.234493 0.20328 0.117398 -0.118926 -0.045073 0.298773 0.00560118 0.151561 0.230591 0.177088 0.0309009 0.240269 0.146785 0.0896498 0.161756 -0.0566785 0.00584974 0.167567 0.0411755 0.0418653 0.0325331 -0.0508131 0.0587766 0.0920576 0.0547439 0.203252 -0.177672 -0.00143629 0.0136318 -0.0541367 -0.108513 -0.194775 -0.0796759 -0.180782 0.0663095 0.0635226 -0.116171 0.0557965 0.313108 -0.183925 0.0706353 -0.0463356 -0.0814141 0.0386199 0.0631666 -0.179643 -0.0123067 -0.176915 0.193212 -0.0720114 0.158993 0.0870988 0.193141 0.0115082 0.129941 -0.0422248 -0.121169 -0.0330197 0.0803374 -0.0587169 -0.0185593 0.0323046 0.110543 0.266291 0.119504 -0.0305955 0.0898846 0.120101 -0.220376 0.201695 0.0427548 0.0418359 -0.0288953 -0.157703 0.114752 0.242225 0.0795703 -0.118207 
V -0.221129 0.195412 0.110644 0.00736245 0.00219699 0.0686935 0.14517 -0.064236 0.123895 0.135845 0.013484 -0.0168808 -0.0517998 0.249119 0.00400402 0.218335 0.149624 -0.0464869 -0.00986355 -0.0478489 0.135386 -0.0403231 0.0557752 0.18417 -0.182829 -0.109738 0.0881836 0.0282209 0.0124262 -0.0934981 -0.0287002 0.090647 -0.147702 -0.0258247 -0.034764 0.0392101 0.0681817 -0.102459 -0.086195 0.038089 -0.0343851 0.0579227 -0.0221911 -0.0793033 -0.0521143 0.162266 -0.0137878 0.0954842 -0.0466019 -0.111851 0.0203904 -0.0953848 0.0220276 -0.266212 0.112483 0.125119 0.16812 -0.0156134 -0.0337048 -0.0780321 0.0940757 -0.112121 -0.129547 0.0182447 0.159126 0.127279 -0.15385 0.0277424 -0.0931074 -0.0849885 0.0257007 -0.0974424 -0.0204359 0.115319 0.113237 0.117867 -0.12693 -0.0638816 0.0103837 -0.0282874 -0.259667 -0.18482 0.124435 0.00463869 -0.0195407 0.030475 0.0156976 -0.0433182 -0.120972 -0.0932693 0.184391 -0.215225 -0.0993581 -0.036026 0.0325842 0.210523 0.10317 0.0316884 0.134545 0.0543717 0.106551 -0.0625485 0.0676793 -0.053378 -0.126939 -0.123318 -0.0103802 0.0444464 0.0613502 -0.0173668 -0.113802 0.221047 -0.11395 0.0810366 -0.00107667 -0.15675 -0.0959024 -0.0142761 0.082051 -0.0251564 -0.107214 -0.039513 0.181071 0.0776614 -0.00452584 0.00479008 0.0273201 -0.0242757 0.0643023 -0.0732733 0.0159395 0.0560876 0.022957 0.156456 0.0611702 0.101022 -0.0503332 0.228077 0.170499 0.0305348 0.049799 0.077327 0.17399 -0.0784757 0.211437 0.207437 0.125422 0.0638433 -0.113303 -0.0617941 -0.0906353 0.114886 0.0550766 0.0747376 0.110487 -0.0587571 -0.162639 0.167156 -0.0472463 0.0774559 0.0633629 -0.0372964 0.157293 -0.149078 0.0537278 0.0527299 0.185624 -0.0441616 -0.110682 -0.0982122 -0.122287 -0.0161623 -0.0410532 -0.198275 0.0980224 -0.173557 0.0202481 0.0146216 -0.12447 -0.0518965 0.217935 -0.0329198 -0.0496099 -0.159896 0.112629 0.00691775 0.0319028 -0.134739 0.062594 -0.18004 -0.0679368 0.0582592 0.00111896 -0.110091 -0.0690117 -0.0406666 0.0594086 -0.0139817 -0.067047 -0.0274825 
w8m 0.00305532 -0.126969 -0.0419049 -0.10685 0.105877 -0.192834 0.0280652 0.227709 -0.0277399 0.153213 -0.0645938 -0.225534 0.271551 0.105175 -0.339902 -0.048802 0.111356 0.0861898 -0.0351811 -0.00635712 0.0386093 0.14793 0.1744 0.0976618 -0.0287987 -0.0757145 -0.143674 0.130824 -0.00444503 -0.00368347 0.0820621 -0.0984016 -0.0489593 0.0519161 0.0957153 0.108142 -0.0402759 -0.239221 -0.115948 0.223789 -0.0823165 0.0485289 0.0365026 -0.103094 0.114546 0.102721 0.0641142 0.219387 0.364121 0.336856 -0.0251354 -0.046039 0.104335 0.105633 -0.0987163 0.331813 -0.224538 -0.0973266 -0.0745259 0.0845126 -0.169428 -0.125967 0.106677 0.156159 0.00537923 -0.0025151 -0.0327141 0.20954 0.000402308 -0.147953 -0.0142156 0.106894 -0.0342172 0.0581785 -0.221917 -0.0694619 -0.398603 0.0951856 0.166863 -0.03598 0.0287602 -0.059212 0.046168 -0.00102107 -0.0172679 -0.0957244 0.00806516 -0.0583795 0.0599848 -0.127884 -0.213097 0.0779492 0.233122 -0.148378 0.121855 0.263549 0.050286 -0.154159 0.0751655 -0.0646348 0.293512 -0.0522358 0.005794 0.1171 -0.0350072 0.0594441 -0.0638016 0.141456 0.00569064 0.266994 -0.17256 -0.10934 0.1108 -0.0327932 0.182391 -0.206962 -0.170254 -0.0421782 -0.0542583 -0.0288644 -0.0613935 0.049012 0.188546 0.22357 0.175866 -0.0125218 0.0685742 0.189424 -0.0298219 -0.275429 0.408266 0.107892 -0.0426519 0.16639 0.0172028 0.00418369 0.0356038 -0.158913 0.0874821 0.10384 0.0216731 -0.167629 -0.00688693 -0.201989 0.035533 0.134553 0.119552 0.215537 0.024606 0.00707792 0.0774602 0.0693493 0.112451 -0.0672803 0.035966 -0.0303902 -0.00635654 0.0148762 -0.0145529 0.119488 -0.0142434 0.0978986 0.00348943 -0.0558144 -0.0864049 -0.0149406 0.186649 -0.167293 -0.140041 -0.0335344 0.111625 -0.182364 -0.00809908 -0.0580668 0.0959184 -0.0173347 0.132443 -0.0735714 0.142782 0.0219692 -0.0808867 -0.182106 -0.0973496 -0.0624776 0.134841 0.156504 0.0267677 0.103758 0.10178 0.124074 0.114154 0.13983 -0.016875 0.0161865 -0.179188 0.0431032 -0.0173366 0.0462979 -0.132918 -0.0271658 
w3m -0.076315 -0.251738 -0.0497859 0.0164907 0.0956668 -0.302937 0.165368 0.1729 0.0251079 -0.0547089 -0.029812 -0.125128 0.0823277 -0.0455186 -0.354204 0.00452073 0.199686 0.0561082 0.12117 0.0269175 0.0703263 0.166542 0.199277 0.18356 -0.0456366 0.0946966 -0.170946 0.122758 0.0687561 0.0589781 0.119079 -0.0925786 0.00969819 0.0507181 0.00579978 0.0115463 0.169564 -0.109191 0.0691937 0.0681245 -0.124363 0.198545 -0.00179621 -0.12989 0.185057 0.162007 0.146687 0.144103 0.229805 0.239729 -0.0982612 -0.349716 0.243473 0.101069 0.111939 0.280589 -0.341896 0.0756172 -0.110958 0.126605 -0.144122 -0.0240059 -0.0959664 0.310066 -0.118362 0.0928485 -0.0248477 0.21726 0.111611 -0.107404 0.053135 0.0933411 -0.149553 0.0744774 -0.224643 -0.0763024 -0.245791 0.0217405 0.0957545 0.189086 -0.0153461 0.120567 -0.0854512 -0.104637 -0.0343756 -0.0653758 0.196442 -0.00808782 -0.0487062 -0.173909 -0.244398 0.209453 0.0953864 -0.072859 0.202316 0.204104 0.0372165 -0.141012 -0.0477283 -0.188522 0.302452 -0.0607972 -0.0407904 0.275582 -0.056115 0.0502537 0.0402428 0.0196572 0.025877 0.210129 -0.0955109 -0.0458657 0.213028 0.0340661 -0.0246103 -0.203281 -0.161279 0.201184 -0.100488 0.121135 -0.0424419 -0.0318559 0.366066 0.295897 0.255755 -0.0240571 0.0343284 0.242326 -0.139704 -0.0554195 0.370702 0.0954933 -0.284438 0.254296 -0.0162078 -0.0556857 -0.00721167 -0.116657 0.130118 0.0221031 0.00993269 -0.274166 -0.0582767 -0.0905941 -0.113928 0.118245 0.0962261 0.00124694 -0.0192487 -0.086856 0.0422157 0.13852 -0.0123891 -0.160563 0.0337959 -0.0617949 0.0892432 0.0337787 -0.145663 0.0695611 -0.0118771 0.0797659 0.0481932 0.0222413 0.00842761 -0.0838727 0.254992 -0.130532 -0.0819916 0.138836 0.164121 0.00346636 0.00173255 -0.109634 0.189522 -0.046711 0.196788 -0.0802691 -0.00902633 -0.0158799 -0.102372 -0.0706028 -0.0795131 -0.116532 0.151466 0.11124 0.091308 0.0664657 0.0136957 0.339346 0.0361676 0.0720156 0.0046485 0.0477806 -0.225722 -0.158411 -0.128701 0.0749462 0.0198138 -0.0437931 
VIdim -0.00827668 -0.0115719 -0.00300483 -0.0100202 0.00736722 -0.051268 0.0712967 0.0192976 0.0134885 0.0308232 -0.00381581 -0.0179061 0.080541 0.0588456 -0.0982576 0.0276643 0.00810747 -0.0127502 0.00846619 -0.03894 0.0271458 0.00194454 0.0622779 0.0882268 -0.0133284 0.0133563 -0.0233899 0.0363048 -0.00959928 -0.0191415 -0.0104761 -0.0483344 -0.00826814 0.0165105 -0.00415967 0.0379203 -0.0235095 -0.0482103 0.00252998 0.0444642 -0.0594213 0.0381438 -0.00717565 -0.0764746 0.0810825 0.0392654 0.0295503 0.0818063 0.0769496 0.101236 -0.0523453 -0.0560283 0.0457378 0.00526086 0.028809 0.0986953 -0.0580101 -0.032022 0.0134852 0.0113746 -0.0239466 0.00439492 -0.042996 0.0485844 0.0108203 0.0267408 -0.0289954 0.0743823 0.0111112 -0.069931 0.00807213 0.0456375 -0.0461022 0.0449696 -0.0519067 -0.0283343 -0.118471 0.0195994 0.00902196 0.0213171 -0.0236597 -0.0333818 0.0243609 -0.00366547 -0.00974999 -0.00502835 -0.00922026 -0.00662938 0.0227834 -0.0332472 -0.0301735 0.0021156 -0.012653 -0.0671089 0.0185009 0.0580077 0.0149833 -0.033075 0.00760907 -0.0514499 0.0854051 -0.0284587 0.00326696 0.0624007 -0.0592243 0.0145055 -0.00193386 0.049858 -0.0171848 0.0785361 -0.0787091 -0.0049483 0.0216238 -0.00101554 0.0374346 -0.0653712 -0.0208956 -0.00573674 -0.00230719 -0.0145392 -0.00516818 0.00803684 0.127017 0.0865049 0.0388799 -0.017579 -0.00012652 0.0748768 0.00649479 -0.048531 0.114362 0.0296314 -0.0504393 0.103293 0.0258158 0.00431908 0.0494948 -0.00607315 0.0205016 0.0834882 0.00254172 -0.0274544 0.00641341 -0.0296102 0.0303796 0.0936923 0.045206 0.0827981 -0.025711 -0.0222526 0.0242795 0.0260436 0.0208255 -0.0638377 0.0120658 -0.0439466 0.00836663 0.0287711 -0.0115048 0.0396256 0.0463517 -0.0263274 0.0306293 -0.0305551 -0.0287162 -0.0172463 0.0698785 -0.0639971 -0.048626 -0.00499184 0.0381248 -0.0330319 0.0319051 -0.0290223 0.0554489 -0.0234674 0.0372541 -0.0442729 0.0150146 0.00510734 0.00596773 -0.0574913 -0.0309553 -0.0208881 0.0553754 0.0555137 0.0195931 0.0036303 0.0583368 0.00929474 -0.0350025 0.0525783 0.00113179 0.00169728 -0.0733097 -0.0261624 -0.015113 0.0406077 -0.00635819 -0.0311075 
ii -0.202826 0.180589 0.0647923 -0.00494447 0.0608161 -0.0129819 0.0941353 -0.0412189 0.101631 0.054768 0.206952 -0.0263661 -0.00537594 0.158741 -0.090209 0.215961 -0.0209689 -0.111605 0.00267334 -0.0979008 0.0724367 0.0299997 0.0858842 -0.0114262 -0.0745467 -0.0164806 -0.00130075 -0.0809332 -0.0768088 -0.0228575 0.0142988 -0.00544201 0.00321659 -0.00701408 -0.0464613 0.0871728 0.0579309 -0.133086 0.0807094 -0.000104997 -0.0245531 0.204467 0.00268094 -0.0938223 0.222864 0.0976255 0.0443799 0.133591 -0.0270404 0.102171 0.0463667 -0.0176866 0.0691385 -0.212835 0.0936861 0.0231206 0.0759254 -0.0621322 0.204853 -0.0434144 0.130623 0.0657048 -0.214607 0.128443 0.0719106 0.0309091 0.0296354 0.110066 -0.106195 -0.0218841 0.0636712 0.0577972 -0.197169 0.154226 0.0323138 -0.00692113 -0.127271 -0.0973815 0.0349008 0.101561 -0.251794 -0.0208207 0.0209779 -0.0407648 -0.0720209 0.115543 -0.102275 0.0286622 -0.112978 0.0402993 0.0596836 -0.195992 -0.0684462 0.0496262 0.125421 -0.0279393 0.0168639 -0.047464 0.0760189 -0.146657 0.0962479 0.0972695 0.0100294 0.185299 -0.173431 -0.0888472 0.0127696 0.0576324 0.0211349 0.0473684 -0.0887059 0.156016 0.0399513 0.127933 -0.0978367 -0.125734 -0.0045741 -0.00392366 -0.0575579 0.0378858 -0.154418 -0.0672994 0.180939 0.144612 -0.164212 0.122302 0.0533215 0.0255697 -0.0348989 0.019153 0.0445182 0.0159309 -0.194304 0.223645 -0.039334 0.0922185 0.0496416 0.162001 -0.094395 0.195932 -0.106774 -0.106594 0.0847863 -0.115288 0.13251 0.14851 0.0659594 0.141959 -0.124106 -0.149092 -0.084135 -0.00871566 -0.0742234 -0.191624 -0.0323306 -0.130277 -0.0282214 0.111917 0.0758755 0.125138 0.192646 -0.138167 0.0819162 -0.00153297 0.0131776 0.0542077 0.0890469 -0.0903152 -0.0827771 0.0272301 0.059868 -0.0343552 -0.0214906 -0.202579 -0.0145312 0.00788576 0.0160783 -0.0873917 -0.103959 0.0254284 0.156333 -0.0273131 -0.107186 -0.169656 0.0471322 -0.102328 -0.0360326 -0.109865 0.192887 -0.122601 -0.141755 0.132038 0.0816139 0.019 -0.146683 0.0587288 0.0820529 0.155477 0.0171554 -0.0781975 
IV 0.0146671 -0.0343867 0.0295839 0.189819 0.043162 -0.0690268 0.119889 0.0320189 0.186756 0.0362108 0.0306678 0.0891878 0.142504 0.225857 0.0527006 0.0925417 -0.0661108 -0.185986 -0.0415444 -0.18556 0.245712 -0.0837425 -0.0782704 0.192367 0.039798 -0.0261729 0.134214 -0.167592 -0.199865 0.00102008 0.0137455 -0.1339 0.14595 0.134567 0.0676334 0.108001 -0.106112 -0.083829 -0.0711465 -0.0247178 -0.0611075 0.0848247 0.10763 -0.087802 0.0534512 0.101172 0.0169716 0.00136704 0.0796999 -0.00801417 0.115311 0.0308323 -0.0404262 -0.0279323 0.0299295 0.144036 0.256287 -0.229857 0.184328 0.0224676 -0.00941481 -0.00284433 0.00338026 -0.0978106 0.23087 0.0748368 -0.191428 -0.122498 0.0413158 0.026254 -0.146265 0.0780229 -0.0674874 0.135527 0.0205431 -0.0641291 -0.0704294 -0.0861994 0.0601181 0.120422 -0.163551 -0.158937 0.143166 0.24231 -0.129381 0.013289 -0.198568 -0.0432321 -0.0880629 0.0600981 0.0638015 -0.0466985 -0.0873531 0.0802419 0.12274 -0.00183997 0.0303344 0.0574144 0.158704 -0.0912381 0.0451297 -0.175197 0.152544 0.0659111 -0.269693 0.00055725 0.228273 0.0838886 -0.0918694 0.05869 -0.167885 0.0757509 -0.0833195 -0.0686094 0.0775877 -0.152935 0.127723 -0.16597 -0.0123139 -0.0982689 -0.0182327 0.171028 0.112936 -0.00338211 -0.0878521 -0.0446472 -0.0967306 0.174467 0.0563227 -0.15734 -0.0587623 0.0267201 -0.142004 0.14392 0.045741 0.104041 0.213292 0.270486 -0.134668 0.147227 0.0799217 0.152963 -0.0323785 -0.100113 0.223141 0.18996 -0.0220293 0.176696 -0.22662 -0.111562 0.063268 0.183417 0.0899213 -0.124317 -0.139756 -0.0630305 0.00136422 0.105618 0.17392 0.173395 0.12696 -0.153125 0.0562119 -0.0403018 -0.119186 0.0371494 0.129145 -0.0950143 -0.201549 -0.00685439 0.0263449 0.113099 0.145586 -0.0579373 -0.10586 -0.0312249 -0.0075867 -0.0558195 -0.0649173 0.0380191 0.24565 -0.0424037 -0.115964 -0.00106606 -0.0219479 0.0389952 -0.165124 -0.036211 0.114329 -0.218894 -0.201839 -0.0663794 -0.074778 -0.0791247 -0.00581447 0.0151415 0.0663176 0.144474 -0.0434407 -0.128412 
w0 -0.0929051 0.0173522 0.174993 0.0368734 -0.0202072 0.10352 0.0899021 -0.0479982 0.0407191 -0.0348269 0.148758 0.205217 -0.0373399 0.120012 0.000919504 0.0966837 0.00862637 -0.0214708 0.109458 -0.0278001 -0.07531 0.151892 0.0313774 0.135999 -0.0844161 0.0823066 -0.115323 0.0295723 -0.0308665 0.0989774 -0.0289902 0.0954629 0.111502 0.185433 0.0294642 -0.0121392 0.0643428 -0.0583472 0.103647 -0.0854544 -0.0293258 0.0592115 0.193905 -0.101992 0.0297659 0.0384658 0.195113 0.0939775 -0.135367 0.00990472 -0.0456783 -0.129121 0.148768 0.0187728 0.0665097 0.253167 0.141601 0.0145432 0.0795119 -0.0719046 0.0684581 -0.089942 -0.116967 0.0150272 0.123943 0.234098 0.00624724 -0.0128617 0.0002307 -0.0388282 0.00743681 0.056987 -0.159698 0.0628416 -0.108138 -0.164081 -0.0945731 -0.0420838 -0.0300687 0.229938 -0.175956 -0.106498 0.0890348 -0.079317 -0.00447388 0.0676035 0.149912 -0.102985 -0.110681 -0.00839174 0.0787276 -0.0751384 -0.164997 -0.0399458 0.0451831 -0.00707829 0.0452608 -0.120231 0.18489 -0.0300128 0.0453171 -0.0706281 -0.0747877 0.137681 -0.146787 -0.0421901 0.065257 0.162752 -0.0344639 -0.113387 -0.235326 0.160568 0.0603408 0.0206311 0.0162428 -0.0783017 0.178639 -0.112518 0.00371145 -0.0272085 -0.0743048 0.0267119 0.159174 0.100916 -0.0741051 0.0816875 0.0999183 -0.0336791 0.0939651 0.119015 0.0092341 -0.0166639 -0.145776 0.188513 -0.00498937 0.101762 -0.0563984 0.181549 0.0562279 0.203087 -0.0363371 0.0435535 0.0791038 0.065345 0.057592 0.257224 0.0162566 0.196748 -0.218312 -0.0254223 0.136517 0.0455908 -0.0920988 -0.113591 -0.103912 -0.0715164 -0.0210603 0.144565 0.165019 0.108919 0.0906674 -0.0718881 0.0674151 -0.106562 -0.00301764 0.02929 0.0584303 -0.0998233 0.06421 -0.0266174 0.175847 0.02326 0.0896036 -0.0441587 0.0551683 -0.0699733 -0.0802739 0.0818626 0.00707771 0.155771 0.0709284 -0.0113962 -0.0976209 0.0970028 -0.0394092 0.0870989 0.0297391 0.0197443 0.161739 -0.110509 -0.091567 0.0762159 0.0328155 0.0840595 -0.231721 0.0635262 -0.055736 -0.0186158 0.0822854 0.00626426 
vii 0.0421903 0.185539 -0.0339609 -0.214275 0.241065 -0.158906 0.0224958 0.188931 -0.0509414 0.258554 -0.037829 -0.200494 0.29053 0.153597 -0.246646 -0.051567 -0.0142068 0.0565767 -0.146322 -0.0866412 -0.0427885 -0.124207 0.0190406 0.0105621 -0.060556 -0.246265 -0.0825425 -0.0125405 -0.159079 -0.0724319 0.0583225 -0.20023 -0.118684 -0.00636602 0.0286071 0.249214 -0.167064 -0.275583 -0.107266 0.28974 0.00607321 0.151628 0.150377 -0.127208 0.0764392 -0.0800204 0.0426763 0.330936 0.48226 0.272594 -0.0423739 0.175158 -0.0565749 -0.0362072 -0.132621 0.0918947 -0.107014 -0.152639 0.166004 0.0563446 -0.0592864 -0.0618363 0.0367312 0.138561 0.0133232 -0.0235625 0.0659766 0.249183 -0.259736 -0.224979 0.00289279 0.131195 -0.157734 0.189616 -0.239411 -0.105998 -0.299022 0.177311 0.19075 -0.131241 -0.0341372 -0.220902 0.106117 -0.0473017 -0.00546812 -0.164073 -0.222288 -0.136971 0.121014 -0.113868 0.00834706 -0.147072 0.164223 -0.1486 0.184265 0.239048 0.0778259 -0.033108 0.151755 -0.0194101 0.178758 0.00274269 -0.0408827 0.0242412 0.0302876 -0.0224241 -0.107017 0.31038 0.00445798 0.356822 -0.18435 -0.134559 0.0598448 -0.122757 0.110433 -0.190826 -0.185872 -0.121614 -0.000590415 -0.132804 -0.17971 -0.0839459 0.200845 0.073358 -0.0816121 0.0637213 0.189305 0.0657147 0.0166065 -0.402671 0.186418 0.0862212 -0.0623892 0.139844 -0.111251 0.1764 0.109642 -0.0687993 -0.153552 0.306747 -0.0797991 -0.163473 0.145517 -0.33365 0.238783 0.170067 0.148683 0.345514 0.0842377 -0.0113078 0.0500635 -0.0375757 0.0733132 -0.154888 0.1457 -0.1705 -0.078616 0.130147 0.00902414 0.271851 0.0553429 -0.12442 -0.0609675 -0.0606815 -0.162349 0.0732923 0.07426 -0.0964604 -0.216787 0.0492614 0.131379 -0.138489 -0.014307 -0.173907 -0.0845222 -0.0131264 0.0014255 -0.124212 0.0568295 -0.00361313 -0.0544006 -0.164284 -0.0710663 -0.137758 0.0281308 -0.0664163 -0.0771164 0.05332 0.268843 -0.16866 0.149781 0.316496 -0.120542 -0.144523 -0.0797543 0.110317 -0.0138447 0.0485765 -0.188458 0.00903734 
III7 -0.0470037 0.321449 0.0451056 0.00342 -0.208661 0.122777 0.0107008 -0.154094 -0.163595 0.086493 0.139163 0.123779 0.139238 0.187316 0.0227385 0.00479614 -0.246171 -0.0609721 -0.234724 -0.0332338 -0.136809 -0.250722 0.273486 -0.00597413 -0.0569071 -0.00400987 0.052457 -0.00109031 0.0532442 -0.0937084 -0.487383 -0.034247 -0.0900415 -0.076251 -0.032492 0.169901 -0.221833 -0.0297965 0.0046222 0.106455 -0.159443 -0.0169087 0.0612666 -0.378097 0.183214 -0.0744925 -0.00835269 0.368943 -0.0154306 0.196926 -0.224542 0.1064 0.00988046 -0.0551496 0.157513 0.050012 0.00701685 -0.0135637 0.117788 -0.301716 0.0490844 0.128576 -0.303558 -0.0756077 0.000866373 0.150326 0.110558 0.21231 -0.311027 -0.232895 0.0987003 0.0808964 -0.0551101 0.0189538 -0.0766458 -0.0744631 -0.15684 0.171672 -0.192232 -0.0571006 -0.131166 -0.262932 0.278918 0.0703119 -0.202075 0.0591422 -0.0300194 -0.0958338 0.245102 0.163567 0.106029 -0.313068 -0.314064 -0.282411 -0.233167 -0.168901 0.0985101 -0.114378 -0.0234329 -0.0516445 -0.00453555 0.0977559 -0.240921 0.005462 -0.186518 -0.222412 -0.141838 0.0701064 0.0570445 -0.0318519 -0.409656 0.0819951 -0.100864 -0.168537 -0.00652969 -0.0814599 0.249567 -0.150571 0.2393 -0.18917 -0.0552052 0.0242197 0.214981 0.181701 -0.169776 0.0925859 -0.0313156 -0.208182 0.32016 0.151309 0.201187 -0.0470794 -0.0977757 0.198509 0.0577144 -0.0439211 0.13757 0.0943296 0.0643196 0.44056 -0.184444 0.013653 0.110676 0.0703711 0.279824 0.197012 0.0724259 0.182446 0.0540974 -0.0119061 -0.0246837 -0.166153 0.101446 -0.221127 0.204424 0.0410308 -0.0492144 0.136015 0.0447981 0.11854 0.182668 -0.161348 -0.00658047 -0.0958589 -0.152777 -0.0870086 0.0387131 0.0567576 -0.158204 0.0274351 -0.0739789 -0.189741 0.0258775 -0.214114 0.0105427 -0.116425 -0.160744 -0.0217585 0.174541 0.0793094 0.11402 -0.0808909 -0.0694036 0.00575536 0.027088 -0.0491835 -0.0012132 -0.105345 0.168692 -0.37691 -0.183113 0.327429 0.0752688 0.0844492 -0.351843 0.0918041 -0.0399469 0.106702 0.113987 -0.0416562 
II 0.0281242 0.182605 0.111674 -0.171227 0.140839 0.00768943 0.103616 0.0420998 0.0843213 0.211304 -0.0050188 -0.0460775 0.22724 0.248651 -0.111969 0.162219 0.0204701 0.0290984 0.0611916 -0.0903536 -0.0704025 0.0237456 -0.106069 0.120507 -0.0938417 -0.154935 -0.039182 0.053113 -0.0954834 -0.0581638 0.175252 -0.0268716 -0.0664241 0.0459812 0.0395507 0.0386492 -0.0917588 -0.180498 -0.0574731 0.178223 -0.00421692 0.0582205 0.0510882 -0.0172278 0.0376041 -0.0746781 0.149751 0.246372 0.146473 0.123847 -0.057896 0.0948568 0.0011781 -0.111062 -0.164982 0.174524 0.0396996 -0.14076 0.17329 0.0395899 0.0365868 -0.0489659 0.107168 0.0217535 0.0980297 -0.0475043 -0.0266568 0.0573551 -0.0915632 -0.162411 -0.0245491 0.00594055 -0.0547304 0.172915 -0.0592147 -0.0894311 -0.275754 0.0592773 0.110253 -0.0714111 -0.0424816 -0.152711 0.0365297 -0.0442034 0.107675 -0.108715 -0.159578 -0.0952112 0.0198163 -0.0987104 0.0978938 -0.172416 0.043879 -0.140349 0.0882145 0.2834 0.0396237 -0.0567767 0.207425 0.123957 0.0735258 -0.0473882 0.051028 -0.0607378 -0.0218541 0.0745395 -0.0511197 0.39154 -0.0409098 0.223269 -0.115132 -0.034141 -0.027025 0.0152796 0.176241 -0.0785655 -0.155728 -0.150476 0.0232226 -0.0909985 -0.0171979 -0.0602989 0.107909 0.0102287 -0.0193572 0.00290594 0.168559 0.114523 0.0330045 -0.284553 0.0748222 0.0639785 0.0763263 0.0895883 -0.0211827 0.215697 0.120038 -0.0262524 0.00800311 0.174983 0.00755245 0.0293405 0.172163 -0.223002 0.159497 0.225433 0.130328 0.41106 -0.0882451 0.0592613 0.0401011 -0.102822 -0.0945486 -0.0266156 0.0156618 -0.180979 -0.132777 0.195995 0.0877582 0.202667 0.0836029 -0.139874 0.00828534 -0.149651 -0.0316327 0.146668 -0.00581085 -0.228809 0.0428158 -0.182027 0.145385 -0.121788 0.111467 0.0998159 0.0563331 0.0175815 0.0130146 -0.037888 0.0126239 0.0523225 -0.00352615 -0.194079 -0.00967166 0.0610557 0.0513385 0.0644482 0.0215426 -0.00552148 0.259741 -0.111992 0.0336722 0.187383 -0.11942 -0.101586 0.0263842 0.0483757 0.0745966 0.0233555 -0.133108 0.0178292 
w17 0.0280088 -0.10491 -0.0228796 -0.0167055 -0.0281576 -0.0884398 0.232737 -0.014038 -0.00767839 0.0385385 -0.0162071 0.0243243 0.255299 0.0999969 -0.239242 0.0370261 -0.0471427 -0.0221585 0.0391639 -0.0837002 -0.0319163 -0.0335459 0.117149 0.285657 -0.0562378 0.121225 -0.098174 0.128616 -0.0152038 -0.0988029 -0.0358602 -0.119756 0.0148416 0.0231393 -0.0616265 0.10986 -0.0957187 -0.0436136 0.0782104 0.0534019 -0.193165 0.130677 -0.00793865 -0.266855 0.233089 0.00945312 0.0747013 0.234326 0.178187 0.312194 -0.272672 -0.209832 0.110504 0.0694562 0.114844 0.214437 -0.23319 -0.0367025 0.0359471 0.0244312 -0.042504 0.101837 -0.135552 0.0888397 -0.032409 0.0390855 -0.0425331 0.177799 0.0795419 -0.197163 0.0570986 0.153776 -0.126165 0.108697 -0.168193 -0.115292 -0.262402 0.0911806 -0.00976714 0.0992339 0.011959 -0.0919239 0.0409695 -0.0290809 0.0175458 -0.0177491 -0.00910905 0.0549911 0.18449 -0.0514499 -0.111745 0.0298616 -0.0709288 -0.2547 -0.0376929 0.0618251 0.00273805 -0.101991 -0.0641656 -0.13153 0.172811 -0.0513652 -0.0494308 0.125223 -0.148211 -0.01013 -0.06026 0.111325 -0.109706 0.182329 -0.203253 -0.0746423 0.0279061 -0.0673925 0.0736539 -0.134636 -0.00174373 -0.0178215 -0.00236587 -0.00753371 0.072441 0.0294471 0.370482 0.230782 0.116869 -0.0773539 -0.00561963 0.174995 0.0484735 -0.110446 0.29815 0.0295779 -0.160287 0.27258 0.048045 -0.0609708 0.230288 -0.056288 0.0890368 0.23524 -0.038162 -0.0627171 -0.0283572 0.0306514 -0.0175731 0.281229 0.102559 0.192052 0.00524699 -0.0615656 0.138596 0.0187836 0.00515972 -0.181956 0.0387647 -0.135574 0.0402453 0.0560786 -0.0176293 0.0383996 0.0879557 -0.0963471 0.0941671 -0.0740645 -0.0472661 -0.128701 0.0843352 -0.211693 -0.0402255 0.0534819 0.119107 -0.0864542 0.137962 0.0122502 0.184158 -0.0346971 0.0778073 -0.163304 0.116238 0.0113337 -0.0521833 -0.201431 -0.0409505 0.0391802 0.136571 0.155792 0.080387 -0.00913198 0.136345 0.0651947 -0.117864 0.0842678 -0.00872123 0.0350028 -0.210197 -0.0763891 -0.153498 0.0540889 0.0775008 -0.0656573 
II7 -0.0814249 0.172899 0.0950436 -0.0662778 -0.0929168 0.204198 0.257751 -0.257915 0.0683956 0.115614 0.153723 0.184747 0.180747 0.18611 -0.0161655 0.243376 -0.205786 -0.102593 -0.00135828 -0.218389 -0.203325 -0.195006 -0.123778 0.268469 -0.118501 0.100746 -0.026651 -0.00120775 -0.142035 -0.233707 -0.0432802 -0.0412832 0.00220969 -0.0816801 -0.180311 0.194235 -0.174191 -0.0528616 0.119374 -0.115553 -0.105576 0.232912 0.0997772 -0.205983 0.198886 -0.203052 -0.0742338 0.231022 -0.0426194 0.203025 -0.317175 -0.100793 -0.0670734 -0.177118 0.0752906 -0.0516503 0.0650793 -0.0534059 0.236863 -0.0950134 0.174264 0.169904 -0.230017 -0.102943 0.0840315 0.00179456 0.00140445 0.0598127 -0.134073 -0.160898 0.133702 0.110087 -0.275594 0.309032 -0.0119962 -0.123942 -0.0851645 0.0239967 -0.0652582 0.166942 -0.240221 -0.180119 0.126574 -0.130947 0.0774723 0.187193 -0.241233 0.199761 0.176312 0.0365601 0.205805 -0.35378 -0.286939 -0.265895 -0.100118 -0.0889399 -0.0666447 0.035524 -0.0818265 -0.0775227 -0.000431191 0.00421548 -0.00793552 0.0171148 -0.130188 -0.247485 -0.179099 0.196574 -0.107243 0.0219942 -0.170801 0.106067 -0.164016 0.0343965 -0.018795 -0.0398689 0.074451 -0.155206 0.0575514 -0.0459074 -0.034315 -0.113856 0.327984 -0.00647726 -0.23202 -0.00608931 0.0714007 -0.0356552 0.131939 -0.152587 -0.0297144 -0.113147 -0.15535 0.280194 0.00293179 0.0472548 0.276795 0.174209 -0.00286177 0.418767 -0.147958 0.109813 0.125031 0.192627 0.107138 0.461248 0.137025 0.327687 -0.0266571 -0.11701 0.0878845 -0.0650091 -0.0763167 -0.147418 0.04544 -0.24659 -0.0873994 0.180857 0.176977 0.0644964 0.12925 -0.287002 0.205321 -0.194744 0.0571323 -0.0789159 -0.0967007 -0.27392 0.0735566 -0.00265074 0.00493464 -0.0846993 0.174505 0.0327009 0.11616 -0.0212677 -0.0588446 -0.246855 0.0760228 0.0990537 0.0207207 -0.283164 -0.0183178 0.0390793 0.0645577 -0.0398759 0.0294896 -0.171341 0.349877 -0.333017 -0.212578 0.075181 0.00862982 -0.00890364 -0.164463 0.0258752 -0.117097 -0.034918 0.072634 -0.0245395 
III -0.0209425 0.184872 0.0644278 -0.00156438 -0.110742 0.0560214 -0.167846 0.038517 -0.100025 0.160646 0.0624336 -0.0977221 0.203154 0.326837 -0.0341582 -0.0476737 -0.0174316 0.087145 -0.256298 0.0844686 -0.0168346 -0.0103313 0.214855 -0.152825 -0.0595668 -0.232115 0.0245265 -0.00771492 0.0532327 -0.0016439 -0.264313 0.0586368 -0.0932212 0.101918 0.188248 0.096778 -0.116813 -0.133973 -0.232363 0.256087 -0.0340457 -0.153589 0.138294 -0.231257 -0.0853357 0.0619288 0.041651 0.304721 0.0988306 0.200698 0.108162 0.208834 0.0153079 0.0366212 -0.0194644 0.312233 0.074455 -0.0695065 -0.113105 -0.228196 -0.100736 -0.139374 0.0205256 -0.0748387 0.118413 0.0727849 0.0534848 0.0527733 -0.210117 -0.0619284 -0.0752522 0.0146326 0.194086 -0.0613761 -0.0768311 0.026987 -0.322311 0.156137 0.0764485 -0.145391 -0.0222079 -0.270044 0.264128 0.260237 -0.252157 -0.15642 0.00961844 -0.261673 0.0698174 0.13004 -0.0768985 -0.169697 0.0285682 -0.196334 -0.103086 0.0895674 0.132267 -0.260742 0.243202 0.0916536 0.106498 0.0659262 -0.144409 -0.0599083 -0.124617 -0.155578 0.000283031 0.136704 0.182291 0.0533476 -0.338701 -0.0143506 -0.0433656 -0.223332 0.175973 -0.178082 0.102935 -0.210338 0.212502 -0.150165 -0.0940941 0.183124 -0.0344504 0.264613 0.0654921 0.0742179 -0.0236068 -0.128447 0.253499 -0.0799343 0.273199 -0.0337305 0.0609083 0.0280081 0.0668645 -0.0308126 0.0683144 0.00878845 0.158549 0.137038 -0.0117409 -0.0242292 0.0685927 -0.241763 0.266798 0.0591991 0.0641294 0.211508 0.00328988 0.0982099 -0.0360417 -0.12001 0.186677 -0.0378783 0.142561 0.199853 -0.147326 0.0616128 0.13072 0.138634 0.0458631 0.0688969 -0.110346 -0.0166918 -0.163531 0.0387587 0.19193 0.091801 -0.184912 -0.0657577 -0.098123 -0.197388 -0.0391432 -0.181418 -0.034087 -0.100793 -0.119122 0.115561 0.270771 0.0553292 0.178575 -0.0548953 -0.133125 0.056693 0.0726674 0.0119783 -0.0233935 -0.0146846 0.0928949 -0.20462 -0.030607 0.206921 0.00571409 0.0456577 -0.272996 0.231017 0.0578608 0.120023 -0.0840833 -0.0371742 
Idim 0.00819037 -0.0765987 -0.00398745 0.022456 -0.0540752 -0.0738958 0.220655 -0.0321603 0.0126502 0.00945694 0.00145943 0.0468781 0.173802 0.0934033 -0.18225 0.064964 -0.038866 -0.0582071 0.0590692 -0.0864674 0.0475637 -0.0069375 0.158429 0.256902 -0.0237153 0.128794 -0.0410929 0.107846 0.00192524 -0.056063 -0.0749706 -0.0948826 0.024091 0.0322872 -0.0455092 0.0490965 -0.061306 -0.0147743 0.0842871 0.0217815 -0.18632 0.0761187 -0.0629355 -0.221111 0.227075 0.0767725 0.0742306 0.158415 0.067308 0.219823 -0.197318 -0.1923 0.119001 0.0359706 0.132765 0.202019 -0.151494 -0.0429302 0.0366654 0.00372362 -0.0237907 0.0903143 -0.163522 0.0733099 0.00256371 0.0637721 -0.0698577 0.14348 0.10988 -0.148882 0.031923 0.115346 -0.0926456 0.0672423 -0.0808442 -0.0695708 -0.222425 0.0228083 -0.0663124 0.0906762 -0.0235758 -0.0651748 0.0363741 0.00479785 -0.00325131 0.0286927 0.0254272 0.032714 0.0982014 -0.0371233 -0.0731044 0.032922 -0.109568 -0.17274 -0.0507647 0.0333118 0.0110699 -0.0745244 -0.0442893 -0.137897 0.145453 -0.0546611 -0.0123416 0.141197 -0.179091 0.0406592 0.00094676 0.0509574 -0.0935597 0.112257 -0.185903 -0.00241459 0.0222346 -0.0100486 0.0610267 -0.108448 0.026095 0.00456122 0.00196078 -0.0122697 0.0724469 0.0432895 0.312687 0.204287 0.105992 -0.0746431 -0.0492083 0.175986 0.0423038 -0.00105613 0.240986 0.055713 -0.124201 0.254504 0.0910749 -0.0409305 0.167201 -0.00948166 0.0783069 0.190834 -0.0096139 -0.0163926 -0.0310824 0.0502554 0.00752342 0.216798 0.0681171 0.136313 -0.0632597 -0.0570995 0.0847418 0.0504363 0.0115337 -0.163283 -0.011557 -0.093011 0.0638463 0.0434443 -0.0243943 0.0223736 0.12108 -0.085624 0.0948625 -0.0602969 -0.0404569 -0.0975542 0.113918 -0.161207 -0.053562 -0.0030806 0.0870972 -0.0562464 0.124294 -0.00102679 0.163692 -0.0435513 0.0800273 -0.108602 0.0501718 0.00655679 0.0102595 -0.133931 -0.0525299 0.0209197 0.123919 0.167224 0.0716357 -0.0211343 0.0918448 0.0621914 -0.15516 0.0694282 0.0323684 0.0525689 -0.178023 -0.0950435 -0.0733517 0.098132 0.0822118 -0.0886133 
VI7 0.0141741 0.197754 -0.0706774 -0.14043 0.1472 -0.229058 0.228912 0.033562 0.0316353 -0.019659 -0.00877611 0.126375 0.0661053 0.0733215 -0.171784 0.0400137 0.0720618 -0.085402 0.150541 -0.146409 -0.0595194 -0.139549 0.0437351 0.17724 -0.0914955 0.0369323 -0.0956871 0.0628466 0.00788121 -0.0145383 0.0404774 -0.173989 -0.0745886 0.0342287 -0.137737 0.0972041 -0.00469499 0.0142735 0.191695 0.1263 -0.104805 0.237321 -0.0559186 -0.230653 0.288458 -0.030643 0.312312 0.335152 0.235831 0.116492 -0.290628 -0.133539 0.205211 -0.0442552 0.19343 0.0527797 -0.295851 0.0343867 0.200586 0.0811019 0.0509265 0.19069 -0.235234 0.302326 -0.224253 0.125793 0.115356 0.318595 -0.119468 -0.343726 0.109148 0.165395 -0.293035 0.170501 -0.211644 -0.147044 -0.1153 0.159833 -0.00806965 0.086058 0.0239606 0.011331 -0.132213 -0.233695 0.0650081 -0.178107 -0.0405625 -0.144629 0.095134 -0.147103 0.0242955 0.00787535 -0.241395 -0.179763 0.115009 0.150709 0.079364 -0.016709 0.0397633 -0.12365 0.0877118 -0.00591453 -0.177354 0.193393 -0.0546424 0.0903092 0.0822736 0.262625 -0.0768732 0.28549 -0.0847693 -0.129496 0.138849 0.00307447 -0.108387 -0.00894596 -0.0744694 0.108716 0.0010427 -0.0235363 -0.0190517 -0.204737 0.411807 0.15726 0.0254731 -0.0368716 0.168443 0.125016 -0.144475 -0.0267392 0.0446475 -0.0151182 -0.214308 0.222367 -0.0874873 0.126099 0.12118 0.0117076 -0.122817 0.297935 -0.000821313 -0.217485 0.148341 -0.144001 0.049734 0.248414 0.124959 0.152224 0.0356875 -0.0647484 0.0793962 -0.130016 -0.192967 -0.362997 0.17652 -0.384511 0.0553406 0.222705 -0.198301 0.128519 0.283312 -0.306146 0.0216141 0.00546711 -0.0973325 -0.0144904 0.0264949 -0.0837001 -0.031173 0.192705 0.219233 0.0709627 0.12069 -0.107309 0.111368 -0.013146 0.0605896 -0.154982 -0.17667 -0.0343397 -0.0365681 0.0325249 0.0353817 -0.0580694 0.0383737 0.0197827 0.141921 0.0316678 0.139243 0.0203612 -0.0755745 0.280552 -0.158888 -0.0992208 -0.0450822 -0.250189 -0.160708 0.0658892 0.0531821 0.0244435 
VI 0.0580091 0.288025 0.00282633 -0.281337 0.178372 -0.101072 -0.0210018 0.0707351 0.0320698 0.167324 -0.00235434 -0.0339707 0.105901 0.361743 -0.156206 0.133328 0.235383 0.0402717 0.0466653 -0.0934503 -0.0716686 0.0679055 -0.0358673 -0.051761 -0.172092 -0.306833 -0.0997255 0.117575 -0.0791713 0.0175077 0.166119 0.0546649 -0.116106 0.174951 0.00787019 0.0563973 -0.0524696 -0.152405 0.000200058 0.284932 0.0668914 0.13065 0.00129122 -0.134576 0.00768276 -0.0322023 0.327371 0.380418 0.219636 0.198377 -0.0282515 0.128626 0.108845 -0.0962934 -0.0878103 0.266729 -0.0950982 -0.123373 0.0621072 -0.0562336 0.0981367 -0.0532717 0.00579902 0.11252 -0.0382497 0.0296623 0.153342 0.227484 -0.187682 -0.208636 -0.0110177 0.108642 0.0204616 0.220244 -0.181256 0.003441 -0.338105 0.209644 0.228332 -0.0736898 0.031896 -0.1357 -0.0760986 -0.0533512 0.044448 -0.253004 -0.0930167 -0.313007 -0.0553887 -0.121835 0.041458 -0.163327 -0.0287393 -0.176112 0.146318 0.364052 0.0121274 -0.180585 0.419668 0.0737332 0.102656 0.0566701 -0.0990427 0.106328 0.0296241 0.0593564 0.0957525 0.463582 0.0645107 0.340069 -0.139573 -0.163622 0.1308 0.0453304 0.0781591 -0.0492987 -0.214765 -0.114261 0.100176 -0.0463849 -0.141879 -0.126182 0.163049 0.167112 0.0825026 0.0930624 0.250636 0.024195 -0.112352 -0.326806 -0.0309291 -0.0503948 0.104228 -0.00399915 -0.0185294 0.203625 0.0551629 0.00773919 -0.0214649 0.15296 0.0894812 -0.166539 0.21345 -0.425637 0.164002 0.284581 0.0866518 0.391033 -0.0192394 0.115501 0.0614303 -0.199642 -0.121898 -0.159277 0.119246 -0.228324 -0.0677186 0.230537 0.0931377 0.107334 0.198797 -0.150761 -0.0657422 -0.0692393 -0.0340209 0.143346 0.0833542 -0.0773109 0.025226 -0.0950176 0.0949912 -0.0621654 0.0925134 -0.0893055 0.031208 0.0263072 -0.0607128 -0.0334236 0.00811474 -0.0716139 0.0261453 -0.055794 -0.0191297 0.0777608 0.0790066 0.0357074 0.124706 0.0672721 0.215053 -0.0684668 0.039463 0.212893 -0.191986 -0.138194 0.0334441 0.0478062 -0.0202892 0.0345163 -0.157841 0.0170742 
IV7 0.0996012 -0.0911686 -0.153327 0.0970689 -0.0999468 -0.220745 0.207617 -0.0501665 -0.00896314 -0.0922267 0.0105775 0.06144 0.157131 0.0567069 -0.205504 0.0425614 -0.141259 -0.214643 -0.0560341 -0.137959 0.189751 -0.12765 0.293662 0.146842 0.0874606 0.152374 0.0418926 0.0336607 -0.0421876 -0.0216005 -0.267283 -0.178063 0.111118 0.00958376 -0.0721754 0.0780279 -0.156327 0.0307911 0.187369 0.00911032 -0.257029 0.116171 -0.210144 -0.331328 0.422011 0.12382 0.0204871 0.138096 0.0779748 0.348974 -0.21074 -0.143581 0.108541 0.0751056 0.234884 0.115142 -0.224 -0.12382 0.116507 -0.0594805 -0.00619833 0.29388 -0.360166 0.0841111 -0.0901303 0.0126193 -0.0712546 0.237672 0.151404 -0.103954 0.0503602 0.206044 -0.0665571 0.0594232 -0.0850334 -0.0162433 -0.210696 0.0357541 -0.118303 0.0928924 0.0125414 0.000634812 0.0135686 0.147257 -0.160336 0.10079 -0.0336753 0.0851488 0.106736 0.0683074 -0.148169 0.0685183 -0.216683 -0.108685 -0.0738334 -0.177614 -0.0802019 -0.0881057 -0.133722 -0.351866 0.119291 0.0061398 -0.0222909 0.306512 -0.297229 0.0861023 0.081475 -0.0812134 -0.0928243 0.189013 -0.228786 -0.0572404 0.0823518 -0.00449409 -0.0309891 -0.136339 0.108421 0.0792633 0.049738 0.00161631 0.07571 0.15075 0.363628 0.277498 0.0807236 -0.00674155 -0.214237 0.236533 0.0360898 0.10577 0.264087 0.0650201 -0.217441 0.273264 0.167392 -0.166199 0.287358 0.0118843 -0.0627736 0.249792 -0.0470851 -0.0876752 -0.17304 0.0239252 0.0182319 0.170364 -0.0360688 0.0631533 -0.0638195 -0.104245 0.0319783 0.0633499 0.0308126 -0.356689 -0.0637684 -0.0140445 0.276646 -0.0132178 -0.017397 -0.0384206 0.217014 -0.121154 0.0379327 0.0815404 -0.0914259 -0.176694 0.182771 -0.0692683 -0.177413 0.0712712 0.0522861 -0.0463443 0.14591 -0.109774 0.0654852 0.0308051 0.0610848 -0.159647 0.0404442 -0.0745003 0.0407477 -0.0897573 -0.0652076 -0.0127761 0.134747 0.136115 0.0173723 -0.0217809 0.0514101 0.0762846 -0.319473 0.0446527 0.0909855 0.105071 -0.206884 -0.127354 -0.0451591 0.2921 0.175567 -0.235085 
I7 -0.0110371 -0.072643 -0.0121739 0.104873 -0.214392 0.065407 0.338555 -0.251338 0.0728922 -0.00686308 0.0320938 0.146089 0.181264 0.266248 -0.0961187 0.242961 -0.062207 -0.151437 0.0938817 -0.113797 0.0711277 -0.0752255 0.110318 0.367424 -0.132254 0.183609 0.0705893 0.159713 0.00600885 -0.204461 -0.0769657 0.00142014 0.0127711 -0.0167291 -0.15734 0.00667132 -0.0867142 0.134379 0.13958 -0.0634057 -0.248257 0.118815 -0.220627 -0.343163 0.262139 0.0608457 0.0317425 0.161948 -0.124946 0.210368 -0.300085 -0.270804 0.0869509 -0.103028 0.26688 0.154109 -0.121616 -0.0646294 0.0367289 -0.110163 0.155742 0.251078 -0.27167 -0.0681946 0.0408479 -0.00895302 -0.137689 0.0686662 0.188557 -0.113351 0.0519684 0.102047 0.0538351 0.108777 0.0770477 0.0796579 -0.17745 0.0115813 -0.107912 0.0760298 -0.0156287 -0.0975487 0.011364 0.123455 0.0178689 0.0692429 -0.0401962 0.152217 0.165875 0.0891332 -0.0158901 -0.0622934 -0.260341 -0.234649 -0.221159 -0.0372615 -0.0620316 -0.0619847 -0.0999433 -0.116662 0.064722 -0.00390555 0.0198732 0.0763685 -0.305287 -0.0864077 -0.0125179 -0.0280669 -0.137644 0.0659227 -0.152018 0.0293688 -0.142717 0.0271541 -0.0180681 -0.0705118 0.0443205 -0.0193875 0.0808484 0.0460851 0.207019 0.0781211 0.375951 0.275957 0.13442 -0.127117 -0.131228 0.160618 0.0645099 -0.00431874 0.14959 -0.0285076 -0.0583305 0.221027 0.172368 -0.138039 0.371078 0.0872734 0.204828 0.11137 -6.00226e-05 0.0944709 -0.0789562 0.141848 -0.0424758 0.309645 0.034522 0.09175 -0.052486 -0.112532 0.0717005 -0.0236107 -0.0283989 -0.106277 -0.0127977 -0.118288 0.0257374 0.0631123 0.0363023 -0.137926 0.171432 -0.159832 0.185635 -0.126087 0.0729077 -0.185582 0.044096 -0.217639 0.0491034 -0.0573282 -0.0931746 -0.0452148 0.196844 0.0838524 0.274493 -0.0272232 0.0492312 -0.191284 0.104472 -0.135506 0.155147 -0.204878 0.0139743 0.118349 0.216021 0.172313 0.125131 -0.19855 0.0372092 0.0386351 -0.364769 -0.114433 0.0328904 0.0386898 -0.103864 -0.113398 -0.116922 0.114463 0.193872 -0.164395 
VII -0.152256 -0.107719 7.37466e-05 -0.0469751 0.155558 -0.0665017 0.0065334 0.225804 0.0409281 0.260791 -0.0532127 -0.279629 0.264304 0.219425 -0.238881 -0.0323698 0.128337 0.0742295 -0.215061 0.02636 0.0274934 0.0167866 -0.0335698 0.130678 -0.155499 -0.211614 -0.0979683 -0.000240504 -0.0928173 -0.131481 0.147286 -0.0426648 -0.083774 -0.00532693 0.0965597 0.272152 -0.0522554 -0.326479 -0.274814 0.177262 0.00532755 0.15445 0.255462 -0.110116 -0.116509 0.0689586 -0.143347 0.200905 0.467413 0.240285 0.0590311 5.48083e-05 -0.0445746 -0.0307915 -0.0943596 0.253088 0.00484755 -0.0924889 -0.0948196 0.0726724 -0.125417 -0.240714 0.17563 0.0464768 0.141828 -0.0161498 -0.131063 0.0560309 -0.150615 -0.0654817 -0.0250895 0.0520799 -0.0556025 0.139861 -0.198849 -0.0157634 -0.309897 0.059212 0.34028 -0.0338748 -0.118138 -0.235378 0.184258 0.0593893 -0.0735871 -0.105314 -0.129178 0.0282862 0.066052 -0.0993483 -0.11686 -0.0819459 0.331531 -0.0974167 0.190436 0.282357 0.0866651 -0.0639606 0.105901 0.0287258 0.299027 -0.0897631 0.0522195 -0.0704028 -0.0251122 -0.251367 -0.152859 0.0882658 0.0444711 0.214081 -0.154393 -0.0357324 -0.0596798 -0.144949 0.122677 -0.322406 -0.194399 -0.158863 -0.0623208 -0.0232564 -0.176124 0.0932028 0.165163 0.138333 0.031829 0.0218501 0.104606 0.0206929 0.0521154 -0.522997 0.302513 0.0447235 -0.0982449 0.148153 -0.107172 0.00804924 0.0721807 0.0410142 0.119319 0.058348 -0.023992 -0.111241 0.0364969 -0.239888 0.13888 0.231238 0.187557 0.168578 0.0979444 -0.101798 0.0861847 0.171364 0.209714 0.0898238 0.11542 -0.0303834 -0.190537 0.067996 0.0649791 0.178996 -0.168156 0.116559 0.0759257 -0.105015 -0.0412896 -0.0318834 0.168339 -0.177088 -0.236032 0.0847429 -0.033072 -0.146942 -0.0965465 -0.188753 0.00417518 -0.106167 0.0704412 -0.105524 0.181393 -0.000605329 0.0426593 -0.242443 -0.103041 -0.18552 0.126152 -0.0357741 -0.119689 -0.0217696 0.113651 -0.120328 0.176197 0.0174616 -0.0906712 -0.109925 -0.184989 0.179081 -0.0830898 -0.121784 -0.181858 0.0205399 
w87 0.0219095 -0.210128 -0.0970832 -0.0586251 0.0306074 -0.237863 0.246237 0.101394 0.00265416 0.0625925 -0.0740766 -0.121057 0.306709 0.0585106 -0.412958 0.00689946 0.0510396 0.0125269 0.0474551 -0.101997 0.0490221 0.0341523 0.196825 0.302869 -0.0129969 0.107364 -0.147886 0.170601 -0.00809843 -0.0855571 0.0308761 -0.196093 -0.0167047 0.017545 -0.0392407 0.129225 -0.0540122 -0.13266 0.0371536 0.109353 -0.215404 0.158673 -0.0481527 -0.236833 0.284542 0.0926774 0.0395917 0.227354 0.327437 0.426 -0.234636 -0.277716 0.143166 0.115887 0.0857992 0.289633 -0.363862 -0.0505409 -0.0553403 0.111242 -0.155407 0.0470838 -0.105041 0.198383 -0.0650115 0.00985273 -0.0786977 0.265071 0.126237 -0.200006 0.0473388 0.189899 -0.157734 0.137292 -0.226376 -0.0876552 -0.38328 0.0831468 0.0641738 0.111232 0.0122311 -0.0196681 0.00416455 -0.0541814 0.00916122 -0.0222277 0.00102903 0.0704534 0.134718 -0.151365 -0.227761 0.125523 0.0530462 -0.254106 0.050083 0.179291 -0.000581644 -0.114838 -0.0988489 -0.228444 0.326141 -0.082918 0.00638253 0.231762 -0.112403 0.0498655 -0.0571655 0.0814558 -0.074949 0.298467 -0.176389 -0.1109 0.111082 -0.00725725 0.117265 -0.205667 -0.143682 0.0705618 -0.0534559 0.0309054 0.0168133 0.0147881 0.441863 0.288675 0.228512 -0.111813 -0.0175113 0.306417 -0.0553557 -0.21434 0.438087 0.0780401 -0.192638 0.334182 0.0731784 -0.0823157 0.187932 -0.142962 0.0964171 0.203713 0.00603379 -0.167072 -0.0645443 -0.0398132 -0.0566678 0.269745 0.150078 0.177226 0.0200002 -0.0721967 0.119534 0.118262 0.0811124 -0.197612 0.0451144 -0.123941 0.0880417 0.0138785 -0.0897389 0.0463906 0.0514324 -0.0132841 0.108274 -0.0492318 -0.0565557 -0.143654 0.22358 -0.243501 -0.130371 0.0581293 0.121391 -0.111832 0.0980196 -0.0335302 0.222523 -0.0341035 0.190035 -0.209611 0.115995 -0.00298882 -0.109664 -0.237727 -0.0815625 -0.0588502 0.219048 0.210842 0.102621 0.0487437 0.135404 0.201447 -0.0493085 0.0919557 0.008935 0.0316852 -0.23867 -0.127874 -0.136089 0.09229 -0.0125832 -0.0829032 
w1m -0.0272741 -0.0759517 0.0488164 -0.144561 0.0934865 -0.108786 0.00537829 0.173768 -0.017986 0.168618 -0.0165896 -0.184299 0.224511 0.172694 -0.298805 0.0400569 0.161261 0.139004 0.00100465 0.0218464 -0.0730613 0.204346 0.102361 0.0899201 -0.106541 -0.126166 -0.176446 0.15567 -0.00277046 0.011603 0.130528 0.017584 -0.0573164 0.0812121 0.0978693 0.0698266 -0.00510478 -0.269095 -0.0968904 0.206336 -0.0336077 0.0829027 0.111133 -0.0869281 0.0192901 0.0347965 0.118444 0.275909 0.270833 0.316687 -0.0443146 -0.0622234 0.119671 0.0543443 -0.145499 0.383052 -0.160348 -0.0572818 -0.0941533 0.0169983 -0.109168 -0.178934 0.119889 0.0977065 0.0346502 0.0292323 0.00426612 0.170983 -0.0556009 -0.145108 0.00563079 0.0573082 -0.0118091 0.118262 -0.236001 -0.0829104 -0.415897 0.110902 0.197741 0.0185421 -0.0273659 -0.0908482 0.0559781 -0.0375732 -0.000854837 -0.0975674 0.0602688 -0.0938656 0.0146598 -0.135066 -0.142702 -0.0339885 0.196515 -0.188579 0.138897 0.322279 0.0299211 -0.213635 0.171024 0.0261182 0.265215 -0.0421287 -0.0210203 0.0879968 0.0147075 -0.00802038 -0.0855605 0.258402 0.0534503 0.233877 -0.20529 -0.0770739 0.110756 -0.00891306 0.18286 -0.197303 -0.190642 -0.0801651 -0.00404426 -0.0122978 -0.0948647 0.00307451 0.192217 0.211401 0.165052 0.0471431 0.144925 0.111251 0.00647588 -0.304855 0.350366 0.0702868 -0.0210049 0.139729 -0.000277285 0.0483712 -0.00175134 -0.132065 0.184396 0.0957293 0.00844689 -0.154851 0.0654726 -0.206565 0.0460479 0.223221 0.132695 0.304847 -0.00523712 0.0570486 0.0833906 0.0171845 0.0450288 -0.0169768 0.0537091 -0.0166885 -0.0710835 0.0919453 0.0787059 0.131818 -0.0544195 0.10022 0.00338319 -0.127072 -0.0080843 0.02899 0.169189 -0.20271 -0.0285412 -0.0955357 0.116871 -0.193952 0.0209312 -0.0248989 0.129048 -0.0310813 0.0644023 -0.0331958 0.173723 0.0577497 -0.103083 -0.217668 -0.0917091 0.0139272 0.131546 0.12955 0.0575204 0.0863609 0.165167 0.081123 0.13657 0.140203 -0.0327687 0.01236 -0.204967 0.0899216 -0.0363092 -0.0206958 -0.133444 0.0086045 
VII7 -0.120212 -0.113356 -0.0375391 0.0217567 0.204369 -0.223726 0.0318797 0.220512 -0.0137565 0.0460811 0.0884621 -0.130505 0.162433 0.0148616 -0.248708 -0.068094 0.0194198 0.0196228 -0.143785 0.0378028 -0.111343 -0.0460135 -0.0123662 0.0234697 -0.103654 -0.0638419 -0.175608 -0.114853 -0.0903788 -0.00945311 0.111449 -0.139729 0.0506621 -0.0141438 0.0199367 0.266006 0.0236014 -0.242732 -0.00647792 0.0920819 0.00189966 0.39153 0.337786 -0.185057 0.0967575 -0.072668 0.0198246 0.289906 0.440258 0.286431 -0.0774149 -0.0907924 0.0679408 0.0322718 0.0201894 0.0866682 -0.161458 0.0193513 0.117136 0.0674505 -0.0728629 -0.00505436 -0.0525187 0.20323 -0.08603 0.0564306 0.076801 0.167069 -0.256174 -0.0963546 0.0737501 0.136934 -0.279338 0.193792 -0.369177 -0.204877 -0.124153 0.109079 0.271557 0.201704 -0.120372 -0.04312 0.0751257 -0.0638009 -0.164961 -0.089349 -0.0660238 0.0175987 0.084949 -0.0235582 -0.143185 -0.0478651 0.158998 -0.0359994 0.328487 0.0487296 0.0397537 -0.102982 -0.020437 -0.152196 0.209593 -0.00205867 -0.140297 0.16155 -0.0169752 -0.277446 -0.0935881 0.11245 0.0506868 0.247273 -0.188918 -0.0862673 0.122147 -0.17446 -0.13577 -0.275186 -0.0725388 -0.00217239 -0.0898543 0.0317678 -0.206782 -0.0319174 0.332299 0.174164 -0.100496 0.161719 0.159664 0.00190258 -0.0155036 -0.289312 0.25052 0.00403271 -0.466138 0.218262 -0.264038 0.00365569 0.114831 0.0131901 -0.0617442 0.234263 -0.207504 -0.326384 -0.00347784 -0.187236 0.0583989 0.203968 0.111174 0.112758 0.116998 -0.195722 0.0835277 0.0510763 0.00568841 -0.218095 0.118829 -0.0945904 -0.0261037 0.151285 0.044509 0.27428 -0.106505 -0.033018 -0.0353416 0.00693591 -0.0636574 -0.076455 0.0834676 -0.117014 -0.176515 0.352906 0.166429 -0.0223442 -0.054407 -0.241209 -0.0815217 -0.0208129 0.0141688 -0.153601 0.102117 0.0504311 -0.0824767 -0.148264 -0.097289 -0.176452 0.00537713 -0.22389 -0.155993 0.00871926 0.170131 -0.0452094 0.12218 0.135687 -0.0960382 -0.0344492 -0.286839 0.0909825 -0.214339 -0.0176668 0.00389186 0.0149567 
i 0.10718 -0.188613 -0.053399 0.107718 -0.0964051 -0.224177 0.277853 -0.00460041 0.074938 -0.0802859 -0.0260722 0.0789333 0.200086 0.139565 -0.244016 0.0838647 0.017662 -0.122282 0.174914 -0.145666 0.267173 0.0948067 0.318714 0.30828 0.0617939 0.173922 0.00730957 0.139929 0.0145587 0.0466949 -0.105099 -0.159857 0.0970593 0.162912 0.0234888 -0.0707336 -0.00101852 0.0339446 0.109094 0.0433518 -0.272084 -0.0147631 -0.208685 -0.226599 0.347723 0.243993 0.206237 0.089092 0.0076329 0.23769 -0.12923 -0.259211 0.225177 0.121948 0.211076 0.371015 -0.209956 -0.118539 -0.00286252 0.0291081 -0.0882691 0.106522 -0.206862 0.144586 0.0344065 0.116424 -0.158121 0.151803 0.307669 -0.114988 -0.0490433 0.161595 -0.022605 0.0192625 -0.0541115 -0.0330003 -0.329067 -0.0149491 -0.1307 0.122399 0.0213173 0.0213865 -0.0134941 0.137741 -0.0608195 -0.0007885 0.122849 -0.0635272 -0.0247599 -0.0311043 -0.156442 0.20303 -0.168357 -0.140668 -0.0425472 0.072768 0.0098062 -0.121849 0.00467461 -0.261196 0.217041 -0.122416 0.0413454 0.317705 -0.33747 0.233488 0.209405 0.0169619 -0.104475 0.165665 -0.217162 0.00257242 0.101749 0.0413367 0.139831 -0.162878 0.0545586 0.0813189 0.0305599 -0.0197223 0.134537 0.153009 0.346977 0.346278 0.286744 -0.149146 -0.165089 0.403861 -0.0310689 0.110471 0.32629 0.117766 -0.128961 0.298374 0.244729 -0.0576903 0.186287 -0.0132996 0.0758647 0.137165 0.126981 0.00101351 -0.123103 -0.0124028 -0.00158091 0.166341 -0.0107215 0.136544 -0.228596 -0.0386941 0.0810206 0.136098 0.0405263 -0.25557 -0.134671 -0.0224191 0.179747 0.000953375 -0.0398507 0.00271633 0.231996 -0.0711235 0.0683075 -0.00992677 -0.115735 -0.0936789 0.294161 -0.133173 -0.117185 -0.0759708 0.102572 -0.0149066 0.198927 0.0148896 0.215808 -0.0157587 0.151286 -0.0711429 0.0113213 -0.018083 0.101956 -0.0629083 -0.101529 0.0817493 0.166009 0.352149 0.129597 0.0422548 0.0317248 0.237354 -0.288975 0.0389686 0.0821669 0.0927359 -0.176682 -0.193041 0.0079395 0.306231 0.0656122 -0.21801 
iii -0.23394 0.112883 0.158291 0.056736 0.0957516 -0.0102758 0.114295 0.103278 0.0451092 0.120458 0.0229783 -0.0421139 0.00294375 0.111719 -0.0410269 0.0413595 0.107909 0.0346083 0.0214915 0.0456214 0.0565823 0.00349417 0.10015 0.207546 -0.162129 -0.0426815 -0.00216426 0.00509452 0.0690381 -0.00404036 -0.000313116 -0.0134044 -0.137645 -0.0248769 0.0452276 0.0676497 0.124221 -0.159531 -0.124963 0.105251 -0.0386869 0.0661746 0.167876 -0.0625714 -0.045493 0.141975 0.0849652 0.160338 0.111682 -0.153658 -0.000861705 -0.100186 0.10253 -0.152484 0.0836106 0.172279 0.0834719 0.0603687 0.025339 0.0209607 -0.0324759 -0.189974 -0.0151816 0.132727 0.125213 0.233405 -0.105722 0.0558982 -0.184676 -0.185091 0.010325 -0.0890001 -0.145915 0.0157568 -0.0584087 -0.0807114 -0.0974103 -0.0267138 0.00453095 0.00289254 -0.23049 -0.177004 0.172986 -0.0782427 -0.0376931 -0.0655042 0.11134 -0.136161 -0.0359228 -0.101907 0.112363 -0.0984559 0.0229289 -0.0204868 0.134344 0.236009 0.237398 0.0242208 0.0884072 0.0927585 0.152859 -0.123937 -0.0328777 -0.0671562 -0.0933383 -0.101169 -0.0474915 0.0801108 0.0344933 -0.0221691 -0.177054 0.199945 -0.0569126 -0.0671701 0.00677845 -0.192057 -0.0431704 -0.0107534 -0.0139028 -0.0936928 -0.0986266 -0.0663126 0.210592 0.0865804 -0.0378719 0.00417591 0.124779 -0.0193045 0.0871119 -0.00988121 0.176977 0.137132 -0.128331 0.211236 -0.0951751 0.168653 -0.133938 0.132481 0.140315 0.0994286 -0.0309858 -0.0113604 0.184938 -0.0826453 0.212732 0.11221 0.15916 0.044001 -0.0685393 -0.0957956 -0.0206234 0.118955 0.0671827 0.0405037 0.151208 -0.0708889 -0.211717 0.200581 -0.138759 0.266975 0.00612665 -0.0192351 0.0794951 -0.16647 -0.0586793 0.0681415 0.135487 -0.0405917 -0.162944 0.0319942 0.050851 -0.00776711 -0.0927094 -0.207765 0.0684888 -0.21059 0.0470104 0.0693648 -0.113293 0.057722 0.140819 0.00919038 -0.0734812 -0.195702 0.0138777 -0.0207697 -0.0353866 -0.0569019 0.0418868 -0.135331 0.0918352 0.216222 -0.035797 -0.0927034 -0.175404 -0.0380884 0.00901877 -0.0528653 -0.0596509 0.0743722 
iv -0.0120077 -0.206019 0.0640069 0.186209 -0.159812 0.0198803 0.294183 -0.129305 0.0753344 -0.0224137 -0.020061 0.07694 0.226577 0.16221 -0.106935 0.115901 -0.0613557 -0.0307117 0.0709318 -0.00927089 0.0574482 -0.0418 0.0718964 0.372171 -0.0839622 0.182707 0.0307729 0.0854013 0.0422914 -0.130382 -0.0484729 -0.0313061 0.0599844 0.0283604 -0.0275795 0.00153324 -0.0340587 0.0860385 0.030959 -0.0455975 -0.22862 0.0584665 -0.0348293 -0.267544 0.116843 0.0840548 0.0181216 0.11216 -0.0468799 0.166998 -0.223996 -0.305796 0.0908933 0.0328871 0.206639 0.251537 -0.0989954 0.00452432 -0.0596662 -0.0215867 -0.0325984 0.118253 -0.121817 -0.0433215 0.0731825 0.0207932 -0.187128 -0.0502023 0.239153 -0.0708367 -0.0046165 0.0314769 0.0465284 0.02658 0.0113333 -0.032226 -0.168437 -0.0136635 -0.0654091 0.118894 0.00790408 -0.120104 0.0912691 0.161115 -0.035191 -0.012558 0.0459765 0.119701 0.160432 0.0560679 -0.115489 0.0623162 -0.0986608 -0.223199 -0.144728 0.00845353 -0.00169916 -0.115779 -0.100055 -0.0423776 0.0956065 -0.0951784 0.0318249 -0.00406051 -0.249508 -0.0625784 0.0051219 -0.0107743 -0.0969401 0.040913 -0.166168 0.00357861 -0.109959 -0.123854 0.079968 -0.151112 0.0783081 -0.00173141 0.0438954 0.0299773 0.22424 0.174216 0.303393 0.266188 0.220991 -0.15654 -0.157321 0.192993 0.14592 -0.00775974 0.282481 0.0334942 -0.141387 0.236828 0.114041 -0.157548 0.326887 0.00863507 0.261977 0.037006 0.00566131 0.0906382 -0.113993 0.118549 -0.0540865 0.22563 0.0655566 0.064981 -0.0690782 -0.0781639 0.0967099 0.0580262 0.0161983 -0.0454827 -0.00835817 0.0078893 -0.0245411 0.0271458 0.00577368 -0.0254873 0.0125924 -0.0390605 0.136743 -0.068833 0.0289275 -0.144896 0.100023 -0.204148 0.0101379 0.012123 0.0056545 -0.0137305 0.17358 0.109802 0.24428 -0.0826002 0.0703866 -0.0995255 0.14084 -0.0266143 0.0799226 -0.200265 -0.028093 0.124676 0.173322 0.168165 0.0624987 -0.12609 0.0174716 0.112484 -0.243402 -0.106111 0.0126259 0.0562456 -0.195284 -0.0937739 -0.13305 0.0794532 0.162363 -0.118315 
w10 0.0101646 0.169811 0.00604194 -0.08866 -0.0397451 -0.103969 0.164433 -0.0507863 0.113108 -0.000137746 -0.00156477 0.088302 -0.0251338 0.236498 -0.125208 0.219941 0.156423 -0.133636 0.208789 -0.167026 0.242752 0.151128 0.259944 0.136277 0.00657799 0.0147314 0.0414126 0.176239 0.0535586 0.0843845 -0.0762721 0.0182043 -0.04357 0.160425 -0.0113566 -0.148865 0.0475228 -0.00670565 0.0971828 0.0944585 -0.141399 -0.101213 -0.32187 -0.0859788 0.2506 0.269738 0.271936 0.0831272 -0.143001 0.0468484 -0.0105756 -0.0838629 0.216996 -0.078497 0.121731 0.293415 -0.0450247 -0.117561 0.0239005 -0.0386838 0.0555123 0.0229533 -0.200663 0.146287 0.0463716 0.121923 -0.0810573 0.185744 0.168503 -0.123757 -0.0241766 0.0606698 0.0178268 0.0316639 0.093923 0.0973343 -0.313932 -0.0461105 -0.134384 -0.0104961 -0.055195 0.0264188 -0.0850364 0.00181042 0.0402947 0.0204566 0.107632 -0.184579 -0.211167 -0.126484 0.0453104 0.0229409 -0.251081 -0.056893 -0.048384 0.204165 0.0454991 -0.084438 0.212857 -0.125947 0.132164 -0.0388391 0.0522946 0.256579 -0.221919 0.314445 0.22054 0.128502 -0.0281079 0.0946806 -0.116473 0.104583 0.106824 0.263019 0.116959 -0.0179958 -0.0478905 0.0579682 0.0817692 -0.0211241 0.0117016 -0.00472774 0.174758 0.200544 0.181788 -0.0644698 -0.0367381 0.244726 -0.0980664 0.161165 0.0736935 0.0764388 0.130245 0.16895 0.255414 0.107583 -0.0495958 0.0822299 0.0438815 0.0894376 0.196685 0.0338984 0.096163 -0.120411 0.0958484 0.144561 0.0232548 0.177287 -0.282438 0.073088 -0.0462147 0.0186134 -0.0623382 -0.169586 -0.0924122 -0.117054 0.11042 0.0870378 -0.0660575 -0.0371862 0.354805 -0.104886 0.0770587 -0.0406062 -0.0457211 0.0778512 0.252644 -0.0504939 -0.0375979 -0.271143 0.0501545 -0.0373629 0.125077 -0.0408317 0.188741 -0.0216411 0.105139 0.0468802 -0.175756 -0.0367984 0.173359 0.0698398 -0.0583388 0.0228499 0.144989 0.320346 0.213626 0.0397045 0.0610081 0.0929824 -0.232267 0.141833 0.0673152 0.0313372 -0.0051754 -0.17814 0.173449 0.239981 -0.0378893 -0.130362 
vi -0.0836091 -0.0150616 0.0759603 0.162562 -0.0368552 0.0360689 0.0313279 -0.0980798 0.124357 -0.0744327 0.117285 0.209179 -0.0918371 0.347835 0.0870602 0.210589 0.188788 -0.0792943 -0.0457076 0.0531231 -0.0326781 0.0144531 -0.127287 0.0153753 -0.238582 -0.150467 -0.0166879 -0.0604391 -0.0706828 0.0527543 0.045867 0.231801 0.133069 0.213539 0.0215772 0.010681 0.0852959 0.00189665 0.0670597 -0.0655037 0.0438302 0.27135 0.216256 -0.237772 -0.15974 -0.0145176 0.161443 0.186195 -0.114056 0.0304701 0.0160764 -0.141363 0.0838821 -0.0817017 0.142684 0.252504 0.182806 -0.00112231 -0.0403036 -0.227357 0.196439 0.0014523 -0.192742 -0.101351 0.0774536 0.164063 -0.0241103 -0.116995 -0.106807 0.111785 -0.0149742 0.0100228 0.0988968 0.213488 -0.116878 0.0307366 -0.0275067 0.0711402 0.226045 0.270753 -0.155973 -0.138478 0.0796806 0.190771 -0.219766 -0.0795777 0.0899188 -0.132483 -0.17982 0.0987101 0.0753887 -0.187095 -0.214936 -0.0118971 0.139454 0.0287869 -0.0724687 -0.204379 0.29889 -0.0226108 -0.00100695 -0.0253376 -0.119555 0.114612 -0.174781 -0.346356 0.172089 0.15428 0.149986 0.0245051 -0.260457 0.0600985 -0.0103927 -0.0596922 -0.188526 -0.204308 0.0716936 -0.0951147 0.205341 0.0701854 -0.136286 0.117835 0.227161 0.205595 0.00114904 0.209614 0.0349018 -0.123949 0.0780302 -0.141618 -0.161546 -0.155441 -0.238927 0.0138908 -0.0427994 -0.0327012 0.147052 0.334062 0.176331 0.00917778 -0.0122782 -0.0392288 0.0172051 -0.151314 0.0870228 0.378123 -0.0569608 0.11554 -0.142202 -0.076023 0.0658628 0.0154861 -0.109213 -0.0890271 0.0122191 0.0477786 -0.0282709 0.283719 0.29093 0.0597925 -0.0479431 -0.033701 0.000368096 -0.0576006 0.11736 -0.0363155 0.141592 -0.00720869 0.0483063 0.108296 -0.0752107 0.131101 0.0881399 -0.156536 -0.0160457 -0.0624794 -0.204146 0.0460243 0.112713 -0.0719682 0.204868 -0.0511162 -0.0547864 0.151507 0.0478265 -0.139204 -0.0456818 -0.106121 0.0678203 -0.152309 -0.175763 -0.175139 -0.13543 -0.039853 -0.162032 0.0910522 -0.191257 -0.0089359 0.108073 -0.0879897 
