40 200
w8 -0.261162 0.622536 0.162412 -0.609987 0.423704 0.177035 -0.0888752 -0.635556 -0.0772818 0.686022 0.377223 0.104987 1.01969 -0.222293 -0.587021 -0.379212 0.450236 0.240132 -0.382655 0.76164 0.0478106 -0.387226 -0.0872969 -0.185567 0.237328 -0.0778732 0.483243 0.346265 -0.0465122 -0.436011 0.154938 0.189788 -0.231772 0.340693 0.171692 0.121516 0.620282 0.124119 -0.0585621 0.773947 0.0720831 -0.57473 -0.0736249 -0.167289 -0.632164 -0.246987 -0.0862485 -0.0283168 0.274542 0.743126 -0.516066 -0.188411 0.24606 -0.0507902 -0.124442 -0.45814 -0.301178 0.161309 0.167682 0.389578 0.144713 0.163609 -0.231011 -0.752093 -0.440121 0.0711126 0.0569831 0.279774 -0.438594 -0.142343 -0.304322 -0.560085 -0.366511 -0.993526 0.0345945 0.335147 0.305492 0.0764852 0.00165441 0.128371 0.368116 -0.504474 0.108189 -0.413817 -0.181503 -0.0454692 0.439673 0.289498 0.268054 -0.653173 -0.828766 0.263301 0.321491 0.172009 0.00612527 0.289702 -0.0798297 -0.0846093 0.294377 -0.0997181 0.389611 0.478988 0.323719 0.159403 0.370378 0.122099 -0.0467961 -0.151688 0.0383958 0.0836682 -0.348635 0.504429 0.21905 0.00535716 -0.0017794 -0.403999 0.281205 0.11088 0.266763 -0.0454488 -0.290956 0.0202433 -0.215636 -0.185928 -0.00830151 -0.44376 0.276339 -0.273168 -0.125851 0.226275 -0.295904 0.103704 0.222182 -0.0990184 0.37568 0.236131 -0.0626914 -0.341004 0.436479 0.175187 -0.288819 0.192776 -0.402671 -0.0416535 -0.405025 0.484858 0.147749 -0.168976 -0.179429 0.273207 -0.00560578 -0.038374 -0.246609 -0.143842 -0.283501 0.290191 -0.394419 0.497215 -0.116425 -0.836163 0.32851 -0.45956 -0.380456 1.0135 -0.365666 0.392475 0.133884 -0.344888 -0.19329 0.644359 -0.217066 0.0963544 0.0981578 0.62212 0.273544 -0.307871 -0.225557 -0.706014 -0.425158 0.170195 -0.311035 0.0899764 0.326482 0.137345 0.26901 -0.378122 -0.235175 -0.590005 0.470841 -0.436235 0.727656 -0.153984 -0.492767 0.397945 -0.313724 0.0724197 0.41861 -0.128197 -0.312959 -0.169695 
w6dim 0.14647 -0.00845635 0.0422591 -0.113411 0.033452 0.0561903 -0.000212465 -0.172833 -0.0846697 0.0663247 -0.0138196 0.0400376 0.0185439 -0.0220238 -0.14308 -0.016988 -0.0586992 0.10484 0.00561414 0.00329952 -0.0428136 -0.119722 0.0276654 -0.0799729 0.0201719 -0.0200573 0.0329279 0.00975024 -0.0559893 -0.0217581 -0.107839 0.0618103 0.0305191 -0.11835 -0.118309 0.0823269 -0.0243612 0.0737699 0.0718675 0.115985 -0.0355284 -0.00880079 0.0621306 0.0578661 -0.131025 -0.00941612 -0.00407414 -0.109848 0.108319 0.108667 0.00773205 -0.00942759 -0.119598 0.0882201 0.0329698 -0.0372818 -0.0722372 0.167271 0.110915 0.125829 -0.0790389 -0.006435 -0.0952884 0.0650995 0.066393 0.122992 -0.00364268 0.105004 -0.0340625 0.0910546 0.034757 -0.00862553 -0.0995972 -0.109031 -0.0426807 0.101242 0.0953884 0.0295984 -0.0666649 0.00625739 0.156301 -0.0178007 -0.189707 0.022533 -0.00312948 -0.0162221 -0.00604481 0.0502543 0.0491386 0.0519176 0.0151867 0.0637719 -0.0124191 0.0118281 0.0708557 0.00230663 -0.105014 -0.0611291 -0.0511129 0.00272461 0.0303007 -0.072629 0.141891 0.0990692 -0.0788328 0.0103034 -0.117164 -0.0956758 -0.0822234 0.0610616 -0.0204951 -0.0526633 0.0667703 0.0149596 -0.0131333 0.100999 -0.0741969 -0.0852875 0.0688188 0.0234732 0.0102903 0.0201614 -0.0970018 -0.00610802 -0.116684 0.00199222 0.00405039 0.0490473 -0.0561475 0.104991 -0.03121 0.139259 0.0407401 0.134702 -0.113163 0.0298789 -0.160377 -0.0275453 -0.0295056 -0.095102 0.073984 0.0372031 0.0322779 -0.00528706 -0.0691291 -0.0409343 -0.0167108 -0.101507 -0.0964346 0.0163632 -0.0219533 -0.0668743 0.120264 0.0223448 -0.0995861 -0.0621567 0.0140543 0.0802393 -0.125874 -0.0020903 0.0135933 -0.0813353 0.0787674 0.104459 -0.00132015 0.141207 -0.0134381 -0.0150923 -0.000332882 0.0284869 0.080846 -0.056668 -0.0345865 0.0764371 0.0431512 -0.126044 0.0966131 -0.101762 -0.0867898 -0.0947826 0.0563805 -0.0242517 0.0888036 -0.0350996 -0.0233327 -0.0055234 -0.0499816 -0.034049 -0.151324 -0.0660026 -0.0620251 -0.155563 0.00255498 0.0283841 -0.00469307 0.00824316 -0.00406221 -0.0530455 0.0586921 0.0447258 
w6m 0.103652 -0.238079 0.859423 -0.00838379 -0.10839 -0.409218 -0.0598707 -0.423699 -0.396512 0.32753 0.132916 -0.0593111 -0.411917 -0.153713 -0.712014 0.216973 0.616824 0.120196 -0.468844 0.508601 0.0244479 0.251347 0.436031 0.0476918 -0.0472591 -0.0203554 -0.762519 -0.220712 0.40558 0.291678 0.0654087 -0.31793 0.505851 0.152474 -0.879975 -0.0354067 -0.161607 -0.247576 -0.462112 -0.229068 0.237347 -0.24304 -0.251603 0.555557 -0.318403 0.360568 0.502151 0.199825 0.17491 0.0716754 -0.244271 -0.178593 -0.133861 -0.0635436 0.0735013 -0.415672 0.215942 -0.184921 -0.534721 -0.100757 -0.254277 0.522039 -0.342074 -0.678802 0.535497 0.643232 0.728783 0.328318 0.140879 0.625498 -0.348784 0.18448 0.0878924 -0.473652 0.795599 0.682721 -0.48828 0.0824155 0.113403 -0.287272 0.416041 -0.274512 -0.156792 -0.586052 0.179548 0.408198 0.095609 -0.539098 0.236786 0.18243 0.18565 -0.192656 -0.104505 -0.273708 0.187369 0.40449 0.0465592 -0.266815 -0.343214 0.167059 -0.0945264 0.0457339 0.641218 0.012577 -0.191878 0.157212 -0.280334 0.159003 0.442103 0.10025 0.504182 0.0837893 0.457506 0.00124646 0.334739 -0.132543 0.191694 -0.583974 0.122241 -0.429832 0.186268 0.454676 -0.00444177 0.0542747 -0.343089 -0.319842 0.355024 -0.0822918 0.375385 0.283332 -0.0844095 -0.286254 0.0051108 0.094046 -0.113481 -0.310283 -0.0385068 0.238328 -0.230501 0.186784 0.487721 0.312372 -0.649051 -0.347059 -0.157006 0.0508346 0.400123 -0.805222 -0.0460196 0.447202 0.0833439 -0.249901 -0.835153 0.0525431 -0.215584 0.533439 -0.101468 -0.113555 -0.321048 -0.000859324 0.547663 -0.0949456 -0.0743172 0.951327 -0.44536 0.442711 0.0131982 -0.23155 0.300719 0.391722 -0.113385 0.237546 -0.154797 0.821564 -0.152054 0.430835 0.385673 -0.524246 -0.76942 -0.262797 0.12617 0.0790888 -0.248907 -0.384783 0.334009 -0.582402 -0.40029 -0.366904 0.113265 -0.441645 0.142763 -0.276244 -0.100655 0.306954 -0.0714614 0.0183889 -0.193866 0.243778 0.0513115 -0.306129 
w67 0.48394 -0.5602 0.50771 -0.0731562 -0.202271 0.0771378 0.368808 -0.393092 -0.0844703 -0.0173125 -0.0383645 -0.0867874 -0.0526246 -0.0809016 -0.483747 -0.287249 0.113122 0.219849 -0.290891 0.246305 -0.241765 -0.0529229 0.0153158 -0.40157 0.191548 -0.226466 -0.0115676 -0.11198 0.168869 -0.153715 0.274974 0.188012 0.112899 -0.483941 -0.343036 0.192649 -0.08863 0.129667 0.395235 0.323972 0.422966 -0.158413 -0.0432411 0.303144 -0.557505 0.328154 -0.0316974 -0.126397 0.129942 0.101737 0.0884452 0.0478711 0.119788 0.48221 -0.135834 -0.00643267 0.0655076 0.0653247 0.161205 0.291852 -0.295485 0.254955 0.0802182 -0.359643 -0.0751244 0.263771 0.609556 0.164613 -0.140807 0.228938 0.231554 -0.102487 -0.327698 0.183244 -0.0424937 0.562059 -0.163374 0.234712 -0.162548 -0.120193 0.0900204 -0.176259 -0.549348 0.0759061 -0.00287398 -0.125312 0.690137 -0.0982063 0.0158505 0.102003 0.00894442 -0.482407 -0.21547 0.116571 0.401176 0.235785 0.0718438 -0.207398 -0.324144 0.0883546 -0.130689 -0.351783 -0.0639665 0.135545 -0.180909 -0.24089 -0.256001 -0.0291219 -0.206491 0.0608283 0.295679 0.0357684 -0.0515983 0.358785 -0.332688 0.11606 0.32846 -0.287317 0.328063 -0.00754206 0.00291413 -0.0556307 -0.395124 -0.189521 0.0561215 -0.104946 0.257202 0.220226 0.226831 0.456459 -0.0869003 0.264323 -0.209664 0.19382 -0.119967 -0.27282 -0.625381 -0.168612 0.00285047 0.20688 0.376411 0.0903643 -0.506526 0.187935 0.0674025 -0.305227 -0.0422809 -0.227075 -0.482075 -0.213203 0.269401 -0.244261 -0.202347 0.0616059 -0.326728 -0.167181 0.186558 -0.0504427 0.0324895 0.0981914 -0.134044 -0.436598 -0.0352785 0.321081 -0.449101 0.408406 0.507253 0.124961 -0.0351308 0.341811 -0.326351 0.598563 0.119734 0.183393 -0.308071 0.21355 0.111098 0.0142178 -0.306476 -0.146759 -0.0869718 -0.344146 0.00140951 0.0132674 0.201745 -0.295485 -0.492534 -0.281133 -0.316365 0.000277095 -0.324719 -0.288049 -0.14441 -0.0303884 0.114865 -0.0859722 -0.321685 0.0759108 -0.105624 -0.00585444 
w6 -0.201331 0.35384 0.495966 -0.442002 0.0355274 -0.104947 -0.2146 -0.0209643 -0.471644 0.239664 0.362496 0.0817955 -0.0304634 -0.4585 -0.684755 -0.300145 0.382763 0.525735 -0.10445 0.4393 -0.399694 0.119458 -0.0678225 -0.233396 -0.120831 0.0611667 -0.268816 -0.0430836 -0.327319 -0.625677 0.756704 -0.00149848 0.137471 -0.0319604 0.206641 -0.0858988 0.0889472 0.216817 0.439953 0.613462 0.371169 0.116084 -0.127349 0.108812 -0.87098 -0.762784 -0.0848178 -0.16087 0.0867204 0.164238 -0.238136 0.460456 -0.0150197 0.417642 -0.412694 -0.660318 -0.298921 0.137429 -0.278628 0.374474 0.093656 0.873104 0.037848 -0.42335 -0.144335 -0.118302 0.676749 0.528118 -0.506319 -0.475387 -0.202662 -0.474022 -0.100527 -0.429239 -0.399215 0.856357 0.499786 -0.0927744 -0.101424 -0.00613508 0.142021 -0.602387 -0.120501 -0.107932 0.149922 -0.197473 0.446555 0.0350593 0.350368 -0.657058 -0.15623 -0.51283 -0.342211 -0.336365 0.373189 0.143964 -0.696354 -0.0616831 -0.411591 0.265202 -0.398113 -0.467307 0.374103 0.329432 0.191463 -0.255397 0.519663 -0.605172 -0.0468112 0.106273 -0.253546 0.561298 0.0414302 0.49887 -0.0577041 0.332222 0.272196 -0.475491 0.227045 0.00561407 -0.533859 0.381544 -0.331907 -0.273688 -0.0178386 -0.0962954 0.398905 0.123678 0.157434 0.0434816 0.114314 -0.314017 0.473618 0.00716019 0.655788 -0.0828603 -0.535847 -0.530861 0.054166 -0.132681 -0.171242 0.611967 -0.559702 -0.272546 -0.417121 -0.0595342 0.315409 -0.272316 0.0960059 0.195991 0.18404 0.464426 -0.440304 0.197819 -0.627154 0.413027 -0.035839 0.121196 -0.492849 -0.347835 0.00737405 -0.590421 -0.132435 0.981272 0.0805207 0.29414 0.437632 -0.788341 -0.123663 0.638069 -0.443725 0.66269 -0.0447308 0.479357 -0.587182 0.364988 0.66114 -0.574007 -0.708748 0.042259 0.137738 -0.0350756 -0.159476 0.249761 0.697973 0.0578302 -0.2331 -0.0922953 -0.0901064 -0.445897 -0.0996774 -0.41061 -0.272461 0.485716 0.491611 -0.153535 0.194091 -0.208496 0.119651 -0.208323 
w37 0.300548 0.00536189 0.342378 -0.224027 0.0975501 -0.0792646 0.0616705 -0.315293 -0.135667 0.00125588 -0.0172778 0.225082 0.144708 -0.128768 -0.253531 -0.136255 0.106165 0.0772442 -0.0918173 0.0719329 0.0947089 0.270802 0.0866726 -0.0972373 0.084584 -0.221369 0.200681 0.139056 -0.134171 0.01156 0.0663316 -0.0333532 0.208907 -0.0742888 -0.00317127 0.092182 0.170847 0.110574 0.167301 0.43369 -0.155657 -0.204417 -0.0195732 -0.0838897 -0.248737 -0.234135 0.0709815 -0.170936 0.142852 0.322472 -0.223332 -0.067086 0.00923087 0.0579186 -0.0280307 -0.132815 -0.10383 0.0656812 0.132992 -0.156092 -0.220105 0.16653 -0.0247333 -0.331806 0.0191508 -0.0224919 0.186343 0.238211 -0.301913 0.0335089 -0.312546 -0.037674 -0.0831661 -0.402104 0.130298 0.137128 -0.129289 -0.00785039 -0.0924646 0.08611 0.307898 -0.106159 -0.20125 -0.252306 -0.0786855 0.214051 0.233709 0.0537275 0.158232 0.0978246 -0.0315153 0.0111633 -0.128956 -0.0969171 0.0311643 0.280049 -0.227179 -0.0491146 -0.0257787 0.0295699 -0.0423721 -0.180321 0.0308445 -0.0157966 0.0291129 -0.126763 0.22596 -0.182849 0.0281322 -0.0307324 0.13223 0.212818 0.161502 0.230573 0.113328 0.261773 0.126653 -0.238851 0.143555 -0.0237374 0.00710228 0.160729 -0.0668025 -0.120322 0.200026 -0.162895 0.258756 0.111728 0.00286181 0.0987847 -0.0283044 0.0358821 0.0967529 0.0117615 0.0602335 -0.0941021 -0.254919 0.0302674 -0.00138797 0.0484918 0.0208815 0.0321104 -0.276001 0.144448 -0.0471247 -0.140387 0.00811307 -0.0645352 -0.0281913 0.114942 0.233551 -0.0813424 -0.270715 -0.0491607 -0.249914 0.00995388 0.00672733 0.134183 -0.0454369 -0.128433 0.204097 -0.217292 -0.26432 0.354411 -0.192615 0.365912 -0.0532571 -0.0814497 -0.100625 -0.000709187 -0.0612901 0.120075 -0.122556 0.447836 0.0321071 0.0422971 0.0286135 -0.313921 0.0457018 0.132629 0.00780037 -0.0900407 0.101304 0.237862 0.10393 -0.40437 -0.229706 -0.245215 -0.0670096 -0.0383199 -0.0248625 -0.318549 -0.16906 -0.0110347 -0.056685 -0.022657 -0.136095 0.120676 -0.0834877 -0.188692 
w3 -0.0356105 0.609226 -0.0850366 -0.435353 0.0253292 -0.213576 0.0745064 0.0725733 -0.197916 0.147965 -0.130132 0.157734 0.610706 -0.341616 -0.480838 -0.496334 -0.000768436 -0.244845 -0.899312 0.480663 0.0192097 0.0359275 -0.367601 -0.0768001 0.0569511 0.0484432 0.632281 0.179128 0.186625 -0.30617 -0.206903 -0.0123665 0.161838 0.370237 -0.084863 -0.0286638 0.276131 0.313617 0.538451 0.895544 0.338129 -0.189808 0.231401 -0.591294 -0.69547 -0.245551 0.165104 -0.382055 0.149816 0.291171 0.10102 0.15659 -0.240621 -0.0782015 0.232707 -0.290119 0.0938369 0.312261 0.0836167 0.311702 0.349428 -0.0311556 -0.363295 -0.861322 -0.0394844 0.0608414 -0.00902004 0.131773 -0.149708 0.0536954 -0.551966 -0.462834 -0.0913789 -0.843498 0.067273 0.442591 -0.32368 -0.332776 -0.43667 0.000638884 0.378954 -0.66642 -0.214444 -0.271684 0.0363549 -0.279115 0.544031 0.143751 0.135545 -0.395203 -0.792603 -0.26826 -0.514991 0.344066 -0.26887 0.318579 0.181297 -0.0640613 -0.0969575 0.0937965 0.667328 0.36822 0.345063 0.0682302 0.3866 0.0210837 0.435506 -0.395778 0.257548 0.404661 -0.468618 0.0450421 0.397838 0.4284 -0.0151625 0.540774 0.548341 -0.0160912 0.360201 -0.0590746 -0.322248 -0.0297318 -0.214115 -0.368946 0.475674 -0.00816288 -0.367584 0.237827 -0.287027 0.290283 0.0700145 0.345435 0.300836 -0.214079 -0.256387 0.18417 0.0678289 0.342913 0.197711 0.202423 -0.276639 0.326246 -0.18658 -0.10384 0.0545177 0.246298 0.0674171 -0.151794 -0.0890254 -0.164205 0.143482 0.16092 -0.675394 -0.0605991 0.0418245 -0.238611 -0.327201 0.0285372 0.109288 -0.336383 0.283029 -0.730406 -0.22027 0.740026 -0.0249909 0.378689 -0.0976265 -0.433196 -0.209032 0.101685 -0.587981 -0.0950688 0.455293 0.45073 -0.650263 0.170888 -0.137795 -0.361189 -0.00312516 0.190344 0.0588187 0.118307 0.441342 0.10385 0.511639 -0.34151 -0.117339 -0.0872454 0.493102 0.0778445 0.719405 0.0555184 -0.204192 0.192696 -0.119618 0.0930016 0.273924 -0.0186084 -0.0964032 -0.330176 
w10m -0.232289 0.0530493 0.253561 -0.371599 -0.00852713 0.590304 0.00709662 -0.2357 -0.205162 -0.0113091 0.225863 0.300161 0.593299 -0.270572 -0.313549 -0.559661 0.588465 -0.0279584 -0.255707 0.534786 0.0676301 0.618569 -0.0873059 0.0419193 0.332246 -0.42376 0.299739 0.205533 -0.0982216 0.42067 0.106936 -0.0591089 0.260556 -0.512584 -0.0290671 -0.0180975 0.434799 -0.00463401 0.456155 1.00619 -0.393006 -0.408725 0.0145269 -0.329496 -0.644871 -0.323849 -0.109432 -0.0587515 0.299517 0.20356 -0.132161 0.117133 0.0342093 -0.266882 -0.0149508 -0.894358 -0.239126 0.2602 0.173524 0.21167 -0.0269396 -0.109656 0.0794934 -0.598517 -0.0490107 0.170351 0.161509 0.604162 -0.989915 -0.194539 -0.616916 0.389013 -0.28736 -0.651339 0.258231 0.532296 0.189542 0.146033 -0.278576 0.025883 0.448426 -0.398853 0.055681 -0.0793939 0.455316 0.384846 -0.0287387 -0.409893 0.687999 -0.564405 -0.247103 0.237891 -0.170288 -0.440767 -0.485269 0.483588 -0.535039 -0.0260942 -0.432479 -0.117567 0.0642742 -0.290126 0.103022 0.497857 -0.312896 -0.470363 0.992738 -0.354244 -0.12067 0.120098 -0.261613 0.54775 0.00290663 0.0457864 -0.072871 0.706388 0.265108 -0.44178 0.250245 -0.115737 -0.0909717 0.493522 -0.781813 0.0781561 0.151866 -0.0225699 0.199514 0.24129 -0.187406 0.164525 -0.0164324 -0.520386 0.202837 0.355898 -0.221734 -0.00630386 -0.493211 -0.196989 -0.24694 -0.131355 -0.495066 0.125481 -0.859542 -0.0681074 0.165579 0.0359594 0.150287 -0.372994 -0.100344 0.121696 -0.00770804 0.0237778 -0.850712 -0.346367 -0.096764 0.167969 -0.0108325 0.0646088 -0.193725 -1.05217 0.105553 -0.31119 -0.297963 1.21043 0.119626 0.183951 -0.0270541 -0.401582 -0.181064 -0.181488 -0.156989 -0.166317 -0.199626 0.24052 -0.121912 0.299195 0.505375 -0.803739 -0.134498 0.306865 0.216144 0.0557199 -0.466875 0.159332 0.270491 -0.731242 -0.588275 -0.677905 -0.318423 -0.166734 0.121052 -0.663862 -0.164737 0.315376 -0.28111 0.356459 0.163828 -0.251559 0.291139 -0.0386411 
w107 0.272282 -0.092423 0.0992044 -0.180099 -0.0215086 0.100933 0.10288 -0.25743 -0.178251 -0.0606059 -0.193202 0.256689 0.292114 -0.0863164 -0.192311 -0.268152 0.114326 0.197562 -0.336383 0.440389 0.187026 -0.0809584 -0.0663911 -0.060706 -0.0454127 0.163534 0.405031 0.00734391 0.000443278 -0.0129976 -0.162316 -0.0139623 0.178916 -0.361345 -0.227262 0.246046 0.0572728 0.0445921 0.257784 0.11605 0.110685 -0.0934313 -0.116388 0.000899768 -0.363808 0.183882 -0.111181 -0.167473 0.0718727 0.281906 -0.0785859 -0.038099 -0.127735 0.199287 0.105839 -0.127018 0.0790891 0.177853 0.359465 -0.140846 -0.0191532 -0.149989 -0.312341 -0.243126 -0.239719 0.0771468 0.138502 0.150645 -0.0214869 0.0264677 -0.0732493 0.0216494 -0.293215 -0.237991 0.123681 0.3048 -0.0917054 -0.109186 -0.674748 -0.223546 -0.192133 -0.524975 -0.206491 0.281029 0.147633 0.219925 0.199596 -0.192974 -0.0125975 -0.300103 -0.16955 -0.176357 -0.417283 0.0207433 0.113118 0.197404 -0.0990481 -0.226062 -0.125927 0.070841 0.161799 -0.42398 0.0309806 0.207899 -0.17066 -0.400576 -0.0280301 -0.119384 -0.112123 0.099513 -0.0675685 0.0565116 0.0532998 0.24165 -0.322736 0.323777 0.369497 -0.163086 0.344136 0.0173798 -0.133695 0.107895 -0.394733 -0.160318 -0.0591399 0.222516 0.320461 0.0692703 0.0124738 0.0894134 0.0470012 0.280719 -0.0631226 0.320932 -0.290606 0.241618 -0.287075 0.0534268 -0.0176892 -0.0159154 0.0990224 0.0792736 -0.372848 0.13348 -0.221449 -0.0658162 -0.0200314 -0.359123 -0.176127 -0.0980244 0.287025 -0.142062 -0.284004 0.0357819 -0.106262 -0.027508 -0.307175 -0.0606683 -0.0332624 -0.254487 0.19156 -0.543137 -0.143318 0.306017 -0.301599 0.371973 0.11824 -0.208701 0.0940845 -0.105403 -0.166845 0.281736 -0.0405881 0.160584 -0.366377 -0.135503 0.164083 -0.325527 -0.109498 -0.0125902 0.05612 -0.0669857 0.345049 0.168818 0.0257908 -0.223855 -0.255695 -0.274955 -0.0216195 -0.123271 0.289089 -0.146931 0.0289138 0.0834695 0.102391 0.173332 0.0181785 -0.073197 -0.0910026 -0.0927132 
w1 -0.353141 0.476747 0.102796 -0.145707 0.109255 -0.053431 0.15686 -0.181485 -0.30497 -0.0317187 -0.370559 -0.286935 0.303119 -0.382698 0.139506 -1.1265 0.182426 0.458112 -0.347404 0.386403 0.454664 0.345135 0.183467 -0.237986 0.153736 -0.264563 0.310508 -0.200244 -0.0512115 0.237653 0.41518 -0.22128 0.638685 -0.0992437 -0.422405 -0.0922022 0.749801 0.384065 -0.338366 0.388015 -0.0494734 -0.0700254 0.147948 0.211135 -0.756669 -0.564191 -0.373644 -0.301991 0.415327 0.248902 -0.0411003 -0.207021 0.0125547 -0.134026 -0.210566 -0.657972 -0.203114 0.17758 0.342442 -0.322999 0.0307738 0.86076 -0.289198 -1.11511 -0.0662007 0.315896 0.59075 0.64892 0.1366 0.124866 -0.54784 -0.234905 -0.0836474 -0.629439 0.128716 0.642964 0.276999 0.292308 -0.434679 -0.155984 0.232179 -0.82028 0.062384 -0.179144 0.137987 0.857883 0.866146 -0.0185082 0.42432 -0.34669 -0.404356 -0.0691964 0.0483295 0.292829 -0.228495 0.54634 -0.338199 0.399558 -0.271082 -0.0922868 -0.264318 -0.545041 -0.350256 0.336266 0.281477 -0.533444 0.374642 -0.0214719 0.32846 0.299608 0.223654 0.331919 0.00627918 0.0594552 -0.472005 -0.000855377 0.185253 -0.567529 0.124565 0.0619769 -0.211813 -0.0717815 -0.257638 -0.0691793 0.314021 0.0597484 0.514577 -0.11603 0.12969 0.211019 0.532833 0.439876 0.218319 0.117902 0.533622 -0.019003 -0.595146 0.234725 -0.0672043 -0.308465 -0.322528 0.39557 -0.784171 0.4121 0.0795636 0.141092 0.275209 -0.719866 -0.327381 -0.133441 0.108171 -0.366489 -0.93548 0.256392 -0.353227 0.321981 -0.0910045 0.0401726 -0.404352 -0.715423 0.20986 -0.822923 -0.676084 0.933194 -0.0486264 0.683143 -0.129198 -0.600215 -0.18039 0.968604 0.135829 0.189218 0.457975 0.898572 -0.453657 0.171017 -0.139806 -0.407573 -0.057329 0.0487699 0.020168 -0.165092 0.0910336 0.539366 0.876312 -0.745413 -0.0834406 -0.364477 0.336106 -0.431832 0.135195 -0.912611 -0.220527 0.0787251 0.186648 0.104892 -0.21568 -0.169255 -0.00390728 0.237896 
V7 -0.00816311 -0.189285 -0.0788993 0.00503484 -0.275156 0.284282 -0.140158 -0.193403 0.200778 -0.230069 0.0242893 0.346002 0.0585028 -0.25562 -0.0559864 -0.554748 -0.326725 -0.0208032 -0.0487336 -0.59424 0.439064 0.397436 -0.551213 0.305252 0.0259389 -0.346711 0.150797 0.284729 -0.125791 -0.0472445 0.107892 -0.272835 -0.141268 -0.482423 0.078177 0.179529 -0.279588 0.221352 -0.0537378 0.353631 -0.0331231 0.0217674 -0.0756003 -0.574436 -0.30764 -0.0947334 0.030412 -0.48564 0.367926 0.476706 -0.280274 -0.458762 -0.486816 -0.678065 -0.185273 -0.0524326 -0.213726 0.42312 -0.00802081 0.0647311 0.4449 0.0967651 -0.210753 -0.380155 -0.125953 0.553257 -0.371013 -0.0889488 -0.0519814 0.29598 -0.163 -0.532671 -0.250497 -0.446009 0.282516 0.369768 0.266325 -0.303005 -0.286293 0.0891602 0.588305 -0.0590007 0.462532 0.0140971 0.280777 0.336825 0.302132 0.0539 0.405452 -0.109968 -0.297865 0.214809 -0.157226 -0.195134 -0.228756 0.303197 -0.428246 0.0396959 0.0684258 0.15415 0.655612 0.763467 0.139971 0.219922 0.0382438 -0.218333 0.00335354 -0.0473136 -0.130029 -0.0355165 -0.147773 -0.12892 -0.102643 0.0418077 -0.390756 0.00783401 0.248378 0.0925304 0.162856 0.596589 0.0451361 0.484535 -0.100462 -0.144831 0.00878502 0.102687 0.30348 0.090031 0.188787 -0.0208166 0.50112 -0.291515 0.306592 -0.0387008 0.526304 0.321654 -0.318589 0.0667653 0.121558 0.484747 -0.371396 -0.306623 0.102339 -0.220654 0.0833677 0.168696 0.0739712 -0.226458 -0.243107 0.274595 0.138164 -0.161861 -0.00524862 -0.258156 0.24653 0.237497 0.0522166 0.16045 0.149053 -0.551155 -0.136743 -0.191287 -0.0342233 0.406733 -0.207251 0.458774 -0.0705993 -0.312529 -0.144519 0.41736 0.142877 -0.0840594 0.405992 0.0154883 0.319331 0.0854215 -0.300738 0.0594612 -0.00781892 0.296617 0.112382 -0.0276658 -0.163954 0.167004 -0.0340496 0.117159 0.145982 -0.315869 -0.463154 -0.260071 -0.144356 -0.114869 -0.260551 0.043084 0.0739005 0.121226 -0.293171 -0.373829 -0.343059 0.106498 
w1dim 0.210377 0.0729659 0.104322 -0.0108025 0.00685727 0.0270207 0.0139739 -0.115406 -0.143742 0.0575571 -0.0685293 0.0498482 0.0376155 -0.0347495 0.0250059 -0.103096 -0.0682571 0.108626 -0.0161102 -0.210558 0.00827016 -0.123754 -0.025123 -0.0727091 0.136238 -0.15199 0.0444516 -0.0215601 -0.0623898 -0.00849263 0.0515299 -0.0172593 0.0130373 -0.17847 -0.230456 -0.0187304 -0.134734 0.0301708 0.024164 0.073665 -0.0332952 0.0395611 -0.0354072 -0.0916296 -0.221537 -0.0289307 -0.0482593 -0.170239 0.189872 0.173591 0.104428 0.0735524 -0.00776405 0.0327895 0.0672035 -0.0650122 -0.145368 0.210564 0.126672 0.0867514 -0.181221 -0.0389024 -0.129174 0.115722 0.0265352 0.251771 0.0329669 0.197345 -0.08834 0.0526966 0.034301 0.157449 -0.257256 -0.0525101 -0.0718306 0.219477 0.0465696 0.124873 -0.226726 -0.0989104 0.154265 -0.102743 -0.253604 0.0959188 0.109347 0.0404182 0.0956749 -0.139939 0.154979 -0.0366159 -0.0196019 -0.00850381 -0.0444443 0.0396556 -0.039297 0.103846 -0.11066 -0.0916748 -0.180324 -0.0267856 -0.0368794 -0.0934149 0.0443878 0.22043 -0.0271906 -0.183382 -0.0826885 -0.146167 -0.13274 0.215866 -0.196499 0.0337399 -0.0910517 -0.0100639 -0.0425811 0.166927 -0.143158 -0.218003 0.130753 0.107179 0.00314132 0.151608 -0.183166 -0.011282 -0.00548352 0.0120317 0.0564287 0.0895683 -0.0358376 0.172477 0.0274098 0.133575 0.0318673 0.260505 -0.193096 0.0862411 -0.186012 -0.0567086 -0.0936309 0.0906612 0.0607889 0.0473189 -0.0644482 -0.0503252 0.123424 -0.0969925 -0.105401 -0.127761 -0.195366 -0.0570849 0.0341136 -0.105887 0.0845265 0.0977563 -0.101804 -0.193196 0.0209561 0.0238772 -0.06979 0.0962523 0.0650826 -0.161789 0.0252779 0.014059 -0.125611 0.22034 0.0986867 -0.0708566 0.0609668 -0.110605 0.193616 -0.114135 -0.0488766 -0.0262156 0.149129 -0.0323857 0.0982357 -0.0338697 -0.116545 -0.0791721 0.116698 -0.113549 0.0345977 0.0508591 -0.123317 -0.0397869 -0.0651236 -0.0939486 -0.195517 0.0231635 -0.123073 -0.146724 0.0134902 0.0410028 -0.0040819 -0.0971264 -0.0208381 -0.157995 0.0971056 0.0972567 
v 0.0500581 -0.269161 0.0387242 -0.216924 -0.214183 0.237351 -0.0989415 -0.169369 0.0568632 0.0224077 -0.089167 0.447644 0.198538 0.133995 -0.508109 -0.408396 -0.00348297 -0.100308 -0.401875 -0.124139 -0.0486633 0.375613 -0.306391 0.337514 -0.387359 -0.234781 0.262422 0.189014 0.0918485 0.00837715 0.0205695 -0.306805 -0.0723709 -0.386948 0.0602559 0.00476623 0.107978 0.243667 0.611881 0.36369 0.153939 -0.0263577 -0.152572 -0.171966 -0.50327 -0.279263 0.104249 -0.0425176 -0.0560749 0.356852 -0.544798 -0.0396421 -0.495345 0.0338421 -0.274147 -0.156798 -0.115037 0.534482 0.40211 -0.499227 0.173182 -0.170537 -0.375515 0.0232312 -0.211236 0.202257 -0.30299 0.181531 -0.154066 -0.290418 -0.422636 0.0574979 -0.325322 -0.649515 0.683466 0.15563 -0.098672 -0.143112 -0.511401 0.00904345 -0.0364074 -0.329998 0.336112 0.139793 0.368185 0.36274 0.118483 -0.0707491 0.293265 -0.521043 -0.257199 -0.0745079 -0.387128 -0.12055 -0.0889897 0.237259 -0.323918 -0.26858 0.00473488 -0.146991 0.347031 -0.0561719 0.149711 -0.299298 -0.554103 -0.360899 0.271968 -0.596131 -0.124644 0.487059 -0.0828794 0.165351 0.0263476 0.520127 0.073691 0.580824 0.223817 -0.0498191 0.225098 0.495441 -0.260135 0.148666 -0.211886 -0.085392 -0.022493 0.0348286 0.069832 -0.0424045 0.183084 -0.0361899 0.445576 -0.0158934 -0.0675021 0.148666 0.0535729 0.266109 0.168987 0.0433517 0.00559811 0.317016 -0.294961 0.296882 -0.319428 -0.224177 -0.134388 0.478742 0.149719 -0.306343 -0.210868 -0.00933015 -0.0534313 -0.309175 -0.14164 -0.181292 0.270889 -0.187939 -0.496729 0.152015 -0.321408 -0.173548 0.738535 -0.258926 -0.374746 0.283872 -0.166527 0.248721 -0.370411 0.0468189 -0.0747445 -0.0850876 0.121709 -0.442519 0.169651 0.230987 -0.00358788 -0.132783 0.105129 -0.22799 -0.110631 0.115115 0.307941 -0.288394 -0.14875 0.419239 0.0962852 -0.0707831 -0.213277 -0.192762 0.187097 -0.0254682 0.382621 -0.0262274 -0.24499 -0.0296688 -0.097454 -0.220997 -0.228127 0.0987167 0.0917408 0.216708 
V -0.215024 -0.174644 0.199754 -0.0973965 -0.176625 -0.136064 -0.233778 0.0757541 -0.115934 0.0173177 0.152276 0.0825862 -0.342033 -0.102753 -0.255735 -0.11048 0.158566 0.00867556 -0.0382523 0.16194 0.0671426 0.0718021 0.133865 0.124693 0.180603 -0.135419 0.0813338 0.166758 0.427934 -0.170687 0.0245112 -0.411328 -0.051492 0.00791796 0.170179 -0.161526 -0.160654 -0.0195546 0.26385 0.332918 0.137747 -0.0573922 0.317211 0.156695 -0.172653 -0.0403538 0.143371 -0.0376109 -0.04193 0.148347 0.176874 -0.209787 -0.124349 -0.0201454 0.173629 -0.230693 0.085122 0.204743 -0.189298 0.0838512 0.488781 0.0214591 -0.191355 -0.22715 0.223199 0.216947 0.104667 0.217448 -0.111485 -0.368511 -0.11138 -0.351157 0.00608225 0.0185974 -0.0477384 0.418275 -0.00509621 -0.187484 0.199622 -0.0938579 0.125116 0.0134498 0.10972 -0.13122 0.097746 0.259371 -0.0217906 0.24219 0.299116 -0.138665 -0.0518913 0.00260204 0.14127 0.0182988 0.0582045 0.0392226 -0.0696594 0.220632 0.0260895 0.245761 0.220219 0.0909694 0.165748 0.274408 -0.315491 0.0320315 -0.133388 -0.127867 0.00695652 -0.0642294 -0.027584 -0.178439 0.223454 0.00124978 -0.231426 -0.147127 0.281799 0.138763 -0.295164 -0.0541682 -0.058614 -0.0424184 0.0659899 -0.0045581 -0.216858 -0.105923 -0.071999 0.0911154 0.105115 0.082445 -0.0673541 -0.0424213 0.1733 -0.0159758 0.330263 -0.0486841 0.0530588 0.150394 -0.0893687 0.220594 -0.0348626 -0.108467 -0.00382118 -0.0190788 -0.296604 0.200855 0.203773 -0.280627 -0.0312759 0.00102292 -0.0702338 -0.211273 -0.295563 0.0343181 0.136811 0.174392 0.11691 0.0627078 -0.273222 -0.202341 -0.181818 -0.0366377 0.105894 0.450537 -0.0995015 0.209111 -0.130475 -0.0223068 -0.24181 0.305475 0.0405921 -0.174401 0.145304 0.251743 0.0877432 0.193473 -0.0819479 -0.130719 -0.0356132 0.235205 0.275476 0.311369 0.222911 -0.281711 0.21261 0.003573 0.107593 -0.0498344 0.0975499 0.129649 0.201473 -0.0707742 -0.0797423 0.043704 -0.0302084 0.174144 -0.224808 0.0424879 -0.186238 0.127251 
w8m 0.234976 -0.117502 0.415101 -0.328966 -0.165861 -0.320946 0.193375 -0.0363691 0.0465986 -0.208304 0.15374 0.316973 -0.0219244 -0.148832 -0.897043 -0.505724 0.396665 -0.0813664 -0.358744 0.639483 -0.0948036 0.510834 -0.100906 0.133405 -0.225181 -0.300635 -0.0416868 -0.110328 0.328135 -0.15575 0.0787755 -0.0292133 0.237262 -0.244842 0.336499 0.169079 0.175024 0.23115 0.12047 0.488147 0.137987 -0.0327141 -0.0481404 -0.0282898 -0.632293 -0.310142 -0.0114757 -0.0239459 0.126181 -0.00410754 -0.205215 -0.269014 -0.260698 0.541743 -0.5472 0.0330133 -0.0363493 0.188879 0.286705 0.266375 0.079105 0.471961 -0.175001 -0.0795141 0.193913 0.337787 0.346449 0.202822 0.0317634 0.0312105 -0.466188 0.0576611 0.0354385 -0.376599 0.323193 0.223485 -0.11443 -0.130067 -0.165025 -0.0284889 0.378858 -0.36291 -0.0642161 -0.0808805 0.0925438 0.23472 0.37758 -0.207637 0.406106 -0.329928 0.259163 -0.302549 -0.0298279 -0.131928 -0.1213 0.217359 -0.36209 -0.00695897 -0.0581863 0.0993637 -0.047942 -0.349687 0.0696092 0.225767 -0.110776 -0.367372 0.0336386 0.0307403 -0.245662 0.135263 0.211411 -0.180997 0.456573 0.628408 -0.0782647 0.0950075 0.534826 -0.470369 -0.00494547 -0.116722 -0.0502222 -0.0221009 -0.370434 -0.332417 -0.0793521 -0.406883 0.387118 0.183882 0.368675 -0.0892337 0.185889 0.224808 0.569657 0.173462 0.45921 -0.524496 -0.258472 -0.481787 -0.172902 0.0776879 0.253929 0.100826 -0.456904 0.0127232 -0.172419 -0.403431 0.199514 -0.553101 0.368809 -0.0716261 0.112089 0.0478818 -0.522818 -0.153962 -0.165006 0.258129 -0.10036 0.111207 -0.249468 -0.0105488 0.278365 -0.412053 -0.0859593 0.441215 0.0399495 0.431748 -0.27016 0.00153268 -0.443881 0.532748 0.119305 0.235057 0.152573 0.239802 -0.505564 0.357484 0.439783 -0.0839819 -0.320064 0.0806275 0.163983 -0.33076 0.0920307 -0.0356484 0.437227 -0.317317 -0.61701 -0.285569 -0.173008 -0.406804 0.101317 -0.39526 0.0457752 0.12423 -0.115152 -0.0581672 -0.146876 0.225778 -0.264363 -0.112544 
w3m -0.0139293 -0.185259 0.227821 -0.239458 0.138898 0.0611713 0.256191 -0.43139 -0.111784 0.47989 0.12387 0.464574 0.17327 -0.026735 -0.256795 -0.158739 0.314721 0.0287621 -0.324492 0.337093 0.175887 -0.110072 -0.132192 -0.237929 -0.105459 -0.215338 -0.118639 0.122743 -0.0236222 -0.0747734 0.184092 0.0319408 0.0179536 -0.363971 -0.387117 -0.0487028 0.0170629 0.127305 0.142127 0.0534354 0.0443931 -0.369334 0.100861 0.164797 -0.260401 0.116463 -0.0575679 -0.00198914 0.174485 0.0728848 0.0441659 -0.201939 0.0904762 0.154474 -0.0270086 -0.376222 -0.185056 0.0725247 0.329105 -0.0182087 -0.083609 0.141166 -0.252082 -0.252222 -0.327538 0.17862 0.143557 0.505034 -0.330339 0.173572 -0.42976 -0.056771 -0.107438 -0.10788 0.0985186 0.300314 0.0146441 0.0334045 -0.229149 -0.0437987 0.0146501 -0.581866 -0.107351 0.116577 0.136459 0.274014 0.464651 -0.195299 -0.181933 -0.131154 -0.210837 -0.264785 -0.303178 0.231708 0.141323 0.181993 -0.281821 -0.151296 -0.188034 -0.157002 0.0748702 -0.0977667 -0.0376245 0.279689 0.0695795 -0.13994 0.257672 -0.291203 -0.0444921 -0.0706113 0.175853 0.100935 0.132054 0.0962421 -0.276091 0.401227 0.405609 0.0261925 0.389886 0.193183 -0.00297373 -0.0762882 -0.150488 -0.213253 0.176529 -0.14878 0.198142 0.392903 -0.229212 0.285718 0.0437671 0.21598 0.0422838 0.0540468 -0.261826 0.203977 -0.166202 -0.13473 0.155178 0.0165147 0.165369 0.0818665 -0.349466 -0.0891692 -0.165802 -0.0067278 -0.303685 -0.325979 -0.100518 0.0716675 0.431018 -0.296005 -0.3348 -0.0850021 -0.145179 0.143451 -0.304741 -0.0296062 -0.12034 -0.184577 -0.0414633 -0.406225 -0.0070123 0.43847 -0.143041 0.387042 0.252795 -0.328544 -0.293139 0.10146 -0.169433 0.214978 -0.0279665 0.583454 0.147497 0.0919952 0.270361 -0.508964 -0.0977756 0.278863 -0.234136 -0.251943 0.0658872 0.0960488 0.614181 -0.370679 -0.103519 -0.434223 -0.0452632 -0.0462569 0.107181 0.0890817 -0.0971576 -0.0416968 0.224367 -0.0255826 -0.0527577 -0.0709983 -0.1029 0.109453 
VIdim 0.0657186 -0.0336133 0.0392467 -0.0512742 0.0317895 4.83992e-05 0.00350109 -0.0885253 -0.0285673 0.00260884 -0.0356467 0.0322433 0.00311301 -0.0106551 -0.0700656 -0.0281942 -0.0152113 0.0231121 0.000694697 0.00165128 0.00402243 -0.0287501 0.0148962 -0.0156056 0.032447 -0.00203789 0.0252871 -0.00647194 -0.0180727 -0.0330267 -0.0535692 0.0270792 0.0260957 -0.0521355 -0.0329888 0.0393651 -0.0461552 0.0382137 0.0234879 0.0514724 -0.00702445 0.00581239 0.0218998 0.0287811 -0.0653492 -0.0116328 0.0248322 -0.0571421 0.081419 0.0882232 0.00930155 0.00400465 -0.0746718 0.0334344 0.0273722 0.012093 -0.0376188 0.0480418 0.030499 0.0197465 -0.059069 -0.0139407 -0.052695 -0.00250201 0.0459464 0.0823209 0.0218439 0.0428812 -0.0406872 0.0332919 -0.0163924 -0.0380418 -0.048721 -0.0288136 0.0263862 0.0594713 0.0284033 -0.00626753 -0.0505991 -0.0156521 0.080271 -0.0021534 -0.0884874 -0.019176 0.0244353 0.01051 7.54512e-05 0.0110037 0.0171071 0.0152407 -0.000545314 0.0234202 -0.0177633 0.0219383 0.0375645 0.0126791 -0.0543871 -0.0441799 -0.0216151 -0.00225822 0.0304447 -0.0422309 0.0757416 0.032019 -0.0450297 0.00277116 -0.0636971 -0.0289629 -0.0485607 0.0255986 -0.00205522 -0.0318783 0.0355733 0.0172853 -0.0040576 0.0654225 -0.00594054 -0.0380624 0.00321048 0.019104 0.0343115 0.0411117 -0.023378 -0.0197576 -0.0180557 0.0367359 0.0244688 0.0248606 0.0100882 0.0140105 -0.0139787 0.0234141 -0.00237928 0.0599494 -0.0524135 0.00141367 -0.0833452 0.0036645 -0.0116392 0.00339613 0.0478667 0.0205943 -0.000505329 0.0113653 -0.0379583 -0.0270428 -0.0136353 -0.0463658 -0.0493704 0.0233999 0.0213216 -0.0116003 0.0214364 0.0148726 -0.0311313 -0.0408928 0.00689915 0.042487 -0.0454606 -0.011075 0.025078 -0.0431398 0.00691212 0.0854552 -0.0230666 0.100852 -0.0135413 -0.000443092 0.0132675 0.0272972 0.030622 -0.0190043 -0.0333173 0.0520813 0.0415716 -0.0275081 0.0271038 -0.0653797 -0.0416701 -0.0238626 0.0107302 -0.00454037 0.0540196 -0.00860419 -0.0299103 -0.0158304 -0.0231024 -0.0387507 -0.0897478 -0.00328521 -0.0113312 -0.0736235 0.011794 0.0159806 -0.011622 -0.01993 -0.00420691 -0.0540622 -0.00191934 0.0279651 
ii -0.153917 -0.295275 -0.0630735 -0.02863 0.178441 -0.193713 -0.225125 -0.14056 0.0225561 0.0129078 -0.146928 0.010844 -0.303671 -0.151093 -0.293979 -0.113482 -0.0739464 -0.296814 0.191509 0.125221 0.0395826 0.183809 -0.0828633 0.345762 0.0164809 -0.00446216 -0.229904 0.182216 0.032086 -0.0796835 -0.044453 -0.245821 -0.116243 -0.110352 0.0167531 -0.0530564 -0.22944 -0.10026 0.202838 0.0349715 0.196687 -0.180924 0.0385361 0.191644 -0.139729 -0.256436 0.231297 -0.136936 -0.10367 0.172859 0.0816423 -0.0899939 -0.265075 -0.101454 0.139295 0.0390336 -0.290962 0.0917455 -0.146884 -0.0719785 0.257665 0.180545 -0.268465 -0.345024 -0.0422526 0.533904 0.165648 0.0417535 -0.00874996 0.164916 -0.181694 -0.306968 -0.00319261 0.197399 0.130952 0.140152 0.0969597 -0.218355 -0.0104261 0.0517075 0.0307246 -0.252383 0.046537 -0.126197 0.257565 0.231835 -0.133499 0.123187 0.0489831 -0.0935647 0.0126514 0.022591 -0.0354231 -0.105589 0.0295513 0.203841 -0.0079541 0.237181 -0.182902 -0.0427737 0.373062 0.389744 -0.0205599 0.236509 -0.174183 0.161383 0.153212 -0.203441 0.0989878 0.0777872 -0.0526826 0.0517863 0.207579 0.166109 -0.134208 -0.10309 0.227376 0.148366 -0.114485 -0.0370791 0.0488209 0.0523224 0.0705366 -0.0538449 -0.109802 -0.211321 0.00995733 0.149735 0.00263488 -0.0356758 0.188233 0.0882538 0.330397 0.184645 0.248396 0.140744 -0.0202077 -0.0324172 -0.205742 0.142372 0.0515443 -0.155268 0.047045 -0.271501 -0.162372 0.0737083 0.118348 -0.177431 0.0938978 0.0569267 -0.164218 -0.0264008 -0.259449 -0.0197497 -0.0509082 0.119892 -0.185165 0.367816 -0.202594 -0.153198 -0.0400009 -0.130278 0.00545516 0.12982 -0.127002 0.206179 -0.0883612 -0.160333 0.0926434 0.228179 -0.103644 -0.0986485 0.344496 -0.0714945 -0.00603977 0.0251441 -0.222252 -0.26472 -0.251853 0.0798258 0.128186 0.13688 0.117444 -0.0205892 0.0744502 -0.05796 0.227241 -0.0897824 -0.145605 0.0648918 0.104105 0.28819 -0.0227146 0.105002 0.0419622 -0.160518 -0.00417731 -0.10962 -0.013961 0.123692 
IV -0.222568 -0.0163257 -0.205822 -0.163252 -0.0825386 -0.178491 -0.256529 -0.0905802 -0.00911224 0.195488 0.129939 0.0740642 -0.0891086 -0.337063 -0.241061 -0.0125889 0.112943 -0.167781 -0.276589 0.036641 0.136839 0.0652375 -0.184324 0.182306 0.212854 0.0911677 -0.269641 0.199678 -0.0791965 -0.114351 -0.162396 -0.475595 0.0723104 0.0601018 0.0451334 -0.112174 0.249801 -0.121008 0.231653 0.38866 0.0593709 -0.385888 0.0963662 0.220297 -0.296212 -0.0382026 0.12936 -0.258274 0.0328714 0.360666 0.152444 -0.151923 0.0753412 0.0570039 0.083307 -0.000402243 -0.047961 0.322349 -0.35294 0.0291319 0.548936 0.0812903 -0.311093 -0.453437 0.147216 0.288501 -0.0356491 0.130434 -0.266893 -0.112592 0.142337 -0.617557 -0.0604262 0.026058 -0.0427991 0.156735 0.142749 -0.0781737 -0.0283482 -0.122421 0.0297295 -0.273971 0.144195 0.0366052 0.141114 -0.0463718 -0.030915 0.258337 0.305329 -0.290546 -0.259635 0.00781884 0.101797 0.0146763 0.0386036 0.222644 0.0105908 0.109742 -0.000796743 0.126848 0.0997001 0.084714 0.422796 0.154256 -0.0457364 0.0674649 0.179843 0.0556891 -0.284484 0.111186 0.150679 -0.100695 -0.060897 -0.0545993 0.0901115 0.157093 0.0993369 0.103951 -0.0959727 0.135765 -0.121818 0.0349706 0.213539 0.0548813 -0.141421 -0.0840696 0.0250103 -0.000780546 0.0841712 0.129341 0.265441 -0.187466 0.209938 -0.0690228 0.417142 0.264929 0.0696793 0.0482621 0.0832529 -0.00769279 0.0105539 -0.163401 0.132486 -0.152291 -0.254465 0.164566 0.104514 -0.141797 0.14467 0.112984 -0.141521 -0.225729 -0.123887 0.108018 0.0836346 0.110659 0.218931 0.070702 -0.101748 -0.377835 0.206924 -0.0122194 0.172265 0.316595 -0.0757909 0.260765 -0.231636 -0.311884 -0.1245 0.137993 0.0799806 -0.0790807 0.112885 0.221947 0.108054 -0.0229401 0.133617 -0.219376 -0.169571 0.198911 0.036311 -0.0281865 0.058712 -0.0249329 0.208401 -0.0797507 0.259265 -0.0577885 0.0345719 -0.168777 -0.0511065 0.143296 0.119188 0.0628002 -0.0461568 0.16389 -0.0282609 0.00277311 0.0625341 0.127723 
w0 -0.398607 -0.126952 -0.192495 0.00108541 -0.263262 0.102173 -0.135009 0.103322 -0.220863 0.049279 -0.154496 0.0343153 -0.345893 -0.147958 -0.391188 -0.10519 -0.198788 -0.167685 -0.0410284 0.256248 -0.0851275 0.190209 -0.208425 -0.0110081 -0.0333602 -0.231579 -0.0313156 -0.0367186 0.149077 0.00956827 -0.00361198 -0.184673 -0.238074 -0.101558 0.0523835 -0.000292087 -0.170113 0.0613246 0.344444 0.494589 0.401052 -0.0832975 0.0518151 -0.0319968 -0.328822 -0.0765803 0.21552 -0.200698 -0.114953 0.350123 0.133959 -0.150485 -0.055909 -0.037784 -0.0268899 -0.106295 0.0781019 0.355005 -0.143198 0.248254 0.306843 0.348543 -0.0368678 -0.548971 -0.012414 0.108366 0.152636 0.0485487 -0.269531 0.273971 0.0207469 -0.339916 8.1431e-05 0.0659704 -0.0049834 0.121006 0.0794134 0.0592118 -0.21995 0.0562084 0.294411 0.00421086 0.124056 -0.139329 0.171491 0.227295 -0.116932 0.130941 0.0850692 0.0500921 0.0660009 0.133349 0.0619249 0.0566809 -0.110594 0.0484318 -0.0577932 0.050117 -0.111254 0.25696 0.395795 0.233543 -0.0626478 0.161895 -0.0717545 0.147281 -0.268916 -0.316226 -0.0819934 0.195781 -0.0275192 -0.0788854 0.174968 0.143569 -0.169474 0.0783392 0.276351 -0.0219895 -0.149148 0.0570257 -0.172675 0.158898 0.28279 -0.0888994 -0.147845 0.195703 0.0869744 -0.072046 0.036826 0.200688 -0.030004 -0.104977 0.164744 -0.0323507 0.219761 0.181904 0.0284838 0.0293512 0.194954 0.169498 -0.110618 -0.27624 0.120288 -0.211558 -0.0174861 0.242085 0.191438 -0.143577 0.072366 0.100595 -0.181624 -0.23173 -0.304073 -0.0602305 0.103749 0.112932 0.0641887 0.0681376 0.0623492 -0.145106 -0.0835011 -0.00368656 0.0302689 0.154386 -0.18778 0.0464775 0.0736325 -0.235612 -0.186136 0.32277 -0.104649 0.0525894 0.100507 0.142401 0.111689 0.131177 0.0101164 -0.315126 -0.0334417 0.293693 0.145557 0.19177 -0.240558 -0.0960965 0.0642787 -0.0753549 0.118352 0.116284 0.018455 -0.00478428 0.159103 0.0960255 -0.00936292 0.327418 0.0113689 -0.0397258 0.193173 0.256455 0.0585678 -0.0619906 
vii -0.0548001 0.0815056 -0.0237242 -0.13246 0.0944989 -0.425419 0.119786 -0.188872 -0.15159 -0.07483 0.0578156 -0.674296 -0.489797 -0.130039 -0.43352 -0.0825034 0.0708228 0.0157376 -0.365563 0.58475 0.0290976 0.272564 -0.158116 0.42822 -0.0663643 0.271675 0.0776018 0.226338 0.0524169 -0.11318 0.0374427 -0.316685 0.540542 -0.291312 0.0492575 -0.766139 -0.087131 -0.00297774 0.454444 0.274815 0.624525 -0.595211 -0.222539 0.21938 -0.474289 0.0380095 0.151467 -0.136988 -0.0158242 0.228885 -0.457897 0.0311518 -0.293554 0.191938 -0.179208 0.0721873 0.158177 0.0382283 -0.24488 -0.267083 0.789416 0.364658 0.267873 -0.786399 0.246198 0.539232 0.496357 0.175641 0.199683 0.124872 0.142084 -0.105761 0.0127869 -0.0628871 0.603958 0.586747 -0.0243467 -0.249292 -0.170868 0.0466099 -0.0704194 0.0443654 0.0668276 -0.540689 -0.0173766 0.105876 0.185628 -0.367716 -0.0238951 -0.185204 0.110861 0.198019 -0.151345 -0.182594 0.305106 -0.239213 0.123123 -0.515105 -0.55186 0.0845978 -0.174678 -0.520248 0.0298644 0.0822182 -0.208671 0.0214975 -0.0813524 0.0885868 0.209505 0.113987 -0.43923 0.0755745 0.225003 0.366522 0.00642776 0.346034 0.395795 -0.214508 0.114526 -0.075731 0.124166 0.00183322 -0.301788 -0.136126 -0.410499 -0.297294 0.281983 0.254943 0.341488 -0.0215663 0.0402751 0.0737469 -0.0786333 0.441429 0.235089 -0.142458 -0.619983 0.109573 -0.150721 0.0746962 0.0191286 0.0205031 -0.244212 -0.0387028 0.41017 -0.269737 0.0981042 -0.340469 0.125081 -0.1708 0.245025 -0.258071 -0.35732 -0.071718 -0.32308 -0.0494425 0.0603085 -0.153236 -0.282511 -0.207125 -0.135647 0.0183468 0.221615 0.451917 -0.168654 0.424378 -0.0450882 -0.0745419 0.231099 0.893666 0.0875263 0.360819 -0.0840097 0.411558 -0.151898 -0.0552918 0.021758 -0.440715 -0.0817675 -0.438947 0.298618 0.27423 -0.033356 0.22957 0.479145 0.0215627 -0.388107 -0.316843 -0.115901 0.10429 0.120926 -0.0360608 0.320443 0.149513 -0.115393 0.0545867 -0.175752 0.0949063 0.260552 0.019994 
III7 0.14914 0.0706783 -0.0341956 -0.147593 -0.279464 0.0750202 -0.15884 -0.601425 0.202331 -0.358677 -0.144949 -0.249306 -0.08691 0.076806 0.19765 -0.103625 0.0352435 0.456028 0.252694 0.0350348 0.163091 0.401936 -0.137839 0.204489 0.305 0.0959084 0.0998392 -0.126799 0.282233 -0.0685477 -0.236037 -0.494059 0.0500261 -0.0828083 -0.122592 -0.186085 -0.619391 -0.170489 0.676397 0.32077 0.167713 -0.219992 -0.153676 -0.351172 -0.175014 -0.0134953 0.0835516 -0.0529338 0.327178 0.8765 -0.126784 -0.474494 -0.415754 -0.186207 -0.0466273 0.45671 -0.408229 0.0301996 0.00436367 0.132388 0.170998 0.253564 -0.396209 -0.0559034 0.371074 0.449506 0.566148 0.258687 -0.267287 0.641073 -0.100973 -0.163113 -0.350701 -0.101525 -0.166997 0.259808 0.060619 0.134211 -0.00956176 -0.504448 0.249857 -0.251365 0.269056 0.0828877 0.410116 0.0476042 -0.169802 0.148725 0.434105 -0.4295 0.115233 0.156897 0.357992 -0.473984 0.580644 -0.137478 -0.280972 0.0515383 0.111688 0.2907 0.263525 0.211475 -0.173019 -0.171573 -0.174539 0.0453193 -0.225319 -0.221456 0.092545 -0.140127 -0.658297 0.43404 0.136822 -0.179274 -0.0871695 0.201872 0.0842289 -0.304821 -0.310204 0.0484066 0.046636 0.148571 0.325526 -0.420376 0.249363 0.300889 0.158479 0.176215 0.156292 -0.135751 0.199809 -0.332509 0.335128 0.249206 0.318493 -0.0181989 -0.67936 0.055563 -0.0417918 0.196392 -0.00784938 0.0802531 0.0118484 0.161324 0.0760554 -0.156625 0.108874 -0.0571489 0.171902 0.218785 0.0834364 -0.388348 -0.273901 0.0420107 -0.388197 -0.270057 0.397008 -0.251649 0.0780346 -0.358163 -0.351078 0.0985602 -0.00605953 0.123525 0.284724 0.161659 0.0119947 -0.342441 -0.11614 0.278271 0.317008 0.232169 -0.0703721 0.0477613 -0.00170631 0.308363 0.0141686 -0.0700767 0.124893 0.379876 0.0719161 0.328374 -0.409733 0.418725 0.179114 0.0235161 -0.0989214 -0.546546 -0.0745683 -0.398704 0.105337 -0.570777 0.136038 0.156618 0.139045 0.108163 -0.164468 -0.25202 0.274305 0.00529165 
II -0.205412 0.262488 0.381627 0.11244 -0.0279019 -0.258013 0.0815487 -0.203065 -0.247784 -0.14086 0.0583162 0.136803 -0.291766 -0.233218 -0.37408 0.168305 0.138722 -0.297999 -0.309614 0.378513 -0.403913 0.219997 0.23612 -0.00047324 -0.109314 0.339015 -0.046574 0.000468156 0.195188 0.112953 0.266309 -0.317432 0.310971 0.190997 0.0455895 -0.204774 -0.323336 0.285091 0.557714 0.411368 -0.0798997 -0.374137 0.150747 0.185082 -0.22822 -0.0224095 0.0977719 -0.168799 -0.0379227 0.258759 0.090477 0.23918 -0.492003 -0.0421622 0.0202841 0.0246157 0.396502 -0.040467 -0.216768 0.316358 0.456439 0.0976882 0.0791848 -0.433856 -0.0372461 0.138594 0.338903 0.517715 -0.109099 0.101942 0.0371009 -0.252131 -0.0877718 0.0982057 0.0929967 0.511566 -0.389001 0.0757132 0.129888 -0.225623 0.0847972 -0.14038 -0.0936109 -0.530245 -0.106269 0.215636 0.41966 -0.401916 0.390502 0.0242725 -0.239415 -0.492004 0.150497 -0.229001 -0.0501621 -0.381166 -0.137556 -0.206487 -0.389769 0.0424134 -0.161813 -0.293506 0.271157 0.343682 -0.421834 0.0135739 0.197936 0.212297 0.0670755 0.276787 -0.152188 0.0826669 0.0986978 0.0304921 -0.542693 0.20326 -0.0310352 -0.177644 0.210153 -0.0587292 0.334171 0.287125 0.044067 -0.180607 -0.108595 -0.243344 0.117427 0.117775 0.396865 -0.179163 -0.0402157 0.0217402 -0.227629 0.0110866 0.351969 -0.101643 -0.351649 0.285581 -0.306775 0.179292 0.0125421 -0.210935 0.157508 -0.163058 -0.157991 0.235801 0.620914 -0.146773 0.0275907 -0.0838666 -0.155743 -0.220167 -0.496148 -0.0310595 -0.107181 0.126898 0.141986 0.0598249 -0.219039 -0.103548 0.330786 0.140704 -0.00480941 0.337577 -0.489535 0.235095 -0.101624 -0.0701789 0.0822132 0.158271 0.135312 0.0753877 0.00609147 0.443607 -0.101477 0.527682 0.15331 -0.494453 -0.0992971 -0.0101908 0.194625 0.159834 -0.106661 -0.0661784 0.321532 -0.176699 -0.331062 -0.136915 -0.252566 -0.0667877 0.41306 -0.0860147 -0.190798 0.219309 -0.0515478 -0.118189 -0.183641 0.0098488 0.0506463 -0.18134 
w17 0.282179 -0.332507 0.275378 -0.0589114 -0.0560185 -0.0433806 0.0800033 -0.0551268 0.0461274 -0.0937335 0.0396822 0.0769596 0.161587 0.0487519 -0.174629 -0.295183 -0.0695575 0.165277 -0.000725371 -0.178608 -0.0813215 0.117669 0.00365275 -0.113394 0.10193 -0.0217214 -0.0502805 -0.213863 -0.181568 0.104414 0.0563456 -0.0421646 0.0906954 -0.477017 -0.213818 0.252023 0.0230564 0.117433 0.235116 0.265399 0.137674 -0.0738073 0.0788685 -0.159534 -0.558393 -0.054042 0.0195832 -0.217794 0.139901 0.430184 -0.181157 0.0286952 0.0876102 -0.154081 -0.143579 -0.0614034 -0.271293 0.144611 0.237475 0.17951 -0.119619 0.0959488 0.179066 -0.0785446 0.125568 0.222343 -0.0637404 0.210951 -0.102343 0.145898 -0.0368721 0.0269812 -0.181342 -0.274006 -0.0447704 0.398312 0.0176258 0.190718 -0.138014 0.0302074 0.246012 -0.0127095 -0.151315 -0.0269077 0.185802 0.0259739 0.239849 -0.181833 0.318351 -0.0857587 0.166032 0.0237426 -0.293943 -0.182081 0.0447284 0.0801755 -0.514555 -0.230403 -0.056534 -0.0660053 -0.0514447 -0.153437 0.115726 0.0866768 -0.0229247 -0.225484 0.149137 -0.000512311 -0.207496 0.056969 0.176317 0.158482 0.00631435 0.257224 0.0906454 0.194936 0.0418809 -0.408539 0.184843 0.0352938 -0.0156654 0.20596 -0.223107 -0.0322077 0.0748643 0.0608044 0.0642217 0.13587 0.0689064 0.213762 0.196994 0.0705752 -0.0276009 0.227713 -0.0309295 -0.130773 -0.40146 -0.0060944 -0.257222 -0.00658204 -0.0205265 -0.00424951 -0.271631 0.0838776 0.0620275 -0.124693 -0.0862387 -0.326838 -0.227613 0.0471642 0.150947 -0.148907 0.0386107 -0.00626142 -0.228578 0.0155246 -0.00686 -0.0122745 -0.0341452 -0.10168 -0.0708403 -0.25115 -0.0953287 0.385545 -0.167302 0.295584 -0.0229803 -0.00548435 0.0470868 0.0520141 0.324362 -0.0589039 -0.139846 0.0105946 0.237068 -0.0208869 0.126639 -0.113719 -0.102733 0.0165849 0.0299666 -0.00510706 -0.13357 0.0427808 -0.131649 -0.153529 -0.352876 -0.202573 -0.241025 0.140011 -0.319668 -0.452069 0.0402746 0.0425729 0.0571357 0.129654 -0.262613 -0.113906 0.119617 -0.00986615 
II7 -0.153 -0.0827211 -0.0150799 0.235002 0.0405676 -0.563726 0.182739 -0.160808 -0.175144 -0.499753 -0.242083 -0.148616 -0.319326 -0.385804 0.116339 -0.0229116 0.0486933 0.236289 0.809074 -0.224129 0.129761 0.489575 -0.250776 0.373792 -0.0674986 -0.192276 0.433062 0.151135 -0.185427 -0.272312 0.170829 -0.140771 0.149341 -0.186431 -0.361902 0.137272 -0.239882 0.125906 0.027347 0.18995 0.169727 -0.559582 -0.0557316 -0.28465 -0.422448 0.182321 0.0266399 -0.503095 0.0222645 0.630722 -0.0764051 -0.345766 -0.337702 -0.228661 -0.00843181 -0.116275 0.0573689 0.306319 0.188619 0.0307365 0.358452 -0.00519666 -0.246692 -0.308457 0.142264 0.596452 0.229634 0.169047 -0.208853 0.461142 0.139418 -0.600913 -0.607498 -0.416436 0.143514 0.189068 0.148233 0.0115878 -0.157023 -0.351338 0.148856 -0.0375678 0.272544 0.0466004 0.0850992 -0.0852197 0.351354 -0.186599 0.490192 -0.124634 -0.313045 0.063532 -0.219962 -0.104884 -0.0648859 -0.177751 -0.476776 0.0514308 -0.232307 0.103525 0.343295 0.675234 0.0654492 0.177281 -0.129954 -0.183096 -0.248033 -0.0761878 -0.0883402 0.463657 -0.197796 0.30961 -0.164394 -0.268785 -0.311964 -0.00642264 0.122207 0.340445 -0.375726 0.101328 0.439017 0.487495 0.00450617 -0.584788 0.134374 0.313689 -0.168274 0.181692 0.257902 0.0196923 0.291674 0.325812 0.0992683 0.036322 0.352339 0.204286 -0.223635 0.274244 0.0617027 0.998249 -0.11374 -0.742142 0.356261 -0.228876 0.145422 0.140644 0.0163874 0.00988916 -0.206033 0.263805 -0.0969424 -0.7407 -0.112871 0.189056 -0.0625761 0.0712131 -0.0817267 -0.302138 0.442632 -0.290737 -0.00329619 0.114942 -0.147782 0.150469 -0.111826 0.449581 -0.107491 -0.185129 0.0588954 0.557481 0.557786 0.090323 0.197403 -0.0916878 0.238176 -0.177332 -0.155557 0.0209733 -0.220479 0.111679 -0.145632 0.199792 0.00588496 0.298005 -0.00338634 0.142303 -0.223124 -0.354971 -0.32954 -0.277985 0.183072 -0.31546 0.118617 0.396988 -0.132042 0.0388799 0.0279897 -0.207737 -0.125207 0.0343344 
III -0.213789 -0.275588 0.175792 0.25116 0.0916712 -0.0259101 -0.525757 0.0165261 -0.126316 0.0744802 0.105836 -0.490041 -0.157109 -0.185504 -0.35907 0.223672 -0.0988042 0.411794 0.138258 0.544178 0.0349449 -0.1342 -0.0558976 0.107999 0.0912303 0.341811 -0.216962 0.119073 0.317982 -0.48314 -0.179823 -0.20181 0.430223 0.106979 0.211958 -0.128227 -0.26352 0.315707 0.6686 0.443086 0.407865 -0.696597 0.137292 0.266906 -0.361674 -0.163217 0.319397 0.00582536 -0.273642 0.27585 0.29327 -0.308051 -0.453618 -0.0294519 -0.0837726 0.192668 -0.144698 -0.220836 0.0125774 0.0807265 0.190167 0.125044 -0.11645 -0.262611 0.385072 0.303818 0.289228 0.17708 -0.246402 0.520165 0.0141626 -0.478902 0.170048 -0.276428 0.0767694 0.0821077 -0.296374 -0.208656 -0.0403275 -0.443454 0.144393 -0.105378 0.0785209 -0.0361289 0.0450983 0.0800886 0.545181 0.0992512 0.0660667 -0.0543173 0.0842599 0.083253 0.260701 -0.0943529 0.265536 -0.0537012 -0.138456 -0.156676 -0.0620039 0.0723804 0.0878397 -0.529405 -0.145556 -0.024438 -0.595518 0.0298528 -0.0363868 0.32697 0.110899 -0.137683 -0.0881007 -0.148087 0.837504 -0.153223 0.107123 -0.284093 0.390461 -0.349838 -0.123126 0.133436 -0.412864 -0.23459 -0.0237109 0.0235547 -0.356926 -0.134324 -0.382804 0.305444 0.087648 -0.0881886 0.0397736 0.145211 0.0842305 -0.0136578 0.189084 -0.0279407 -0.234726 -0.0563417 -0.100519 -0.464244 -0.0563641 -0.0949055 -0.102725 -0.307463 0.0778772 0.105811 0.169946 -0.292327 0.263383 0.130852 -0.410723 -0.446622 -0.172544 -0.0837488 -0.233629 0.47483 0.0929024 -0.0617945 0.0417618 -0.109959 -0.245617 0.387191 0.091767 0.607775 -0.152868 0.102365 -0.239203 -0.185749 0.0220589 0.162663 -0.078815 0.407456 0.0612906 0.173773 -0.193837 0.265375 0.577753 -0.0285197 -0.327166 0.0279024 -0.114861 0.387817 -0.10823 0.0583894 0.633802 -0.0862939 -0.219397 -0.274063 0.176332 -0.0543123 0.587909 -0.107697 0.0759307 0.498725 -0.218944 -0.109067 0.190382 -0.331347 -0.0274503 -0.0797728 
Idim 0.141704 -0.096109 0.0805994 -0.196603 -0.0928413 0.0660539 0.0616482 -0.192413 -0.0946626 0.0160107 0.00604595 0.250691 0.126834 0.0485927 -0.239916 -0.115407 -0.0078568 0.032161 -0.0371382 -0.149636 -0.0225653 -0.0010641 -0.062515 0.0514294 0.0623481 -0.044105 -0.000855602 -0.0234519 -0.157231 -0.020704 -0.139222 0.0178149 -0.00831045 -0.143571 -0.269085 0.192255 -0.0790488 0.0904491 0.0581847 0.175899 0.0235958 -0.0705903 -0.00607552 0.0506367 -0.288026 -0.163885 0.0772367 -0.15044 0.216138 0.260712 0.0157586 0.0235947 -0.138438 -0.0954132 0.00750931 0.10619 -0.0794414 0.162109 -0.0114117 0.0668814 -0.0865519 -0.112318 -0.158809 0.0655357 -0.0883937 0.178937 -0.0278519 0.131191 -0.0815634 -0.0306123 -0.048657 0.0705272 -0.204039 -0.149323 0.100346 0.277583 0.0293048 0.0819759 -0.138434 0.0318038 0.132217 -0.0911978 -0.159769 0.0152264 0.0276595 0.0582649 0.000926084 0.0364279 0.216906 -0.0907328 -0.0342372 0.0646839 -0.0894624 -0.0680932 0.00628601 0.0751119 -0.124945 -0.0468896 -0.0676086 -0.0656276 0.0619834 0.0640048 0.081064 0.0286633 -0.0271731 -0.0646409 -0.0707494 -0.172077 -0.112681 -0.0326216 0.0948687 -0.00806908 0.0502871 0.116662 -0.0911524 0.262431 -0.00137033 -0.0891763 0.0913118 0.123821 0.00339734 0.114677 -0.063299 0.0190264 -0.0498981 0.0922736 0.183359 0.0666581 0.0314777 0.0397982 0.0925135 0.0888639 0.0280361 0.217731 0.057123 0.043965 -0.200845 0.0186521 0.0322709 0.136843 0.0656797 0.0833969 -0.0663845 0.0244656 0.00237614 0.00589459 -0.0323532 -0.14088 -0.184495 0.089708 0.0464574 -0.186626 0.0186236 -0.026145 -0.0809474 -0.00513393 0.0379247 0.130043 -0.0920487 -0.102547 0.293701 -0.196834 0.0253887 0.117923 -0.129916 0.251557 -0.0458206 0.0609044 -0.0341909 -0.0339396 0.1276 -0.129083 -0.197572 0.264515 0.0970414 -0.0534264 0.0547599 -0.164565 -0.0169325 0.0526247 0.0947532 -0.0468121 0.0364609 -0.0237864 -0.0711117 -0.0222277 -0.107554 -0.126441 -0.178918 0.0221076 -0.0916191 -0.312205 -0.0893242 -0.0412123 0.0613873 -0.0294793 -0.0808882 -0.00888076 0.0485897 -0.0243246 
VI7 0.209575 -0.192854 0.337106 0.213611 -0.286667 -0.517574 -0.121033 -0.409092 -0.00504347 -0.164627 -0.451076 -0.075748 -0.216993 -0.187725 0.0242349 -0.189388 0.0347722 0.0321607 0.143905 -0.206311 0.130611 0.536271 -0.42842 0.124866 0.0412987 0.127522 0.0846297 -0.0474753 0.262456 -0.146733 0.200912 -0.543161 0.199507 -0.410548 -0.218629 0.084756 -0.186507 -0.0116961 0.311175 0.0694312 -0.121871 0.319448 -0.366726 -0.192243 -0.650433 0.0521792 -0.370116 -0.179991 0.333758 0.459885 -0.220297 -0.164018 -0.27914 -0.306199 -0.166699 0.125054 -0.0789808 -0.199988 -0.00871612 -0.0491851 0.339796 0.252507 0.00974344 -0.332814 -0.189606 0.435075 0.10158 -0.0664825 -0.0749087 0.227917 -0.436583 -0.713253 -0.0461314 0.316766 0.0891071 0.570402 -0.126338 -0.314582 -0.216219 -0.02365 0.149301 -0.0991963 -0.0464592 0.101453 0.383866 0.261288 0.21901 -0.236275 0.14009 -0.168605 -0.241246 -0.118797 -0.816453 -0.252425 0.0465799 -0.438467 -0.51295 -0.532215 -0.0375507 0.332478 0.181007 0.335262 0.0412107 0.332602 -0.0444601 -0.511624 0.2956 0.0728857 -0.15181 0.383329 -0.0403577 0.398464 -0.171992 0.437678 -0.428534 0.371852 0.431252 0.276517 0.0917918 0.418438 0.36005 0.518939 -0.0629553 -0.395368 0.279739 0.555317 0.31245 0.324741 0.397332 0.108441 0.106304 -0.282887 -0.293355 0.0331625 -0.280492 0.597863 -0.545788 0.190951 -0.303453 0.360094 -0.413483 -0.429656 0.153521 -0.419998 -0.337551 0.184269 0.0760043 -0.0745602 -0.339535 0.424773 0.302408 -0.100517 -0.0348884 -0.0858393 -0.381269 -0.0206101 -0.34377 -0.0958747 0.0750219 -0.228795 -0.122353 -0.275491 -0.0274151 0.172679 -0.273835 0.548388 0.234367 -0.11786 0.275409 0.331891 0.402291 0.172776 0.156102 -0.168435 0.596559 0.0157812 0.260642 -0.161711 -0.295431 0.264873 0.122696 -0.265791 -0.0544335 0.28954 0.413136 0.482091 -0.265752 -0.428458 -0.720577 0.222727 0.0560474 -0.227706 0.0469197 -0.0269969 0.416824 -0.238221 -0.29225 -0.319889 0.160697 0.513677 
VI 0.0238853 0.0747114 0.219361 0.0421626 0.110075 -0.0750794 0.274238 -0.0875025 -0.278455 -0.0116067 -0.204811 -0.0194331 -0.421631 -0.180438 -0.588163 -0.146023 0.0248076 0.0270629 -0.290975 0.413802 -0.156502 0.266669 -0.0178443 0.400473 -0.00992148 0.252124 -0.158781 -0.0488555 -0.112902 -0.319504 -0.215243 -0.508705 0.693882 0.192169 -0.107471 -0.473555 -0.102714 0.387524 0.55312 0.658181 0.188076 -0.297969 -0.142438 0.443185 -0.162573 -0.300775 0.253468 -0.10659 -0.193093 -0.00268854 -0.24917 0.0424681 -0.374578 0.0436618 -0.036947 0.23551 0.175903 -0.107564 -0.173277 -0.412572 0.464377 0.45364 0.301015 -0.509235 0.0550705 0.25646 0.0458204 0.137354 -0.140852 -0.363624 -0.274209 -0.176963 0.239567 -0.0531093 0.519323 0.364385 0.0484175 -0.243561 0.00295284 -0.163473 0.184426 -0.260013 0.120849 -0.160597 -0.0762534 0.0630285 0.193046 -0.1883 0.0591697 0.0884565 0.0295126 -0.01975 -0.0648011 0.00512558 -0.0679129 -0.607107 0.20762 -0.361666 -0.481288 0.285306 -0.161339 -0.282525 0.186247 0.217092 -0.10064 0.0407172 0.515216 -0.0994057 0.379267 0.213487 -0.183435 0.0999109 0.271847 0.114801 -0.276737 -0.110787 0.230452 -0.40404 -0.0461247 0.0515953 -0.133992 0.343427 -0.407016 0.0391886 -0.244207 -0.205931 0.0547563 0.136095 0.130206 0.259703 -0.0237499 0.0865255 -0.140179 0.163284 0.01738 0.0147507 -0.184967 0.0359239 -0.247083 -0.276123 -0.373917 -0.248191 -0.0995392 -0.340512 -0.246695 0.527604 0.313466 -0.304077 -0.0314926 0.0630929 0.00817551 -0.200562 -0.494435 -0.21788 -0.424916 0.196001 0.302686 -0.07793 -0.35071 -0.128933 0.276504 0.46649 0.449249 0.395963 -0.0327535 0.271672 -0.120881 0.151794 0.248922 0.615454 -0.21317 0.241083 0.219582 0.382463 -0.072272 0.467268 0.202447 -0.611727 -0.324809 -0.0471038 0.196976 -0.117426 0.361658 -0.0817569 0.575008 0.0965422 -0.310882 -0.0705475 -0.250964 -0.148536 0.117783 -0.0798163 0.1605 0.362457 0.0910287 -0.324539 -0.166874 -0.112884 0.301879 0.202802 
IV7 0.34784 -0.352385 0.427481 -0.729628 0.0476129 0.230779 -0.466572 -0.57701 0.12513 -0.438852 0.212756 0.539372 0.366544 0.369636 -0.312421 -0.388704 -0.184153 0.0494332 -0.467924 -0.051551 0.0510246 0.478236 -0.433747 0.264779 0.213107 -0.388335 0.17856 0.291593 -0.0704241 0.274354 -0.228666 -0.202174 0.0288648 -0.323054 -0.291342 0.669311 -0.140456 -0.355637 0.39983 0.377192 0.402424 -0.4661 -0.0824206 -0.071522 -0.531828 0.0323838 0.0541793 0.0532551 0.338306 0.298016 -0.241735 -0.320545 -0.215234 -0.432809 0.0807713 -0.00172413 -0.291348 0.127748 -0.0402172 -0.265393 0.333585 0.255795 -0.291167 -0.707343 -0.174822 0.345318 0.101122 0.163163 -0.600441 0.375367 -0.0414942 0.0926426 -0.128815 -0.468182 0.402258 0.396573 0.0651413 -0.118647 -0.78905 0.319949 -0.0984606 -0.592424 0.0844155 -0.0746253 0.194935 0.30513 0.466713 -0.0381724 0.396951 -0.746324 -0.443004 -0.0932351 -0.483734 -0.00189458 0.136922 0.965061 -0.466235 0.127236 -0.141198 0.290987 0.477941 0.26713 -0.00958616 -0.00517364 -0.418411 0.00853526 0.428043 -0.311957 -0.241805 -0.0240006 -0.0533787 0.338064 0.112466 0.398525 0.0783953 0.29302 0.731367 -0.00231818 -0.018972 -0.151498 0.308514 0.333879 0.0396625 -0.251711 0.807771 0.132691 0.0942501 0.29118 -0.647727 -0.0205565 0.80171 -0.282708 0.157403 -0.178437 0.214984 0.0777713 -0.682588 0.117647 0.13289 0.478362 -0.1836 0.122106 -0.208339 -0.0383625 0.485293 0.235789 0.333394 -0.253431 0.102237 0.270863 0.375222 -0.273465 -0.0997889 -0.407235 -0.62632 -0.264875 0.142502 0.207106 0.0690723 -0.620176 0.0418066 -0.434649 -0.434965 0.191468 -0.252091 0.42638 0.218637 -0.232218 -0.0563148 0.0279627 0.013974 0.112134 0.225567 -0.0174097 0.074254 0.111281 -0.278508 -0.421571 0.248586 0.225774 -0.309225 -0.26522 -0.403859 0.156473 -0.272439 0.000387061 -0.0900803 -0.395106 -0.310962 -0.128332 -0.0478947 0.22468 -0.0402268 -0.044966 -0.130022 0.118879 -0.269997 0.181117 0.0258399 0.176219 
I7 -0.224755 -0.0454169 0.108774 0.0137554 -0.503067 -0.0466681 0.0159373 -0.199315 0.00767858 -0.19219 -0.107525 0.649178 0.395297 0.261058 0.03773 -0.602384 -0.0846419 -0.0437781 0.230376 -0.601149 0.618183 0.625887 -0.125434 0.404608 0.0933361 -0.337669 -0.296256 0.0034971 0.314704 -0.21658 0.208741 -0.410532 -0.0825743 -0.145393 -0.0802817 0.158395 -0.251088 0.103563 0.431395 0.562683 0.290813 -0.193392 -0.0160392 -0.198975 -0.918039 -0.402434 -0.259263 -0.522264 0.579801 0.901026 -0.169243 -0.326864 -0.0825547 -0.204758 -0.330398 -0.00490124 -0.199088 0.43709 -0.00700508 0.108843 -0.00248396 0.0275534 -0.580104 -0.263888 0.00327701 0.469958 -0.100029 0.493888 -0.354024 -0.202976 -0.269791 -0.215563 -0.113487 -0.288763 0.163695 0.580246 0.218105 0.172691 -0.383941 0.0228276 0.0489104 -0.0546858 0.2005 -0.0341103 0.380359 0.475085 -0.20563 -0.048361 0.574384 -0.823678 -0.292496 0.168935 -0.187282 -0.587527 -0.0457101 0.1948 -0.861905 0.396402 0.0971869 0.356415 0.462267 0.319508 0.151641 0.430456 0.217746 -0.25523 0.10791 0.0181172 0.0622891 -0.239849 -0.0647278 0.243603 -0.0478177 0.0287944 -0.20384 0.238355 0.866773 0.182563 -0.00493097 0.172822 0.21803 0.0777742 -0.104047 -0.263836 0.268734 0.301904 -0.172561 -0.0106753 0.0576433 -0.223324 0.318503 -0.245095 0.356744 0.426742 0.194815 0.0975607 0.237175 -0.021632 -0.158401 0.504183 -0.0372296 -0.129953 -0.229744 -0.124794 0.585931 0.275329 -0.353858 -0.372697 -0.570718 0.149006 0.0744295 -0.279904 -0.345667 -0.188917 -0.335991 -0.0442487 0.0383551 -0.0120598 0.164193 -0.7181 0.280617 -0.31139 -0.191381 0.142688 -0.496749 0.115845 -0.186977 -0.614388 -0.0828071 0.300552 0.138231 -0.751679 -0.21647 0.257968 0.320215 0.170921 0.213067 -0.147299 0.345609 0.433904 -0.0627996 0.0496882 -0.493306 0.085602 -0.0381458 -0.198369 0.299244 -0.114727 -0.585457 0.129668 0.0132626 -0.207451 0.0324523 0.174587 0.0726627 0.291194 0.144176 -0.0183686 -0.230991 0.0748443 
VII -0.0787828 -0.687214 0.216699 -0.227853 0.0596795 -0.29808 -0.0560716 0.0166161 -0.0550968 -0.292575 0.368004 -0.143003 0.0224919 -0.68746 -0.842965 -0.287113 0.164217 -0.175507 -0.153532 0.393573 0.0298728 0.144278 -0.116111 0.0517293 0.119995 -0.462478 -0.205533 -0.0382732 0.349901 -0.225476 0.196229 -0.346707 0.23973 0.0396391 0.48109 -0.206173 -0.269223 -0.116288 0.427989 0.61263 0.209133 -0.0240921 0.468596 0.628024 -0.277395 0.133325 0.159566 0.0321225 0.14572 -0.0116536 0.294724 -0.235384 -0.061058 0.0761778 -0.362882 -0.18728 0.00579941 -0.145556 0.389256 0.0595293 0.115999 0.626723 0.111012 -0.918263 0.12443 -0.166262 0.370393 0.334693 -0.214437 0.237885 -0.159929 -0.735271 0.255226 -0.459541 0.312299 0.605757 0.346815 -0.0689581 0.306451 0.0171339 0.328298 -0.436915 0.0192922 -0.221575 -0.0374912 -0.221217 0.435493 -0.00157482 0.220904 -0.00300884 0.491677 -0.0460123 0.148295 -0.138844 -0.146903 0.28876 -0.166322 -0.0695403 -0.254243 -0.137548 -0.603072 -0.475467 0.183527 0.541314 -0.103355 0.272963 0.472288 0.0250216 0.0297954 -0.0513308 0.0773032 0.43001 0.652016 0.161552 -0.0303696 -0.208529 0.472148 -0.561159 0.124591 0.285144 0.0191467 0.060028 -0.227654 -0.094135 -0.12695 -0.412996 0.209442 0.367034 0.429549 -0.159529 0.508311 0.332142 0.653211 -0.126137 0.78991 -0.20712 0.0746288 -0.229312 -0.337036 -0.396561 0.213211 0.205586 -0.464532 -0.193975 -0.290549 -0.142898 0.319197 -0.471692 -0.177571 0.151646 -0.0237499 -0.168485 -0.602066 0.266639 -0.38201 0.546523 0.316328 0.22513 -0.16846 -0.0164729 -0.371477 0.298445 -0.165066 0.661156 -0.00189163 0.456087 0.387879 -0.12718 -0.764389 0.911572 -0.012879 0.5405 0.112884 0.562208 -0.0325673 0.487862 0.410972 -0.415779 -0.470326 0.087988 -0.0776386 0.071809 0.0265788 0.137566 0.616173 -0.18914 -0.273204 -0.263975 -0.427293 -0.130824 -0.302826 -0.379268 0.125961 0.128639 -0.0451768 -0.0494775 -0.438549 -0.41453 -0.259001 -0.344398 
w87 0.0307511 -0.351143 0.250245 -0.0405529 0.0447418 0.149597 0.0743058 -0.0595818 0.206465 0.0916088 -0.00227872 -0.0267067 0.312458 -0.258881 -0.0441223 -0.574657 0.14986 0.119487 -0.229839 0.380264 0.116157 0.324787 -0.251086 -0.0247576 0.115771 -0.00277806 0.0756699 -0.0645806 -0.27165 -0.000917257 0.298759 -0.20418 0.224602 -0.453034 -0.156089 0.198188 0.0552318 0.0625955 -0.0927815 0.0986135 0.0119068 -0.0200204 -0.0506557 0.0445709 -0.818242 -0.0751191 -0.152378 -0.0907545 0.365885 0.395735 -0.307204 -0.0164158 0.0968696 -0.274308 -0.246289 -0.368697 -0.274618 0.122768 0.106638 -0.0237167 0.0729664 0.316652 0.0554619 -0.483383 -0.0364875 0.118338 -0.0463426 0.264384 -0.0650352 0.202323 -0.305302 -0.101959 -0.184203 -0.340122 0.0983852 0.534959 0.302408 -0.000988087 -0.379045 -0.197307 -0.0114691 -0.521965 -0.00740669 0.105273 0.253402 0.305614 0.271544 -0.068887 0.114172 -0.182418 0.130138 0.0565835 -0.229236 -0.152684 -0.00829418 0.0966089 -0.427022 -0.102477 -0.400412 -0.290474 -0.0492975 -0.305927 0.20469 0.352208 -0.155144 -0.26747 0.0303236 0.164572 0.077992 0.139387 0.108782 0.426915 0.145432 0.440267 0.0505565 0.0241297 0.329794 -0.32739 0.259377 -0.171334 0.0128269 0.33034 -0.3866 0.00415017 -0.15917 0.0180049 0.170615 0.0797325 0.0111588 0.16839 0.0318644 -0.0202355 -0.109631 0.0237653 0.314412 -0.0280376 -0.438458 -0.17103 0.0074826 -0.152371 0.0814946 0.038706 -0.246495 0.0883297 -0.313627 0.0561753 0.265774 -0.392685 -0.307184 0.0676839 0.269959 -0.0770244 -0.241506 0.016998 -0.341517 0.32572 -0.0504092 -0.0820632 0.0201549 -0.282596 -0.158036 -0.459436 -0.198984 0.829258 -0.10431 0.449818 -0.136742 -0.224132 0.00443751 0.399898 0.0985588 0.176783 0.341501 0.26137 0.0266187 0.102871 0.22341 -0.00931311 -0.232843 0.0260925 -0.134761 -0.177029 0.163186 0.312493 0.20714 0.00837627 -0.185431 -0.30732 -0.190148 0.272937 0.0889069 -0.607711 -0.0494719 -0.0321572 -0.0548139 -0.111596 -0.36177 -0.0327331 -0.148907 0.121468 
w1m 0.174842 -0.289832 0.167695 -0.120084 -0.00408243 -0.163143 0.124412 -0.192527 -0.0877799 0.181495 0.278369 0.169974 -0.0182325 -0.228701 -0.817431 -0.259386 0.149243 0.187225 0.0908338 0.276339 0.026529 0.283116 0.144918 0.0363579 -0.0450756 -0.0622553 -0.0274177 -0.00745286 -0.0971646 -0.0511905 0.140309 -0.0292829 0.45013 -0.148353 -0.0193755 0.247497 -0.132211 0.315742 0.210611 0.342382 0.0665055 0.041184 0.218304 0.408779 -0.530605 -0.224819 -0.164702 0.0143547 0.00518779 -0.0292653 -0.117818 -0.324254 -0.249388 0.083086 -0.0316786 -0.0913133 0.0296073 0.150086 -0.185085 -0.0968875 -0.238906 0.51823 -0.212702 -0.367667 0.206307 0.166096 0.629093 0.514544 -0.132947 0.15978 -0.153469 0.0428459 -0.00504919 -0.322146 0.0958128 0.322799 0.068715 -0.252016 -0.0887363 -0.209547 0.120669 -0.496459 0.036908 -0.259997 -0.193736 0.185102 0.457009 -0.28527 0.271941 0.0433112 0.072863 -0.393544 -0.137343 0.19161 0.19083 0.0101988 -0.21437 0.0557083 -0.35569 0.010299 -0.118147 -0.309308 0.0696805 0.205724 0.10237 -0.141431 0.163386 0.320593 -0.0452967 -0.0627965 0.147443 0.29794 0.204374 0.108568 -0.109416 -0.0818556 0.406039 -0.411036 0.107953 -0.0862139 -0.155212 0.262804 -0.196127 -0.345779 0.185305 -0.314533 0.280422 0.115626 0.0795098 0.246353 0.101594 0.0403779 0.277489 0.245564 0.36919 -0.353916 -0.663358 -0.338177 -0.0149092 -0.0179154 0.190448 -0.00811266 -0.223949 0.159884 -0.0219856 -0.118932 0.423881 -0.445308 0.124177 0.00854972 0.0865666 -0.270277 -0.639599 -0.222521 -0.206447 0.330575 0.246567 -0.0788491 -0.264569 0.107357 -0.102494 -0.187682 0.197104 0.716819 -0.142512 0.403871 -0.16201 -0.218524 -0.139225 0.389396 -0.30679 0.213906 0.0293744 0.389715 -0.163757 0.206977 0.386644 -0.129896 -0.124417 0.0900677 -0.299268 -0.211081 -0.0442254 0.0703625 0.221839 -0.360672 -0.443948 -0.247545 -0.402439 -0.167483 -0.01519 -0.601624 -0.202121 0.144475 0.0241312 0.153983 -0.22032 0.211546 -0.162917 -0.0213599 
VII7 0.00891489 -0.570561 0.253072 0.0215351 -0.228543 -0.325263 0.31478 -0.081212 0.0983078 0.206394 0.143202 -0.12579 -0.133937 -0.261412 -0.160095 -0.301254 0.0945195 0.158031 -0.169168 0.401666 -0.0316578 0.162612 -0.240135 -0.251134 -0.0918437 -0.0766629 -0.122008 -0.0149305 0.118776 -0.111438 0.248023 0.0687382 0.0805813 -0.216542 -0.234504 -0.165187 -0.19115 -0.469688 0.36453 0.063268 0.233985 -0.311998 -0.218872 0.334649 -0.20215 -0.0576748 0.1672 0.20241 0.110793 0.0307997 -0.304135 -0.034903 0.15307 0.0843931 0.0375076 -0.200097 -0.0819642 -0.00404651 0.0322409 -0.137346 -0.123181 0.705113 -0.0369363 -0.545068 0.125096 0.509919 0.548136 0.132746 -0.0609072 0.531194 0.0150068 0.0665168 -0.00577615 0.142186 0.235493 0.511699 -0.112893 -0.253099 -0.0656799 -0.430016 -0.00592246 -0.299563 -0.1691 0.220069 0.250514 0.347134 0.237145 -0.00781134 -0.00417314 0.276816 0.144215 -0.232387 -0.318987 0.204709 0.496463 -0.099592 0.0138134 -0.262449 -0.136646 -0.0471496 -0.363341 -0.219334 0.258096 0.141163 -0.342273 -0.397665 0.188233 -0.452458 -0.236957 0.468815 0.203005 0.164316 0.0355674 0.430304 -0.0487395 0.170389 0.0694177 -0.332282 0.0168866 0.00395455 0.178259 0.0925595 -0.102671 -0.117719 0.135003 0.217323 0.316113 0.228368 0.436869 -0.259443 -0.0608156 -0.0591611 0.0564784 0.234591 -0.372091 -0.210892 -0.248863 -0.0692201 -0.181587 0.249646 0.410398 0.240211 -0.505732 -0.0121572 0.227239 -0.184733 0.114988 -0.598473 -0.00319799 0.161584 0.0661476 -0.185636 -0.0309876 0.242027 -0.291099 -0.0367357 0.0875113 -0.0892219 -0.201437 0.0842428 -0.331711 -0.272548 -0.131695 0.322759 -0.00479267 0.465191 0.127754 -0.199459 -0.0325414 0.571913 -0.190349 0.199984 0.180616 0.238421 0.0114189 0.140551 0.260123 -0.141444 -0.282687 0.0679384 -0.0597805 -0.205897 -0.046722 -0.0468689 0.20259 0.0808159 -0.0586475 -0.315966 -0.303615 -0.190284 -0.332723 -0.304424 0.135717 -0.0475752 0.103067 -0.341055 -0.15663 -0.604998 0.312233 0.0776438 
i -0.303499 -0.543423 0.0677447 -0.655346 0.26505 0.219189 -0.0638673 -0.221987 -0.0426937 0.221181 0.0786902 0.569697 0.305865 -0.283274 -0.529078 -0.309305 0.209164 0.246594 -0.417954 0.777822 0.243221 0.627899 -0.29382 0.24532 0.0352978 -0.228032 0.362448 0.0969926 0.160088 -0.00287852 0.381053 -0.317189 0.253362 -0.218844 0.137834 -0.00312162 -0.0296055 0.524136 0.424501 0.672801 0.0401177 -0.378042 0.143544 -0.921721 -0.386707 0.0645279 0.171443 -0.17426 0.30206 0.635421 0.265665 -0.366644 -0.19019 0.0248257 -0.0286523 -0.487116 -0.129466 0.20555 0.482274 -0.378998 0.468158 0.224522 -0.592826 -0.539842 -0.544793 -0.0327846 0.0276747 0.413352 -0.405074 0.103079 -0.158389 -0.366518 -0.498749 -1.12094 0.119575 -0.149098 0.126193 -0.450761 -0.331703 -0.071731 0.070898 -0.469966 0.305123 -0.189374 0.0842257 0.199551 0.432513 0.0248632 -0.00226125 -0.417636 -0.621379 0.469193 -0.69106 -0.00209908 -0.307525 0.464825 -0.306594 0.0137156 -0.393377 -0.277006 0.682185 0.0176125 -0.238272 0.496542 -0.43707 -0.106203 0.182716 0.0279627 0.0253969 0.259803 -0.230154 -0.196072 0.00807135 0.3225 -0.402812 0.0612836 0.557719 -0.0777042 0.335333 0.224877 -0.270568 0.151958 -0.348646 -0.114303 0.814009 0.0592022 0.0694048 -0.273964 -0.470754 -0.0493808 0.620378 0.0332695 -0.161662 0.0210163 -0.0631183 0.553506 0.349233 -0.127237 0.169418 0.511648 -0.456729 0.21897 -0.137359 -0.0156377 -0.00958846 -0.0491307 0.353211 -0.274214 -0.199462 0.788175 0.49691 -0.371071 -0.253891 0.357713 -0.0419393 -0.243549 -0.181698 -0.318533 0.299005 -0.672046 0.274524 -0.67401 -0.500051 0.557721 0.0920545 0.275457 0.205398 -0.408379 0.000748106 0.231393 -0.312335 0.010652 0.130206 -0.291707 0.231042 0.0168681 -0.0355274 -1.05509 -0.425768 0.518142 -0.27027 -0.193556 0.336727 -0.346202 0.180019 -0.588054 0.0675078 -0.364944 0.0834016 0.20718 0.517172 0.700363 -0.453262 0.1731 -0.0180661 -0.23876 0.468772 0.12756 -0.0697427 -0.285618 
iii -0.054216 -0.202578 0.225439 -0.104503 -0.189656 -0.0637602 0.0286583 0.0511965 0.0282804 0.10393 0.0899323 0.07864 -0.264225 -0.14324 -0.180424 -0.118078 0.137624 -0.19688 0.10971 0.245855 0.00790006 0.229079 -0.144965 -0.0636177 0.220352 -0.240395 0.00661628 0.0932346 -0.0727709 -0.031744 0.116022 -0.0392553 -0.166464 -0.138892 -0.0174908 -0.173426 -0.25782 0.0390054 0.154997 0.246366 0.0296323 -0.143187 0.182458 0.10714 0.0991788 0.0246274 0.159237 0.0785524 0.115119 -0.0533482 0.0568469 -0.266222 -0.158316 -0.281824 -0.118611 -0.40201 0.013254 0.240426 -0.105279 -0.0479068 0.281979 0.24184 -0.204135 -0.41527 0.100439 0.135771 0.25283 -0.0215432 -0.132498 -0.0230341 0.0308093 -0.14272 0.205872 0.274625 0.390235 0.385841 0.166963 -0.180626 0.0417228 -0.161631 0.149029 -0.171403 0.0678249 0.0150034 0.0452478 0.352647 0.169714 -0.0287176 0.070771 0.149198 0.0124732 -0.123153 0.121511 0.123216 0.253772 0.0716192 0.0491569 0.0625993 -0.376449 0.0566227 0.106694 0.00911649 0.0613913 0.11296 -0.261736 0.00463403 0.064345 -0.321709 -0.119034 0.0219334 0.123326 -0.209684 0.0957304 -0.0400549 -0.556934 0.0992401 0.20937 0.348236 -0.22093 0.195013 0.22991 -0.0941086 0.1014 -0.171011 -0.234457 -0.0546646 0.145888 0.105962 0.180915 -0.0748704 -0.0681892 -0.150612 0.0199042 -0.0548503 0.213395 0.153582 0.0032145 0.092961 -0.00566736 0.169668 0.0394519 -0.174663 -0.0640932 0.0168778 -0.258449 0.0677525 0.310042 -0.0628278 0.1912 0.0270816 0.0523496 -0.103833 -0.437063 0.0966742 0.00973878 0.269473 -0.152084 -0.056259 -0.353706 -0.0790955 -0.237827 0.13386 0.15116 0.525802 0.0311424 0.0330928 0.136838 -0.214032 0.0102841 0.577652 -0.0289051 -0.000743964 0.0896827 0.16197 0.111519 0.208711 -0.0673753 -0.422273 -0.129951 0.333163 0.245671 0.102116 -0.0764693 -0.259276 0.390182 -0.0971735 -0.0734339 -0.157279 -0.0574419 -0.0169843 0.0990802 -0.0715166 -0.176203 0.172014 0.106986 -0.195795 -0.109735 0.351155 -0.103442 0.299344 
iv -0.212079 -0.0544001 0.325213 0.13634 -0.148179 -0.0185419 -0.318579 0.475679 0.0346055 -0.0244439 0.294777 0.275189 0.298423 0.000869745 -0.13057 -0.360068 0.0407794 -0.203924 0.603038 -0.208699 -0.0873683 0.324432 -0.100135 0.24005 -0.143315 -0.594897 0.291372 -0.181636 0.321458 0.0964088 0.211011 -0.204028 0.0156794 -0.427503 0.202861 0.242827 0.383371 0.248628 0.256987 0.585327 -0.116518 -0.57979 0.134402 -0.475131 -0.742229 -0.314818 -0.264253 -0.292945 0.213155 0.685641 0.157368 -0.120306 0.0193956 -0.0848155 -0.395071 -0.269913 -0.088225 0.453807 0.000469386 0.391884 -0.0452269 -0.0540275 -0.646597 -0.141184 -0.190839 0.73167 -0.129465 0.489032 -0.513509 0.15607 -0.131536 -0.437814 -0.311561 -0.784892 -0.297416 0.258384 -0.147727 0.339914 -0.548522 0.193799 0.293131 -0.484157 0.3302 0.0368868 0.0227086 0.415114 0.267399 -0.356423 0.579697 -0.477006 -0.188725 0.0788948 -0.390597 -0.0119181 -0.134978 0.0389054 -0.671378 -0.200251 -0.263581 0.0158866 -0.100475 0.375077 -0.00346921 0.164472 0.0664102 -0.317079 0.0918914 -0.0839654 -0.145361 -0.269592 0.0784003 -0.131529 0.109062 -0.0323845 -0.132667 0.145421 0.42237 -0.0663648 -0.172157 0.0668733 -0.261786 0.283802 -0.312301 -0.351431 -0.0215498 -0.0288336 -0.0616104 -0.17868 -0.196254 0.16733 0.545594 -0.34967 0.0157269 0.0247614 0.315198 0.198887 0.460305 -0.0174793 0.129448 0.315647 -0.0583088 -0.213849 -0.312896 -0.0868983 0.390381 -0.0455456 0.32131 -0.00543747 -0.238537 0.00607636 -0.0608621 -0.293305 -0.524922 -0.00288952 -0.273141 0.05965 -0.119274 -0.1701 0.0868714 -0.166683 -0.156667 -0.390318 -0.283805 0.104941 -0.154715 0.28388 -0.652329 -0.597113 -0.095231 0.217618 0.174268 -0.373079 -0.346918 0.395124 0.771843 -0.165371 0.158875 -0.101805 -0.093781 0.185219 -0.0507794 0.168012 -0.228119 0.034161 0.66804 -0.568205 -0.264958 -0.388849 -0.0318194 -0.242678 0.255104 -0.464421 -0.0998211 0.0240107 0.229201 0.266956 -0.333333 0.0594364 -0.4974 0.0151692 
w10 -0.0575108 -0.0976311 0.0383469 -0.367117 -0.0870986 0.0995455 -0.273747 -0.131533 -0.127412 -0.165498 -0.137708 0.270451 0.0210031 -0.18442 -0.335433 -0.25226 -0.0250095 0.0249827 -0.513459 0.212223 0.180244 0.0511598 0.0374465 -0.103009 0.0497946 -0.145771 0.351115 0.327192 0.274046 -0.388088 -0.275341 -0.400447 0.155978 0.0379383 0.163221 -0.0846702 0.141595 0.231999 0.0636709 0.510025 0.367772 0.0898136 -0.110987 -0.442325 -0.565472 -0.181475 0.128411 -0.115641 0.123742 0.343523 -0.396285 0.0965794 -0.048353 -0.071432 0.227419 -0.289246 -0.0230788 -0.144036 0.230489 0.135237 0.354116 -0.100701 -0.0399076 -0.330585 -0.0364944 0.397175 -0.306791 0.119261 -0.278108 -0.0290524 -0.712231 -0.34935 0.300637 -0.285959 0.17279 0.208941 -0.169225 -0.136205 -0.287079 -0.121635 0.197459 -0.422794 -0.0823122 0.091386 0.351686 0.107829 -0.0201309 0.156191 -0.0327043 -0.523456 -0.542144 -0.18342 -0.230291 0.0401367 -0.254065 0.141142 -0.0867124 0.179085 0.0477159 0.414963 0.457666 0.298855 0.423896 0.320051 -0.152221 0.101094 0.382999 -0.472176 0.260157 0.481881 0.266788 0.053334 0.271342 0.502104 -0.268062 0.160852 0.248169 0.1473 0.127443 0.125474 -0.0410126 0.137946 -0.169615 -0.137638 -0.0390149 0.309665 0.113105 0.0861316 -0.239259 0.138796 -0.052823 -0.0658811 0.211464 -0.0883331 0.00411186 0.299675 -0.0700536 0.0567487 -0.0507057 0.155497 -0.275717 0.382831 -0.117067 -0.311405 -0.419377 0.462012 -0.13264 -0.423093 -0.00197596 -0.0460147 0.119843 0.0819746 -0.299944 -0.160115 -0.0368466 0.210821 -0.363588 0.0463829 -0.265483 -0.398052 0.648384 -0.380193 -0.0491722 0.469205 -0.183016 0.147774 0.107048 -0.214614 -0.178932 0.225468 -0.343381 -0.20426 0.346701 0.340302 0.00997862 -0.0141976 -0.0740405 -0.220533 -0.296077 0.215429 0.254015 -0.17199 0.264582 -0.0627759 0.130784 -0.0690039 0.0124342 -0.0890964 0.410935 -0.0925793 0.373539 -0.0928403 -0.349739 0.105048 -0.0703316 0.0394272 0.102702 0.126778 -0.184595 0.186207 
vi -0.415463 -0.0848116 0.0273216 -0.0352119 -0.210855 -0.12087 -0.124832 0.123358 -0.166728 0.0744859 -0.0030211 -0.135657 0.12128 0.0213547 -0.356255 0.0215317 -0.0083913 -0.111564 -0.0878268 0.0821574 -0.00570354 0.170951 -0.21482 0.146429 -0.165044 0.148523 -0.481905 0.00558586 0.219332 -0.209796 0.00821302 -0.131426 -0.0384012 -0.01061 0.0779677 0.050606 -0.0947028 0.0603001 0.124993 0.444515 0.105333 -0.312197 0.135584 0.19679 -0.263618 -0.0616516 0.101785 -0.00214015 0.113361 -0.0747798 0.0737823 0.0443055 -0.194867 0.0576709 -0.0357339 -0.0508402 0.147522 0.283241 -0.323354 0.145867 0.384494 0.402271 -0.170968 -0.409795 0.0643367 0.162899 0.110502 0.142393 -0.183475 0.153375 -0.265975 -0.353872 0.147322 -0.0805649 0.216548 0.121948 0.0678665 0.0559168 0.156951 -0.112624 0.164494 0.170002 0.0738259 -0.20127 0.165112 -0.0352494 0.0289162 0.257326 0.0572172 0.0499919 -0.171441 0.0926327 0.213288 0.134135 -0.0873304 0.0402169 0.0921982 0.206754 -0.110096 0.156162 0.100128 0.332538 0.287955 0.236901 -0.0614645 0.0901696 -0.000569856 -0.234673 -0.130398 0.120714 -0.198147 -0.0431846 0.514384 0.205315 0.125271 0.115692 0.106917 -0.095653 -0.124951 0.15437 -0.129774 0.0353972 -0.058177 0.0013868 -0.0402331 -0.0195614 0.0468078 -0.00634041 0.244372 0.337616 -0.125347 0.0456859 0.233084 -0.0691159 0.119803 -0.175953 0.0932711 -0.052972 0.0150377 0.139954 -0.0309851 -0.207127 0.019713 -0.269752 0.0126183 0.309493 0.0919501 -0.234449 0.177094 0.254954 -0.133794 -0.080177 -0.262843 0.0212326 -0.419182 0.0762789 0.243461 0.2664 0.0765224 -0.145803 -0.234563 0.136389 0.369194 0.163907 -0.0552317 0.127436 0.000793148 -0.128642 0.0518583 0.242861 0.00108852 -0.133635 0.153595 0.389772 0.154362 0.377999 0.245743 -0.0916089 -0.135369 0.228977 0.0243557 0.118956 -0.208197 -0.0193165 0.0531861 -0.254171 0.0715251 -0.0941864 -0.225594 0.0144327 0.0769942 0.38158 0.174763 0.208213 0.0804001 -0.152545 -0.057071 -0.0198062 0.00140979 -0.133778 
