40 200
w8 -0.119116 0.20765 0.0522092 -0.274931 -0.154222 0.198096 0.342575 -0.0920645 0.373837 0.392371 0.258793 0.136985 -0.385632 -0.19512 0.244807 0.00709298 0.0521566 0.534619 -0.34841 0.122755 0.0132911 -0.0386819 0.0474358 -0.0980319 0.235759 0.107779 -0.305316 0.066281 -0.0311359 0.0485273 -0.15492 0.116711 -0.250172 0.255874 0.152153 -0.11918 -0.0513063 -0.403414 -0.108733 0.0510574 -0.100849 -0.277522 0.583373 -0.0124406 -0.118795 -0.141906 -0.0805229 0.0554198 -0.0092441 0.244797 0.0702874 0.0206069 -0.360371 -0.111508 0.460058 -0.298301 0.069111 0.0211012 -0.412372 -0.0498843 0.508021 0.277472 0.00144392 -0.038306 0.208749 -0.476003 -0.403756 -0.00245687 0.0960781 0.343819 0.0617833 -0.184228 -0.195979 -0.131344 -0.101247 0.198351 0.349665 0.489226 -0.0161641 -0.143872 -0.378708 -0.0019103 0.232882 -0.287225 -0.056479 0.00105558 -0.04307 0.276979 -0.144779 0.208238 -0.141574 0.0358595 -0.00382774 0.0668288 0.345881 0.100272 -0.207511 -0.63601 -0.113577 0.0549394 0.195369 0.244345 -0.107156 0.150774 -0.324524 0.0817454 0.0359685 0.193747 -0.184568 -0.154774 0.371155 0.449315 0.0224728 0.233169 -0.081149 -0.184367 0.217901 -0.154811 -0.197766 -0.415449 -0.544525 -0.193402 0.18831 0.460388 0.164845 0.193254 -0.193681 -0.350142 0.119832 0.207894 0.249924 -0.331085 -0.0452053 0.118798 -0.147458 0.108177 -0.0526246 -0.0991722 0.32106 -0.121262 -0.509668 -0.150021 -0.055763 0.536179 0.32493 -0.0422592 0.0201926 0.0722922 0.00963851 -0.144734 -0.148307 0.0458049 0.279433 -0.158671 -0.242648 0.153425 -0.110602 0.0696065 -0.150478 -0.184966 0.199339 -0.119946 -0.460187 0.24673 -0.109078 0.611385 -0.0982381 -0.250781 -0.181949 0.466742 0.203304 -0.215532 -0.1989 -0.417084 -0.218309 0.129682 -0.0567212 0.0586396 0.371007 -0.00646864 0.393243 -0.0385951 -0.160282 0.0755162 -0.12536 -0.301523 0.0235724 0.136155 0.179402 0.143658 -0.0690016 -0.121335 -0.21575 0.551878 0.148134 -0.180007 0.0451778 0.0568145 0.161077 0.168096 
w6dim -0.0965096 -0.0674774 0.0127784 -0.187018 0.0679362 0.213548 0.0519555 -0.109084 -0.0206445 -0.110613 -0.114716 -0.0128411 -0.201161 -0.0181731 -0.161784 0.162129 0.173153 0.115984 0.0153331 0.0799778 0.000594912 0.0232852 -0.107204 -0.0513112 -0.0637728 0.105389 0.00932394 0.0597958 0.102907 0.116993 -0.0122154 0.200321 0.117005 0.0127292 0.23189 -0.0508703 -0.0788361 -0.178664 0.123538 -0.157567 -0.00871473 0.0473887 0.0949768 -0.0868389 -0.189203 -0.00748933 0.125734 -0.0177304 -0.0796268 0.17288 -0.0408908 -0.0958709 0.0295936 -0.0110218 -0.00285638 0.00230678 0.113121 0.0464867 0.00718511 0.176915 0.0819818 -0.0596893 -0.0978964 0.202856 0.180167 -0.174199 -0.0572817 0.0562308 0.049368 0.140329 0.0515765 -0.0841695 -0.217744 0.206462 -0.0371631 -0.0593774 -0.0729027 0.18499 -0.127836 0.00517719 -0.144002 -0.0793316 0.014633 -0.161509 0.0422416 -0.0366099 -0.175256 0.130828 0.188147 -0.0253736 -0.066931 0.0189426 0.0986926 0.0437222 -0.200346 -0.161266 -0.0174029 -0.0203988 -0.254099 -0.0127217 0.118811 -0.145097 0.0969492 0.152538 0.104279 0.0597721 0.0872869 0.10847 -0.0149829 -0.00662572 0.0452505 0.144092 -0.0487268 -0.092225 0.128663 -0.181927 -0.022379 -0.0656723 -0.186918 0.134751 -0.240105 -0.0203429 0.182733 0.126339 0.102564 0.225481 0.0473841 -0.159715 -0.107825 0.0163655 0.0284763 -0.0255514 -0.000422752 0.00859796 -0.0659932 0.0177671 -0.138921 -0.136185 0.0538336 0.00504986 -0.0265327 -0.368881 -0.139532 0.153487 0.110152 -0.0211925 0.0391532 -0.0827085 -0.0729821 -0.17302 0.189775 -0.216653 -0.118775 -0.0941362 -0.00813564 -0.0445363 -0.143672 -0.0499549 0.12277 0.101204 -0.0394072 0.0258408 -0.0945671 0.107853 -0.060024 0.132868 0.0134423 0.066277 -0.0750217 -0.0474228 -0.0696349 0.0169581 0.0627123 0.0127204 0.0956038 0.0431095 -0.200365 0.0686573 0.0637918 -0.0596918 0.00192738 -0.102542 0.0162361 -0.144225 0.149337 -0.0467882 -0.125622 0.0302715 0.271109 0.0932764 -0.0303885 0.0604848 -0.0279156 0.222875 -0.0983904 -0.133512 -0.057325 -0.127486 0.131342 0.0767711 
w6m -0.0138862 0.0426268 -0.47657 -0.0197132 -0.243508 0.287214 0.299435 -0.125688 0.377493 0.16139 -0.270573 0.00419794 -0.599772 -0.274399 -0.792782 -0.367052 0.105399 -0.0997537 0.323886 0.462467 -0.373373 0.396262 0.0463007 -0.0095518 -0.153434 0.132225 -0.530932 0.143164 -0.0277633 -0.0457476 -0.347874 0.373434 0.279669 -0.669169 0.352356 -0.08885 -0.618384 -0.232508 -0.00586373 -0.486416 -0.192616 0.156496 0.0823708 -0.264165 -0.28033 -0.0872067 -0.134341 -0.199974 0.501117 0.245037 0.0238044 0.319206 -0.217186 -0.541815 -0.155868 0.424573 0.19379 -0.14272 0.0564392 -0.123151 -0.258395 0.155273 -0.154751 -0.0462402 -0.0759574 -0.148016 0.357326 -0.0438899 -0.453966 0.102242 0.348583 0.20094 0.260011 -0.304317 -0.113728 -0.12147 0.308787 0.557855 -0.467547 0.654404 -0.111467 0.391183 -0.00452705 -0.523537 0.116924 -0.276768 -0.0972643 0.101361 0.215988 0.173265 -0.229879 0.299939 0.0864164 -0.30158 -0.090288 0.334104 -0.230587 -0.219242 0.258526 -0.143116 0.226963 -0.203303 0.0217038 0.167742 -0.0765671 0.111786 -0.0869273 -0.268557 -0.0376281 0.0675354 0.35682 0.2147 0.266783 -0.0267004 0.0474227 -0.0233987 0.253834 -0.00607927 -0.0418194 -0.100106 -0.40521 0.277783 -0.2568 -0.263937 0.341251 0.330032 0.197379 -0.0318495 -0.373484 -0.236233 -0.56943 -0.31795 -0.198506 0.205653 -0.0197311 -0.0836695 -0.0376145 -0.149028 0.015241 -0.102112 0.0920745 -0.593317 0.431208 0.29948 0.078752 0.358461 0.0151909 -0.456793 0.202385 0.00711792 0.208064 -0.122755 -0.402798 -0.0339526 0.0302163 -0.293958 0.00207415 -0.0421603 0.0914737 -0.198294 0.157726 0.13605 -0.0418837 -0.208338 0.311214 0.370477 -0.0445373 0.197087 -0.324302 -0.0541614 -0.00866752 0.418203 -0.0804816 -0.629881 -0.149687 -0.288427 0.0302161 0.239946 0.221901 0.282019 -0.0166702 0.097183 -0.301262 -0.334175 -0.0999887 -0.43343 -0.0296902 0.031266 0.100152 0.162837 -0.474091 -0.0493209 -0.160641 -0.113514 -0.103057 -0.19019 -0.0939255 -0.339603 0.467738 0.114096 
w67 -0.128447 0.081108 -0.167165 -0.62488 -0.149473 0.368153 0.409066 -0.360303 0.262319 0.231677 -0.0625023 0.277494 -0.626867 -0.281969 -0.521432 -0.0898652 0.0418822 -0.0596066 0.0275941 0.171622 -0.116836 0.355829 -0.0634312 0.0514281 -0.11542 0.351685 -0.189671 0.164889 0.2292 -0.220226 0.022516 0.0862645 -0.340711 -0.0546524 0.506936 0.0499173 -0.270457 0.0441722 -0.222172 0.0250283 -0.349159 0.0263784 0.420616 -0.101311 -0.192344 0.00112325 0.415755 -0.0939649 -0.12831 0.424666 0.0543491 0.0624959 0.102919 -0.317188 -0.181118 0.199495 0.203471 0.239557 -0.0421352 -0.206229 0.26243 -0.160509 -0.00690261 0.480824 0.0285454 -0.511771 -0.306995 -0.107543 -0.128004 -0.0780654 0.099275 -0.123175 0.0450362 -0.112622 0.230027 0.116491 0.128411 0.17813 0.0886785 0.149727 -0.00427154 -0.13922 -0.306843 -0.138634 0.171047 -0.172616 -0.271883 0.425019 0.364872 0.335451 -0.125159 0.387756 0.332886 -0.406032 -0.193191 -0.298642 -0.00920707 0.0505504 -0.309012 0.120059 0.256659 0.0938708 0.142933 0.210228 -0.0138546 -0.150729 0.192741 -0.0810551 0.230633 0.0461465 0.149553 0.142471 -0.234346 0.102127 0.0488136 0.178533 0.128814 -0.0722267 -0.0894282 -0.0955643 -0.020009 -0.426233 0.014867 -0.109777 0.294553 0.558068 0.0377235 0.0583336 0.236307 0.431277 0.0883524 -0.0479435 0.0730832 0.0255094 -0.307362 -0.192117 0.0250592 -0.150998 0.00151004 0.0465034 0.0674982 -0.238993 0.270642 -0.0796227 -0.098835 0.19979 -0.0613349 -0.0883272 -0.0432364 -0.137094 0.0358206 -0.106077 -0.352048 -0.0672985 0.279608 -0.163186 -0.352533 0.119225 -0.0169905 -0.238124 0.0114941 -0.0918923 0.176885 0.0538538 0.162045 0.142439 -0.110055 0.231016 0.121939 -0.397807 0.00955759 0.0306268 0.0473032 0.0457127 -0.297467 -0.0841273 -0.129338 -0.16658 -0.166791 -0.166533 0.0358935 0.0662237 -0.135478 -0.177203 0.03365 -0.31102 -0.0673547 0.0476192 0.182982 0.161651 -0.105766 0.277096 -0.181826 0.170532 -0.222508 -0.15684 -0.275 -0.0499089 0.0836053 0.171959 
w6 -0.368006 -0.690157 -0.185075 -0.315867 -0.395735 0.194207 -0.0166635 -0.24376 0.250571 0.220782 -0.224228 0.141947 -0.15564 -0.244373 -0.148381 0.0586844 0.110208 0.110394 0.199119 0.00462548 0.206788 0.514572 -0.0073257 -0.232454 0.115976 -0.0934066 -0.0293576 0.27749 -0.0986283 0.0742067 -0.0741806 -0.0655353 -0.0460113 -0.276975 0.770479 -0.308549 0.0672158 -0.274803 0.266505 -0.660268 -0.0294679 0.504526 0.593693 -0.0804819 -0.0974551 -0.569227 0.136019 -0.132187 0.13907 0.270332 0.0826453 -0.0296855 0.0185675 -0.327184 -0.116102 -0.225561 -0.155951 0.483443 -0.0740102 -0.284524 0.268028 0.179077 -0.162664 0.0373222 0.255352 -0.709715 -0.014117 0.107274 -0.218977 -0.220897 0.176826 0.0685753 -0.314363 0.272801 -0.0135015 0.137293 0.382982 0.151523 -0.214614 0.203732 -0.231808 -0.0430377 -0.0020891 -0.0280595 0.414418 0.0972792 -0.0571016 0.397024 -0.146155 0.0102831 -0.363649 -0.0823042 -0.0336653 -0.0158285 0.129176 0.141232 -0.28967 -0.321641 -0.0677987 0.146988 0.567658 0.0619144 -0.173915 0.159966 -0.183761 -0.323696 -0.225304 -0.1497 0.149714 0.120227 -0.0685463 0.193925 -0.157378 -0.114153 -0.186007 0.429321 -0.0164874 0.173418 -0.327506 -0.112521 -0.404248 -0.210067 0.0364613 0.304571 0.568492 0.33084 -0.589728 -0.296129 -0.235849 -0.151855 -0.387731 -0.321801 -0.0340767 -0.0327278 -0.0522039 -0.412043 0.14823 -0.223218 0.384219 -0.0802069 0.181479 -0.0988029 0.458823 0.268148 0.168605 0.196141 -0.303444 -0.322644 0.0106865 -0.369153 -0.0735299 -0.195632 0.182127 0.200306 -0.00822464 -0.0184897 0.08628 0.102217 -0.374016 0.112899 -0.025124 -0.49445 0.257795 0.0583638 0.0847825 -0.0657581 -0.192038 -0.0280996 -0.242753 -0.0964619 0.421215 -0.110175 -0.0920993 -0.588185 0.330904 0.278915 -0.0454928 0.146716 0.362095 -0.245775 0.101462 -0.399397 0.166979 -0.367586 -0.0453183 -0.284174 -0.117242 0.2806 -0.0339779 0.0443394 0.132348 0.236242 -0.151668 0.507048 -0.0100352 0.0258738 -0.033773 0.017378 0.191 0.17813 
w37 0.223245 0.124269 0.118236 -0.0762838 0.217655 0.075362 0.078421 -0.115106 0.175993 -0.121838 -0.0798185 -0.0205922 -0.41949 -0.0049652 -0.288554 -0.0414483 -0.0218719 0.096659 0.00670187 0.208873 0.134628 0.0783284 0.121421 -0.0357983 0.262469 0.139767 -0.223477 0.191122 0.123723 -0.108363 -0.106589 -0.0373419 -0.359636 0.12269 0.462419 -0.25419 -0.224115 -0.183946 0.168286 -0.0572596 -0.192916 -0.167932 0.249166 0.140161 -0.176131 0.0233108 0.0503462 -0.269 0.202948 0.164929 -0.020523 0.105258 -0.193748 -0.290428 0.143625 0.0946399 0.305402 0.245893 0.0217492 0.0363961 -0.012511 -0.0570012 0.0863647 0.319343 -0.00679382 -0.309394 -0.157896 0.0917504 -0.0749767 0.00623582 -0.0594218 0.0704138 -0.194065 0.179143 0.269586 -0.0447983 0.20319 0.301256 -0.0105815 0.20089 0.0142446 0.0789397 -0.228631 -0.132761 -0.151701 -0.176083 -0.163553 0.122665 0.283562 0.151424 -0.221733 0.224469 0.210893 -0.23621 -0.145447 -0.0622868 -0.140248 -0.267566 -0.11613 0.0533947 0.0884714 -0.335572 -0.164556 0.198804 -0.217639 -0.0166665 0.0355317 -0.0682597 -0.0378083 0.0773096 0.152188 0.185499 -0.0850278 0.0151862 -0.0170247 -0.0146012 -0.0178183 -0.184127 0.020903 0.167049 -0.544563 -0.177996 0.118533 -0.0797656 0.229693 0.406608 -0.093834 0.0837984 0.258835 0.154994 0.0853746 -0.189331 -0.0381032 0.0929003 -0.149376 -0.135025 -0.0939592 -0.254329 0.218351 0.0383108 -0.189706 -0.238378 0.00476488 0.327991 0.0975037 0.157373 0.0106197 -0.395821 -0.11917 -0.0486658 0.0864935 -0.159586 0.0628837 0.220549 -0.0812053 0.142926 -0.319222 0.119471 -0.0925243 -0.178541 0.209556 0.0726503 -0.119942 0.237589 0.0809333 -0.104041 -0.175369 0.0254489 -0.127323 0.0959056 0.138941 -0.129493 -0.163115 -0.0270709 0.177633 0.0122049 -0.351515 -0.0827777 -0.000477382 0.0942681 -0.000895459 -0.284862 -0.103916 -0.284764 0.230701 0.00866337 -0.221098 0.166559 0.135273 0.209232 -0.170834 0.0484814 -0.0726218 0.331526 -0.13349 0.135161 -0.0384062 0.0773461 0.223552 -0.0589748 
w3 0.00383243 0.10575 0.50554 -0.151957 0.00589964 0.18131 0.104434 -0.27055 0.314035 0.437854 -0.117074 0.192667 -0.0820399 0.190824 -0.0344995 0.135919 0.179961 0.218292 0.0438415 0.134624 -0.307897 0.402331 0.0921714 -0.400565 -0.0516751 0.28754 -0.0552283 0.548078 0.07046 0.130526 -0.0130987 0.0332866 -0.0702126 0.577836 0.422509 -0.00712689 0.267928 0.0678625 -0.0512856 -0.165679 0.0616228 -0.106161 0.0867642 0.150334 -0.214168 -0.303645 -0.272028 -0.0719853 0.190271 0.0698304 -0.169763 0.182266 0.267931 -0.137036 0.149105 -0.163663 -0.26545 0.0766391 -0.152036 -0.144728 0.0899711 0.0528051 0.474626 0.239021 0.231143 -0.35145 -0.106722 -0.0718088 0.224327 0.279155 -0.155788 -0.2988 -0.168796 0.154152 -0.465078 0.179401 0.237903 0.314795 0.132146 -0.0715787 -0.221618 0.221259 -0.10671 -0.143184 0.037621 -0.0238395 0.16134 0.386062 0.0880999 -0.106179 -0.396575 0.215882 0.369016 0.410842 -0.0714447 0.103818 0.121437 -0.55991 -0.409929 -0.115647 0.155198 0.233036 -0.390454 -0.0235443 0.377877 -0.184026 -0.268037 0.0759432 0.0380096 0.158821 -0.059213 0.458915 -0.219293 0.166474 -0.0567521 0.178121 -0.125717 -0.249171 0.0169764 -0.167586 -0.324399 0.303466 0.296975 0.0339414 0.338207 0.513693 -0.399448 -0.312723 -0.0697441 0.405041 0.251281 0.116219 -0.501998 0.0922088 -0.525846 0.170493 -0.480095 -0.198699 0.536784 -0.0102471 -0.227597 0.0214458 -0.223051 0.226749 0.0487246 0.103516 -0.271899 -0.0953054 0.000550959 0.162678 -0.0243329 -0.0505142 0.329923 -0.225048 -0.237946 -0.195516 -0.476275 -0.0797086 -0.148241 -0.275839 0.0997893 -0.283588 -0.134791 -0.0463817 0.239917 0.255495 0.102887 0.262129 -0.318601 0.543013 -0.111129 -0.235874 -0.121065 -0.280984 0.16839 -0.176563 -0.0215917 -0.115592 0.353999 0.0279495 -0.126909 0.195185 0.247028 -0.0849436 -0.0356062 -0.318931 -0.0939949 0.095262 -0.0262905 0.0240728 0.0251887 0.400897 -0.194391 0.0941295 -0.292568 0.060911 0.0650984 0.122767 0.324565 -0.145233 
w10m -0.17365 -0.186628 -0.0688419 -0.169251 -0.174539 0.838758 0.218127 0.0960782 -0.231934 -0.0970018 -0.240084 -0.21239 -0.193467 -0.313042 -0.0666248 -0.368475 -0.125311 0.423533 0.0164925 0.585317 -0.0157687 0.289304 0.277392 -0.150638 -0.0284566 0.208201 -0.0483322 0.177055 0.774196 0.144171 0.0272372 -0.150803 -0.579548 -0.023295 0.656054 -0.234908 0.0993848 -0.128354 -0.45118 -0.0225147 -0.0225534 0.0354573 0.488439 0.372705 -0.214425 -0.203056 0.336738 -0.232023 -0.115219 0.392086 0.124653 0.0978996 -0.121771 -0.230516 0.11297 -0.0508175 0.0860014 0.261196 -0.118657 -0.00563274 0.180587 0.297612 0.207652 0.0797865 -0.20424 -0.65415 -0.3143 0.487489 0.15275 0.211891 -0.00655895 -0.122118 0.149532 -0.0340761 -0.22619 -0.117267 0.532762 0.42706 -0.231419 0.304289 0.0139802 0.00970356 -0.114547 -0.281769 0.0485551 -0.0775398 -0.0667023 0.0731131 0.011583 0.0972019 -0.416046 0.0647209 -0.0342075 0.0913206 -0.0213661 -0.650491 -0.284399 -0.28478 -0.145764 -0.218055 -0.00255939 0.150043 -0.243228 -0.208371 0.182711 0.194857 -0.520224 0.133872 0.35406 0.280635 0.0132614 0.516186 -0.453623 -0.0857241 -0.160536 0.314634 0.0450063 0.147768 0.183121 -0.46366 -0.182586 -0.100215 -0.0873942 0.426645 0.274854 0.460597 -0.316982 0.310274 0.129428 -0.212018 0.0613347 -0.402595 0.0553605 -0.225592 -0.0437214 0.123009 -0.219494 -0.245827 0.189586 -0.0999753 -0.264392 -0.239852 0.192715 0.197912 0.302075 0.157157 0.132106 0.108696 -0.156183 0.236535 0.0732694 -0.052629 0.520765 0.14444 0.197375 0.247172 -0.342119 0.209586 0.0360348 -0.173297 -0.150223 -0.155277 -0.0308742 -0.0712729 0.0204576 0.261907 -0.311126 0.446822 -0.112584 -0.0549112 0.221214 -0.368356 -0.405706 -0.392785 -0.263231 0.329465 0.0355624 0.0971543 -0.233613 0.0731728 -0.136458 -0.474312 -0.274363 -0.24785 -0.255325 0.160135 -0.113961 0.123222 0.26855 0.200449 0.0695097 -0.197261 -0.267538 0.0703476 -0.284792 0.283007 -0.140209 0.0218776 0.0315058 0.123043 
w107 0.217616 0.108526 0.0984972 -0.281778 -0.0235718 0.495086 0.0861592 -0.253682 -0.105589 0.269452 0.00790629 -0.137028 -0.186014 -0.132933 -0.0812827 0.214594 -0.0782971 0.0741841 0.196802 0.495979 -0.175115 0.312096 -0.0803172 -0.193636 0.0439445 0.0257301 -0.0432246 0.277705 0.173665 -0.207117 -0.039275 -0.0686612 -0.352136 0.222393 0.580525 -0.085198 0.08825 -0.47184 0.0699717 -0.274026 -0.339026 -0.0333537 0.501871 -0.126767 -0.115351 0.0794487 0.089718 -0.039674 -0.191153 0.175027 -0.020306 -0.147501 0.0478339 -0.00983191 0.281502 0.133483 0.354252 -0.123119 -0.321681 0.12077 -0.0365075 0.106505 -0.0459203 -0.00139176 0.207138 -0.238823 -0.0280226 0.00494634 -0.000823332 -0.00803425 0.0148188 0.206717 -0.128262 0.139672 0.0271563 -0.0518444 0.0432525 0.213369 -0.0926038 0.0321289 -0.124883 -0.150539 0.0298376 -0.248549 -0.120861 -0.0436743 -0.0793127 0.380035 0.194455 0.176466 -0.357942 0.418335 0.0628821 -0.1085 -0.373071 -0.26017 -0.0650639 -0.180382 0.100183 0.152155 0.418127 0.235994 -0.298914 -0.0676797 -0.0713213 0.123196 0.0547061 0.385675 0.114731 0.241653 -0.0498578 0.122134 -0.113902 -0.110081 0.0832935 0.0405243 0.303332 -0.117841 -0.00610258 -0.106328 -0.312867 -0.0223382 0.169913 0.120385 -0.129551 0.162512 -0.092584 -0.161685 0.0290329 0.0264925 0.263668 0.182755 0.029566 0.195302 -0.520464 0.163117 -0.132489 -0.397748 0.05998 -0.228705 -0.157413 0.0944184 0.240335 0.116979 0.317519 -0.0294971 -0.156989 -0.336881 0.0659612 -0.0957048 0.351272 0.0854383 -0.00506995 -0.143264 -0.118969 -0.0733625 -0.174829 0.19079 -0.0368025 0.208538 -0.0208321 0.00442718 -0.0239196 -0.14463 0.176231 -0.14192 0.0258715 -0.105346 0.118771 0.0630892 -0.0210375 -0.195764 0.225832 -0.0944591 -0.0760772 0.119711 -0.364867 0.0108096 -0.0649414 0.107792 0.0958325 -0.00799848 0.0699304 -0.375814 0.263656 -0.196498 -0.124536 0.291577 -0.146637 0.230476 -0.0581744 0.128116 -0.0995847 0.0647889 -0.265391 0.163571 -0.312861 -0.0871948 0.0891392 -0.0884224 
w1 -0.45242 -0.0820198 -0.0864306 -0.187828 -0.115253 0.332392 0.187238 -0.0820076 0.291813 -0.0588516 0.133611 -0.104691 -0.409232 0.100309 0.185933 -0.0777767 0.0880414 0.260521 0.300811 0.266409 -0.301946 0.277413 -0.406234 -0.208747 0.115081 0.0836731 -0.253133 0.444639 0.247967 -0.13358 -0.212534 -0.193684 -0.415299 -0.0116422 0.788624 -0.0976359 -0.0620102 -0.12869 -0.339086 -0.274696 -0.0692977 -0.285355 0.141798 -0.39298 -0.120198 -0.210772 0.142138 -0.0054335 -0.0915645 0.701157 0.25545 -0.0780145 -0.247785 -0.23134 0.00857984 -0.107057 0.0709219 0.258153 -0.0279717 -0.216328 0.465259 0.117332 0.0245447 0.0508191 -0.0321725 -0.410716 -0.166849 0.158124 -0.165376 0.373367 0.143898 -0.0288217 -0.274136 0.0317884 -0.132966 0.0331888 0.240115 0.0905205 -0.212989 -0.138572 -0.208178 0.0715472 0.0399316 -0.447424 0.117531 -0.0755478 -0.103577 0.477727 0.0726144 0.466549 -0.286616 0.201189 0.265371 -0.120387 0.116445 -0.108338 -0.105437 -0.125634 0.00214231 -0.113665 0.561357 -0.243623 -0.191603 0.0497905 -0.250455 0.22263 -0.0552457 -0.457414 -0.124715 0.158427 0.399203 0.21185 -0.509066 -0.0833544 -0.247885 -0.195454 0.302651 -0.0896763 -0.340199 -0.320885 -0.464582 -0.379062 0.351835 -0.290845 0.129864 0.159783 -0.378585 0.250128 0.0576389 0.393318 0.0614417 -0.480431 -0.157857 0.108289 -0.276399 -0.121997 0.0430047 0.017414 0.0634119 0.0710654 -0.381475 -0.295078 0.181835 0.165979 -0.0285541 0.385986 -0.414038 -0.0432677 0.381652 -0.0367918 0.247863 -0.348125 0.675194 0.143435 -0.00148855 0.188338 -0.212008 0.0916644 0.359691 0.492533 0.188205 -0.169303 -0.0304762 0.178827 -0.116173 0.130578 -0.729203 0.238195 -0.0124417 0.0881417 0.0849705 0.0962524 -0.140825 -0.059386 0.205189 0.572331 0.0547734 0.0948786 -0.183395 0.0322971 -0.0562235 0.172153 0.243597 -0.257558 -0.0266884 -0.0555534 -0.247955 0.054824 -0.00860664 0.228231 0.0844056 -0.405898 -0.343416 0.401791 0.0436162 -0.343091 -0.242343 0.122776 -0.00612812 0.00711514 
V7 -0.111012 0.0737742 -0.15883 0.178476 -0.0815222 0.306418 0.1341 -0.0435778 0.00179672 0.0693785 -0.366694 -0.187691 -0.0441988 -0.178341 -0.0581056 -0.0979962 0.359941 0.286319 -0.209304 0.0244779 -0.148132 -0.305305 0.170303 -0.190489 -0.209819 0.214602 0.0622838 0.137735 -0.260295 -0.161772 -0.263823 -0.205164 -0.189285 -0.0157804 0.218105 -0.51328 -0.0090858 -0.253026 0.121828 -0.224903 -0.254591 0.227556 0.12501 -0.349064 0.0149127 -0.303532 0.364887 0.0599595 -0.20271 0.0236879 0.426357 0.115985 -0.338909 0.156426 0.0212402 0.285835 0.0318167 0.0609164 0.185982 -0.0785502 0.0785834 -0.166508 0.115556 -0.190153 -0.0900187 -0.371118 0.102228 0.166762 0.394791 0.0396446 -0.0652163 0.146731 -0.272462 -0.114667 0.132639 -0.0942181 0.0236999 0.1345 -0.0214024 -0.118758 -0.187284 0.286704 -0.160907 -0.109801 0.324417 -0.00825861 0.0258443 0.194366 0.0274992 0.223149 -0.283708 0.377341 -0.159502 -0.00971412 0.133072 -0.101739 0.1249 -0.2642 -0.0444807 0.0763919 0.314267 -0.204839 -0.350472 -0.0759246 0.0966302 0.201631 0.101962 -0.0586861 -0.22863 0.0608056 0.152194 0.207948 -0.39615 -0.204759 0.134603 -0.341862 0.339312 -0.161058 -0.0616496 0.0262556 -0.325091 0.22462 0.0589424 -0.00105088 0.100561 -0.0850466 -0.289619 -0.242244 -0.0612558 -0.207082 0.231412 -0.133469 0.0540838 0.0773117 0.0196873 0.0860977 -0.158179 -0.191756 -0.182351 0.278639 -0.0763792 -0.182726 -0.292988 0.28055 0.156721 0.16027 0.00625691 -0.144657 -0.30236 0.101542 0.257677 -0.281838 -0.00631067 -0.0472413 0.241461 0.0207952 0.00674691 0.0942941 0.197019 0.0691745 -0.0253001 -0.30532 -0.0331387 0.107024 -0.117013 -0.064642 -0.0553898 -0.247916 -0.285038 0.111076 -0.163779 0.0840253 -0.0907843 0.294606 0.3624 -0.110323 -0.130958 0.444359 -0.235817 0.355859 -0.257348 -0.0701839 0.0171158 -0.121671 -0.108085 0.0510121 -0.22342 -0.238668 0.167291 0.129519 0.0222781 0.43505 0.174377 0.0972346 -0.0993427 -0.198798 0.250517 0.0768277 0.31853 0.0769605 
w1dim -0.0948035 0.127966 0.0694975 -0.0532431 -0.0581674 0.156837 0.157987 0.0940181 -0.132615 -0.054667 -0.0195588 0.146612 -0.0678954 -0.103136 -0.113673 -0.17616 -0.123806 0.120663 0.132581 -0.0156028 -0.0510396 0.0126494 0.14005 0.166241 -0.119495 0.191541 -0.08266 0.207675 0.0407332 -0.0464125 0.0842915 0.0853243 -0.0113338 -0.164405 0.166473 -0.223266 -0.0148183 -0.183811 -0.139481 -0.0404879 -0.0429612 0.139381 0.0441425 0.142387 0.0600403 0.048278 0.0627992 -0.0169489 0.0484786 0.184602 -0.104756 -0.134622 -0.099156 -0.0988962 -0.0966771 0.205117 0.0878769 0.128114 -0.0935125 0.111199 0.109014 -0.0869367 -0.107925 0.0846908 0.185078 -0.344914 0.0180782 0.124809 0.112751 -0.0396368 0.0625473 -0.0788784 -0.0696479 0.080765 0.0662446 -0.120252 0.152053 0.294508 -0.179849 0.0106477 -0.0444038 0.176933 -0.0510501 -0.324033 0.0355262 0.00103251 -0.00548931 0.175588 0.184766 0.0917713 -0.295265 0.271754 -0.0419745 0.12391 -0.121122 -0.246547 -0.032835 -0.0409512 -0.0575579 0.0663421 0.238549 -0.224321 0.0915758 0.136748 0.056172 0.12734 -0.0671908 -0.0161304 0.174259 -0.00767766 -0.106723 0.13568 -0.121683 -0.39411 0.165449 -0.180476 0.158628 -0.21344 -0.053702 0.146609 -0.303551 -0.00291313 0.149696 0.0109671 -0.0992899 0.208761 -0.127007 -0.2082 0.0992637 0.107738 0.0124669 -0.0625198 0.0163814 0.019285 -0.0738737 0.0325838 -0.180608 -0.148772 -0.0145228 -0.11147 0.0102081 -0.450988 -0.055823 0.248769 -0.0290646 -0.0154155 0.202645 -0.273056 -0.131279 0.0421588 0.0115204 -0.278433 -0.0607313 0.0730782 -0.0311391 -0.0457012 -0.247009 -0.00982126 0.240282 -0.0177102 0.0845068 -0.00469256 -0.200736 0.178049 -0.10818 -0.0645632 -0.0116799 -0.0423268 -0.163519 -0.164939 0.0955839 0.100923 -0.0636687 0.160375 0.235907 0.00173829 -0.340293 0.198255 0.0113176 0.0207228 -0.197447 -0.253758 -0.276682 -0.333662 0.198872 0.202984 0.0462279 0.0388545 0.181222 -0.0287047 0.032017 0.168416 -0.0293126 0.0694356 -0.170971 -0.1226 -0.101526 -0.0635645 0.159976 0.0334991 
v 0.011515 0.157535 0.340221 -0.292042 0.131517 0.315776 -0.0935398 0.0604959 -0.0264956 0.229067 0.319599 0.33214 -0.341085 0.158068 -0.30437 0.0191782 -0.231816 -0.187702 -0.0183578 0.0985077 -0.105876 -0.263923 -0.0405157 -0.299666 0.219404 0.409904 -0.101792 0.0455144 -0.178014 -0.316304 -0.522592 -0.00551526 -0.284384 0.138226 0.0231269 0.192272 0.489292 -0.150277 0.271856 -0.0353997 -0.0822128 0.195309 0.251306 -0.0598928 -0.169112 -0.119902 0.0480938 -0.00399911 -0.0224067 0.191479 0.150146 0.120114 -0.0664353 -0.095943 0.183572 0.139052 -0.304343 0.107198 0.00993063 0.24594 -0.109982 -0.205829 0.0134665 -0.254044 0.173849 -0.208596 -0.26143 0.0613141 0.193877 0.261382 -0.125565 0.254626 -0.052081 0.342182 -0.172255 0.257119 -0.0349107 0.0208733 -0.152342 0.0691339 -0.115899 -0.247164 -0.0987187 -0.226506 0.321492 -0.0734044 0.149264 0.0129444 0.305794 0.0219448 -0.502441 0.271835 -0.148422 -0.0428212 -0.266273 0.0329439 0.247225 -0.122173 -0.0307559 0.164196 -0.0113621 -0.0867226 -0.270399 0.0562699 0.0677596 0.0621546 -0.19751 0.125728 -0.229578 -0.220395 0.129673 0.321388 -0.338914 -0.161401 0.0556186 -0.333908 0.229069 -0.127527 -0.126969 0.25735 -0.385179 0.096121 0.234434 0.0122026 0.101469 0.351169 -0.231815 -0.0462378 -0.0688932 0.385827 0.285462 -0.0996857 -0.319272 0.000719193 -0.487882 0.472826 -0.66069 0.024712 -0.302474 -0.131558 -0.264771 -0.0238992 -0.212599 0.182773 -0.0541599 -0.249074 0.309688 -0.0240412 0.259518 -0.143989 0.13809 -0.0952954 0.286842 -0.0230526 0.200149 -0.0969653 -0.155724 0.30637 -0.377444 -0.110154 -0.00888204 -0.0739697 -0.0874833 -0.146595 0.0642459 -0.404835 -0.205246 0.219079 -0.175246 0.413273 -0.22037 -0.345243 0.0230457 -0.249678 0.436582 0.0450251 0.152757 0.0998898 0.116823 -0.00961002 -0.0353923 0.258177 -0.0239745 0.148857 -0.0554315 -0.404129 0.129167 0.154143 0.456771 0.0192781 -0.262077 0.074939 0.0385569 -0.0294915 -0.222969 -0.0115832 0.124809 0.163177 0.137904 -0.135928 
V 0.0247787 -0.144327 0.0223674 0.0121417 -0.0767058 0.278469 -0.138643 -0.173189 0.0719094 0.0160006 -0.0670118 -0.0919458 -0.305174 0.0333297 -0.0395049 0.00547412 0.0506603 0.276515 0.0320679 0.223825 -0.161628 -0.0733553 0.138107 -0.0434728 -0.0117861 0.143511 0.157479 -0.0184835 0.121998 0.02138 -0.315581 0.12431 -0.050294 -0.0971033 0.217184 0.0880158 -0.0236817 -0.0187318 0.176182 -0.0671944 -0.00915263 0.195913 0.0301045 0.12524 0.11296 0.0608316 0.126005 -0.0304091 -0.00724647 0.156383 -0.0343135 -0.137185 -0.1143 -0.112529 0.105884 0.00545788 0.105522 -0.100308 -0.0366637 0.0785826 0.138928 -0.00225733 -0.102838 0.00772605 0.107852 -0.109018 0.0694678 0.231806 0.0737851 -0.0304617 0.165221 -0.0216103 -0.0364482 -0.0741368 0.0551562 0.0668195 0.120095 -0.0461789 0.146065 0.000333077 -0.0733308 -0.00485281 -0.139101 -0.120029 -0.0355467 -0.0354991 -0.0868256 0.1705 -0.101229 0.163757 -0.0965495 0.124502 -0.0230932 -0.0651556 -0.200671 -0.125409 -0.012695 -0.203399 -0.203316 0.0136052 0.319647 0.0537327 0.0862615 0.0164687 0.040241 0.206552 0.174072 0.0119991 -0.204526 -0.128341 -0.0362308 0.103797 -0.17315 -0.0516189 -0.0440463 -0.052551 0.0327829 -0.224778 0.00272448 -0.0679555 -0.0467212 0.0319603 0.0698354 -0.0198511 0.0112734 0.17368 0.0602396 -0.162618 -0.0888821 -0.208591 -0.0722892 -0.0681009 -0.0423065 -0.0380367 -0.0084276 -0.00868998 -0.215945 -0.0714518 -0.00422095 -0.0559465 -0.0935049 -0.11734 0.103011 0.0476904 -0.128213 -0.00662214 -0.100207 -0.138284 0.025113 -0.0577493 0.201895 -0.0981149 -0.027603 0.0340105 0.0404699 -0.00200151 -0.0830845 0.198013 0.139981 -0.116665 0.00274309 0.0418445 -0.0372776 0.0780162 -0.0182497 0.0288499 -0.0617005 -0.0452294 -0.030989 0.125134 -0.0688328 0.0940646 -0.220464 -0.0459987 0.17331 0.205031 0.0298421 0.0171858 0.1174 0.0139735 -0.0134646 0.0322544 0.15059 -0.0399585 -0.166669 -0.0114688 0.112892 -0.133459 0.213345 0.00783859 0.0342448 0.134875 0.0808718 -0.0608343 -0.106937 0.0823686 -0.0733169 0.0691416 0.0940169 0.0605278 
w8m -0.255101 -0.171809 -0.270125 0.154742 0.262709 -0.255563 -0.182783 0.0180713 0.152815 0.0621961 -0.185592 0.101105 -0.529561 0.200509 -0.364512 0.11125 -0.166958 0.655436 0.176652 0.102742 -0.0550706 -0.0688549 -0.245375 -0.193481 0.44909 0.134334 -0.0758934 -0.314791 -0.0456974 -0.0132385 -0.0431831 -0.039209 -0.327793 0.15334 0.348984 -0.113741 -0.00581066 -0.510695 0.317707 -0.00541718 -0.0498652 0.222199 0.208466 0.116355 -0.133791 0.149187 0.0822622 -0.207423 0.278666 0.355115 0.0202608 -0.358251 -0.00856876 -0.136652 -0.00752984 0.164333 0.216823 -0.0417115 0.105693 -0.26843 -0.0811911 0.302931 -0.155435 0.0307317 0.117057 -0.32577 -0.00727231 0.0980084 -0.116846 0.236327 -0.0270572 -0.263301 -0.273743 0.00519291 -0.0844299 -0.0739727 0.208844 0.124056 0.0425559 0.389913 0.247345 -0.454813 -0.355669 -0.026985 0.0511573 -0.536658 0.269011 0.362385 0.411395 0.0362143 -0.0689762 -0.042431 0.0764107 0.193206 -0.150009 0.132554 -0.155631 -0.610047 -0.313038 0.287392 0.107371 0.0582468 -0.233861 0.472883 -0.174972 0.0638488 0.157611 -0.00152821 -0.0833839 0.196223 0.205221 0.201837 -0.0903452 0.298833 -0.0945058 -0.273615 0.0234844 -0.139488 0.232287 -0.145261 -0.292667 -0.444635 -0.208722 -0.303611 0.408875 0.770106 -0.395437 0.0727773 0.16365 -0.012914 -0.238641 0.21004 -0.196926 -0.156473 -0.277171 -0.524349 -0.16073 -0.16241 0.0666545 0.155941 -0.147636 -0.175481 0.212738 0.230912 0.11717 0.148193 -0.136086 -0.252978 -0.416547 -0.665854 0.317607 -0.414126 -0.0316938 0.118179 0.00195648 -0.077279 -0.165554 0.248111 -0.199287 -0.175559 -0.184161 -0.16462 0.333647 0.217913 0.149022 -0.0854407 -0.417963 0.221709 -0.284271 0.36628 0.273458 0.225857 0.00311831 -0.500223 0.0181071 0.0350135 -0.0322504 -0.16583 0.250392 -0.24105 0.207995 -0.0284408 0.111872 -0.0911778 -0.0343722 -0.327292 0.135236 0.351636 0.198033 0.305509 -0.202634 0.0553045 0.235944 0.315239 -0.0297388 -0.227283 0.0292538 -0.109064 0.210161 0.195915 
w3m 0.263155 0.361435 -0.045468 -0.550199 0.0620188 0.23427 0.133874 -0.0952006 -0.0147102 0.0785332 0.15198 -0.174957 -0.415956 -0.286451 -0.103057 0.17397 0.262062 -0.103838 -0.00235536 0.274424 -0.144864 -0.00649718 -0.0365022 0.291084 0.0993848 0.192116 -0.165361 0.0749755 0.0309424 -0.05737 0.0794461 -0.502515 -0.375544 0.189798 0.509464 -0.084618 0.12293 0.0755263 -0.0150065 -0.225462 0.238571 -0.06298 0.536989 -0.13226 0.0607808 0.0229358 -0.358736 0.0718404 -0.100099 0.0918495 -0.220929 0.0751874 0.173181 -0.0705184 0.123883 0.185557 0.224021 0.275708 -0.280034 -0.142377 0.19587 -0.233013 -0.0355755 0.0942625 0.278261 -0.751127 0.0435356 -0.0360202 0.528882 0.0575045 0.0624882 0.20161 -0.266527 -0.185015 0.0780029 0.586617 0.302251 0.152483 0.0763366 0.317444 -0.121386 -0.289851 0.17906 -0.273539 0.626992 -0.224593 -0.22466 0.333629 0.204955 0.264554 0.00197439 0.315356 0.145811 -0.133917 -0.120926 0.131497 -0.170687 -0.0436542 0.0904397 0.0887831 0.457486 0.0362285 -0.344965 0.251449 0.184346 -0.419998 0.235222 -0.229285 -0.387552 0.000719519 -0.00382728 0.0926367 -0.111686 0.125017 -0.00776738 -0.0971487 0.350614 0.133711 -0.159681 -0.166354 -0.337381 0.247966 -0.0934477 -0.115186 0.344171 0.426252 -0.151627 -0.0187524 0.240557 -0.210181 0.0572688 -0.247469 0.121617 -0.143468 -0.429835 -0.236315 -0.17865 0.149316 0.249084 -0.15538 -0.113763 -0.14345 0.0300561 0.0630211 0.0596639 0.36743 -0.309168 -0.441839 0.20693 0.0197843 0.193374 -0.0548891 -0.0347142 0.0657021 0.186501 0.00327044 -0.0182502 0.14329 0.0446769 -0.0321816 -0.158567 0.123066 -0.264107 0.206471 0.427382 0.150115 -0.105228 0.00338216 -0.204903 0.321166 0.163546 -0.22923 -0.141496 0.102667 -0.265367 0.324604 -0.374293 -0.132732 -0.0194787 0.41326 -0.0288419 -0.205159 -0.0324325 -0.479711 -0.242686 0.127291 -0.175317 0.0223946 0.382027 0.101023 -0.0558282 0.105785 -0.058219 0.0288723 -0.0971732 -0.114017 -0.562548 -0.0229416 -0.340499 0.182252 
VIdim 0.0866408 -0.0886762 -0.143587 -0.184656 0.00722219 0.202695 0.093567 -0.0356877 -0.07192 -0.0344818 -0.210326 0.129049 -0.204852 -0.0622038 -0.0821894 0.0177608 -0.0290617 0.0616697 -0.0794749 0.161657 -0.00219739 -0.0683134 0.125067 0.00264162 -0.0255943 0.0766388 -0.00992659 0.0983415 0.105635 -0.0914078 -0.080811 0.119178 -0.0915464 -0.155522 0.108432 -0.00237486 0.0538572 0.0154739 0.118611 0.00353902 0.00287236 0.0994071 0.191768 0.0964125 -0.0227971 -0.0122773 -0.0281695 0.110859 -0.108666 -0.0145357 -0.00771208 -0.0608876 -0.113119 -0.0599215 0.00773705 0.0516065 0.0316669 -0.100165 -0.0872976 0.0802999 0.213293 0.0182144 -0.0546068 -0.0020191 0.125004 -0.101193 -0.0162939 0.0619933 0.181473 -0.0575331 0.128461 -0.0149516 0.0253302 0.034973 0.00844972 0.0344345 0.0234583 0.169653 0.0889559 0.0696949 0.0884374 0.0708587 -0.0695499 -0.0935304 0.0679552 0.0248228 -0.0224198 0.0738339 0.0927695 0.111017 -0.0878273 0.171854 -0.0300249 -0.0149479 0.0111405 -0.2087 0.0746792 -0.0854512 -0.317915 0.111401 0.0248084 -0.12138 -0.0374296 0.0525281 0.158263 0.0679223 0.0302068 0.0887389 -0.0385923 -0.044751 -0.134376 0.190901 -0.138934 -0.0892003 0.0594367 -0.0549854 0.0206492 -0.0660353 0.0967593 -0.000862003 -0.210469 0.0557305 0.083455 0.141409 0.00623504 0.129377 -0.0530334 -0.114243 -0.0704991 0.0245066 0.0677344 -0.116895 0.0293357 -0.0903857 -0.0185215 -0.0325249 -0.153212 -0.00419039 -0.072546 -0.0030285 -0.0254348 -0.239712 -0.1221 0.215031 0.0625157 -0.0827224 0.0102406 -0.0529935 -0.0857655 -0.079518 0.1504 -0.238351 0.0200225 0.0536542 0.0369922 0.0723621 -0.124963 0.0952402 0.0942579 -0.0337507 0.0350842 0.0419968 -0.0787032 0.00765229 -0.0838717 0.0572663 -0.0417441 0.0898494 -0.105845 -0.0208678 -0.0080032 -0.0584712 -0.140492 -0.0883562 0.176877 -0.0675265 -0.0089851 0.0900621 0.0654037 0.00799742 -0.0264233 -0.112242 -0.0215124 -0.136988 0.0376448 0.106261 -0.137929 -0.0381775 0.284961 0.051127 0.00598005 -0.0107308 0.0415941 0.0450081 -0.0077935 -0.0644245 -0.151259 -0.0769598 -0.0794434 0.0767289 
ii 0.0638064 -0.0644708 -0.0359977 -0.189456 -0.0865467 0.192388 -0.101668 -0.024396 -0.0210431 0.0492651 0.0883537 0.00918332 -0.449182 0.00507008 0.0334678 -0.0313063 -0.0392798 0.246498 0.0627271 0.203562 -0.40075 0.0512791 -0.00962709 0.0115182 -0.0217017 0.163028 0.10236 -0.0732703 -0.0944547 -0.1486 -0.208407 0.0144282 -0.0818402 -0.0036498 0.0306678 0.00701648 0.0792341 -0.182362 0.113722 -0.32096 0.0222846 0.213379 -0.0594744 0.00650382 -0.135851 -0.159688 0.10981 0.124823 -0.126993 0.0817027 0.0639557 -0.0387418 -0.0775588 -0.00986697 0.17771 0.00370966 0.128893 -0.0878146 0.119297 0.111358 0.0326604 -0.0198736 -0.224459 0.114497 0.0375225 -0.0566406 0.0846157 0.134608 0.0744335 0.0114775 0.210152 -0.0342918 0.114509 -0.101797 -0.200112 0.112268 0.100141 -0.00583586 0.0226085 0.074252 0.05978 0.0107714 -0.135314 -0.139797 0.0769016 0.104709 0.00802514 0.136092 0.119958 0.171006 -0.303236 0.146423 0.00599045 -0.0185148 -0.24663 -0.266835 0.0879325 -0.0698501 -0.139976 0.0893188 0.291426 -0.110762 -0.108427 0.0144688 0.0332768 0.121926 0.129706 0.118585 -0.200615 -0.0545238 -0.18463 0.209163 -0.107714 -0.113196 -0.142309 0.013219 0.149524 -0.222375 -0.0188401 -0.137504 -0.0737115 -0.146003 0.0332569 0.108569 -0.0181711 0.169108 -0.127689 -0.178074 -0.0962143 -0.0891962 0.121757 -0.132044 -0.136331 -0.0588594 -0.0891629 -0.0831052 -0.0132648 0.0357799 -0.0148241 0.00972697 -0.140089 -0.140775 0.00816359 -0.00305587 0.0513256 0.0718433 0.0628749 -0.0807853 0.0672161 0.00630872 0.130385 -0.196377 -0.0336162 -0.0495918 0.125594 -0.0985591 0.015449 0.216207 0.177487 -0.0600299 0.00777417 0.0983376 -0.171523 0.0118519 -0.023963 -0.0238925 -0.00902947 -0.116535 -0.147908 0.167951 -0.167153 0.264916 -0.221173 -0.0725757 0.0435452 -0.00258299 -0.00554565 -0.0267866 -0.0393788 0.148852 -0.165139 0.118777 0.185693 -0.027466 -0.22658 0.0274038 -0.100556 -0.163192 0.220682 0.0635058 0.0717927 0.101254 0.244171 0.126281 0.0701112 -0.0483351 0.113936 -0.0813365 0.0491981 0.00284279 
IV -0.0570453 -0.185698 0.0165845 -0.11305 -0.13974 0.193817 -0.0659825 -0.0711598 0.0805837 -0.0678765 0.0410116 0.156135 -0.320983 -0.0578776 -0.0956306 0.0223471 0.0651944 0.212244 -0.0696762 0.200561 -0.139729 -0.0683667 0.0832634 -0.0109731 -0.121218 0.186582 0.0896293 0.0147341 0.0657796 -0.031057 -0.16802 0.114898 -0.02937 -0.195317 0.207612 0.0664581 -0.0289699 -0.0622227 0.0789493 -0.207797 -0.072959 0.168988 0.0780426 0.143652 -0.0705733 -0.0618425 0.0420252 0.0584607 -0.0542622 0.145628 0.054732 -0.0611582 -0.0768319 -0.010949 -0.100878 0.127761 0.119824 -0.113232 -0.0236335 0.132658 0.125612 0.0826935 -0.00675958 0.0662733 0.124054 -0.022927 -0.00325149 0.142333 0.0660492 -0.111811 0.175651 0.0569672 0.0954607 0.130482 -0.150757 0.1561 -0.0195432 0.173972 0.0486443 -0.104715 0.00673909 -0.00777971 -0.106756 -0.116582 -0.118858 -0.10086 -0.0319362 0.107414 0.0434218 0.10037 0.00328532 0.189176 -0.0237308 0.0125938 -0.0881617 -0.107862 -0.00283451 -0.16461 -0.141951 -0.00464866 0.16964 0.0284293 -0.0367655 -0.0362628 0.06638 0.185177 0.15688 -0.0749169 -0.108025 -0.0481202 0.0104694 0.28541 -0.110769 -0.115167 -0.0698703 -0.0264415 -0.227999 -0.221093 -0.0876862 -0.0336546 -0.131885 0.00596077 0.0432003 -0.00681739 -0.014838 0.156714 0.00150411 -0.180996 -0.00160685 -0.099661 0.081519 -0.0354858 -0.0383588 -0.0446712 -0.0982956 0.0233302 -0.0704549 0.0702312 -0.161832 0.0195155 -0.125848 -0.0784321 -0.0529108 0.0454584 -0.123941 0.007513 -0.0723519 -0.138031 0.0260239 -0.11185 0.260392 -0.14571 0.0865067 -0.0146361 0.0670282 -0.0952593 0.0293971 0.150562 0.0751202 0.076191 0.132153 -0.010967 -0.0794719 0.12773 0.042811 0.0227047 -0.0168913 -0.164446 0.00941131 0.168058 -0.11846 0.0739035 -0.224937 -0.0779817 0.188274 0.106385 -0.0447047 0.0720659 0.199326 0.12209 -0.134799 0.0649591 0.170066 -0.0118278 -0.145332 0.0795191 -0.00954706 -0.16116 0.0197429 0.111314 0.0666815 0.0780877 0.136817 0.20328 -0.0944798 -0.0512935 -0.0316848 0.0726194 0.169251 0.0972525 
w0 -0.0642193 -0.0847344 0.0369978 -0.0632278 -0.132878 0.121116 -0.079175 -0.0878309 0.089878 -0.0518035 -0.134197 -0.0325461 -0.290222 -0.098772 -0.0909951 -0.0171129 -0.00970504 0.286539 -0.0642349 0.163372 -0.187268 -0.00244646 0.0103755 -0.0517636 0.00452719 0.190828 0.0775086 -0.0556934 0.0158382 -0.125773 -0.123254 0.066553 -0.0916707 -0.0308073 0.186141 0.134248 -0.0150182 -0.144844 0.066656 -0.0925461 -0.046301 0.0114952 -0.0870759 0.125776 0.0620154 -0.00215245 0.074581 0.0557565 -0.12073 0.183057 -0.0201443 -0.0886408 -0.106098 0.0549078 -0.0196776 -0.00603486 0.0594895 -0.159455 -0.0598308 0.133573 0.115598 -0.107254 -0.100473 0.0478333 0.0445965 -0.042113 0.00794334 0.143638 0.12386 0.0986143 0.149308 -0.106187 -0.0241003 0.00686416 -0.0987891 -0.00555606 0.00404417 0.129666 0.127678 -0.1157 0.0118419 0.00822196 -0.154286 -0.127155 -0.0874873 -0.080369 -0.0827103 0.248963 -0.0148023 0.164497 -0.128635 0.0408243 -0.161332 0.00904454 -0.0761547 -0.0888373 -0.0517808 -0.21123 -0.245009 -0.0384446 0.0889436 0.0528973 0.0194479 0.0105766 -0.0507208 0.025638 0.152007 -0.0432298 -0.157695 0.00399324 -0.0107771 0.187389 -0.118876 -0.204122 0.104352 -0.0285456 0.162532 -0.156633 -0.116504 0.0144482 -0.177418 0.130282 0.0588637 0.037832 0.092624 0.13908 -0.166669 -0.257493 -0.110192 -0.108998 -0.0290915 -0.0626847 -0.0766367 -0.00612114 -0.122989 0.00612923 -0.0652227 -0.0918357 0.0343261 0.00183588 -0.10279 -0.0963633 -0.0786594 0.0830201 -0.257035 0.0403184 -0.0263781 -0.133134 -0.148945 -0.0605344 0.04624 -0.139475 0.010414 -0.113009 0.0849985 -0.0758899 -0.0191881 0.155807 0.176879 -0.107683 0.0303204 0.0496065 -0.052305 0.101093 0.0158841 0.0635119 -0.055695 -0.0259516 -0.0225778 0.211474 -0.0889877 0.0816763 -0.327856 -0.0295549 0.185954 0.0191256 -0.0606705 0.000835735 0.1003 0.0299337 -0.0639215 -0.0459751 0.0598232 -0.15587 -0.0896739 0.0573085 -0.0588347 -0.170202 0.0960721 0.134005 -0.0344615 0.0452304 0.0764376 0.0281723 -0.11934 -0.0305192 0.0564951 0.00316145 0.0661494 0.0421108 
vii 0.186426 -0.110462 -0.16822 -0.20837 -0.196808 0.592713 -0.176691 -0.258306 -0.0762018 0.195743 0.0687683 0.130027 -0.281143 -0.264136 -0.449507 0.217971 -0.0758063 0.0244877 -0.158745 0.207666 -0.0420623 0.239995 -0.0153426 0.0188062 -0.145856 0.330734 -0.0417087 0.417949 -0.21562 -0.397373 0.0678006 0.222085 0.0667485 -0.0642493 0.237245 -0.0227535 0.134746 -0.321796 0.196316 -0.563167 0.153179 -0.0367151 0.226627 -0.160345 -0.100625 0.0658467 0.141389 -0.066094 -0.132818 0.299243 0.018607 -0.444607 -0.0777354 -0.336995 0.0999115 -0.0784252 0.369017 0.00792842 0.0347243 0.259711 -0.262296 0.234555 -0.23338 0.316155 -0.115378 0.0698258 0.150406 0.0162654 0.0905415 -0.375237 0.454737 0.232806 -0.0552143 -0.201362 -0.238151 0.210502 -0.364134 -0.179552 0.132993 0.0878449 0.231161 0.263165 -0.126908 -0.533681 0.100987 -0.158338 0.14699 0.184172 0.211203 0.123325 -0.141257 0.530258 -0.0129874 0.0683695 0.095041 -0.263615 -0.115285 0.21077 0.0331666 0.1314 0.250129 -0.204281 -0.207433 0.158955 0.131533 -0.0576765 -0.108383 -0.500418 -0.197195 0.355038 0.0971392 0.197939 -0.418461 0.0463979 -0.221946 0.519842 -0.0524851 -0.011944 -0.112327 -0.0173557 -0.0790471 0.13773 0.34483 0.214939 0.147988 0.461837 -0.158621 0.552041 -0.137552 -0.15049 0.167204 0.00234191 0.173244 -0.00812237 -0.336304 0.177544 -0.208775 -0.383953 0.0293162 -0.306789 -0.0836719 -0.303111 0.00991022 0.155068 0.318542 -0.023707 -0.319415 -0.104825 0.357481 -0.144031 0.227002 -0.0660461 -0.268194 0.0231834 0.137867 -0.182251 -0.123764 0.0863339 -0.144959 -0.19265 0.299116 0.17742 -0.182123 0.308336 0.16831 -0.100529 0.25895 0.00259609 -0.228315 -0.18923 0.0724698 -0.11429 -0.283728 -0.0431864 0.0587729 0.136859 0.0297921 -0.050681 -0.173483 0.133418 -0.10632 0.324541 0.136391 0.342785 -0.0938635 -0.244307 0.0108656 -0.17525 0.318185 -0.0859382 -0.0526153 -0.00546259 -0.248838 -0.181805 -0.393672 0.263194 -0.105365 -0.120647 0.373798 0.292403 
III7 0.0693548 -0.202896 0.216738 -0.061269 -0.0130906 0.170044 0.141502 -0.193416 0.117979 -0.237385 -0.271566 -0.0448682 0.0438693 -0.129365 -0.13417 0.0881061 -0.151008 0.0866135 -0.401283 0.00838984 -0.156217 -0.0720519 0.242524 0.000163249 0.28658 0.251047 0.0105589 0.0180727 0.0127777 -0.27545 -0.299407 -0.0453617 0.145486 -0.227114 0.237365 0.251059 0.0674653 0.193405 0.00956284 0.191232 -0.0662082 0.424582 -0.119097 0.118388 -0.187025 -0.112698 0.132386 0.064218 -0.0585766 0.157323 -0.0963167 -0.0676246 -0.22789 0.235217 0.13993 -0.0554916 0.465518 -0.186514 0.10436 0.126621 -0.126423 -0.0382859 -0.0731793 0.151201 0.135202 -0.0134134 0.176927 0.033546 -0.288923 -0.0892325 0.163089 0.193763 -0.28992 0.272685 -0.132283 -0.0573078 -0.0966509 0.0844827 -0.09172 0.222114 -0.0880836 0.342757 -0.0160578 -0.0669648 -0.278453 0.0288988 -0.212015 0.40185 0.244903 -0.188793 -0.237968 0.329455 0.136847 0.0390277 0.136165 0.0147178 0.0874192 0.159672 -0.0265779 0.218075 0.279002 -0.38575 -0.0612648 0.383363 0.0428157 0.105761 0.197106 0.120124 -0.249734 0.203481 -0.00867724 0.423788 -0.375377 -0.226756 -0.00112995 0.00184478 0.193862 -0.291241 0.0458256 -0.0141004 0.0127058 -0.268171 0.0067674 0.236749 -0.0916025 0.559696 0.137404 -0.00978633 -0.126954 -0.0842527 -0.250787 0.0113595 -0.0195041 0.423905 -0.317871 0.332315 -0.0664582 -0.121053 -0.209676 -0.103934 -0.233535 -0.366754 0.0336197 0.432256 0.0130373 0.107576 -0.149335 0.0642606 -0.177123 0.045129 0.360016 -0.0978037 0.229413 0.00756851 -0.141382 0.346861 0.000761535 0.503341 0.0716797 -0.185522 0.352031 -0.23624 -0.00761123 0.0879206 -0.0384236 0.608877 0.39145 -0.300412 0.0533429 -0.044434 -0.0830392 -0.0380134 -0.267515 -0.0526186 0.274871 -0.0988786 -0.274269 0.346152 0.200997 0.0421241 -0.0804938 -0.271856 -0.0621019 0.114424 -0.0976889 0.364027 0.133782 -0.0658631 0.207424 0.0133736 0.393418 0.0866422 0.0187028 0.14923 -0.0695237 0.0940525 -0.238921 -0.112947 0.0186583 0.239907 
II -0.0543868 -0.144712 -0.0206054 -0.133587 -0.163758 0.335814 -0.0562447 -0.0139564 -0.031279 -0.0995643 0.000610348 0.130423 -0.143862 -0.208343 -0.280528 0.0807894 0.0512364 -0.0505387 -0.136793 0.349314 -0.0761338 0.055359 0.22637 -0.1284 -0.00225434 0.193972 -0.0394338 0.0266362 0.109622 -0.209815 -0.134622 0.196827 -0.116032 0.0810872 0.209523 -0.0187464 -0.157515 -0.0863658 0.17344 -0.0801861 -0.0622817 0.0228073 -0.252748 -0.0923703 -0.0544551 -0.133192 0.196309 0.17903 -0.158539 0.216162 0.0373288 -0.275635 0.0425295 -0.133124 -0.00601891 0.145302 0.0269079 -0.221717 -0.0616004 0.104854 -0.0191623 0.380732 -0.0905432 0.2593 0.0749964 -0.204114 0.027205 0.373596 -0.135836 0.0956608 0.107684 -0.0532196 -0.0346229 -0.0369071 0.021675 -0.131657 0.137637 -0.116124 0.263346 0.112583 0.155612 -0.0204553 -0.268923 -0.250451 0.0885497 -0.308583 0.0687882 0.172479 0.0809227 -0.00757083 -0.0773826 0.225158 -0.0596817 0.0461345 -0.159472 0.120304 0.0313019 -0.0817421 -0.257991 0.0515838 0.362881 0.0905969 0.104735 0.0197999 -0.0872154 0.0170717 -0.0505552 -0.210093 -0.0468416 -0.0514623 0.137283 0.353378 -0.0768016 -0.0784829 0.0619529 -0.00873863 0.25533 0.0836401 -0.163653 -0.0428758 -0.0571247 0.0119978 0.153537 -0.0267758 0.1224 0.122114 0.0300754 -0.149745 -0.55795 0.153153 0.0273979 0.101818 0.0232326 -0.0145549 -0.162247 -0.0653551 -0.00602151 -0.0072528 -0.218753 -0.167779 -0.389669 0.000322175 -0.00128416 0.254717 -0.0693088 0.245936 -0.409316 -0.0285259 0.219242 -0.0756823 0.0586926 -0.0696843 0.0123004 0.0245494 -0.0248797 -0.248587 -0.0590934 0.0643888 0.00906936 -0.00561946 0.0254053 0.0922102 -0.013613 0.160264 -0.0773447 -0.0508997 0.0293751 -0.137633 0.198526 0.0501815 0.0173931 0.0806207 -0.0256496 -0.434672 0.173071 0.150314 -0.0942811 -0.0287744 0.021822 0.0711927 -0.198055 -0.0854193 0.152369 -0.0361617 0.024731 0.0119979 0.0322756 0.0116628 0.225325 -0.0171914 -0.0111346 0.25266 -0.141299 0.0564516 -0.25588 0.0841389 -0.1169 -0.13885 0.146355 0.243663 
w17 -0.00666262 -0.319721 0.0285109 -0.192959 -0.0957712 0.172167 0.273426 0.0282922 -0.448847 -0.176956 0.212757 -0.0151914 -0.395104 -0.121572 0.0359927 0.276489 0.112485 0.167299 -0.079128 0.332971 -0.0796701 0.206511 -0.0588311 -0.0169603 -0.0655348 0.161122 0.168784 0.0286246 0.128804 -0.365503 -0.124261 0.197866 -0.125292 -0.126602 0.252026 -0.113589 0.0959733 -0.235712 -0.0105314 -0.168002 -0.0434347 -0.0948394 0.0665159 0.0774759 -0.22482 0.0593572 0.237982 -0.181161 -0.193136 -0.0777248 0.469845 -0.143329 -0.0502213 0.00571853 0.100827 0.225082 0.0684756 -0.250268 0.14827 -0.0921405 -0.296428 0.139287 -0.275536 0.119262 -0.0652953 -0.312453 0.279362 0.179479 0.105723 0.203073 0.050395 0.0764441 -0.104746 0.050891 0.108447 -0.247809 0.0742106 0.343265 -0.211451 0.163983 0.0909138 0.0176956 -0.122641 -0.368185 0.141761 -0.219682 -0.294008 0.325873 -0.0194907 0.0192354 0.0224438 0.454764 0.0195689 -0.287878 -0.316922 -0.402207 -0.0193919 -0.0885736 -0.441253 0.267121 0.150888 -0.0299674 -0.273462 -0.0712603 -0.274145 0.298354 -0.0290195 0.390935 -0.0814526 0.0444351 0.2234 0.065197 -0.208506 -0.112733 0.0797158 0.0675109 0.092105 -0.0757198 0.163198 0.11664 -0.320832 -0.0389881 0.163663 -0.0102324 0.135323 0.0328102 -0.125473 -0.0678359 0.0772536 -0.0800584 0.250055 -0.0999807 -0.0401672 0.383658 -0.130615 -0.285065 -0.120863 0.079895 0.111192 0.00286447 -0.193943 -0.435966 0.064358 0.296184 0.190336 0.0752007 -0.10429 -0.198847 -0.142473 -0.164094 -0.0361388 -0.281226 -0.102991 -0.078914 0.111263 -0.163749 -0.0316915 -0.00716259 0.123756 -0.0957964 -0.0135369 -0.132912 0.0120745 0.103807 0.15148 0.0281206 -0.0637342 0.193433 0.0593515 0.089176 -0.00946779 -0.0906385 0.14427 0.0126797 0.180141 0.206574 -0.264348 -0.184585 0.00053909 -0.0997584 -0.0526978 -0.215878 0.0952197 -0.579543 0.188271 0.0260714 0.0374242 -0.0463258 -0.0748921 0.26189 0.00629299 0.10515 -0.133544 0.0378996 -0.23431 -0.0980176 -0.284649 -0.209873 0.144165 0.00941771 
II7 0.171206 0.0443585 -0.118982 0.348107 -0.168667 -0.100437 0.191135 -0.0574992 -0.456908 -0.403821 -0.0379544 -0.19764 -0.594529 -0.169872 -0.597025 0.0872421 -0.30383 -0.0463767 0.0991301 0.140181 -0.165861 -0.248831 0.479669 0.0228579 -0.185753 0.0769119 -0.0645309 0.135797 -0.27228 -0.172159 0.244102 0.12395 0.322084 -0.118013 0.446337 -0.204274 0.274134 -0.13577 0.123447 0.212803 0.0404287 0.342915 0.00880323 0.395154 -0.241681 0.00621566 0.21424 -0.0659572 -0.0713912 0.246899 0.0467748 0.135818 0.0339428 0.331917 -0.167578 0.137968 0.0507864 -0.62659 0.0319263 -0.223156 -0.119997 0.0746961 -0.131364 -0.189582 0.273837 0.0358702 -0.0146181 -0.190936 -0.0607962 0.0514022 0.0206977 0.00883189 -0.125863 -0.145496 -0.222626 0.0140913 0.331296 0.0790377 -0.16728 -0.0947058 -0.131983 0.0126207 0.185542 -0.391442 -0.04002 0.311562 -0.405987 -0.0590399 0.159638 0.0844344 -0.258757 0.252444 -0.199208 0.252769 -0.25321 0.125605 0.108591 -0.446334 -0.335869 -0.0126101 0.301841 -0.242616 0.0606794 -0.0866251 0.334804 0.13692 -0.151055 0.0639651 0.140285 -0.28639 0.211793 0.389549 -0.501909 -0.259565 0.0585449 0.0592968 0.310272 -0.132456 0.238825 0.0814069 -0.136835 -0.311082 0.143763 0.113423 0.144196 -0.301212 -0.36661 -0.144695 0.0684715 -0.327372 0.22579 -0.112026 -0.122961 -0.050141 -0.0578014 0.166512 -0.288378 -0.223564 -0.207777 -0.266801 -0.222595 -0.382494 -0.309811 0.199513 0.0819401 0.10056 -0.0589814 -0.428345 -0.0658792 -0.0727927 -0.0698953 -0.245679 0.0506158 -0.205748 -0.156551 -0.0923985 -0.494151 0.277067 0.366421 -0.018487 0.191007 -0.0877491 -0.0193544 -0.182545 -0.12732 0.223335 -0.172762 -0.194416 0.175254 0.158458 -0.0809248 0.177711 0.0363828 0.182858 0.127203 0.478084 -0.340251 0.257894 -0.14793 0.167806 0.0328002 -0.218919 -0.0950947 -0.194559 0.0332145 -0.309094 0.183969 -0.248173 0.43276 0.38389 -0.0697617 0.264817 0.0864511 -0.0212605 -0.0496018 -0.0698399 0.112003 0.125539 0.141243 0.238847 
III 0.350383 -0.149873 -0.249582 0.0360598 -0.133608 0.153593 0.0157907 -0.0914807 0.25412 -0.0181582 -0.207949 0.0348266 -0.281294 0.10334 0.0917552 0.15521 -0.105115 0.0945689 -0.0889504 0.104458 -0.0388425 -0.00361563 0.199063 0.146926 -0.089703 0.333901 -0.164523 -0.0367648 0.0624306 0.0169686 -0.203705 0.143413 0.125985 0.100114 0.254425 -0.134346 -0.00640944 -0.153745 0.122935 -0.0766225 0.00444328 0.0237241 0.129084 0.109146 -0.158693 -0.211846 0.454242 0.0270696 -0.035478 0.344127 0.0555328 -0.208497 -0.00394662 0.0466781 0.157807 -0.134107 0.0962 -0.212073 0.0868708 -0.072275 -0.211907 0.355948 0.114193 0.183471 0.117797 0.148051 -0.0788372 0.205557 0.00442277 0.0640867 0.128169 -0.0835328 -0.0658175 0.165929 -0.0925954 -0.086083 -0.0392997 0.118684 0.185915 0.115233 0.0972693 0.0186672 -0.261109 0.117831 0.0245711 -0.0194524 0.0047684 0.0744831 -0.114451 0.0723996 -0.124667 0.0072977 0.00313087 0.0226503 -0.194298 -0.0529062 0.0893788 -0.330077 -0.363227 -0.0993783 -0.0312022 0.0647005 -0.116132 0.228254 0.141791 0.0758953 -0.0726903 -0.122419 -0.217727 0.0907009 -0.0577356 0.159734 0.0195938 -0.231033 0.027393 -0.081165 0.170527 -0.153676 -0.0574778 0.174402 -0.203243 -0.230813 0.0313707 0.124195 0.182397 0.323455 -0.213622 -0.132815 -0.0850702 -0.084982 0.0448848 0.260925 0.117631 0.0860185 -0.283153 -0.0785767 -0.0646997 -0.114405 -0.0894273 -0.213587 0.0307145 -0.332451 -0.0427054 0.0986467 0.0496614 -0.16089 -0.0587449 0.16701 -0.239721 -0.15946 0.0539897 0.182489 -0.04046 0.0160487 -0.50922 -0.206154 -0.0895862 -0.0457285 0.170069 0.187795 -0.0194417 -0.198346 -0.127419 0.0360601 0.00272076 0.115083 -0.0312435 -0.0568101 0.0543635 -0.0169507 0.0669892 0.100829 -0.152924 -0.210099 0.223047 -0.060884 0.0710402 0.107647 0.201361 0.0486986 -0.140696 -0.0845576 0.0216939 0.0148207 -0.108616 0.0892872 0.165299 -0.0993397 0.260439 0.257379 0.0860506 -0.197851 0.00321363 0.0836047 -0.188669 0.134242 -0.201255 -0.0958844 0.216828 0.191587 
Idim 0.106258 -0.123476 -0.143485 -0.209748 -0.0874314 0.275135 0.440377 0.0399163 -0.043402 0.09482 -0.368631 0.201898 -0.0483172 -0.181567 -0.132635 -0.0485593 -0.111324 0.243245 -0.0324994 0.33293 -0.0604005 -0.115036 -0.00514641 0.00960184 0.0044963 0.0142015 0.177035 0.0239929 -0.116434 0.111724 -0.394106 -0.0407377 -0.122291 -0.219204 0.106742 0.0228096 0.150879 -0.0765285 0.172073 -0.0937976 -0.15197 -0.153687 0.139146 0.27901 -0.242018 0.147915 -0.211012 0.188155 -0.0642822 0.237403 0.167844 -0.122713 -0.189367 0.0251646 -0.00351443 0.262585 -0.0239064 0.0763449 -0.171811 0.0531526 0.0993408 0.166981 -0.100976 -0.279742 0.211989 -0.242326 -0.492976 0.145464 -0.0601955 -0.0448466 0.00443572 -0.0991179 -0.275821 0.0289746 0.0651675 0.00555263 -0.0583388 0.287881 -0.109936 0.00995224 0.128282 -0.119542 -0.113765 -0.0793047 0.0404425 -0.090895 -0.0320963 0.179175 0.260966 0.335698 -0.432826 0.213154 -0.220946 -0.0867505 0.0689118 -0.159983 -0.0381853 -0.215564 -0.252031 -0.115782 0.195659 -0.0217026 -0.192403 0.013077 0.0297436 0.187184 -0.138502 0.34043 -0.0372682 0.139364 -0.166284 0.147226 -0.0804441 -0.302145 0.191823 -0.14744 0.33014 0.0662487 0.0312541 0.0475251 -0.326298 -0.142813 0.0708436 0.020498 0.0437039 -0.0417288 -0.113431 -0.0765177 -0.117726 0.00427203 -0.158534 -0.236676 0.183581 -0.0522867 0.143241 0.132085 -0.0945751 0.0212981 -0.0315604 -0.219357 0.0265936 -0.484254 -0.21121 0.307975 0.209402 -0.0372792 0.0594854 -0.35562 0.141301 0.190083 0.27712 -0.370792 -0.0473383 0.0532579 0.183823 0.0579544 -0.399027 0.127056 0.235612 0.0892862 0.0114199 -0.0406558 -0.110194 0.300421 0.132707 -0.293751 -0.208446 -0.0448236 0.169457 0.185718 0.149309 0.0735332 0.0205375 -0.182161 0.148743 -0.0576971 -0.287952 -0.122112 -0.0794513 -0.190436 0.0224408 0.0451806 -0.149021 -0.36255 0.0474107 0.0980303 -0.118059 0.187649 0.559562 -0.00968939 0.0221414 0.185282 0.0818933 -0.0491734 0.0207939 0.111756 0.131314 -0.258605 0.280714 -0.219671 
VI7 -0.14439 0.0654091 0.163835 -0.382875 0.150619 0.233455 0.259323 -0.351396 -0.573291 0.112234 -0.364034 0.26764 -0.641342 -0.118595 -0.125178 0.189873 0.275016 0.55233 0.204401 0.159606 -0.349233 0.213363 0.0465163 0.531095 -0.107888 0.397248 0.274489 0.608839 -0.256575 -0.774353 -0.099454 0.274959 -0.00860558 0.180847 0.0435214 -0.222098 -0.0226041 0.0109754 0.114936 0.156276 -0.0751151 0.337979 0.365712 -0.337386 0.0813323 -0.113597 -0.0119065 0.295515 -0.31933 0.062564 0.196311 -0.181273 0.0409262 -0.286152 0.136845 0.125734 0.375352 -0.0475359 0.0546893 0.23461 -0.176112 -0.130205 0.0453851 -0.0260679 0.553103 0.167109 0.191667 -0.0509849 0.189427 0.248267 0.0637788 0.38972 0.204535 -0.242551 0.0225344 0.0621963 0.190742 0.238959 0.0206294 0.0758212 -0.454125 -0.27838 -0.0620094 -0.236668 -0.067813 0.369575 -0.136584 0.340489 0.20064 -0.0390324 -0.391491 0.427575 -0.0427351 0.063982 -0.122405 -0.325473 0.012103 -0.067965 0.0424591 0.334209 0.278292 -0.473588 -0.299395 -0.197686 -0.161673 0.128967 0.0390044 0.0442556 0.0307952 0.174446 0.0150393 0.219068 0.121961 -0.318306 -0.0874627 0.373511 0.368313 -0.408762 0.0295029 -0.0244046 -0.00895674 0.152151 -0.0601894 0.145869 0.0170838 0.337577 -0.166061 -0.149836 -0.0507564 -0.174145 0.19349 -0.0863583 0.0333562 -0.160972 -0.0113214 -0.237915 -0.203401 -0.27583 -0.0327003 0.125314 -0.330337 -0.0667905 0.0148132 -0.0168322 -0.152707 0.162735 0.0406308 -0.250762 0.282398 -0.0696268 -0.103606 -0.526311 0.17404 -0.199478 0.22555 0.209478 0.0846747 0.394055 -0.146544 0.044383 -0.0842152 -0.120736 -0.288112 0.352885 0.0629793 0.247932 0.268566 -0.250278 0.315572 -0.190809 -0.0885527 -0.176099 0.289112 -0.220761 0.341875 -0.115778 -0.218776 -0.117457 -0.466141 -0.060927 0.0607375 -0.0962839 -0.117218 0.143897 0.484949 -0.47483 0.0203205 0.0903096 0.318718 0.0967877 0.20765 0.265581 -0.112746 -0.0471144 -0.452181 -0.282359 -0.0803732 -0.118194 -0.00853792 -0.248094 
VI 0.0422737 -0.155384 -0.0667982 -0.0719499 -0.266218 0.147605 0.092418 -0.104211 0.0840813 -0.0279807 0.0143241 0.174845 -0.410991 0.0629243 -0.569257 0.2953 0.175641 0.00149054 0.104254 0.161649 0.116127 -0.270511 0.0153099 0.0339987 -0.0309927 0.176516 -0.152232 0.00697088 0.127356 0.0850814 0.08858 0.162645 0.173826 -0.102785 0.559578 0.13964 -0.00808524 -0.044792 -0.038764 0.0301602 -0.187507 -0.041258 -0.0177703 -0.14781 -0.00275333 0.0828147 0.323031 0.127612 -0.0498778 0.264776 0.204164 -0.090818 0.0138148 -0.149637 -0.113431 0.028707 0.09959 -0.158826 -0.146249 -0.00576598 -0.23753 0.240947 -0.29375 0.113764 0.190268 -0.0385381 0.0681112 0.239512 0.0730518 -0.00225658 0.340353 0.168474 0.157212 0.112204 -0.188493 0.16356 -0.0935559 0.0357651 0.233494 -0.0865336 0.117432 -0.0476978 0.00970024 -0.521444 0.185237 -0.00853182 0.134742 0.376924 -0.170641 -0.0124451 -0.101561 0.430014 0.0186452 0.00802073 -0.33621 -0.0659821 -0.0792132 -0.342501 -0.181323 0.23924 0.387141 -0.0740233 0.0189468 0.0268211 0.14879 0.0803302 -0.140948 0.0352634 -0.17694 0.199706 0.0287162 0.225582 -0.00862735 0.0116568 -0.1315 0.0275299 0.196361 -0.185126 0.0295319 -0.0755517 -0.316889 0.121955 0.0593261 -0.124928 0.204257 0.241341 0.0411316 -0.160289 -0.144746 0.0382058 -0.0440935 0.306166 0.194901 0.0743227 -0.118048 -0.0193128 -0.0521119 -0.192743 0.0297606 -0.243749 -0.215572 0.0300935 0.218425 -0.217726 -0.121645 0.292063 -0.220541 -0.0635712 -0.22977 -0.110534 -0.0445755 0.00802716 -0.0612921 0.153076 0.213144 -0.242788 -0.131614 0.0321777 -0.158251 -0.0464233 0.0868228 0.182258 -0.186475 0.340425 -0.0846387 0.224407 0.0929713 0.142933 -0.0896939 0.10827 -0.0296137 0.0812204 -0.221587 0.0420906 0.438578 -0.0313393 0.0334274 -0.0295807 0.105301 -0.0626208 0.0260409 0.0708759 -0.192874 0.00491071 -0.191331 -0.129718 0.214085 -0.307955 0.0984422 0.153763 -0.297459 0.0725236 -0.1791 0.0722557 -0.421371 0.116388 -0.0594275 0.162799 0.302899 0.033435 
IV7 -0.0599294 -0.000196943 -0.110692 -0.0685532 0.315088 0.443891 0.438329 -0.17957 -0.174567 0.232212 -0.137489 -0.180473 -0.373301 0.256747 -0.316835 0.0462227 0.211102 0.172704 -0.00776368 0.166061 -0.198008 0.301709 0.741731 -0.430405 -0.0458523 0.335516 -0.240409 -0.0765704 -0.378108 0.030403 -0.0269209 -0.137228 -0.415503 -0.178527 0.400688 -0.142497 0.103461 -0.0481355 0.183892 -0.107764 -0.122278 -0.00686716 0.286153 0.319415 -0.184101 0.0526513 0.131729 -0.252147 -0.332121 0.455306 0.192198 0.0927542 -0.356746 0.107595 0.120317 0.209685 -0.843064 0.029534 0.0798142 0.0394167 0.0608462 -0.129523 0.306254 -0.0858863 0.362897 -0.22727 -0.0550964 -0.254996 0.155516 0.101478 0.135444 0.0903926 0.113597 0.312333 0.0352245 0.144186 -0.216467 0.337865 -0.058377 0.165308 0.0413064 0.345827 -0.150076 0.172189 -0.0010981 0.0244936 -0.117292 0.0946332 0.216618 0.120984 -0.0574717 0.532999 0.250729 -0.357289 0.0525913 -0.0843663 0.22025 0.0155692 0.185704 0.0453933 0.240854 -0.0727871 -0.70753 0.224541 0.000633635 -0.301046 -0.260467 0.0463073 -0.245103 0.0362023 0.0825127 0.54911 -0.401699 -0.297271 -0.319323 -0.194921 0.27246 -0.359528 0.0289267 -0.246871 -0.180082 -0.189919 0.289071 -0.00518248 -0.127445 0.121025 0.112477 -0.0149402 -0.190358 -0.00293227 0.208808 -0.150753 -0.335722 0.179861 -0.109888 0.0254377 -0.285366 -0.228468 0.129229 -0.118105 0.0874698 -0.32295 -0.203278 -0.00366528 -0.033794 -0.388747 0.107297 -0.117852 0.0154109 0.0106106 -0.0533082 -0.106286 -0.0672781 -0.109551 0.132356 0.598915 -0.0719359 0.240794 -0.00876061 -0.0498967 -0.156289 -0.109221 -0.139228 0.0593748 -0.0165298 0.361944 -0.0940173 -0.371902 -0.00465702 -0.0844977 -0.0227001 0.287239 0.0949165 -0.284834 0.262533 -0.277588 -0.0834989 0.0281025 -0.173192 -0.011394 -0.0230222 -0.252088 0.456337 -0.506429 0.443168 0.0181833 -0.156232 -0.0901585 0.450098 -0.0615709 0.179784 0.110392 0.208361 -0.276642 -0.311073 -0.0154702 -0.0233554 0.130118 0.473399 -0.130301 
I7 0.121779 0.0600433 -0.043341 -0.0870352 0.0495574 0.238749 0.219207 -0.0127384 -0.334076 -0.157934 -0.0689895 -0.217962 -0.3388 0.018641 -0.310203 0.089879 -0.0887169 -0.00435477 0.0981125 0.286736 -0.218198 0.00362248 0.472766 -0.406207 0.0491612 0.11934 -0.118466 0.169705 -0.157153 -0.168439 -0.0442626 0.0608359 -0.303724 -0.173378 0.0878777 -0.0643898 0.00308847 -0.0886806 0.0371942 0.013271 0.315372 0.19239 -0.1996 0.117163 -0.135585 0.221091 0.409474 0.410275 -0.313947 0.238422 0.179484 0.0945608 -0.197357 0.313728 0.106868 0.266813 0.135114 -0.286906 0.0831405 -0.389886 0.0994387 -0.0967537 -0.469993 -0.180614 0.462675 -0.318048 -0.416176 0.0796711 0.183701 0.252304 0.418295 0.202732 -0.384941 -0.274024 -0.037755 0.203188 0.192113 0.188777 0.146623 -0.192663 -0.324597 -0.159602 -0.22383 -0.450433 -0.023246 0.0187333 -0.170221 0.242746 -0.128625 0.344719 -0.439399 0.319191 0.0859021 0.176296 0.0298673 -0.390587 0.0192065 -0.265562 -0.508313 0.00631253 0.0570481 -0.10806 -0.381394 0.00100962 -0.155179 0.235943 -0.182584 0.209487 0.314084 -0.116813 0.304882 0.130389 -0.459165 -0.474601 0.0227408 -0.253813 0.059635 -0.330673 -0.00747437 0.380077 -0.0159274 -0.0400058 0.123826 -0.125292 -0.177525 0.000794627 -0.449256 -0.0337455 -0.0821185 0.293729 0.453585 -0.17832 -0.34704 0.00554256 -0.0631339 -0.332195 -0.322423 -0.27172 -0.296705 0.176458 0.0293019 -0.0508389 -0.0654169 0.230621 0.06456 -0.0865167 0.0215923 -0.263622 0.0111944 0.0630819 -0.0597017 -0.185276 0.12223 -0.386346 0.0951118 0.131773 -0.352002 0.0370371 0.240679 -0.0857438 -0.200809 0.0427303 -0.0836675 0.271437 0.0372475 -0.00205978 0.089431 -0.126339 -0.0103719 0.403536 -0.0758232 0.159082 0.0791046 -0.0207778 0.179543 -0.0266494 -0.111254 0.338491 0.0981437 0.22892 0.187279 0.0409868 0.098785 0.0265351 0.192943 0.469478 -0.0792427 -0.0337267 0.164221 -0.0176615 -0.0159496 0.494621 0.132739 0.110895 0.0751351 -0.0331414 -0.0335077 0.249181 0.212581 -0.102993 
VII 0.0428661 -0.0568623 -0.220696 0.00173483 -0.229792 0.436764 -0.0252098 0.0229326 0.358007 -0.0329891 0.141835 0.357386 -0.537221 0.0397973 -0.176167 0.255973 0.195191 -0.19392 0.20965 0.527779 -0.192215 0.0379995 0.00148403 0.162013 0.0958262 0.312826 -0.281977 0.257896 0.285608 0.0438057 0.102946 0.607126 0.0363788 -0.106189 0.642688 0.155585 -0.153209 -0.307094 0.143975 -0.061719 -0.290067 0.149126 0.106343 0.175564 0.0504527 -0.0856929 0.282408 0.0431077 -0.47467 -0.0336273 0.15098 -0.20742 0.0520797 -0.242428 0.0208793 0.224015 0.0778332 0.126332 -0.172867 -0.248359 -0.382308 0.240794 -0.247701 -0.126975 0.0158794 -0.183683 -0.0267723 0.190992 -0.197757 0.341319 -0.141872 -0.117636 0.0853067 0.0734662 0.171586 -0.180268 0.224055 -0.34317 -0.0151761 0.403082 0.0461253 -0.223625 -0.0261457 0.0115694 0.30164 -0.073425 0.00522636 0.271775 -0.151531 -0.0186553 -0.147789 -0.0342831 0.0637735 -0.350896 0.025015 -0.0148122 -0.0339769 -0.205167 -0.0973576 0.406636 0.245816 0.350612 0.0742213 0.0301155 -0.0205425 -0.145725 0.536745 -0.405566 -0.389213 -0.181935 0.341759 0.581536 -0.136825 0.0666852 -0.0758253 -0.157768 -0.234549 -0.373581 -0.384785 -0.115678 -0.567966 0.057537 -0.525282 -0.195879 0.0209552 0.589799 0.0717381 -0.165478 -0.236868 0.13278 -0.0875371 -0.220207 0.347058 0.252378 0.339659 -0.489858 -0.256562 -0.189953 0.108098 0.202009 0.0970595 -0.0363792 0.17073 0.296623 0.166777 0.00204331 -0.358483 -0.042673 0.0876398 -0.3079 -0.00390528 -0.439584 0.00494387 0.233753 0.244785 -0.169916 -0.102494 -0.175118 0.216688 0.0546033 0.0469979 -0.545189 0.0688042 0.323605 0.223557 0.0316332 -0.396197 -0.390462 -0.110024 -0.000810209 0.382979 0.0654973 0.158255 -0.105424 -0.186198 0.0875944 0.368448 0.116909 -0.0075137 -0.218823 -0.407937 -0.0600653 -0.0505795 -0.281517 -0.176598 -0.116057 -0.0737299 0.066931 0.0396316 0.185845 -0.0582069 0.10949 -0.506127 0.289734 0.113909 0.0669886 -0.136559 0.257222 0.387586 -0.126174 
w87 -0.286688 -0.0674133 0.172975 -0.0822406 -0.156375 0.518076 0.218124 -0.177467 0.0781723 -0.0895546 0.0956936 -0.0877661 -0.548091 -0.2922 -0.28228 0.270349 0.108492 0.257883 0.133985 0.0520152 -0.00763119 0.265655 -0.0335747 -0.0626324 -0.108704 -0.0686233 -0.123255 0.289952 0.0377132 0.0217152 -0.115105 -0.270661 -0.367715 -0.0157129 0.652547 -0.0118701 -0.0790692 -0.316878 0.0590848 -0.320337 -0.0907709 0.0640704 0.323169 -0.413573 -0.266861 -0.0570939 0.0573815 -0.382091 -0.122259 0.378484 0.128053 -0.0908419 -0.0737898 -0.128444 -0.0016219 0.135481 0.220174 0.195737 -0.117952 -0.100917 -0.194101 0.18085 -0.241397 0.276942 0.0746313 -0.302541 -0.0539912 -0.178807 -0.331805 0.112067 0.0665593 0.00978241 -0.243892 -0.0559783 0.031178 0.335539 0.382239 0.189901 0.10978 0.328153 0.0308741 -0.245168 -0.0963924 -0.283377 0.0996342 -0.0545735 -0.10182 0.525206 0.161674 0.266027 -0.271153 0.136539 0.2182 -0.214654 -0.255171 -0.0280844 -0.19829 -0.15352 -0.183099 0.00550134 0.331766 -0.0566555 -0.229608 0.00710773 -0.245941 0.0762313 0.0305486 0.343097 -0.189768 0.0631919 0.0994593 0.0547254 -0.2613 -0.0268184 -0.239822 -0.0866838 0.294212 0.108044 -0.0747818 -0.0893798 -0.598184 -0.241505 -0.220376 -0.130018 -0.0139493 0.276076 -0.337835 0.0526013 0.405238 0.160615 0.061034 -0.182064 -0.115205 0.0904804 -0.251409 -0.422798 -0.0669149 -0.170057 0.0983781 -0.0140767 -0.259509 -0.309933 0.218801 0.390494 -0.010525 0.408774 -0.125533 -0.285278 -0.000644757 0.0901932 0.0242896 -0.260871 0.220507 0.0427034 0.131462 -0.0700556 -0.0343651 0.190788 -0.08968 0.231203 -0.0917016 -0.0199143 -0.126983 0.0139081 0.100227 -0.00511662 -0.0840864 0.110693 0.0805617 0.17905 0.205133 -0.00471813 0.156474 0.0364971 -0.229932 0.285936 -0.0845063 -0.180162 -0.0237154 0.0346637 -0.0231891 -0.00290215 0.161243 -0.0928466 0.279976 -0.0340545 -0.23499 0.0687436 0.0576132 0.41392 -0.165097 0.215722 -0.139945 0.232187 -0.104665 -0.0309688 -0.0593376 0.0385208 0.217632 -0.0267601 
w1m 0.0622445 -0.212721 -0.518569 -0.287319 -0.289088 0.0728156 0.372762 0.130287 0.181664 0.153899 -0.197616 0.0116323 -0.272805 0.0528576 -0.378352 -0.0348593 -0.0418604 0.0598958 0.397671 0.168783 -0.161365 0.345832 0.298054 -0.334164 -0.0495172 0.439508 0.318137 -0.258875 0.0629546 0.0506282 -0.682133 0.539581 0.0541774 -0.235932 0.625965 -0.129974 0.154788 -0.0854875 0.0611968 -0.175521 -0.171293 -0.0107051 0.185212 0.00692054 0.0203556 -0.190172 0.366674 -0.246505 0.358241 0.258723 0.109733 0.196521 -0.112315 -0.315776 -0.142308 -0.016753 0.182985 -0.00966588 -0.465386 0.507353 -0.398255 0.321728 -0.0809932 0.0838324 0.0242196 -0.556333 0.198594 0.250025 -0.159904 0.124118 0.175809 -0.172087 -0.0120714 0.074166 0.146553 0.421805 0.291781 -0.366585 -0.252052 0.442417 0.381422 0.0622418 -0.334947 -0.128559 -0.0949384 -0.180944 -0.183037 0.483626 0.0490382 0.42068 -0.14793 -0.207597 -0.107266 -0.183212 0.122497 0.35213 -0.241508 -0.19152 -0.45377 0.226386 -0.319899 -0.389577 0.0454949 0.716106 -0.185416 -0.29487 -0.0881476 -0.185623 -0.022298 0.234212 0.283333 0.177063 -0.0698334 -0.0182452 -0.488492 0.103725 0.201445 0.33885 -0.18051 0.0669669 -0.740703 -0.115029 -0.19481 0.0516195 -0.0593384 0.238656 0.19178 -0.0576839 -0.0475998 -0.02763 -0.196224 -0.195323 0.122706 -0.103626 -0.310059 -0.197139 -0.149749 0.140962 -0.333994 -0.00519208 0.237261 -0.136604 0.235985 0.303612 0.309391 0.349416 -0.284724 -0.165177 -0.259273 0.100589 -0.253982 -0.217339 -0.112934 0.262458 0.181609 -0.112109 -0.502395 -0.0892273 0.0952248 -0.289385 0.209549 0.00540835 0.262584 0.400922 0.234667 0.296506 -0.264389 -0.120335 -0.172955 -0.116931 -0.00139735 -0.163764 -0.488542 -0.307333 -0.0989203 0.108662 -0.0449954 -0.177956 0.103338 -0.032893 0.0949977 -0.498131 -0.608392 -0.328888 -0.406806 -0.0411419 -0.0898856 0.0863984 -0.0706935 0.239661 -0.360718 0.100206 -0.0227508 -0.162356 0.0554986 0.0583719 -0.000501926 -0.379466 0.335061 0.12818 
VII7 -0.104141 -0.0736069 -0.336453 -0.473327 0.0923414 0.19007 -0.197423 -0.602455 -0.219038 -0.169295 -0.278583 -0.0521943 -0.805115 -0.31684 -0.353671 0.0416917 0.133238 0.414301 -0.0836781 -0.110764 -0.355529 0.670622 0.135471 0.170747 -0.219562 0.577328 0.329931 -0.0346771 -0.386583 -0.333122 -0.248428 0.0737171 -0.268073 -0.302642 0.0751103 -0.403101 -0.00368492 0.128022 -0.188555 -0.475387 -0.242632 0.196901 -0.0110469 0.0716252 -0.459003 -0.073528 0.319458 0.366861 0.0548627 0.194288 0.274783 0.178898 -0.127057 -0.487494 0.512479 0.361798 0.190896 -0.0348912 0.172335 -0.0222648 -0.224077 -0.0807945 0.0795427 0.244724 0.0544886 -0.641858 -0.107271 -0.0505276 0.322944 0.0753588 0.28093 0.0246436 0.00518071 -0.357954 0.0671938 -0.104885 -0.120004 0.173094 -0.266001 0.394303 0.364798 -0.205694 -0.113046 -0.238426 0.171565 0.0477737 -0.0326884 0.400329 0.0526628 -0.0551069 0.270939 0.425708 0.198229 -0.254145 -0.10652 0.271467 -0.0134553 -0.212191 0.234502 0.303422 0.55092 -0.334788 -0.0362361 0.095993 0.363983 -0.0723525 0.362779 0.00144986 -0.526377 -0.0124767 0.139273 0.471338 0.404769 0.255162 -0.406197 0.452891 -0.312669 -0.0600474 0.128566 0.130957 -0.1098 -0.3047 0.240218 -0.00987651 0.293183 0.356502 0.0333393 0.0155355 0.270026 0.0795361 -0.290512 0.00880806 -0.000930299 0.10246 0.0300117 -0.104434 0.305948 -0.170134 -0.161439 -0.191739 -0.137888 0.0644517 0.0454933 -0.267523 -0.0128735 0.105292 -0.283152 0.0240676 0.179648 -0.210805 0.351221 -0.36693 -0.476391 -0.442993 0.274501 0.0565826 -0.0884265 -0.0184362 0.00352142 -0.0838972 0.0743871 -0.374906 -0.0916849 0.232779 -0.121395 0.226859 -0.400182 -0.056785 -0.021094 -0.0103394 -0.0980117 -0.1599 0.254138 0.172897 0.182647 -0.063595 -0.26478 -0.231814 -0.141556 0.0188808 -0.179879 0.148502 -0.104107 0.121259 -0.203346 0.0829253 -0.266216 -0.250306 0.262006 0.0752591 0.21398 0.429704 -0.108052 0.20556 0.175497 0.101887 -0.0546143 0.153107 -0.0845307 -0.210413 
i 0.0306025 0.354492 0.209214 -0.109632 -0.0707742 0.501496 0.48636 -0.169645 -0.0460145 0.502226 0.114232 -0.104538 -0.344503 -0.208089 -0.340203 0.0875114 0.228492 -0.275128 -0.028434 0.476673 -0.261716 0.422388 0.270102 -0.377393 0.34317 -0.0764086 -0.120198 -0.18077 0.156388 -0.141296 -0.415587 0.0504823 -0.532884 0.288427 0.494996 0.118764 0.341728 -0.0761602 -0.639033 -0.0554776 -0.363506 0.127235 0.177475 0.0193776 -0.0871219 -0.13049 -0.144567 0.0667247 0.0641921 -0.168719 0.17518 -0.119246 -0.218809 -0.14983 0.189756 -0.112971 -0.176107 0.362544 -0.168791 0.425671 -0.0312712 -0.103056 0.113396 -0.0195043 0.370338 -0.121698 -0.215501 0.165101 0.0700372 -0.1444 0.401483 -0.0719662 -0.0650429 0.0754196 -0.261094 -0.00144823 -0.11081 0.292375 0.0547633 0.28851 -0.157916 0.0161461 -0.0109785 -0.200731 -0.387159 -0.536043 -0.54409 0.573986 0.24661 0.0068998 -0.101777 0.172689 0.391384 0.239095 -0.104713 -0.103781 0.0843337 -0.195914 0.181062 -0.0378579 0.153403 -0.256988 -0.294622 -0.292599 -0.107686 0.192755 0.216436 0.045013 0.0859927 0.160109 -0.00648118 -0.12109 -0.307951 0.0836262 -0.0182885 -0.217068 0.0518647 -0.0164998 0.034686 -0.327518 -0.720853 -0.215406 0.607851 0.0481283 -0.515066 -0.127206 -0.604501 -0.207078 -0.162188 0.132587 1.05113 -0.291018 -0.359527 -0.060947 -0.155129 -0.136573 -0.436348 -0.201119 0.185652 0.245495 -0.567626 -0.0717582 0.0445751 0.403704 0.234662 -0.0879845 0.0147608 -0.0538907 0.0531334 -0.0419497 -0.161525 0.010532 0.141601 -0.291206 0.14065 0.158682 -0.174526 -0.0951483 -0.0510133 -0.0360037 -0.0435123 -0.216446 -0.267467 0.40081 0.0676823 -0.0559996 0.0394003 -0.430888 -0.0937471 0.396609 0.154224 -0.215126 -0.252242 -0.168709 0.0298415 -0.0797679 -0.112519 0.0181378 0.0964862 0.183256 -0.133043 -0.0173619 0.213841 -0.459094 -0.11409 -0.124152 -0.230989 -0.143645 0.430371 0.141925 -0.162593 -0.0154603 -0.0485781 -0.117126 -0.291853 -0.17908 0.00456015 0.390317 -0.0907661 -0.0127518 
iii -0.023809 -0.091323 -0.00959064 -0.102097 -0.184184 0.319967 -0.0446603 -0.0415879 0.157643 0.0653961 -0.0700612 0.220852 -0.305105 -0.127674 -0.087854 -0.0278986 -0.0876119 0.0692978 0.0154781 0.394078 -0.0809167 0.120155 0.109369 -0.0608017 -0.127371 0.0656005 0.144595 -0.0743543 -0.00202726 -0.134926 -0.191516 -0.127006 0.00730305 -0.190894 0.346402 0.058591 -0.0631783 0.0412191 0.304294 -0.263759 -0.202794 0.202959 -0.0250756 -0.0564567 -0.125722 -0.151362 -0.0221464 -0.0365673 -0.108879 0.168569 -0.00911082 -0.270234 0.00669739 -0.0556103 0.0936335 0.213255 0.0675235 0.0927292 -0.0509662 0.163349 0.0544288 -0.0568467 -0.149865 -0.0469302 0.067716 -0.0645186 0.161236 0.0810166 -0.0152524 0.10067 0.195177 -0.0698774 0.0342924 -0.208055 -0.0410505 0.0806437 0.0871784 0.0374855 0.173369 0.20157 0.0160714 0.0201178 -0.147535 -0.248451 -0.0254736 -0.252027 -0.061855 0.270688 0.0272867 0.161991 0.00318421 0.174102 -0.0218455 -0.00737722 -0.270427 0.0572964 0.09704 -0.00176527 -0.28601 0.305631 0.203696 -0.095104 0.106934 0.141459 0.00908175 0.0590933 0.169071 -0.0851581 -0.189465 0.0389375 -0.108437 0.123243 -0.0290937 -0.109769 0.00324645 -0.00291537 0.040256 -0.329338 0.0583822 -0.134885 -0.142947 -0.0234496 -0.0698619 -0.180555 0.00511386 0.26688 0.0740515 -0.129002 -0.0277133 0.023602 0.0202779 -0.0245493 0.10471 -0.23598 0.0263948 0.033758 -0.211348 0.0381524 0.0418654 0.0644572 -0.0703471 -0.158302 0.181786 0.0251884 -0.0839202 0.0451281 -0.0530781 -0.0151718 -0.0344476 0.0224683 0.178383 0.0404529 0.0220277 -0.209695 0.0574845 -0.126486 0.0803249 0.165469 0.0589993 -0.106353 -0.00471403 0.145056 0.0334578 0.0741392 -0.0430373 0.145527 0.0973056 -0.0807955 -0.192358 0.187983 -0.000592226 0.043175 -0.168869 -0.152022 0.154926 0.23012 0.137275 0.106402 -0.0124827 -0.0655732 -0.133565 -0.0643151 0.0354208 -0.0135498 -0.0827095 0.081552 0.0211347 -0.0911857 0.217214 0.0353614 0.0587801 0.138993 -0.0510085 -0.0787344 -0.142922 0.106616 -0.228939 0.0268889 0.00646813 -0.10617 
iv -0.050485 0.160468 0.262114 -0.485216 0.325183 0.105985 0.179391 0.0237551 0.0847667 0.150081 0.233044 -0.29763 -0.326982 -0.182738 -0.0911829 0.198926 0.147801 0.34313 0.257065 0.0924343 -0.232915 -0.0760837 0.424358 0.143539 -0.334402 0.239413 0.00079162 0.356877 0.0718098 0.0377774 -0.598463 0.0518392 -0.273431 -0.105036 0.207074 0.0057874 -0.00589501 -0.143938 -0.0152352 -0.270418 0.125925 0.215508 0.162273 -0.0141774 -0.0711922 0.0646354 -0.182526 -0.266586 -0.231886 0.000311923 0.278794 0.208545 -0.24549 0.122172 0.183187 0.187772 0.402546 -0.230268 -0.127607 0.0937967 0.113636 0.17478 0.268767 -0.175353 0.185295 -0.0374075 -0.254278 -0.0218398 0.0630651 -0.0571119 0.20811 -0.0307645 -0.240549 -0.154792 0.118042 0.244627 0.297478 0.115579 -0.377047 -0.180433 -0.0115884 0.0297251 -0.44584 -0.113082 0.00355079 -0.0802369 -0.234098 0.0819419 0.0479717 -0.0738006 -0.15658 -0.0535362 -0.00852803 -0.23648 -0.0721046 -0.197869 0.136855 0.0278026 -0.240606 0.252034 0.168751 -0.0066024 -0.281775 0.0390695 -0.0632223 0.359665 -0.193056 0.0592889 -0.178111 -0.0319165 0.0150649 0.133431 -0.15734 -0.0891869 0.0756225 -0.041006 0.184437 -0.0968554 0.0438626 -0.313414 -0.00772148 -0.163579 0.0539612 0.191798 0.161557 0.218442 -0.284761 -0.413071 0.114615 -0.000244717 0.181554 -0.0378599 -0.356356 0.185114 -0.296649 0.0244677 -0.0583486 0.0788445 -0.190377 -0.0145801 -0.160041 -0.0134333 -0.162497 0.34857 -0.0544745 0.32494 0.00663357 -0.101814 -0.180156 -0.0321544 0.323409 -0.0919756 0.160747 -0.143232 0.0938699 0.0627558 0.0418229 0.19803 0.202939 -0.204843 0.277566 -0.107217 -0.175754 0.0249916 0.0832376 0.111194 -0.251825 -0.114648 0.0199906 0.197867 0.0923206 -0.126491 -0.169112 -0.156807 0.0755725 0.0712285 -0.170531 -0.0282695 0.151196 0.059763 -0.0669685 -0.378588 0.133212 -0.326491 -0.00223264 -0.118137 0.0456295 -0.224057 0.104087 -0.345419 -0.136424 -0.0283209 -0.191474 -0.0155619 -0.0987345 -0.0811853 -0.167754 -0.155774 0.41079 0.330175 
w10 0.0669643 -0.0234999 0.137483 -0.246092 -0.184892 0.347497 0.0608268 -0.138707 0.116045 0.130505 -0.00462114 0.0342984 -0.322467 0.283475 -0.0204884 -0.121174 0.327738 0.185995 0.0985007 0.194906 -0.139173 0.199046 0.246475 -0.302447 0.134887 -0.0335564 -0.0455165 0.199509 0.12242 -0.118485 -0.104005 -0.0806531 -0.432906 -0.0563434 0.315573 0.00541229 0.142461 -0.334814 0.24197 -0.0709928 -0.138059 0.0757714 0.0265896 0.0207516 -0.0773244 0.103052 0.0671474 0.0246507 0.016767 0.131139 -0.0485915 0.0566943 -0.32643 0.089548 0.176066 -0.0872938 0.0167024 -0.0144297 -0.118223 0.311094 -0.15925 -0.089178 0.0908179 0.00511382 0.335465 -0.119476 0.0326451 0.339971 0.117694 -0.157896 0.0666123 0.020973 -0.13412 -0.303723 -0.17432 0.153594 0.284379 -0.041409 -0.124401 -0.080076 -0.189785 0.131368 0.0496882 -0.22457 -0.110606 -0.0825114 -0.0830576 0.33535 0.2458 0.0340034 -0.190113 0.149353 -0.16054 -0.195098 -0.167708 -0.316789 -0.12273 -0.274353 -0.214367 -0.0288151 0.450686 0.0499303 -0.147211 0.0383912 0.103496 0.0801109 0.0436944 0.189896 -0.0894512 -0.0957384 -0.0469605 0.0555532 0.0866755 -0.0372801 0.0614465 -0.14375 0.13849 -0.138932 -0.1611 -0.131281 -0.189893 0.324043 0.355419 0.00276431 0.00995477 0.0780537 -0.0355676 -0.162641 -0.330865 0.0261024 -0.0423274 -0.0344757 -0.242465 0.264701 -0.108884 0.258506 -0.031723 -0.157128 0.115723 -0.192325 -0.272134 -0.0500644 -0.216561 0.132579 -0.0165739 0.0946213 -0.181672 -0.139171 0.135218 -0.0828057 0.235232 0.127622 -0.195789 -0.205018 0.34244 -0.16436 -0.0344749 -0.0660704 0.147892 -0.13896 0.0722762 0.0213948 -0.00575165 0.0921899 0.259676 0.013576 0.126802 0.187981 0.00812829 0.0579276 -0.126247 0.172461 0.00285674 -0.0879109 -0.101638 -0.14176 0.153378 0.0518495 0.26919 0.187476 -0.0157153 -0.140263 0.135256 -0.303247 0.019298 -0.133759 -0.0607512 -0.0157797 0.05162 -0.0229517 -0.0871122 -0.0604029 -0.0904636 0.212194 -0.198459 -0.0280187 0.0403445 0.171174 0.231737 0.0581303 
vi 0.0490369 -0.15807 0.0278209 -0.0469772 -0.112258 0.0669792 -0.0621782 -0.00398611 0.162051 0.101866 -0.12145 0.0839423 -0.299669 0.0768383 -0.153367 -0.0516018 0.0250756 0.134784 -0.0101597 0.167507 -0.241736 -0.0707455 0.0807793 0.0807267 -0.129812 0.226589 0.180922 0.016078 0.0649922 -0.0728819 -0.203243 0.0929742 -0.0276506 -0.157317 0.17092 -0.010239 -0.0568565 -0.180055 0.170249 -0.165382 -0.0255766 0.0807102 0.0334343 0.0849839 0.0592369 -0.0630053 0.150493 0.0267418 -0.119002 0.103077 -0.00405485 -0.150079 -0.221569 -0.00323606 0.11096 0.0446234 0.212742 -0.13145 0.116697 0.185965 0.140887 -0.0680524 -0.0213538 0.0856499 0.0865559 0.0352726 0.0829269 0.0984571 0.0179914 0.00481036 0.192528 -0.0495567 -0.050646 0.00120436 -0.206959 0.0431119 0.0712372 0.0573925 0.241777 -0.0181349 0.131997 0.0215352 -0.099789 -0.104026 0.0116077 -0.0240788 -0.0716116 0.342278 -0.0124616 0.15499 0.0258372 0.0567878 -0.18576 0.138236 -0.101839 -0.285389 0.0920425 -0.18598 -0.166937 -0.0258431 0.235714 0.0777911 0.00534481 0.0810643 0.0439419 0.100821 0.00882437 0.0537949 -0.134509 0.033917 0.0283321 0.203695 -0.146077 -0.119019 0.0404153 -0.0459611 -0.107814 -0.172746 -0.121706 0.0174471 -0.0132629 -0.0200307 0.108357 -0.00188893 0.018879 0.190394 -0.0263255 -0.13494 -0.0918536 -0.0728471 0.0499148 0.0870887 0.0183679 -0.0525076 -0.098939 -0.0114716 -0.094011 -0.099533 -0.0934187 -0.0573603 -0.0868636 -0.0706718 0.0168439 0.0562318 -0.0719996 0.0123766 -0.0671844 -0.0506805 0.0725579 -0.000531937 0.0935068 -0.126925 0.0458079 -0.0430735 0.112387 -0.0801403 0.0273886 0.12531 0.135683 -0.0932076 -0.0573392 0.178484 -0.0879369 0.103167 0.0390922 -0.00931231 -0.0534792 -0.0990076 -0.0358276 0.280639 0.0440142 0.00203955 -0.275579 -0.0459312 0.0860262 0.128439 -0.0383128 -0.0494703 0.130808 0.0510517 -0.220397 -0.0583112 0.232553 0.0867652 -0.253294 -0.0280597 0.0588679 -0.216021 0.122349 0.167697 0.00446096 0.160526 0.144417 0.107652 -0.179137 0.0443586 0.0679999 -0.0704815 0.131633 0.0156392 
