40 200
w8 0.188624 0.243413 -0.0640461 0.0439424 -0.0674691 0.249953 -0.115993 -0.423236 0.125458 0.320298 0.296559 -0.0331842 -0.529018 0.0582971 -0.118719 -0.0672542 0.222028 -0.681004 0.113798 0.479517 0.376767 0.132402 0.287697 -0.518453 0.269983 0.200683 0.393194 -0.295415 -0.294171 -0.0938704 0.178834 0.280599 0.55978 -0.25685 0.307884 0.0169355 0.180741 -0.20523 0.102375 -0.370673 0.294956 -0.659196 -0.260649 0.0129256 -0.179579 -0.177795 -0.194787 0.13172 -0.278112 -0.0543774 0.0670265 0.103996 0.665574 0.00075678 0.110421 -0.0512605 0.0759427 -0.125699 -0.27237 0.0943003 -0.247318 0.0107365 0.343177 0.213712 -0.413534 -0.0660694 -0.00436807 -0.123791 0.0655727 0.0253592 0.119675 -0.320186 0.0200894 0.0479207 -0.25956 0.157749 -0.319376 -0.169447 -0.222301 0.138949 0.140657 -0.0406447 -0.0549888 -0.0342255 0.314939 -0.120588 -0.237091 0.0630104 0.151556 -0.0531322 0.172414 0.0244841 -0.762413 0.0143185 0.162595 -0.318309 0.0240802 -0.144686 -0.476896 -0.0925996 -0.698899 0.154767 -0.180761 -0.32764 0.0495898 -0.416542 0.364347 0.119075 0.208645 0.191126 0.167722 -0.162935 0.0938606 -0.00986284 0.0657885 -0.291993 -0.00907482 0.369809 -0.0260437 0.41932 -0.137517 -0.057751 0.165517 0.0881555 0.347227 0.397963 0.286832 0.139809 0.30293 0.0138884 -0.240563 0.111729 0.191504 -0.375555 0.0841868 -0.161379 0.171287 -0.287774 -0.173761 0.376902 -0.45808 -0.0503436 0.193671 -0.241833 0.324814 0.421117 -0.131973 0.249229 0.237335 0.431154 0.374826 -0.609539 0.137128 0.112491 0.0173325 -0.395011 0.195999 -0.214278 0.0717465 0.0974517 0.0341625 -0.269261 0.254498 -0.293737 0.221312 0.795428 -0.176327 0.0756196 0.260973 -0.57729 -0.19821 -0.0506385 -0.0584724 0.260098 -0.347285 0.186016 0.0597858 -0.354998 0.360688 0.0102563 0.265238 0.283636 -0.0583323 0.173449 0.312274 -0.0628214 -0.548902 0.35224 -0.52389 -0.151885 -0.313244 -0.174863 -0.533868 0.188689 -0.0590948 0.250341 0.0485248 -0.313579 0.0934871 -0.226432 
w6dim 0.146133 -0.031367 0.00484295 0.0282108 0.0636576 0.131528 0.115195 -0.132113 -0.000751857 0.0894206 0.000861638 0.0615899 -0.250723 -0.152438 0.00938305 0.0180834 0.0928089 -0.238271 -0.0476855 0.159416 0.0514426 0.0852824 0.0816368 -0.110418 -0.0567353 0.0451699 0.340661 -0.0285283 -0.061844 -0.0668456 0.00994529 -0.000632491 0.1598 -0.00987099 -0.0268184 0.120052 -0.0453135 0.182927 0.270831 -0.00141725 -0.0113184 -0.0547128 0.00505655 -0.00125781 -0.0571816 0.157525 0.0454833 -0.101196 -0.0288242 -0.109058 0.202107 -0.132207 0.0284957 0.0564163 0.0457119 0.12782 -0.0697361 -0.0626508 -0.135238 0.0189153 0.116581 0.118945 -0.261798 0.12146 0.0177552 0.185749 -0.182359 -0.00893596 0.173884 0.131054 0.181458 -0.0836393 -0.057712 0.0445124 -0.0111729 -0.165601 -0.101836 0.0065719 -0.037116 0.135585 -0.0298728 -0.044702 0.179979 -0.0819955 0.0628379 0.0736994 -0.0450756 -0.128035 -0.0732433 0.0388709 -0.226216 0.146785 0.0107444 -0.0213054 0.144318 -0.0666951 0.204907 -0.172929 -0.088662 0.128376 0.0158673 -0.198448 -0.0600231 -0.160396 0.12711 -0.0679229 -0.1306 -0.0023928 0.0567088 -0.197974 -0.311997 -0.0107195 0.122746 -0.268098 0.0973774 0.0264577 0.137435 0.104391 0.0298172 0.0351273 -0.0309922 -0.0860072 -0.114314 -0.192548 -0.0451423 0.0916114 -0.0328711 0.223661 0.184854 -0.0103639 -0.0710317 -0.166946 0.0431743 -0.131262 -0.057128 0.0181725 0.133344 -0.0909075 0.00674407 0.0167131 -0.136543 0.0987732 -0.0634879 0.0883553 0.0244635 0.182604 0.0517869 0.0553423 -0.0211473 0.065366 0.00457435 -0.0117599 -0.0776507 -0.0952734 -0.168974 -0.0760908 0.0255078 0.070148 0.0992842 0.13981 0.0488241 -0.193772 -0.0368305 -0.24983 0.0894677 0.25032 -0.0450555 -0.0173001 0.0351059 -0.119395 0.033496 0.162585 0.00120571 -0.0521879 -0.000673699 -0.0102089 0.0921224 -0.182979 -0.146105 -0.0750672 -0.0194611 -0.0845183 -0.024028 -0.0503833 0.0587985 0.0904644 -0.0595218 0.0103659 -0.0646354 0.00598145 -0.0731931 -0.112062 -0.0815208 0.178228 0.0573778 0.180796 -0.0136182 -0.00707171 0.0113342 -0.135962 
w6m 0.000845652 -0.0500586 0.197782 -0.25215 0.259338 0.211463 -0.177966 -0.145091 -0.301486 -0.00152772 0.169568 -0.181265 -0.0235557 -0.140934 0.168653 -0.548108 0.233302 -0.0597513 0.0123173 -0.193185 0.335769 -0.0814026 -0.185378 -0.0613475 -0.15061 -0.158307 0.855356 -0.207099 -0.580765 -0.427202 0.220323 0.301869 -0.0283112 0.123076 0.264632 -0.142671 0.212803 -0.0582157 0.100776 -0.183312 -0.026571 0.0388691 -0.191898 0.238405 -0.522392 0.409408 -0.0321833 0.191479 -0.199369 -0.246907 0.367766 -0.312224 -0.0593046 -0.125025 0.423466 0.173288 -0.125086 -0.0817986 0.458911 0.110413 -0.197687 0.119234 -0.146071 0.407781 -0.305157 0.157739 -0.184064 -0.0605367 0.549755 -0.270527 -0.178159 -0.340037 0.206503 -0.715506 0.0624005 -0.364607 -0.0723662 0.172789 0.0705695 0.175749 -0.00973976 -0.11809 0.682742 -0.232724 0.0852348 0.0650284 0.27884 0.146352 0.134928 0.275058 0.0158469 -0.523959 0.168455 -0.127643 -0.314042 0.296291 0.583478 0.074005 0.163626 0.0896685 0.0861395 0.244472 -0.238997 -0.487419 0.604553 -0.441682 0.410733 -0.46048 0.168736 -0.250756 -0.079044 0.304671 -0.28841 -0.283381 -0.372466 0.229731 -0.183471 0.195423 -0.242201 0.035496 0.246088 -0.397098 0.0580776 -0.0887425 0.13668 0.117801 -0.0813961 0.149007 0.40555 0.545519 -0.0656384 0.105223 0.0601005 -0.120258 0.3388 -0.482954 -0.422102 -0.100303 -0.302089 0.266905 -0.440544 -0.155601 0.128922 0.0878646 -0.110321 0.285738 -0.301634 -0.113082 0.0507051 0.0222749 0.251939 -0.0439347 0.0225307 -0.0464379 0.419348 -0.383501 -0.181194 -0.269958 -0.376743 -0.127169 0.221871 -0.00878269 -0.197747 -0.275725 0.522281 0.126691 -0.307042 0.623467 0.0666112 -0.364448 0.118428 0.0406449 0.338375 -0.0584067 -0.0166365 -0.157417 -0.050826 -0.592107 0.181633 0.173758 0.103463 -0.152805 -0.505183 -0.174052 -0.471248 0.130843 -0.290988 0.345254 -0.128399 -0.0526792 0.261386 -0.274104 0.158222 0.19269 0.215939 0.169053 -0.209642 0.0285077 0.0720346 0.0956874 
w67 0.361992 0.192962 -0.046318 0.512575 -0.197351 0.0468706 0.0666654 -0.150864 0.10902 -0.179726 0.0368477 -0.0738435 -0.157074 -0.382227 0.150086 -0.31883 -0.130018 -0.131761 -0.0201337 0.18168 0.564052 -0.266034 0.294399 0.0485259 0.21326 -0.177746 0.675321 -0.120106 -0.300959 -0.430251 0.493803 0.476783 0.494094 0.252769 0.411881 -0.347285 -0.0525877 0.0789 0.00823913 0.140698 -0.0245626 -0.0272661 0.0849703 -0.0839988 -0.260804 -0.0795539 -0.0138232 -0.343886 -0.0263331 0.195639 0.37846 0.238439 -0.0544065 -0.115375 0.394044 0.434908 0.206279 -0.0700687 -0.186747 -0.0667263 -0.104344 0.266243 -0.00138771 0.382929 0.0386673 0.319073 -0.507903 -0.0708482 0.586452 0.177212 -0.0259884 0.106965 -0.41675 -0.414299 0.16255 -0.31429 -0.453172 0.152696 0.1182 0.0533444 -0.0427135 0.0176049 0.193669 -0.0722931 -0.245509 0.0990876 0.0702769 0.283575 0.0810505 -0.0122507 0.103659 -0.109987 0.268735 0.0185442 0.148847 -0.177203 0.509231 -0.115467 -0.0674116 0.14191 -0.157442 -0.044534 -0.0439387 -0.277856 0.195924 -0.100839 0.292822 -0.0793679 0.079112 -0.347027 -0.0672819 0.220411 0.0997931 -0.257066 -0.133963 -0.0130716 -0.0559796 0.110743 -0.266018 -0.277039 0.323348 -0.298144 -0.0528827 0.0594091 -0.0702358 -0.0669288 -0.023535 0.489328 0.448703 -0.205204 -0.136157 -0.377547 0.0916763 -0.136564 -0.278473 -0.268047 -0.0561834 -0.207422 -0.0661743 0.203957 -0.12198 0.135111 0.0681019 0.236593 -0.0616998 0.225967 -0.217393 0.0825288 -0.312035 0.252745 0.224708 -0.305829 0.194919 -0.0315864 0.112891 -0.10847 -0.11309 0.367878 -0.254978 -0.0990285 0.0905551 -0.267859 0.15077 -0.279458 -0.0365909 0.153949 -0.167444 0.380355 -0.170398 -0.0966025 -0.0167639 0.190296 -0.191815 -0.18519 -0.347118 0.128148 -0.0898973 -0.425632 0.100887 -0.0309317 0.198957 -0.0616237 -0.339179 0.129806 0.0353795 0.0545178 -0.0954306 0.298862 -0.312363 -0.0536186 -0.110653 -0.341234 0.256881 0.0552346 0.192675 0.0190056 -0.197794 -0.201088 -0.0680757 0.0614493 
w6 0.0519553 0.338138 -0.206915 -0.143123 0.209466 0.622303 -0.0669039 -0.0151731 0.140593 0.171653 0.0975224 0.0494281 -0.0622855 -0.150896 0.131331 0.0481114 0.453234 -0.466149 -0.248427 -0.0197661 0.179468 -0.245727 -0.116594 0.0514839 0.453394 -0.042874 0.367079 -0.363933 -0.327986 0.16339 0.018213 0.00644789 0.783071 0.257555 0.527772 -0.305209 -0.0118482 -0.180903 0.350706 -0.0669192 0.112643 0.014575 -0.102533 -0.103101 -0.132807 0.395854 -0.0475449 -0.181397 -0.637223 -0.299339 0.397069 -0.231893 -0.000466828 -0.479913 0.353355 0.192975 -0.0800889 -0.407089 0.121812 0.180347 0.261547 -0.238195 0.00637092 0.420833 0.224205 -0.070567 -0.0242035 -0.273636 -0.0408031 0.336181 0.00103935 -0.0743035 -0.121079 0.326592 -0.560966 -0.314029 -0.0632153 0.170984 -0.0233396 -0.306433 0.0903917 -0.250824 0.0112089 -0.189727 -0.0426437 -0.405123 -0.266976 0.0245112 -0.0184331 -0.438179 -0.119059 -0.346804 -0.250133 -0.0464089 0.544967 -0.457622 0.511093 -0.384229 -0.278558 0.618228 0.035366 0.350622 0.406369 -0.437477 -0.193645 0.238053 0.479777 -0.246586 0.477209 -0.164983 -0.0486654 -0.558108 0.434551 -0.377462 0.132946 -0.00509917 -0.0474453 0.0413244 -0.209256 -0.112071 0.562304 -0.30076 0.161671 -0.0486199 0.309049 0.136467 -0.0305911 0.110589 -0.00495126 -0.0971065 0.356212 -0.522677 -0.00134089 -0.408624 0.169567 0.105654 -0.170901 -0.147717 -0.0990078 0.397018 -0.546941 -0.380074 -0.0136051 0.0519735 0.0119967 0.308332 -0.299566 -0.0623852 0.0781554 -0.264865 0.54696 -0.555932 0.0051332 0.241831 0.207872 -0.365501 0.240846 0.426677 -0.0176418 0.698387 0.237595 0.180796 0.65772 -0.554448 0.326403 0.782745 -0.586174 0.207579 0.528212 -0.690206 0.179781 0.26318 0.349521 0.125725 -0.474092 0.254939 -0.146947 -0.451645 0.545115 -0.102032 0.174189 -0.153672 -0.635048 -0.297812 0.0497232 -0.0471292 0.234445 0.346768 -0.554222 -0.132466 -0.0469634 -0.200236 -0.17779 0.269909 -0.0610287 -1.94041e-05 -0.279136 -0.0807077 -0.429852 -0.279165 
w37 0.146292 0.117412 -0.0510954 0.00837894 -0.219338 0.227466 -0.131575 0.0864921 -0.106596 -0.0524537 -0.175342 -0.114685 -0.057541 -0.0935639 0.0574519 -0.281839 0.304637 -0.0929309 -0.12831 0.175293 0.158769 0.0514636 0.150803 -0.225856 0.0252726 0.2507 0.339709 -0.123895 -0.184525 0.0322582 0.0887773 -0.186911 0.316681 0.129119 0.414845 -0.0753698 0.0920348 -0.00304907 0.0726024 0.003487 0.0488776 0.0261574 -0.169921 -0.134826 -0.257773 -0.304766 -0.245731 0.169622 -0.239649 -0.398648 0.0989126 -0.406183 -0.0988071 -0.200654 0.164486 0.337849 -0.00698908 -0.0215852 -0.0611163 0.0313103 0.0608233 -0.0882952 -0.196456 0.0601045 0.0289682 0.270055 -0.015711 0.255069 0.102236 0.233081 -0.0902059 -0.237241 -0.0110642 -0.0640131 -0.16483 -0.228917 -0.212477 -0.116098 0.0701816 0.26956 -0.197279 0.134439 0.149688 -0.122178 -0.0424158 0.300108 0.00289258 -0.226888 0.0699311 0.194991 0.189207 -0.023746 -0.0504336 0.116858 0.175517 0.134025 0.283248 -0.25854 -0.346228 -0.189928 -0.235713 -0.129194 -0.0829814 -0.14963 0.356558 -0.301949 0.232643 -0.0457857 0.0607635 -0.25732 -0.234541 -0.17654 -0.0911486 -0.0539915 0.149991 -0.407329 0.0293051 -0.0218048 -0.220365 0.0512666 -0.144723 -0.314119 0.106544 -0.227142 -0.0980458 0.0155785 -0.0854177 0.25665 -0.00373194 0.234258 0.0447429 -0.0564926 0.139635 -0.119586 -0.00227742 -0.141009 -0.186549 -0.0476319 -0.183845 0.124049 -0.368252 -0.0296266 -0.0071415 0.247035 -0.0954852 0.120764 -0.203515 -0.0445091 0.105692 0.100256 -0.00891674 -0.179631 0.0283817 -0.137045 0.269561 0.0539585 0.0446864 -0.0346592 0.0418778 0.406202 -0.248261 -0.160872 0.334133 -0.308728 0.379157 0.40652 -0.0948719 0.100177 0.10307 -0.120334 0.0178095 0.0398868 0.030222 -0.364824 -0.12048 0.0245716 0.372182 0.0105469 0.0675776 0.0434983 0.259518 0.183858 -0.200136 -0.114156 0.327603 0.434076 -0.514745 0.0852334 0.018299 -0.0269499 0.118134 -0.0840875 0.105803 0.304232 -0.0121372 0.428413 0.161752 -0.493276 -0.293717 0.0165749 
w3 0.161925 -0.111571 0.152871 0.0692847 0.0253385 0.0485697 0.133338 -0.0279874 0.064032 -0.08911 -0.181068 0.0619723 -0.0653554 0.245861 0.131169 -0.0469397 0.16859 -0.483242 -0.52626 0.339576 0.444321 0.186775 0.341195 -0.299754 0.24679 0.255193 0.488256 -0.30157 -0.142864 0.126039 0.512228 -0.154108 0.439684 0.11689 0.35621 0.245659 0.721618 -0.0357851 0.118844 0.167636 0.275798 -0.146865 0.0998635 0.121576 -0.484307 0.176768 -0.237654 0.115993 -0.34288 -0.174883 0.0617268 0.444142 -0.158033 0.400182 0.0979816 -0.110059 0.168111 -0.0974134 0.143833 0.130235 -0.167926 -0.0211581 -0.0435462 0.553669 -0.178277 0.0591703 0.293594 -0.271867 0.0303568 0.306112 0.218951 -0.0256865 0.376491 0.136867 0.113282 0.213071 -0.419539 0.171847 0.0753748 -0.256318 0.275524 0.0934807 0.216638 -0.378994 0.309248 0.375596 -0.0494147 -0.446272 0.384683 -0.178039 -0.391746 0.439623 0.0740485 0.431427 0.451681 0.00430161 0.266721 -0.341704 -0.570896 0.134375 -0.228108 0.0655713 0.0973114 -0.107401 0.150791 0.0979316 0.167718 -0.0517356 -0.424129 0.235367 -0.0927388 0.0658373 -0.000597897 -0.0030576 0.0869377 -0.241873 0.00356513 0.140556 -0.165523 0.399886 0.0194436 -0.0752563 -0.0791303 -0.283657 -0.0147463 -0.12827 -0.0808754 0.018389 0.0058163 -0.0740625 0.236329 -0.358372 -0.0291598 0.0486332 0.487564 -0.0020793 -0.227605 0.0498415 -0.29315 0.301682 -0.161722 -0.0495685 -0.191763 -0.298953 -0.225849 0.264896 0.305615 0.252747 -0.239789 0.745213 0.179067 0.00580416 0.25041 0.317255 0.0233154 0.062724 0.49303 -0.246164 0.278756 -0.0777871 0.267827 -0.394844 0.541198 -0.396523 -0.110052 0.600057 -0.148415 -0.095645 0.661378 -0.213506 -0.14277 0.0125621 -0.000371042 -0.406965 0.0700092 0.169761 0.198541 0.152929 0.185906 -0.358242 -0.19119 0.34552 0.271964 -0.145217 0.170193 0.188664 -0.515536 0.606426 0.0901828 -0.362205 -0.305361 0.402486 -0.021566 0.0212686 -0.123258 0.543161 0.396829 -0.670006 -0.19634 -0.544707 
w10m 0.30698 0.0596195 -0.097932 0.134665 -0.488404 0.578871 -0.228693 0.021808 0.155579 -0.586103 0.195235 0.176874 -0.0845699 0.0130326 -0.0282799 -0.0954446 -0.162622 -0.257565 0.104347 0.091179 0.375605 -0.0111448 0.691621 -0.134448 0.608786 0.685278 1.01792 -0.203705 -0.575399 -0.0457812 0.6795 0.376011 0.69615 0.341512 0.402128 -0.214778 -0.0331871 0.0737323 0.222365 -0.0405337 -0.231997 -0.213178 0.0433677 -0.0513207 -0.196444 -0.0909145 -0.140121 0.233938 -0.215026 0.0368684 0.192431 0.296919 -0.426941 -0.251844 0.535404 -0.0809384 -0.205816 -0.459623 0.132492 0.354216 -0.221322 0.0995981 -0.285439 0.535577 -0.251583 -0.0982762 -0.724265 -0.210992 0.0920279 0.312279 -0.0515091 -0.437096 -0.091623 0.309692 -0.445211 -0.495674 -0.309335 0.114608 0.109269 0.00393177 0.460851 -0.0836275 0.253958 -0.488964 0.519756 -0.0169163 -0.270508 0.211333 0.0970219 -0.148382 0.256036 -0.0865365 -0.11537 -0.0735933 0.650619 0.0365904 0.680076 0.122495 -0.237355 -0.201009 -0.267951 -0.461755 0.453799 0.0572478 0.307622 -0.186033 0.201578 -0.179444 0.288387 -0.374548 -0.203908 -0.128088 -0.183432 -0.0545494 0.0799823 -0.353883 -0.113323 -0.160013 -0.224635 0.133884 0.339195 -0.820503 0.123768 -0.128706 0.133931 -0.134328 -0.33129 0.0566014 0.0388271 -0.593995 -0.00122956 -0.401815 0.119042 -0.421041 -0.0639816 0.171777 0.00504021 -0.085211 0.128844 0.65511 0.163977 -0.204722 -0.0459575 -0.0357174 0.176035 0.28316 -0.0671333 -0.137974 0.150677 0.306541 0.31744 -0.145423 0.15426 0.176646 0.0188309 -0.377496 -0.00460386 -0.101255 0.415814 0.0964956 -0.255194 -0.1044 0.153487 -0.536241 -0.316006 0.0452944 -0.0453496 -0.100888 -0.026446 0.307298 0.307026 -0.11496 0.290067 -0.305195 -0.32106 -0.0948608 -0.0625677 0.123189 0.07519 -0.295127 0.210155 -0.303156 -0.287343 -0.313791 0.309788 0.471861 -0.568334 0.115011 -0.597522 -0.144526 0.271653 0.246986 -0.621892 0.224226 0.155169 0.324353 0.0281779 -0.264494 0.095198 -0.302108 
w107 0.566456 0.203836 0.3533 0.157219 -0.129631 0.231518 0.252305 -0.633564 0.226341 -0.032537 0.0519562 -0.237074 -0.551369 -0.341088 -0.147433 -0.128605 0.397096 -0.0657926 0.320692 -0.211291 -0.00334103 -0.0318979 0.355926 -0.262191 0.117156 -0.285759 0.388733 -0.0851585 0.147511 -0.0476203 0.137433 0.0959893 0.399488 0.14528 0.149873 0.0330765 0.78252 -0.103735 0.0989173 -0.119866 0.16129 -0.0856432 0.256846 -0.0532122 -0.189763 0.130956 0.108867 0.422765 -0.12571 -0.433465 0.114802 0.0906043 0.0259596 0.464189 -0.136157 0.117597 0.216498 -0.233661 -0.210092 -0.199535 -0.292287 0.0484613 -0.323613 0.642371 -0.133876 -0.107501 -0.34775 0.134682 0.133254 0.276372 0.332446 -0.477191 0.535033 -0.106874 -0.467303 -0.0940548 -0.279959 0.132485 0.0188794 0.00809963 -0.0945814 0.00775504 -0.0125289 0.0351224 -0.0671157 0.397636 0.325242 -0.0182483 0.0324341 -0.0674074 -0.217167 0.00384756 -0.105625 0.0498817 0.195187 -0.0298268 0.671933 -0.289464 -0.564466 0.0829761 0.220329 -0.159072 0.182507 -0.049346 0.247205 0.0802524 0.29996 -0.0362985 0.349414 0.167534 -0.114279 -0.29007 -0.000917258 0.0451217 -0.00867981 -0.125572 -0.167156 0.222158 -0.257268 0.0803604 0.0343497 -0.359391 0.397774 -0.12056 -0.189049 -0.265214 0.325398 0.256155 0.482479 0.182145 -0.103835 -0.0933774 0.0834032 -0.448277 0.01581 0.304135 0.0385457 -0.13625 0.299463 0.047258 -0.182466 -0.0348775 -0.0587601 -0.218058 0.497512 0.435135 -0.0165967 -0.187251 -0.425934 0.491722 0.441389 -0.449449 0.340859 -0.24435 0.158841 -0.293183 0.0493372 0.332013 0.0223829 -0.3205 -0.270314 -0.0475113 0.353649 -0.238795 0.139364 -0.260199 -0.10281 -0.0731737 -0.0763998 -0.253204 0.135704 -0.0195719 -0.0262158 0.146942 -0.0607877 0.0898585 0.402393 0.105712 0.150544 0.229048 0.214617 -0.248511 0.0256453 0.232903 0.036198 0.287927 -0.295772 0.200376 -0.377545 0.30518 -0.39648 0.47396 -0.37262 -0.347117 -0.277284 0.292973 0.398484 -0.170648 0.177726 -0.526844 
w1 0.307397 -0.410789 0.00893395 -0.0334695 -0.0961238 0.496609 0.0516491 -0.150396 -0.261967 0.158507 0.113264 -0.180998 0.0997085 -0.123177 0.143288 -0.0331919 0.59238 -0.251599 0.151729 -0.345612 0.181716 -0.244533 0.482291 -0.0702653 0.195422 -0.0095319 0.404621 -0.101446 -0.307522 0.142202 0.137296 0.505484 0.484072 0.29665 0.162198 0.164023 0.382178 -0.0756515 0.438938 -0.148344 0.350402 -0.407092 0.10301 -0.112313 0.121642 0.085168 0.0526963 0.349534 -0.129052 -0.308283 0.556644 0.254205 0.447107 -0.252227 0.394296 -0.0508798 0.248735 -0.145434 0.11853 -0.0648731 0.115055 0.0231994 0.0370202 0.134299 -0.110182 -0.046357 -0.37185 -0.227198 -0.0700048 0.0247157 0.175444 -0.0633908 0.0587546 0.399821 -0.011752 -0.138812 -0.461215 -0.060502 -0.00431961 0.186801 -0.342859 0.353391 0.334751 -0.520756 -0.116821 0.338229 -0.296211 0.438913 0.286309 -0.211141 -0.322832 -0.107184 -0.221458 0.196209 -0.0392482 0.0323515 0.39928 -0.467303 -0.0825759 0.25588 -0.314809 -0.0877114 0.33142 -0.527877 0.178295 -0.128306 0.545488 -0.110736 0.269641 -0.119308 0.0258878 -0.11923 0.146425 -0.317999 -0.0323788 -0.356304 -0.081302 0.207111 -0.134415 -0.146566 0.167453 -0.69376 0.263619 0.204783 0.18401 0.251044 0.469294 0.381895 0.0605223 0.164729 -0.0709764 -0.618793 -0.0891466 -0.17259 0.358336 -0.200628 0.0750755 -0.174837 -0.214761 0.47984 -0.556882 -0.447365 -0.0400251 0.0913444 -0.024022 0.444779 0.12926 0.253959 0.0605196 0.352835 0.679817 -0.370993 0.193933 0.129765 0.0364005 -0.461856 0.194668 -0.00323844 0.114886 0.126261 0.144935 -0.417051 0.118415 -0.0695848 0.494935 0.314383 -0.360555 0.0634727 0.210931 -0.2135 -0.206232 0.0220177 0.0255624 -0.197233 -0.376873 0.0249928 -0.0886017 -0.384675 0.295712 -0.138097 0.190307 0.0956308 -0.325055 0.231646 -0.0518283 0.550068 -0.0965063 0.660911 -0.461346 -0.226047 -0.214608 0.152905 -0.681631 0.268762 -0.33443 0.244809 -0.174488 -0.404469 0.0103931 0.136592 
V7 0.202143 -0.393951 -0.0354333 -0.282391 0.0799749 0.250666 -0.0838525 0.275896 -0.0893226 -0.0509493 -0.102419 -0.0644973 -0.315824 -0.322597 -0.057843 -0.00157201 0.2111 -0.141119 0.0261135 -0.142479 0.317757 0.25225 0.309123 -0.0145875 -0.261194 -0.0862431 0.175607 -0.476432 -0.013561 0.000673366 0.356434 -0.275046 0.14039 0.254086 0.133541 -0.346809 -0.122653 -0.309053 0.494013 -0.145472 0.139799 -0.161682 -0.189168 -0.551524 -0.411772 0.343574 0.219887 -0.396986 -0.17917 -0.20603 0.0405484 0.0427803 -0.281686 -0.186639 0.0145591 0.305826 -0.357516 0.458165 -0.0925642 -0.0282189 -0.0314065 0.103351 0.154526 0.312826 0.121719 -0.0959334 0.0924941 0.17199 -0.056301 0.0213826 -0.126754 -0.220178 0.112915 0.194727 -0.130908 -0.200888 -0.0439214 -0.379077 -0.167601 0.12748 -0.302368 0.17999 0.16968 -0.452576 -0.045025 0.0104317 -0.169368 -0.357192 0.0230666 0.0571161 -0.096406 0.317673 0.0563217 0.108857 -0.0672931 0.0812461 0.444466 -0.364392 -0.0778075 -0.321971 -0.0724085 -0.254673 0.246836 0.0799385 0.259629 -0.414843 -0.266596 -0.165558 -0.303954 0.0929025 -0.224652 -0.429746 -0.105285 -0.364035 0.025048 0.376842 -0.019478 0.294631 -0.31117 -0.106818 -0.42 -0.248868 0.0789417 -0.129295 -0.276561 -0.443991 0.13911 0.218459 -0.0354703 -0.0777861 -0.37935 -0.0429906 -0.229202 -0.167943 0.231684 0.385684 -0.0484313 0.0637344 0.0324154 0.018391 -0.313414 -0.0342336 -0.191665 -0.187674 -0.291051 -0.109967 0.285551 0.136953 0.103955 0.494151 -0.0273293 0.418396 -0.210686 -0.28265 -0.124838 -0.0935812 0.0588532 0.188798 0.29738 -0.132899 -0.0666977 -0.162032 0.207053 0.203058 0.0761741 0.18238 0.00179384 -0.0328119 -0.0537876 -0.392532 -0.289627 0.100093 0.0493273 0.0538805 0.330986 0.088154 -0.412831 -0.433183 -0.359371 -0.304702 0.338175 -0.0927817 -0.116452 0.33305 0.373421 -0.199329 0.0490586 0.0850926 -0.373201 -0.336909 0.289069 0.408696 0.0603676 -0.0309702 -0.286108 0.403172 -0.00610637 -0.23515 0.3336 0.219548 
w1dim 0.247704 0.123591 -0.00229739 -0.0602504 0.0830507 0.0715251 0.143037 -0.141622 -0.119344 0.0728443 0.0441021 -0.0876862 -0.206459 -0.151155 0.00942924 -0.139319 0.0229364 -0.208249 0.0554364 0.147284 0.1643 0.0531543 0.215732 0.0596051 -0.0610038 0.0106636 0.300666 -0.0631909 0.0454427 0.0594605 0.0021476 -0.0399764 0.126542 0.020358 0.161356 -0.0408885 0.0866764 0.11433 0.104596 0.0795482 -0.0483745 0.0298456 -0.0156162 -0.0759724 -0.0915855 0.169144 0.095699 -0.0449786 -0.0978165 -0.0708409 0.188706 -0.107615 -0.0448614 -0.142867 0.0650085 0.23864 -0.000454839 0.0489566 -0.0971093 -0.0654508 0.0325684 0.180899 -0.132235 0.0221084 0.0799593 0.0390645 -0.175612 -0.0797103 0.0741412 -0.0729074 0.00537459 -0.159656 -0.0311102 -0.0557092 -0.0464502 -0.0973953 -0.0554233 -0.0285896 0.0663286 0.0280569 -0.1218 0.0339425 0.132948 -0.0899743 0.0983518 0.194042 -0.0838056 -0.140286 0.00986002 0.118137 -0.0381381 0.049687 -0.0072774 -0.0238428 0.224934 0.0953375 0.294647 -0.178865 -0.0452138 -0.0505689 0.206081 -0.190117 -0.0664922 -0.263623 0.242658 -0.084124 -0.0380459 0.0134511 -0.08596 -0.155165 -0.187114 -0.132928 0.12996 -0.162308 -0.0626375 0.0445376 -0.0802944 0.0841005 0.0152025 -0.0364884 -0.0386513 -0.139118 -0.0569378 -0.110385 0.0193925 -0.0175451 -0.0939131 0.231627 0.0764429 -0.166151 -0.0198511 -0.198656 0.0478949 -0.209395 -0.135649 -0.0208153 0.0449873 -0.204749 -0.0886727 -0.0346829 -0.156897 0.0230482 -0.0836034 0.0682843 0.0748387 0.254647 0.0219298 0.0118259 0.0681814 0.0657826 -0.0661781 0.0683972 -0.0951003 -0.165357 0.0854137 -0.00887374 -0.0758791 -0.0138979 -0.116264 0.145089 -0.0110004 -0.0334547 0.00342975 -0.0609377 0.0776069 0.144614 -0.0109817 0.00747383 0.00181748 -0.122033 0.00983953 0.053585 0.0736526 -0.134722 0.0652703 -0.0683423 0.0760716 -0.261476 -0.186052 -0.115806 -0.00593726 0.0594852 -0.184256 0.0303585 0.00488523 0.131066 -0.134329 -0.056697 -0.135913 -0.0547325 0.038107 -0.0624175 0.0336109 0.0704032 0.0121001 0.139984 -0.0228315 -0.206094 -0.023738 0.0451871 
v -0.313027 -0.273666 0.242808 0.0367225 -0.00320677 0.209461 0.0121082 -0.564979 0.179662 0.0256253 -0.00650156 0.123145 -0.414822 0.0788558 0.0454759 -0.0501247 0.050246 -0.0375467 -0.336899 -0.159837 0.0804107 0.0547281 0.174305 -0.273877 0.448643 0.366856 0.530802 -0.301591 0.0504298 -0.0742128 0.142991 -0.562773 -0.000554521 0.676236 0.300587 0.0351728 0.108179 -0.272709 -0.362588 0.0491666 -0.250273 -0.128419 -0.0864522 -0.00195434 -0.194767 0.428318 -0.230623 0.332089 -0.690048 0.0680475 0.0847204 -0.125028 -0.573942 0.242221 0.00983081 0.392457 0.00595805 0.106726 -0.346985 0.365561 0.0885317 0.513771 -0.122432 0.0926142 -0.340156 0.253812 -0.145655 -0.171707 -0.195892 -0.198163 -0.277381 -0.122977 0.0702757 -0.410907 -0.161163 -0.350561 0.0860109 0.154967 0.357192 0.238027 0.0984975 -0.11051 0.309204 -0.147123 -0.0441761 0.501532 -0.161089 -0.0845465 -0.141603 0.288711 -0.479097 0.260709 0.212337 0.381151 0.0348891 0.16821 0.0486043 -0.447093 0.0121778 -0.251008 -0.0684068 -0.350154 0.193809 -0.0331369 -0.0473315 0.00104442 -0.212184 -0.115384 -0.0846263 -0.283536 -0.0110624 -0.246862 -0.171036 0.0253105 0.0359292 -0.198108 0.223855 0.411287 -0.1167 -0.448276 -0.0240354 0.02628 0.515376 0.123601 0.160296 -0.134675 -0.16413 0.463839 0.383668 -0.212677 -0.348455 -0.111054 0.000528044 -0.0807488 0.210529 0.35748 -0.106875 -0.487411 -0.320971 0.198053 0.00234523 -0.277952 -0.0319001 -0.0475348 -0.416637 0.527458 0.27848 0.307614 -0.163854 -0.36974 0.0866526 0.133808 0.0823365 -0.476217 -0.129738 -0.101616 -0.140082 -0.00575031 2.76222e-05 -0.279208 0.281324 0.0543314 0.473253 -0.110694 -0.131025 -0.178716 -0.118442 0.0205425 -0.175796 -0.071259 0.511886 -0.395854 0.00942685 -0.117261 0.0556507 -0.217365 -0.0608545 -0.345916 0.10221 -0.141023 -0.0767457 -0.256004 -0.16929 0.0311198 0.448124 0.394955 -0.183872 0.323388 -0.323833 -0.115847 -0.486793 0.200433 -0.0282402 0.168055 0.0155234 0.0421234 0.333287 0.362247 -0.355551 -0.134376 
V -0.0537524 -0.0878363 0.0157017 -0.0801979 -0.00298746 -0.0145603 0.128785 0.033619 -0.160161 0.00552589 0.01662 -0.00603657 -0.142917 -0.0210085 0.0439168 0.0566864 0.280741 -0.074593 -0.00176679 -0.0325993 0.206151 0.0715495 0.0739842 0.00508602 0.0281995 -0.00649124 0.224648 -0.147292 -0.0902461 -0.130299 0.168057 -0.136703 0.0328842 0.0718851 0.143211 -0.0255027 -0.0253692 -0.0176224 0.118728 -0.111459 0.0247383 -0.197892 -0.0831973 -0.0284353 0.0815056 -0.0161832 -0.058952 -0.191017 -0.234326 0.0883769 0.251711 0.0258178 0.0989728 -0.0891548 0.214895 -0.0613428 -0.0614371 0.0582142 -0.0622056 0.135685 -0.0217319 0.122192 -0.0817738 0.103094 -0.0262998 0.00855253 0.134258 -0.00613213 0.0443642 0.106795 -0.0561118 -0.155936 0.0464384 -0.0829474 -0.279194 -0.151443 -0.179753 0.0396264 -0.0131458 0.126805 -0.156247 -0.0492161 0.242499 0.014113 0.0970913 0.071696 0.0358867 -0.12378 -0.0147147 0.107695 -0.13204 0.193325 0.0505887 0.0575114 0.238113 0.105555 0.193121 -0.183905 -0.0290752 -0.0542347 0.165669 0.0609116 0.120165 -0.0162132 0.103674 -0.269499 -0.0966057 -0.109283 -0.00351228 -0.00896298 -0.370927 0.0188287 -0.0446446 0.0603542 0.198902 -0.00518987 0.118059 0.156087 -0.224433 0.113825 0.0459228 -0.0352528 0.119118 -0.134559 0.093761 -0.184956 -0.0570189 0.157712 0.00936139 -0.0427017 -0.205769 -0.35153 -0.0286768 -0.0855892 -0.0387612 0.204028 0.140934 -0.176221 0.0451485 0.130333 -0.184891 0.0761065 0.124808 0.0846484 -0.0648325 0.0142998 0.0204294 -0.00737084 -0.00254122 -0.0883859 0.0328188 -0.019712 -0.0338287 0.0411108 0.0647605 -0.110365 -0.0213656 -0.0724889 0.0111842 -0.0981938 -0.197081 -0.199695 0.101441 0.0201828 0.147308 0.190179 0.0461993 0.0953228 0.188749 -0.038561 -0.0776424 0.0867415 -0.20735 -0.0421319 -0.0529542 -0.0531103 -0.0324375 -0.0526372 -0.203833 -0.0120801 0.0175565 0.0642362 -0.219652 0.0296553 0.174484 0.0598603 -0.10636 0.144098 -0.267159 -0.159367 -0.182443 0.139968 0.138397 -0.053342 0.401123 0.0244873 0.0810798 -0.150374 0.0376775 0.0360651 
w8m -0.212716 0.315402 -0.119516 -0.0771293 -0.241222 0.267755 -0.244012 0.22139 -0.0299017 0.192493 -0.23643 0.133633 -0.283073 -0.14229 0.184947 -0.09692 0.0981078 0.0621385 0.0659421 0.272935 0.244686 0.045102 0.0853448 -0.334948 0.135665 -0.139363 0.658625 0.37374 -0.393072 -0.379137 -0.207234 -0.042798 0.224259 0.296831 0.665827 0.0111384 -0.017904 0.0662427 0.276595 -0.0752591 0.233446 -0.220606 -0.174247 -0.247002 0.238591 -0.157992 -0.164352 0.148583 -0.318243 0.0454331 0.098445 -0.531949 0.118792 -0.18629 0.403267 0.0921871 0.138784 -0.151789 0.224041 -0.182124 -0.530747 0.182458 -0.385476 0.2641 -0.0313348 0.287525 -0.230875 0.013337 0.196794 -0.156578 -0.0525099 0.00603592 -0.0378073 -0.263121 0.0289238 -0.0232138 0.00264466 0.28383 0.45592 0.506963 0.147118 0.0106483 0.39272 -0.296046 -0.17452 0.0477052 -0.18634 0.374327 0.0556521 0.187502 -0.201338 -0.0436885 0.256275 0.311229 0.6705 -0.244119 0.315458 -0.270011 -0.119111 0.306332 -0.0647154 0.166129 -0.036726 -0.0176515 0.666172 -0.105929 0.0665186 -0.411537 0.263714 -0.28691 -0.0413431 0.269514 -0.324037 0.0388989 0.101661 -0.0135697 0.119739 0.331741 0.118242 0.117401 0.400248 0.167353 -0.173583 0.113427 -0.0383611 -0.188255 -0.232075 0.324937 0.274243 0.40964 -0.11596 -0.189609 0.213451 -0.078507 -0.0301255 0.0868406 -0.305939 -0.3822 -0.434644 0.454496 -0.325522 -0.120709 0.0149945 0.164778 -0.0379301 0.423995 -0.124785 0.0931444 0.19144 -0.127941 0.199963 -0.090455 0.432678 -0.723486 -0.109644 -0.10931 0.160789 -0.227976 0.129913 0.310263 0.117254 -0.0223019 0.236202 -0.42703 0.334663 0.512407 -0.446946 0.0169205 0.429982 -0.209055 -0.0246413 -0.111602 -0.21771 -0.187464 -0.26423 0.0283203 0.0360746 -0.682222 0.25311 0.0922317 0.0451417 -0.137917 -0.126673 0.336722 -0.241963 0.282699 -0.11174 0.176248 -0.106932 0.169704 -0.255675 -0.106656 0.1047 0.208322 0.0886407 0.416682 0.0206274 0.0342757 -0.16229 0.131151 
w3m -0.120402 -0.237043 0.0838305 0.298458 0.0685264 -0.0894356 0.34061 0.101902 0.243359 0.250046 0.141013 -0.219197 -0.1566 -0.334704 0.281806 -0.114953 0.291723 0.127781 -0.390075 -0.220201 0.229915 -0.299225 0.0596383 -0.307396 0.228231 0.188406 0.362389 0.44609 -0.172833 -0.00745536 0.378438 0.260826 0.239784 0.142548 0.25388 0.328294 0.329875 0.145555 0.116729 -0.0452308 0.330053 0.0579064 -0.0832865 -0.0573024 -0.380999 0.208156 -0.185902 -0.321121 0.0218608 -0.542337 0.0496794 0.364717 0.0547141 -0.0195215 0.427706 -0.0908222 0.243655 0.0685115 -0.154826 0.0946359 -0.156546 0.410835 -0.0453485 0.504323 -0.217053 -0.0689425 -0.0238573 -0.0403268 -0.063408 -0.0062069 -0.0185851 -0.247629 -0.121307 -0.286804 -0.180124 -0.329053 -0.363147 0.259186 0.0228583 0.23732 0.151121 -0.0101323 0.0412052 0.0161276 -0.258082 0.355165 -0.048685 -0.00932917 0.0761202 -0.168703 -0.143333 0.0664284 -0.196926 -0.0879111 0.066827 -0.213118 0.582602 -0.165751 -0.294589 -0.0532253 0.0595426 -0.298516 -0.304371 -0.274734 0.442711 -0.362114 -0.0821437 0.0875403 0.29915 -0.483524 -0.260316 -0.344619 0.094926 -0.172299 -0.038015 -0.132887 0.12354 0.00425558 -0.163825 0.0263417 0.108131 -0.412633 0.0593884 -0.151985 -0.222113 -0.176256 0.523806 -0.0249585 0.349079 0.0967261 -0.3316 -0.138129 0.0675978 -0.180449 -0.00132731 -0.13072 -0.27816 -0.0686115 -0.253099 0.836377 0.288087 -0.178692 0.269861 -0.108125 0.130247 0.36565 -0.101962 0.121829 -0.00439335 0.310384 0.463895 -0.259003 0.0124406 0.161447 0.286157 -0.372701 0.261562 0.272944 0.494043 -0.0267297 0.194581 0.152192 0.726599 -0.505982 -0.132153 0.0741109 0.0268485 0.194278 -0.0111367 0.272775 0.118942 0.164337 0.248964 0.0746529 -0.350081 0.0439643 -0.0174045 0.127172 -0.299074 0.304215 0.642904 -0.349043 0.0299006 0.00230924 -0.00664067 0.317019 -0.522801 0.263778 -0.531201 -0.0279039 -0.193198 -0.0126541 -0.489897 0.0135951 -0.0805005 0.0468455 -0.200837 0.0420975 -0.193244 -0.097085 
VIdim 0.1523 -0.0565222 -0.0938014 -0.127896 0.0408805 0.025609 0.142799 -0.0261464 -0.109946 -0.20931 0.0288092 -0.0295623 -0.146515 -0.0349527 0.0418674 -0.135051 -0.0122725 -0.0369818 -0.386346 -0.0100484 0.0507825 0.0309724 0.159918 -0.0630709 -0.137528 -0.272194 0.339024 -0.0181706 -0.208429 -0.0805194 0.223881 0.0273541 0.0133657 -0.0346535 0.276093 0.0794079 0.057003 0.0888741 0.116568 -0.0864818 -0.0172666 0.067577 -0.146179 -0.209508 -0.197791 0.142399 -0.135759 -0.0059361 0.0263865 0.0456589 0.17228 -0.163156 0.016458 0.0104998 0.152318 0.242587 -0.17981 0.182386 -0.135164 0.0354067 0.0205494 0.088206 -0.169666 0.0961161 0.0153039 -0.0485681 -0.0296399 0.0708679 -0.0128285 0.200195 0.0589706 -0.24312 -0.0654763 -0.0442848 -0.123908 -0.125021 -0.17101 0.07217 0.121312 0.0942648 -0.059371 -0.195757 0.207556 -0.107561 0.276882 0.0440439 -0.0858372 -0.0124989 0.0700713 0.0756158 -0.0419385 0.229023 -0.0110926 -0.0564701 -0.0229188 0.136095 0.0627426 -0.168272 0.0741622 -0.0710672 0.174699 -0.120277 0.0714207 0.00319816 0.242772 -0.270475 -0.148237 0.171054 -0.16147 -0.204744 -0.20507 -0.0228447 0.0327665 -0.031027 0.204997 0.184857 -0.0852666 0.222924 -0.193104 0.0978528 -0.138639 -0.0536347 -0.0423676 0.143503 0.00708779 -0.00413069 -0.0453393 0.15966 0.316006 -0.0317514 0.0826006 -0.222085 0.0158638 -0.16408 -0.158144 -0.028751 0.0689581 -0.0236355 0.0652108 0.213364 -0.0678306 0.0309788 0.0767438 0.136569 -0.0347617 0.127525 -0.00132251 -0.116125 0.133714 0.0439275 0.165332 0.0378318 0.027749 -0.00965572 0.107305 -0.123986 -0.0390277 -0.0548406 0.132249 0.0516231 -0.069032 0.0658026 0.121605 -0.11054 0.0248069 -0.0396498 -0.150664 0.0685762 0.106691 -0.130849 0.0845306 -0.0589306 0.0289089 -0.166722 -0.198118 -0.00957738 0.120363 -0.0831066 0.103759 -0.114216 0.166058 -0.155702 -0.157468 0.192979 -0.0826279 -0.071922 -0.0460682 -0.0126093 -0.25376 0.00980552 -0.136761 0.0915841 -0.247062 0.0548092 0.0563024 0.034179 0.202625 -0.172085 -0.00692131 0.0737725 
ii 0.19652 0.126137 0.151909 -0.107503 0.103352 -0.0681492 0.170371 0.0285124 -0.239391 -0.113074 -0.00818063 -0.322187 -0.250952 -0.0640823 0.215235 -0.120067 0.254646 -0.00641886 -0.169436 -0.0539396 0.201658 -0.148458 -0.0118257 0.0871711 0.035703 0.05916 0.115378 -0.17451 -0.153116 -0.246758 0.0160794 -0.125882 -0.0406314 0.0607491 0.169695 -0.218651 -0.0511723 -0.075989 0.0598474 -0.0731699 -0.114274 -0.101614 0.0046349 -0.0143078 0.0657747 0.210782 0.0838841 -0.0230505 -0.0125775 0.130956 0.0939758 0.0485107 -0.0525108 -0.280281 0.0677699 0.102247 -0.175223 0.18295 -0.0542526 -0.0599478 -0.00506904 0.101912 0.0568368 0.308135 -0.0632087 0.0497137 0.010945 0.00222471 0.0701625 0.110702 -0.130796 -0.136896 0.0788334 0.131625 -0.179885 -0.0589224 -0.1138 0.0655294 0.207943 0.0577924 -0.100215 0.0458374 0.0749553 -0.233445 0.303578 0.0739783 0.0614172 0.0492778 0.0927309 0.118319 -0.103747 0.160544 0.0131272 -0.0710413 0.324646 -0.128485 0.00958278 -0.385865 0.137909 0.0388156 0.105974 -0.0452432 -0.230773 -0.0159315 0.209329 -0.351017 -0.0540241 -0.234458 -0.118971 -0.0200861 -0.13413 -0.129506 0.0818183 0.0122067 0.174162 0.0584775 -0.0183351 0.246563 -0.136438 -0.0293735 -0.098605 -0.0168145 0.004995 0.0170616 -0.0179892 -0.0844516 -0.0413427 0.214305 0.23194 -0.0924105 -0.120544 -0.315927 -0.159607 -0.139989 0.197229 0.284423 -0.0557509 -0.00440236 -0.0623464 0.081121 -0.104994 0.0394825 0.164794 -0.102877 -0.000331632 0.0456055 -0.0220036 0.0910362 -0.0172975 0.0345351 -0.0322527 -0.0665306 -0.0434783 0.0601517 0.0827462 -0.0214964 -0.0317847 -0.129695 -0.0471651 0.0767056 -0.0795993 -0.161646 0.0890557 -0.00583568 0.266136 0.14411 0.0288454 0.0543955 -0.0138311 -0.0792988 0.0909069 0.119651 -0.067927 0.178125 -0.100327 0.154738 -0.0493495 -0.137467 -0.011968 0.0719825 -0.067459 0.0803294 -0.11612 0.0065478 0.246025 0.0604907 -0.216547 -0.0132996 -0.252424 -0.0419172 -0.0515411 0.0189811 0.117574 0.12044 0.313084 0.215009 -0.0803232 -0.193037 -0.0986676 0.0112032 
IV -0.0192176 0.0505428 -0.00921231 -0.0292141 0.111663 -0.0448245 0.193351 0.0112115 -0.0739019 0.0232009 -0.00076659 -0.0647242 -0.13713 -0.180734 0.121462 0.0729404 0.275312 -0.159009 0.048022 -0.0984316 0.0397226 -0.017913 0.206116 -0.150205 0.0877376 0.155511 0.325524 -0.267023 -0.00156629 -0.318139 0.0808412 -0.150816 0.128665 -0.000775384 0.238465 -0.0669943 0.0473304 0.0433805 0.0581761 -0.108058 -0.0510223 -0.0753939 0.0666339 -0.0609024 0.054445 0.117336 -0.0536041 -0.144557 -0.347931 -0.106324 0.225836 0.0958885 -0.00793292 -0.121257 0.179907 -0.0794482 0.136444 0.177552 -0.0908027 -0.0188609 -0.123257 0.0958088 -0.0769727 0.0350476 -0.0515447 0.142191 0.0681532 -0.0529224 -0.0526501 0.0671117 -0.113411 -0.00246156 0.0345325 0.0184868 -0.126703 -0.195622 -0.140753 0.138997 0.224441 0.0966272 -0.157991 -0.0267954 0.247207 -0.143223 0.0133488 0.0238763 0.264871 -0.0629071 -0.25049 0.157786 -0.118394 0.306885 -0.0896463 -0.0190286 0.277578 -0.0506111 0.036426 -0.16275 0.0666538 -0.141895 0.0959048 0.11002 -0.0732301 -0.111316 -0.0398332 -0.304533 -0.0838027 -0.0420206 0.00744313 0.0300401 -0.310795 0.0983062 0.0577974 0.0048099 0.143977 -0.17529 -0.0154096 0.334431 -0.150047 0.0536221 -0.219558 -0.179046 0.196031 -0.0227658 0.158537 -0.107507 0.0479137 0.158991 0.105737 -0.00189075 -0.165419 -0.198063 -0.140063 0.0769914 0.0124038 0.131714 0.00471919 -0.0804397 -0.00538348 0.0719242 0.0167279 0.0194287 0.172663 0.0443201 -0.047929 0.139316 -0.095569 -0.025881 0.167563 -0.0678943 0.123155 -0.159468 0.00977529 0.00201034 0.0203434 -0.0669989 -0.154155 -0.172006 0.0333012 0.0414627 -0.0848017 0.120771 0.0864234 -0.156409 0.126071 0.206746 -0.00974466 0.0825412 0.147496 -0.229553 0.140272 0.0724629 -0.0482761 -0.0138115 -0.0242289 0.0693775 0.0289909 -0.140535 -0.153708 -0.14492 0.0518316 0.0786921 -0.0270705 0.133429 0.169012 0.0122422 -0.182375 0.0441908 -0.089221 -0.0281838 -0.0408542 0.0564346 0.114596 -0.10254 0.364124 0.154341 0.142733 -0.181988 0.0751183 0.112888 
w0 0.00238878 0.034012 -0.0439407 -0.167708 0.129482 0.191306 0.306019 -0.0292491 -0.143212 -0.136785 0.0646563 -0.141242 -0.315563 -0.114661 0.0166377 0.0870426 0.229149 -0.020274 -0.0608905 0.00623695 0.120096 0.00488633 0.213591 0.0255595 0.0809896 0.0304139 0.23006 -0.175657 -0.0301546 -0.124524 0.166612 0.00269669 -0.0226552 -0.0340619 0.267452 0.133613 -0.0899596 0.162862 0.178071 -0.193029 -0.0924858 -0.194571 -0.14984 0.0320568 0.0937643 0.161977 0.0942883 -0.220159 -0.172374 0.119829 0.205828 -0.0483518 0.0272657 -0.0918502 0.213201 0.0322796 -0.0906473 0.108395 -0.181464 -0.104668 -0.161846 0.113122 0.017109 0.0933501 -0.0902463 0.0156497 0.143279 -0.095183 -0.273369 -0.0552228 -0.122114 -0.0955175 0.0309544 -0.0394127 -0.0193286 -0.168319 -0.0846058 0.129594 0.0768907 0.124584 -0.0760486 -0.137084 0.235367 -0.106705 0.179532 -0.0306849 0.244192 -0.0045601 0.0931196 0.119206 -0.0366695 0.12169 -0.0649719 0.0224337 0.230182 -0.0517208 0.084108 -0.179742 -0.0649322 -0.0414298 -0.00667243 0.0466473 -0.096885 0.153519 0.0747817 -0.330527 -0.0337891 -0.142025 -0.0892403 0.0500469 -0.295271 -0.00244629 0.0595589 -0.0265026 0.153311 0.0573808 -0.0574184 0.298744 -0.111675 0.0178727 -0.0304974 -0.201669 0.049237 -0.135586 0.0411514 -0.28133 0.0845194 0.178474 -0.00799679 -0.0166202 -0.158335 -0.21651 -0.233239 -0.13175 0.0922416 0.203283 0.0859105 -0.0180905 0.0273817 0.0271679 -0.269688 -0.017358 0.163748 0.0364385 0.0858219 0.164124 -0.148757 0.142322 0.176147 -0.0381778 -0.129228 -0.0848502 -0.0630298 0.0164642 0.0567801 0.00267116 -0.0154312 -0.2016 0.0241143 0.00325393 -0.244101 -0.120514 0.128971 -0.139787 0.13942 0.209728 0.0741899 -0.066342 0.127561 -0.0808563 0.159012 0.17 -0.218011 -0.0774009 -0.101541 0.0843921 0.00738103 -0.0540107 -0.0819581 -0.0739105 0.0240896 0.0568627 -0.111331 -0.0551265 0.0922217 -0.0267317 -0.0653793 0.213161 -0.174365 0.027804 -0.137702 0.104515 0.131042 -0.0583298 0.280459 0.135471 0.00314903 -0.0431291 -0.176648 -0.078004 
vii 0.203967 0.496694 0.167251 -0.146904 0.021601 0.157094 -0.157655 -0.121548 -0.291639 -0.183389 0.254294 -0.207531 -0.201495 -0.173546 0.0838126 -0.243433 0.628067 0.411117 -0.0152901 -0.0576284 0.734258 -0.162391 0.0251529 -0.069161 -0.117942 -0.0137821 0.331685 0.177097 -0.193141 -0.152625 0.107295 0.465629 -0.0579354 0.706612 0.396601 0.0463956 0.475471 0.0569339 -0.0723673 0.12323 0.0596273 0.167341 0.099302 -0.0465085 -0.667319 0.297234 -0.275566 -0.0548562 0.121732 -0.217696 0.195518 -0.0693477 0.117021 0.261901 0.345286 0.19685 0.115199 0.199676 0.222872 0.0477014 -0.141023 0.325913 0.14462 0.138637 0.10647 0.253899 -0.143571 -0.361952 0.127073 -0.0890149 -0.347201 -0.146616 0.0894098 -0.157499 -0.0917432 -0.203688 0.157984 0.171681 -0.178036 0.314546 0.105037 0.221481 0.195405 -0.00560894 0.195331 -0.180716 0.613524 -0.242724 0.0567502 0.0488587 -0.366203 -0.18688 -0.222087 0.248875 0.289815 -0.211409 0.178474 -0.244841 -0.176228 0.0392549 0.193141 0.0156049 0.275502 0.192059 0.405398 -0.140248 0.149625 -0.240982 -0.115147 -0.450236 -0.292362 0.0158725 -0.212456 0.149074 -0.149702 0.353406 -0.574164 0.0373995 -0.195019 -0.290007 0.17278 -0.216373 0.0350078 -0.456086 0.108106 -0.16752 0.0470459 0.227208 0.581066 -0.551488 0.239628 -0.352982 0.199809 -0.201285 -0.404253 -0.14895 0.360849 -0.177316 0.324165 0.0978269 -0.0193006 0.0455978 0.240138 0.038237 0.0913806 0.314199 0.0423273 -0.011603 0.231505 -0.240255 0.0495714 -0.472998 0.323389 0.148581 -0.176778 0.121675 0.151093 -0.0805713 -0.314503 -0.475106 -0.292136 0.616455 0.52175 -0.526786 0.0375562 0.085163 0.270102 0.165059 -0.197852 -0.479066 0.172665 0.107251 -0.112778 -0.083263 -0.549714 -0.123887 -0.11376 -0.202284 0.25789 -0.316874 0.469833 0.0751576 -0.023408 -0.167209 -0.0932453 -0.0121923 -0.524254 0.378291 0.0179518 -0.219505 -0.148127 0.142922 0.228008 -0.318327 0.786996 0.300384 -0.158711 0.0957368 0.0413202 0.505463 
III7 0.328052 0.229553 -0.416945 0.00861114 -0.286271 0.172258 0.04623 -0.136448 -0.367884 -0.174864 0.244824 -0.510149 -0.178636 0.0194745 0.782019 -0.335824 -0.220378 -0.252995 0.373713 0.0362329 0.0320428 -0.269697 0.843807 -0.0314512 -0.0428964 0.0826683 0.27254 -0.236237 -0.084068 -0.393881 0.456699 -0.111881 -0.0817576 -0.285832 0.073366 -0.389937 -0.143325 0.0835292 0.178782 -0.214833 -0.212694 -0.341711 -0.347639 -0.302241 -0.114873 0.071413 -0.375625 -0.611585 -0.54605 0.146101 0.206488 -0.166652 0.228135 0.246626 0.0951468 0.543855 -0.544343 -0.0323211 0.242731 0.1604 -0.340787 0.272192 0.256017 0.248039 -0.238271 0.156209 0.559975 0.132695 -0.149177 0.00234077 -0.0256396 -0.423041 0.0106552 -0.00634938 -0.300816 -0.374048 -0.159845 0.100027 0.124691 0.0031327 -0.0985303 0.297746 0.147722 -0.343295 0.125167 0.125785 0.291083 0.0712072 -0.0830834 0.420437 -0.0551584 0.183208 0.0306333 0.604686 0.245993 -0.0732215 0.0972496 -0.221854 0.122502 0.230867 -0.00629378 -0.226007 0.302985 -0.00482233 0.11547 -0.42829 -0.275054 -0.164547 0.0265576 -0.151255 -0.220109 0.188766 -0.0326577 -0.451155 0.301939 0.344576 -0.168448 -0.0332687 -0.2194 -0.0528475 -0.0752546 -0.298158 0.748757 -0.175956 0.134563 0.04278 -0.440696 0.152596 0.277148 0.143611 0.0243442 -0.344491 -0.199096 -0.271718 -0.406134 -0.0184878 0.0370116 -0.0291265 -0.0379902 0.0805434 0.300926 0.0565995 -0.427237 0.0291224 0.0520477 0.148513 -0.427226 -0.230558 0.217459 -0.0243005 0.265317 0.441476 0.0258442 -0.412407 -0.0130992 -0.190081 -0.201833 -0.219212 -0.290456 -0.392546 -0.239209 -0.312688 0.32627 -0.230934 0.0938848 -0.0110878 0.0908563 -0.176047 -0.249582 -0.304116 -0.611203 0.0764222 -0.26945 -0.0540277 -0.162613 0.0675466 -0.719305 -0.0696288 -0.130952 -0.207534 -0.02272 -0.265216 -0.496846 0.0118378 0.162926 0.141824 0.101103 -0.135609 -0.243335 0.435387 -0.071643 0.418467 0.200377 0.184104 0.0843329 0.0070481 -0.188799 -0.0161609 0.0137493 -0.159525 
II 0.352412 0.056743 -0.00780908 -0.336461 -0.101025 0.0157465 0.122938 -0.219025 -0.167864 -0.0700779 0.179872 0.086777 -0.171 -0.189859 0.119018 -0.38172 0.224551 0.0215265 0.0226777 -0.168833 0.266734 -0.0977922 0.199648 0.0956611 0.295834 0.141127 0.650205 -0.171375 -0.0200509 -0.105047 0.230972 0.0447968 0.0427733 0.240749 0.221928 -0.156797 0.260791 0.093817 -0.224927 0.149164 0.216016 0.211501 -0.415515 0.0695251 -0.410595 0.168129 0.245199 -0.333963 -0.397374 0.0397172 0.00495342 -0.215226 0.0410283 -0.25293 0.203985 -0.11386 0.0666989 0.324143 -0.0354284 0.0316516 -0.0275697 0.126191 0.00463308 -0.282465 -0.0120667 0.186694 -0.0856706 -0.212212 0.0489724 0.0957966 0.00793594 -0.043424 0.248584 -0.169447 -0.0198135 -0.0878019 -0.252813 0.333154 0.154461 -0.0185474 -0.0522148 -0.182128 0.390874 -0.128196 -0.0146984 0.0643297 0.0666469 -0.166768 -0.2326 0.0143521 -0.13255 -0.127521 -0.00680188 0.130315 0.361668 0.225406 -0.0643656 0.0635123 -0.14578 0.218307 0.237 0.16123 -0.023162 0.12431 0.0963394 -0.123681 3.53462e-05 -0.300222 -0.0488794 -0.115474 -0.389963 -0.184043 0.243539 0.0109643 0.0629548 0.523388 -0.180156 0.471702 -0.125397 -0.0134526 0.0803536 -0.100339 0.0778784 -0.0550017 0.0979003 0.0438623 0.233632 0.192093 0.250638 0.161886 -0.269477 -0.362251 -0.290145 -0.0655161 -0.0287697 0.14919 0.0296335 -0.121056 -0.0665385 -0.0488303 -0.218064 0.178028 0.130748 0.0693939 -0.282376 0.032497 -0.060703 0.0874077 0.148625 0.158165 0.265831 -0.0766198 -0.0153533 0.0424479 -0.455892 0.089864 -0.0412867 -0.229039 0.144596 0.0565714 -0.108227 -0.304222 -0.0228566 -0.170423 0.486652 -0.0198853 -0.0107475 0.0640324 0.115904 -0.239966 0.283027 0.00674329 -0.30703 -0.1237 0.00490424 -0.0650418 0.0335884 0.00594489 0.268833 -0.0678894 0.169948 0.119593 -0.293414 -0.014191 -0.36903 0.195658 -0.123123 -0.114446 0.217107 -0.193599 -0.180943 0.0478763 0.248989 -0.210632 0.41273 0.228427 -0.165933 -0.0546119 -0.141416 0.00324856 
w17 0.376079 0.0275577 0.0480181 -0.00714545 0.237521 0.117325 0.0251611 -0.110762 -0.230132 -0.0703491 0.310834 -0.231404 -0.247276 -0.238352 -0.299657 -0.139613 0.280039 0.00738042 0.160868 0.349573 0.0394865 -0.075615 -0.00597458 -0.0493478 0.091445 0.155761 0.433218 -0.279122 0.243817 0.00627569 0.166855 -0.222475 0.136026 0.0546054 0.127273 0.336053 0.0537572 0.338014 0.0700101 -0.219732 0.133294 0.158962 -0.18981 -0.0313209 -0.162245 -0.0824606 -0.317875 -0.303121 -0.135795 -0.391628 0.225525 -0.00907929 0.0556146 -0.0603841 -0.0620988 0.1494 -0.0288732 0.155581 -0.379467 0.0986226 -0.162696 -0.147258 -0.31647 0.142986 -0.133861 -0.133371 -0.0501801 0.070577 0.382471 0.28087 0.0468253 -0.374512 -0.00744463 0.0255632 -0.382199 0.0479607 -0.106136 0.118341 -0.159297 -0.0290604 -0.231954 0.237499 -0.179151 0.0527672 -0.181548 0.539395 -0.105216 -0.0763071 0.0902537 0.168157 0.0840936 -0.0109436 -0.122831 0.166082 0.409936 0.103494 0.550847 -0.215553 -0.198264 -0.0500036 0.15881 0.0870965 -0.0183143 0.0522291 0.346171 -0.285133 0.108288 -0.198803 -0.18948 -0.514376 -0.520439 0.155399 0.228548 0.0277607 0.297533 -0.335771 0.127056 0.184164 0.0331144 0.10342 -0.294578 -0.571904 -0.299918 0.0333669 0.00584328 0.102482 0.112374 0.252772 0.0998823 -0.214508 -0.427474 -0.00958566 0.0351385 -0.00315955 0.232615 -0.0440136 0.0930216 0.107017 -0.256969 0.219646 -0.321062 0.0580941 0.120088 -0.069741 -0.00814166 0.261365 0.118344 0.0307318 0.37864 0.0554957 0.0794846 0.18479 -0.0829327 -0.262662 -0.130208 0.00381338 -0.0357521 -0.0513348 0.041983 0.217318 -0.112459 -0.185895 0.318393 -0.0714696 0.303237 0.206599 -0.0484624 -0.108187 0.329395 -0.175016 0.503622 0.0206789 -0.0422299 -0.0822227 0.158793 0.130546 -0.198898 -0.0161673 0.379361 -0.0333728 0.430774 -0.187252 -0.60572 0.277248 -0.147538 0.362094 -0.522574 0.393704 0.0445532 0.0174027 -0.0871692 0.259084 -0.109885 0.413627 0.146562 0.151042 -0.134454 0.145867 -0.0346412 0.0811171 
II7 0.280423 0.0628042 -0.486307 -0.0776666 -0.370973 0.0380271 -0.0190133 -0.111774 -0.059889 -0.410255 -0.124448 0.120411 -0.25169 -0.273155 -0.0973114 -0.359139 0.410678 0.236724 0.140835 -0.286659 0.413326 -0.372417 0.372073 0.231968 -0.0657911 0.437281 -0.0357008 -0.406661 0.542679 -0.155025 0.62475 -0.328038 0.127574 -0.342088 0.0280485 -0.183671 -0.243566 -0.345117 0.0935173 0.109989 -0.559686 0.0283216 -0.428101 0.297409 -0.0747289 0.56663 -0.00208792 0.0584946 0.0375031 -0.00784844 0.185467 0.147622 0.470424 -0.384128 0.0512776 0.27377 -0.0537532 0.23346 -0.235769 0.155882 -0.2488 0.209717 0.0996095 0.0699948 -0.265377 -0.151478 0.100057 0.1385 -0.324758 0.286943 -0.0587473 -0.397191 -0.00962188 0.20526 0.182676 0.0743245 -0.340377 0.0559552 0.355939 0.0822367 -0.322399 -0.156317 0.386518 -0.119211 -0.0437612 0.10341 -0.028704 -0.383679 -0.102078 -0.187469 -0.0666494 0.185507 -0.199151 0.117864 -0.0935685 -0.107088 0.941715 0.0904997 -0.0280767 0.296802 0.712681 -0.410561 0.350006 -0.321271 0.578203 -0.535591 -0.16883 -0.14108 -0.173868 -0.602494 -0.189033 -0.158141 -0.207494 -0.134887 0.927236 -0.406826 0.30955 0.174626 0.118271 -0.146407 -0.677723 -0.204196 -0.0960374 0.14487 -0.311408 0.053418 0.0170684 0.0678212 0.123397 0.0678331 -0.0215664 -0.466081 -0.361874 -0.293754 -0.0601379 0.241793 0.291497 -0.303294 -0.0810356 0.188082 -0.182759 -0.172587 0.29861 0.120202 0.170469 0.193576 -0.124696 0.00699219 0.0536648 -0.122721 0.429405 0.506261 0.00773456 -0.291991 0.375118 0.161045 -0.0150004 -0.138543 0.0892163 -0.249272 -0.381767 0.43422 0.20965 0.000779479 0.116291 -0.0679763 -0.246948 -0.236732 -0.272124 -0.258786 -0.520416 0.0866471 0.0631371 0.0464312 0.230172 -0.104628 -0.232352 -0.731546 -0.155795 0.0147328 -0.0181557 0.256334 -0.0438354 0.254782 -0.635604 -0.395375 -0.425725 0.0300939 0.0612258 -0.0638517 -0.526346 0.157399 0.19107 0.0416457 0.198862 0.348119 -0.165014 0.175533 0.216335 0.0420716 
III -0.164679 0.0293185 -0.245093 0.0132101 -0.00562652 -0.14616 0.149554 -0.138593 -0.211331 -0.220166 -0.321879 -0.355772 -0.316263 -0.184067 0.219527 -0.108475 0.235427 0.0114461 0.252034 -0.00604555 0.203795 -0.162008 0.303407 0.10521 -0.022915 0.0400221 0.271479 -0.111998 -0.164205 -0.365126 0.0583347 0.367076 -0.0506261 -0.02096 0.450574 -0.265129 0.00384438 0.148584 0.212671 -0.264244 -0.0859724 0.0438799 0.0655685 -0.0302344 -0.25969 0.128061 -0.195379 -0.14619 -0.0326955 -0.240582 0.242535 -0.0959641 0.21884 -0.105225 0.0753592 0.00738176 -0.248797 0.0131775 0.213956 0.132422 0.125639 0.471953 -0.193053 0.140723 0.0932429 -0.0603963 0.381135 0.0217526 0.204368 0.108321 0.0533587 -0.154426 0.130438 -0.187746 -0.0486505 -0.229673 -0.478921 0.0963293 0.102438 0.0378013 -0.0338221 -0.313384 0.272397 -0.227683 -0.0576838 0.109961 -0.0748629 0.134891 -0.168972 0.0992328 0.147969 0.122398 -0.0985526 0.281228 0.0544064 0.134777 0.192799 0.0937318 0.011309 -0.0577937 0.0648547 -0.0294613 0.0907253 -0.0361764 0.0804318 -0.310841 0.427677 -0.375852 0.0726812 0.128946 0.0718089 0.154135 -0.0928105 0.0637618 0.332534 0.278015 -0.143512 0.361028 -0.0126166 0.299 0.17191 -0.205222 0.164794 -0.0478517 0.393279 0.0120301 -0.164752 0.274092 0.0673316 0.253904 0.353495 -0.442773 0.155279 0.124674 -0.12208 0.065795 0.0931868 -0.212686 -0.0222695 0.146656 -0.0336687 -0.00171289 0.361044 -0.050573 0.116354 0.29827 0.238868 -0.0432127 -0.058706 0.0161814 0.0565592 0.138415 0.143052 -0.00555507 0.0865949 -0.197827 0.00506458 -0.130045 -0.105689 0.230675 0.114884 -0.0411337 0.25839 -0.232532 -0.0399186 0.156769 0.0309728 -0.0546876 -0.0419957 -0.421219 0.106293 0.235841 -0.491703 0.0775534 -0.151794 0.313001 -0.201496 0.0251562 -0.0855924 0.212805 -0.360167 0.0243517 -0.440103 0.00850255 -0.0407571 0.122064 -0.0400075 0.0655866 0.0132985 0.253038 -0.152136 -0.25157 -0.327724 -0.181386 0.169628 -0.0857131 0.351518 0.0984273 0.0463499 0.0639879 
Idim 0.108835 -0.0220381 0.107957 -0.182785 0.116432 0.211574 0.123039 -0.285215 -0.114645 0.0878035 -0.00226025 -0.0153438 -0.163484 -0.378472 0.163601 0.10591 0.0122706 -0.097474 -0.334021 0.136706 0.233789 -0.0309745 0.300011 -0.0918354 -0.147534 0.00985624 0.350302 -0.225174 0.0886532 -0.202028 0.131149 -0.0836477 0.0397241 0.121106 0.161373 -0.0216792 0.177196 0.192968 0.313623 0.0810423 0.0693185 -0.0559979 0.0208868 0.068772 -0.0176624 0.219257 0.128609 -0.0603481 -0.182698 -0.0699248 0.343357 -0.292646 0.0330955 -0.153785 0.0752331 0.228889 0.0466752 0.106955 -0.160528 -0.0636747 0.127448 0.0873274 -0.225458 0.180653 0.0606865 -0.0281211 -0.0348604 -0.025978 -0.205821 -0.00567004 0.0705414 -0.230426 0.24656 0.303818 -0.352514 -0.221297 -0.11189 0.11902 -0.188506 0.232565 -0.193823 0.111247 0.0777059 -0.100528 0.12609 0.246963 -0.0177927 0.098893 0.128514 0.0746663 -0.151176 0.179787 -0.146514 -0.0117346 0.25429 -0.16107 0.406325 -0.0671968 -0.0214343 -0.0722542 0.305536 -0.0923443 0.100816 0.136756 0.222527 -0.147695 -0.141578 0.11438 0.0582561 -0.146196 -0.192644 0.0114213 -0.167648 -0.225191 0.0677488 0.288465 0.0940108 0.30877 0.151476 -0.0829143 0.0245535 -0.279312 -0.117181 -0.0600844 0.158955 -0.0334771 -0.164561 0.308687 -0.0588987 -0.313406 -0.114931 -0.275746 0.105233 -0.055524 -0.0844144 0.22468 0.203853 -0.248028 -0.145853 0.0844904 -0.215558 0.0143626 -0.0300415 -0.0595095 0.39511 0.194591 -0.0538817 0.147389 -0.131989 0.193587 0.207242 0.171809 -0.11148 -0.095089 0.161944 -0.260165 0.0845727 -0.0230545 -0.108334 -0.00930559 0.13179 -0.118347 -0.0364534 -0.00570912 0.0336888 0.141715 -0.00420118 0.0277799 0.140095 -0.180205 0.212333 -0.0492589 0.198326 0.099036 -0.0552937 -0.116633 0.0964933 -0.244705 -0.0577096 -0.0533151 -0.0529845 -0.0623748 -0.312073 -0.0452247 -0.0697733 0.130191 -0.174785 -0.259527 -0.179682 0.123822 0.0143466 0.0324458 0.0148937 -0.201225 0.231796 0.199118 -0.115316 -0.0236311 -0.174307 0.0427942 
VI7 0.592118 -0.1568 -0.215682 -0.15756 0.408439 0.00600676 -0.143799 -0.204874 0.125242 0.0445457 0.0517878 0.300657 -0.198415 -0.463478 0.0899054 0.102586 0.42208 -0.0657909 -0.216699 0.0881495 0.429489 -0.301702 0.326757 -0.00711338 -0.201187 0.287885 -0.125742 -0.049842 0.240728 0.0207881 0.300676 -0.262499 0.442104 -0.0596512 0.457502 0.302467 0.374853 0.201096 0.500535 0.264972 -0.257626 0.184603 0.303618 0.133236 -0.603508 -0.127133 0.0793013 -0.177227 0.119607 0.110566 -0.197012 0.0783906 0.0429163 -0.105265 0.318041 0.255387 0.221438 0.319799 -0.0218938 -0.165059 -0.37715 0.557883 0.508598 0.179011 -0.276501 -0.0133379 0.157321 -0.190033 -0.150736 0.0786934 -0.309689 0.486187 0.0677527 0.119597 -0.451336 0.00309568 -0.306093 -0.218065 0.17809 0.0873867 0.0144886 0.430799 0.441259 -0.234309 -0.338935 0.573579 0.281984 0.138229 0.241697 0.358948 -0.261238 0.563755 -0.0649637 0.297944 -0.260729 0.361016 0.337919 -0.409675 0.00424068 0.0223915 0.395719 -0.607762 0.329093 -0.296401 0.459299 -0.0454888 0.0110921 -0.0225606 -0.4462 -0.18942 -0.420122 0.12898 -0.0372038 -0.240107 0.162556 -0.431722 -0.449408 0.955382 -0.364428 -0.350301 0.133189 -0.306608 -0.482349 0.0685104 -0.685917 -0.0617 0.54105 0.176035 -0.047277 -0.451655 0.0468392 -0.243852 -0.574679 -0.385744 -0.0236698 0.264793 -0.284779 0.0663737 0.108953 0.128889 0.0253274 0.222828 0.129489 -0.136337 0.140985 0.325585 0.179198 0.216573 0.057923 0.57615 -0.154962 -0.0981337 -0.457904 0.0471694 0.262461 0.0893929 -0.421757 -0.467188 0.00873785 -0.16276 -0.0737027 0.050897 0.586411 -0.117724 -0.390775 0.330912 0.221392 -0.180395 -0.478387 -0.214937 -0.0799106 0.464893 -0.0620336 0.240174 -0.251923 0.248166 -0.157634 -0.619604 0.188058 0.210455 0.449346 -0.123803 -0.0766765 -0.0641716 -0.30697 0.0917214 -0.333497 0.382944 -0.380818 -0.164944 -0.262364 0.416035 -0.0756014 -0.0843472 0.127431 0.138484 0.147066 0.155239 -0.0834752 -0.038347 
VI 0.0631285 0.426916 -0.363434 0.00452725 0.0347325 -0.120904 0.0999209 -0.151972 -0.212415 -0.174399 -0.10648 0.107201 -0.193346 -0.0827316 0.330267 -0.2343 0.636401 0.203042 -0.21435 0.137149 0.348453 -0.192904 -0.165238 -0.319576 0.304035 0.0075198 0.436537 0.0837275 -0.061244 -0.111628 0.167319 -0.0520575 0.194864 0.278767 0.0444639 -0.194278 0.240578 0.322875 0.235245 0.168359 0.230178 -0.0277589 0.169139 0.094957 -0.194714 -0.17392 -0.178539 -0.154173 -0.011531 0.0604703 0.671512 -0.0261624 0.0366349 0.0394992 0.276771 0.0772266 0.191899 0.143702 -0.0694471 -0.219929 -0.157559 0.301254 0.15071 -0.0138877 -0.0878652 0.418596 -0.310706 -0.159191 0.152052 -0.245577 -0.0242483 -0.18563 -3.24774e-05 -0.252919 -0.159788 0.118884 -0.132061 0.329448 0.171191 0.0322204 -0.068346 -0.189016 0.470392 -0.343247 -0.0422166 -0.0241242 0.410741 0.320327 -0.271979 -0.199938 -0.41003 0.10974 0.159589 0.268486 0.208796 0.203747 0.0662713 -0.266728 -0.110996 0.071701 0.122017 0.0103383 -0.0313112 -0.128782 0.584692 -0.0830147 0.011385 -0.390747 -0.391953 -0.305124 -0.316103 0.0272908 -0.376156 -0.308734 -0.0182073 -0.109233 -0.0130001 0.213903 0.101646 -0.149903 0.321414 -0.165201 0.0772085 -0.225475 0.179438 -0.0453819 0.0115713 0.164371 0.130345 -0.502762 0.26975 -0.187432 0.0404694 -0.304878 0.00590207 0.123653 -0.419396 0.167568 0.115045 0.0137879 -0.36721 -0.224123 0.223136 -0.0804287 -0.162223 0.0427834 0.0594719 0.158866 0.0302744 0.123411 -0.20789 -0.13287 0.0914903 -0.410241 0.0138603 -0.0241314 0.0527415 0.0759728 -0.401144 -0.00635271 0.128729 0.0736475 -0.0287826 -0.0934995 0.262327 0.0525598 -0.124683 0.0496127 0.0286633 -0.263469 0.354398 0.119533 -0.235961 -0.169786 -0.220223 -0.175158 -0.00274599 -0.0402881 0.466133 -0.187692 0.160825 -0.0991193 -0.152592 0.187736 -0.317296 -0.0260937 -0.23255 0.268403 0.0927359 -0.0268051 0.0233161 0.10844 0.245794 -0.34729 0.242802 0.29805 -0.11974 -0.167511 -0.125027 -0.0247032 
IV7 0.356446 0.138047 0.0885798 -0.10787 0.0381516 -0.478065 0.713398 -0.601725 -0.0891812 -0.251197 0.220045 0.0539541 -0.32299 -0.470711 0.699549 -0.228227 0.533207 0.0655434 -0.637793 0.19226 0.374566 0.0379964 0.737317 -0.200243 -0.204119 -0.253466 0.507101 -0.48757 -0.010367 -0.393788 0.179838 0.210461 0.176342 0.482982 -0.176278 0.449677 -0.0468684 0.330788 0.838159 -0.23771 -0.489938 0.350741 0.335694 -0.0456506 -0.146495 0.0635113 -0.558343 0.0414056 -0.508135 -0.156477 0.245846 0.200538 -0.085248 0.0263349 0.32564 0.619204 -0.0900165 -0.144465 -0.421694 -0.151682 -0.298222 0.142502 0.308442 0.0418035 -0.755389 0.21276 0.109793 0.462218 0.0142413 0.17693 -0.353166 -0.370427 0.341174 -0.00530365 -0.00642429 0.0586037 0.0139344 -0.112816 -0.482463 0.152678 0.173941 0.129286 -0.188383 -0.371655 0.00675968 -0.177127 -0.187183 -0.316724 0.00470457 0.243082 -0.0783409 0.468621 -0.336873 0.00110869 -0.406356 0.333118 0.43644 -0.163715 0.0335255 -0.20236 -0.304086 -0.586189 0.552022 0.0507102 0.246732 -0.134516 0.366435 -0.0881924 -0.0818186 0.0304448 0.364325 -0.288825 0.0516776 -0.105872 -0.00170472 -0.188723 -0.216841 0.360561 -0.2416 -0.545046 -0.175916 -0.0426693 0.415568 0.16677 0.0864909 0.247928 0.0905038 0.295019 0.207796 -0.126252 0.152068 -0.361074 -0.163929 -0.265404 0.55402 0.175233 -0.0110682 0.245807 -0.221909 0.55001 0.308274 0.417106 -0.256432 0.35366 0.392997 0.228849 -0.177097 -0.0671096 -0.209005 0.211706 0.099493 0.275451 -0.174702 -0.013033 -0.253653 -0.098656 0.358389 -0.35198 -0.207159 -0.278455 0.123601 -0.273701 0.347583 -0.281589 -0.0373035 0.181338 0.286102 -0.354861 -0.212524 -0.326463 -0.0229163 -0.0594382 -0.301002 -0.0993076 0.328795 0.186688 -0.174596 0.0427534 -0.0903903 -0.473424 0.56437 -0.343306 -0.307972 -0.128996 0.523202 0.259041 -0.446364 -0.136921 -0.501505 -0.0221098 0.217262 0.0597464 0.096299 -0.507664 -0.0275625 0.143707 -0.0213832 -0.760226 0.126233 0.281486 
I7 0.385582 -0.126224 0.0293567 0.0239552 -0.294211 0.0755288 -0.134923 -0.118784 -0.25862 0.275623 0.0993083 0.0276185 0.103316 -0.303112 -0.100311 0.0272951 0.0417923 -0.138281 -0.173667 -0.0787966 0.115627 0.00185576 0.5433 0.173331 -0.44089 -0.278098 0.419333 -0.865457 0.546534 -0.306574 0.461767 -0.340793 0.293147 0.284289 -0.0470468 0.304916 0.267991 -0.0281031 0.269728 -0.321257 0.0781928 -0.362529 0.296665 -0.0684323 0.144874 0.0080311 -0.137662 0.281162 -0.33683 0.0125988 0.59539 -0.0549776 0.238619 -0.345374 0.273214 0.642971 -0.303461 0.0436626 -0.547557 0.271412 -0.180443 -0.571445 -0.307816 0.252088 -0.0466531 -0.157248 -0.278701 -0.110565 0.0175778 -0.207276 -0.161541 -0.344595 -0.268618 0.342468 -0.0709428 -0.225766 -0.33427 -0.28143 0.352064 -0.0653882 -0.114345 0.164878 0.387952 -0.708978 -0.0138591 0.195795 -0.0735332 -0.222732 0.232801 -0.0759693 0.26475 0.620982 0.228272 -0.205354 0.24626 0.0609297 0.550539 -0.0683279 -0.0691431 0.0754165 0.238099 -0.056089 0.377111 0.346888 0.251568 -0.36838 -0.0794068 -0.456414 -0.0124363 0.0789468 -0.0158312 -0.394617 -0.329805 -0.0177831 -0.137874 0.147772 -0.0441705 0.0581952 -0.35201 -0.0843778 -0.385201 -0.166353 0.378773 0.0236699 -0.0890663 0.0625104 -0.286375 -0.164856 -0.384221 -0.560521 -0.120968 -0.171724 -0.226293 0.290799 0.408379 -0.088546 0.205086 0.387386 -0.113229 0.516579 -0.517539 0.301026 0.275825 0.0191498 0.166196 0.583191 0.368923 -0.0363355 -0.311735 -0.143603 0.291185 0.156674 -0.168381 -0.201771 -0.390995 -0.00999424 0.0858313 0.114592 0.38062 0.0576239 0.166733 -0.545039 0.328882 0.221795 0.060018 0.030551 -0.0187347 0.440066 -0.0427986 -0.301336 -0.221529 0.255038 0.125043 0.0585065 0.490335 0.142627 0.148819 -0.337604 -0.365311 -0.102568 0.260443 0.234146 0.372833 -0.458168 0.294912 0.613192 -0.317569 -0.540368 -0.253314 -0.0377931 0.0973924 0.444871 0.0781828 -0.260442 -0.236989 0.600334 0.104986 -0.443257 0.15449 -0.134414 
VII -0.337199 0.128248 -0.0244283 0.229008 -0.153017 -0.0136877 -0.322583 0.555629 0.253138 0.60176 -0.397238 -0.0194134 -0.14923 -0.720466 0.601977 -0.463695 0.128102 -0.512794 0.20075 -0.274316 0.0120678 -0.140583 -0.0973419 -0.202188 0.24764 -0.333125 0.471279 -0.0772819 -0.213384 -0.388202 0.0330519 0.110823 0.303755 0.408717 0.449947 -0.35536 -0.102708 0.237353 -0.214037 0.0510962 0.57469 -0.213301 0.0141372 -0.166389 -0.207495 0.158933 -0.0434648 -0.135193 0.293337 -0.127463 0.306262 0.0728031 0.0676653 -0.363889 0.127518 0.0390225 0.358805 0.0148381 0.349738 -0.162406 -0.259118 0.43843 -0.346212 -0.0773779 0.345466 0.163471 -0.000289675 -0.273697 0.2186 0.517273 0.35377 0.215788 -0.038815 -0.612178 -0.367315 -0.179073 -0.538179 -0.0576859 0.804336 -0.577299 -0.256723 0.266077 0.569482 -0.409293 0.303264 0.22705 0.244366 -0.250081 0.245269 0.134295 0.047676 -0.510573 -0.143974 -0.20664 0.490658 -0.10286 0.756652 -0.290066 -0.152697 0.389884 0.15896 0.50639 0.045823 -0.214179 0.255986 -0.512599 -0.194723 -0.284257 0.237622 0.411231 -0.429249 0.137398 -0.295739 0.154341 -0.307356 0.0527179 0.0752183 0.0730117 -0.338019 0.240554 0.630743 -0.679357 0.29479 -0.00552266 0.0531907 -0.0854107 -0.266029 0.0942577 0.171075 -0.158002 0.120577 -0.134797 0.0522308 -0.297303 0.143864 0.157026 -0.15178 0.104732 -0.418335 0.152841 -0.724606 0.12949 0.0457735 0.148188 0.173938 0.0480981 -0.0264117 0.599232 0.146856 -0.100196 -0.035084 0.11953 -0.195665 0.38981 0.398594 -0.210049 0.179255 0.101079 -0.434486 0.33067 0.202316 -0.300156 0.0791549 -0.0169089 -0.000585975 0.49727 -0.351897 0.234449 -0.149688 -0.531958 -0.074932 -0.242521 -0.00236704 0.508019 -0.0680188 0.00557456 -0.00411337 -0.318172 0.227643 -0.20153 0.0228912 0.303299 -0.576694 0.226239 -0.0313619 0.283459 -0.0176144 -0.0786308 -0.0727841 0.0512978 0.0916452 -0.461785 0.182931 -0.389014 0.177736 0.341792 0.49318 0.124454 -0.257815 -0.177026 
w87 0.180789 -0.0867206 0.0136806 -0.133004 -0.155957 0.19187 0.0246807 -0.1644 0.392081 -0.12358 -0.0967494 -0.112778 -0.282381 -0.440287 0.0849665 -0.356014 0.184025 -0.276747 0.145813 0.0133405 0.448087 -0.0116022 -0.0837589 -0.291079 0.0475573 -0.0448523 0.344299 -0.0343668 -0.206351 0.0487678 0.102052 0.458843 0.453301 0.162908 0.156903 0.308488 0.0830595 -0.0941529 0.0825292 -0.22623 0.14408 0.0363299 -0.0459302 -0.214416 -0.128209 -0.0523475 -0.229429 -0.175953 -0.048138 -0.0887054 0.0623301 0.231382 0.1285 -0.40162 0.198833 0.00566096 0.211929 0.0307619 -0.123605 -0.147179 -0.359847 0.208801 -0.172756 0.556022 -0.411153 -0.204674 0.0117615 -0.26758 0.158656 0.0776507 -0.0369691 -0.206979 -0.0823628 -0.295364 0.03994 0.118187 -0.348098 -0.00373939 0.254891 0.254259 -0.00854669 0.374773 0.336379 -0.030318 -0.421986 -0.0769842 -0.0846874 0.00765379 0.214768 -0.173598 -0.0676276 -0.0565487 0.180805 -0.170661 0.280591 0.00532347 0.508702 -0.466357 -0.282274 -0.195988 0.118789 0.195643 0.116856 -0.238306 0.219748 -0.25122 0.0203658 0.0205898 0.221907 -0.24168 -0.117438 -0.200185 -0.33308 -0.483992 0.303816 -0.0199368 -0.0857787 0.0870668 0.0752291 0.095273 -0.218958 -0.693236 -0.412615 0.117499 0.0709184 -0.0362561 0.469244 0.0630373 0.493825 -0.156577 0.0457573 -0.046503 0.161921 -0.729643 0.264047 0.119221 -0.0900973 0.12304 -0.0914013 0.612579 -0.0819408 -0.336638 0.128435 -0.277819 -0.214763 0.450968 -0.0362017 0.31603 -0.191469 0.336994 0.581892 -0.0283802 -0.242718 -0.0404368 -0.0135606 -0.231051 0.359701 0.164699 -0.186351 0.129187 0.0648194 -0.153269 0.355427 -0.26083 0.333711 0.170156 -0.504143 0.1901 -0.0772877 -0.058216 0.223582 0.190874 -0.137421 0.0867182 -0.13489 -0.349612 -0.367007 -0.28901 0.285297 0.0912159 0.466517 -0.340771 -0.232239 0.0708654 0.085909 0.265554 -0.0965543 0.294555 -0.244782 0.117589 -0.351702 0.177383 0.0548427 0.448862 -0.238486 0.188859 -0.0316712 -0.224424 0.167613 0.153864 
w1m 0.119206 0.119953 -0.230578 0.181455 0.255099 0.306061 0.203846 -0.108182 -0.140801 -0.135594 -0.167074 -0.224756 -0.0547065 -0.452658 0.245485 -0.240808 0.580102 0.0767068 0.238924 0.304848 0.657776 0.0534735 0.334777 -0.565032 0.105638 0.284158 0.373501 -0.00459073 -0.287489 -0.157185 -0.100166 -0.158954 0.275801 -0.0635036 0.25741 -0.376717 -0.0585267 0.634043 -0.22238 0.0873991 0.401063 -0.155375 -0.542894 -0.00294611 -0.138365 0.197047 -0.0178386 -0.00593927 -0.562502 -0.315406 0.646702 0.0696212 -0.088296 -0.13232 0.79996 0.310382 0.260175 -0.296335 0.329789 0.0148581 0.278975 0.468493 -0.0962003 -0.195693 0.480883 0.53728 -0.21466 -0.342053 0.136586 0.0804201 -0.43932 -0.0679657 0.480802 -0.190591 -0.112284 -0.295981 -0.375313 0.357577 0.271607 0.336765 -0.120744 0.187202 0.1865 -0.0500491 0.165371 0.24805 0.0134262 0.209829 0.494919 -0.208607 -0.123964 0.283682 -0.242354 0.212097 -0.0696141 0.178279 0.185765 0.0992609 -0.0398871 0.444998 0.13718 0.217885 0.16973 -0.0498068 0.723515 -0.33129 0.281482 -0.13935 -0.0182113 -0.194986 -0.0125393 -0.022998 -0.429161 -0.484012 -0.161894 -0.156571 0.131664 -0.327329 0.182342 0.0604458 0.264838 -0.448828 0.537865 0.627267 -0.0790244 -0.00274326 -0.463673 0.348721 0.372864 0.0842106 -0.332777 -0.439031 -0.0450375 -0.162505 0.0812876 -0.178737 -0.544847 -0.25827 -0.33559 0.246175 -0.158752 -0.354426 -0.160615 -0.124118 0.38844 0.482976 -0.123984 -0.0741782 -0.0492069 -0.321278 -0.0699614 -0.0205615 -0.316624 -0.0132747 0.187751 -0.230958 0.239514 0.133615 0.24744 0.191101 0.177301 0.0520771 -0.246685 -0.389764 0.36902 0.409264 -0.488185 0.151426 0.521997 0.0575303 0.276944 0.22145 -0.102298 -0.00453476 0.133252 -0.108177 0.0656107 -0.0511445 0.272043 -0.0430167 0.279427 0.433104 -0.191949 0.0886818 -0.150235 0.140593 -0.000927863 -0.0461821 -0.140811 0.314621 -0.087486 -0.228296 0.102814 0.169191 0.533786 0.118852 -0.648343 0.420045 0.171867 -0.105841 
VII7 0.322741 0.0667924 -0.130306 -0.329659 -0.180013 -0.297901 0.50924 -0.0813209 -0.0565747 -0.089157 -0.0977031 -0.457756 -0.63569 -0.731324 0.375977 -0.381671 0.0305355 0.248311 -0.18154 -0.0726224 0.369466 -0.266032 0.023342 -0.103432 0.652022 0.0823645 0.0790025 0.0798056 -0.0709755 -0.151574 0.283673 -0.489756 0.3129 0.474169 0.131847 -0.123114 0.0573743 0.257261 0.641681 0.294909 -0.317685 0.189863 -0.325084 -0.293656 -0.25225 0.289595 -0.136631 -0.0386334 0.113706 -0.0147052 0.689183 0.274 0.107784 -0.254683 -0.117794 -0.0218826 0.1627 0.0637076 0.427073 0.0213702 -0.0628435 0.0994948 -0.336433 0.284754 0.107279 0.562491 -0.111304 0.242104 -0.430871 0.248401 -0.295269 0.174974 0.0202851 -0.380535 -0.171438 -0.129769 -0.144032 -0.273224 0.152637 0.153803 -0.197531 0.0775951 0.08822 -0.175683 -0.0618482 0.380588 0.326265 -0.0843259 0.310432 0.312218 0.185396 0.00929354 0.447271 0.273022 0.569706 0.0730392 0.191244 -0.383208 0.267617 -0.273347 -0.022406 0.106826 -0.381543 0.432064 0.35102 0.162306 -0.0342164 -0.0975273 -0.0487909 -0.275017 -0.252938 0.238782 0.177985 -0.43553 0.371414 -0.057856 0.409481 0.13365 -0.107142 -0.136593 -0.428494 -0.352668 -0.26924 0.313031 0.00958723 0.107489 0.525379 0.384147 0.274613 0.0981647 0.279814 -0.486408 -0.445648 0.0341992 0.609281 -0.122907 -0.0981961 0.050896 -0.173944 0.267904 -0.201087 -0.10702 0.14947 0.401661 0.0468621 0.384675 -0.185319 -0.0724727 0.364056 0.159973 -0.150596 0.249186 0.375713 0.508098 -0.467099 -0.177278 0.0734696 -0.022188 -0.266134 0.303148 0.060352 0.178048 0.0812023 0.114935 -0.180848 -0.159062 0.252472 -0.165325 -0.286703 -0.386043 0.0497511 -0.0297274 -0.220948 -0.187056 -0.173837 0.353417 -0.101555 0.0660935 0.0331743 -0.0293739 0.130756 -0.175967 -0.520373 0.221302 -0.347548 0.137897 -0.150849 -0.0671898 -0.283391 -0.268545 0.358689 0.0284177 0.145065 -0.00617117 -0.279469 0.446564 -0.123493 -0.0158143 -0.679831 0.172554 
i 0.14181 0.11169 0.441835 -0.100275 0.160023 -0.0851848 0.308051 -0.628983 -0.115648 -0.120589 0.115801 0.117314 -0.520738 -0.0327471 0.289582 0.416566 0.559134 -0.0732683 -0.575063 -0.441135 0.420293 -0.139141 0.57904 -0.544007 -0.00929136 0.530493 0.492962 -0.182538 0.0549015 -0.448861 0.352874 -0.529162 0.373401 0.11067 0.10063 0.299182 -0.0638324 0.0383439 -0.276939 -0.121865 0.0267009 0.323882 0.20459 0.157233 0.160818 0.412685 0.170596 -0.0863244 -0.12886 -0.660967 0.225376 -0.120264 -0.253678 0.158045 0.204322 0.404356 0.301891 -0.00186877 -0.16983 0.392568 -0.0684937 0.274494 -0.634645 0.126957 -0.256174 0.284599 -0.207228 -0.0495859 0.215199 0.0683609 0.20748 -0.14456 0.31288 0.670144 0.229499 0.200328 0.124173 0.291258 -0.151985 0.234322 0.0729415 0.577711 -0.0806682 -0.241548 0.169825 -0.095414 -0.36136 -0.00627158 0.584213 0.293343 -0.325428 -0.116582 -0.345365 0.110411 -0.0983647 -0.0234087 0.242141 -0.469262 -0.492093 0.194982 0.040208 -0.0268403 0.0588097 -0.0225154 0.550882 -0.183107 0.683216 0.0162551 0.0253567 -0.526192 0.220125 -0.331477 -0.255505 0.228149 -0.11063 -0.602151 0.183877 0.661864 -0.0215678 0.212792 0.228208 -0.187831 0.315808 0.694267 0.677584 -0.132497 0.0780192 0.310344 0.0658601 -0.00234835 -0.10913 0.0293503 0.279632 -0.524991 0.01769 0.218428 -0.0668522 0.0632713 0.0117227 0.539656 -0.460208 -0.260819 -0.0745085 -0.19428 -0.242967 -0.207343 -0.0563137 0.292342 -0.0807451 -0.0841913 -0.160779 -0.305205 0.0531729 0.167528 0.0291303 -0.417361 -0.0585124 0.125754 -0.281217 0.191208 -0.506761 -0.134422 -0.196454 -0.177137 -0.0339867 -0.00484273 -0.0302216 -0.179876 -0.218794 -0.113548 0.25822 0.282592 -0.308427 -0.158414 -0.161205 -0.252428 0.333905 -0.190136 0.229831 -0.0590758 0.428461 0.200148 0.174142 0.238782 0.906534 0.261749 -0.350461 0.685147 -0.7105 -0.0189557 -0.37721 -0.19144 -0.0209923 0.204857 -0.0875344 0.539755 0.492128 -0.459488 -0.172616 -0.107695 
iii -0.0221022 0.0860005 -0.01005 0.126545 0.0109161 -0.0361451 0.206817 0.0114722 -0.310521 -0.193706 -0.0579185 0.0661011 -0.119325 -0.0697344 0.118993 -0.140916 0.298122 0.0663778 -0.100731 -0.170127 0.0827603 -0.0889912 -0.0761376 -0.218542 -0.0383001 0.177823 0.221635 -0.0812672 -0.109206 -0.234889 0.107865 -0.166629 -0.0600912 0.199417 0.369797 -0.148499 -0.0955519 0.118165 0.136254 0.0743547 -0.149816 -0.248269 -0.0479047 -0.226825 -0.11264 0.0626971 0.159635 -0.205739 -0.278587 0.00356878 0.187956 -0.0730051 0.0832178 -0.183448 0.10139 -0.081178 -0.0864942 -0.202504 -0.0708781 0.144474 -0.134683 -0.0703666 -0.102664 0.20606 -0.0289772 0.0762288 -0.0233649 -0.0659658 -0.18693 0.111626 -0.146119 0.028203 0.148881 0.0464428 -0.131885 -0.139267 -0.186982 0.105556 -0.092327 0.0867848 -0.159272 -0.078444 0.15943 -0.0921709 0.0881819 -0.00642113 0.00472018 -0.137304 -0.0728216 0.110391 -0.339797 0.0908251 0.237924 0.125897 0.328084 0.15336 0.0865645 -0.239543 0.0130513 0.111394 0.212447 0.258823 -0.221063 -0.0659805 0.225918 -0.0902522 0.0424866 -0.253935 -0.174603 -0.111273 -0.139524 -0.145601 -0.0121401 -0.152139 0.158789 0.164011 -0.0336471 0.222588 -0.238822 0.0245446 0.0970064 -0.0760883 0.113181 0.12298 0.0395424 -0.218868 0.0854225 0.327553 0.115606 -0.0161172 -0.107571 -0.417389 -0.185777 -0.120351 -0.0623467 0.00709466 -0.107302 -0.0802514 0.181792 0.127866 -0.133412 -0.0792018 0.186342 0.0524796 -0.0555133 0.127265 -0.0343514 0.0236379 0.0147999 0.141961 -0.00979133 0.0520208 0.0684079 -0.108769 -0.117509 -0.191873 0.00310663 -0.033049 -0.0769484 -0.0627672 -0.309759 -0.107834 0.346509 0.169134 0.0983957 0.24348 0.152173 0.088142 0.143619 0.0448147 0.0779231 0.0672187 0.0987105 -0.0937145 -0.0124813 0.126752 -0.124045 0.0829653 -0.212719 -0.11477 0.13226 -0.120897 -0.391145 -0.00169093 -0.0842889 0.132863 -0.193135 0.11301 -0.342799 -0.181418 -0.250508 0.0982317 0.0175876 0.0229906 0.364043 0.107999 -0.0522098 0.102952 -0.0531516 0.280713 
iv 0.217561 -0.426553 -0.00443091 -0.0469105 -0.0112467 0.275858 0.120297 -0.286444 0.122489 -0.0747491 -0.183744 -0.455517 -0.387763 0.126555 -0.0416993 -0.0977377 0.253177 -0.5122 0.394822 -0.0789533 0.255633 0.242864 0.410505 -0.0640536 0.032304 -0.0325176 0.819945 0.0127551 -0.0128797 -0.109747 0.449914 0.196294 -0.253951 -0.0258763 -0.191624 -0.0105321 0.0606455 -0.265131 0.342352 -0.108633 0.422628 -0.565776 -0.235913 0.174886 0.00739642 -0.103773 -0.406667 0.0432646 -0.324823 0.0464114 0.0567568 0.611716 0.0431314 -0.336377 0.169165 0.0874787 0.166175 -0.0100764 -0.509885 -0.0396077 -0.0171427 0.169366 -0.0961888 0.272851 -0.331012 -0.284753 -0.0455497 0.0193657 0.127224 0.143003 -0.158572 -0.454067 -0.147451 0.0903258 0.00220097 0.0725059 -0.448725 0.142579 0.0757515 -0.0663997 -0.518429 -0.151354 0.0845304 -0.179752 0.203732 0.0562399 0.0130959 -0.0542029 -0.0703986 0.365237 -0.00492782 0.00416433 -0.403136 0.187295 0.0975904 -0.31503 0.312669 -0.105846 -0.194693 -0.420303 0.173743 0.216818 0.375356 0.0660142 -0.0203486 -0.161453 0.0463241 -0.458663 0.226439 -0.299174 -0.412437 -0.265334 0.239973 -0.265851 0.299628 -0.52125 0.341962 -0.0503304 0.0679913 -0.0105955 -0.00802859 -0.0466647 0.374154 -0.0533916 -0.183999 -0.0396806 -0.107343 0.223605 -0.18022 0.0327916 -0.237378 -0.380652 0.219719 -0.072854 -0.167892 0.413926 0.0246894 -0.221768 0.0105403 0.197537 -0.28403 -0.245356 0.0317644 -0.0965833 0.294978 0.24261 -0.456114 0.242442 0.232871 -0.0609116 -0.166561 -0.0738562 -0.610445 -0.342715 -0.144622 -0.400482 0.17812 0.0559208 0.271697 -0.03284 -0.0878482 -0.139206 0.200824 0.13885 0.0154077 -0.361927 -0.0700601 0.134768 -0.0024431 -0.30972 0.67491 0.0565388 0.21349 0.0591322 -0.120468 -0.500984 -0.0327492 -0.052564 0.0593561 -0.237275 -0.0562076 0.318189 -0.518032 0.179787 0.0149793 0.289195 -0.217688 0.0805421 -0.343211 0.0336695 0.0314263 0.0416293 0.112153 0.187245 0.0518525 0.0359949 0.0364386 -0.222022 -0.160049 -0.564441 
w10 0.0305098 -0.12585 0.057992 -0.198618 -0.0334523 0.456877 0.00502102 -0.0599158 0.117817 -0.0365061 0.223857 0.0369824 -0.423882 -0.209823 0.248429 -0.108267 0.0568347 -0.172846 -0.434818 -0.0971161 0.153241 0.150975 -0.0547116 -0.407903 0.481769 -0.0314886 0.299661 0.106451 0.0312006 0.19479 0.236385 -0.266475 0.538253 -0.0175164 0.10748 0.271457 0.0485516 -0.312811 0.103412 -0.0479081 -0.193814 -0.174839 -0.0443889 0.234538 -0.0980109 0.135098 0.0558797 0.217317 -0.317685 0.0119212 0.175972 -0.120784 0.0269014 0.190773 0.0844642 -0.0511647 0.426079 0.269288 -0.363738 -0.376669 0.03005 0.20228 -0.0485681 0.0596276 -0.0185876 0.224432 0.143165 0.128952 0.0880381 0.0743519 0.218535 -0.345296 0.181809 0.0488268 -0.358607 -0.106116 -0.199529 0.0412248 0.0453418 0.326279 0.144088 0.143932 0.452941 -0.0417057 -0.122273 0.149844 -0.159432 -0.29032 0.151703 -0.006147 -0.0664571 0.406797 0.0319141 0.118237 0.373262 0.329491 0.0905656 -0.0722159 -0.212325 -0.0851345 0.00574338 0.0505797 0.330566 0.344633 0.0769324 0.109419 0.00714083 0.33401 -0.258812 0.114365 -0.172402 0.129422 -0.125167 -0.0248379 0.0582678 -0.13932 -0.0854725 0.190634 -0.1267 0.139099 -0.0343321 -0.238083 -0.093517 -0.136821 0.166563 -0.096225 -0.14794 0.271459 0.0444217 -0.0253206 -0.0447005 0.0953597 0.0248842 -0.0588681 0.22233 0.118187 -0.17706 -0.390575 -0.220532 0.0337101 0.115577 0.294193 -0.0927062 0.121652 -0.0560967 0.228859 0.259498 0.293135 -0.219315 0.146284 -0.0111216 -0.172095 -0.21421 0.0899984 -0.105306 -0.298996 -0.260188 -0.22573 -0.0139073 -0.235137 0.107065 -0.287041 0.119858 -0.283267 0.069472 -0.000582534 0.0615651 -0.00395518 0.228082 -0.0454386 0.0715087 0.0448937 -0.158269 -0.203469 0.00573236 0.193376 0.1443 -0.32133 0.00997577 0.262013 0.234577 -0.0594492 -0.122879 0.111423 0.273845 -0.00377451 -0.235084 0.481348 -0.242752 -0.289443 -0.312577 -0.0121348 0.0413531 -0.0279682 0.266056 0.28968 -0.0393505 -0.220833 -0.284969 0.101085 
vi -0.13138 0.0124215 -0.0298209 -0.0313938 -0.0199094 0.0123933 0.073275 -0.159355 -0.225394 -0.193558 -0.126244 -0.230515 -0.170408 0.0151996 0.20072 0.0165327 0.355291 -0.108243 -0.0378154 -0.0468742 0.265062 -0.00625878 -0.00358802 -0.0653146 0.0901143 -0.0442741 0.159942 -0.132667 -0.0667818 -0.227984 0.125071 -0.0217081 0.027512 -0.0188662 0.17472 0.133472 0.0453723 0.0264781 0.228057 -0.136266 0.037542 0.00645097 -0.200717 -0.122405 0.0642676 0.062376 0.0248568 -0.175609 -0.142094 0.11434 0.239418 -0.0708311 -0.0188881 -0.102017 0.174816 0.000533877 -0.04636 0.0554665 -0.0851299 -0.0881181 -0.0105906 0.159098 -0.0539128 0.0406545 -0.0559396 -0.00312586 0.0474556 -0.100986 0.0254805 0.00349479 -0.0306771 -0.127532 0.142367 0.101576 -0.082316 -0.294013 -0.0924742 0.16536 0.133574 0.015775 0.0145855 -0.0622816 0.232336 -0.0345558 0.00140337 -0.0290107 0.183811 0.029096 -0.0842217 0.0287635 -0.181304 0.202066 -0.00851289 0.129129 0.21364 -0.111069 0.0446228 -0.215288 0.137767 -0.156584 -0.0654105 0.133263 -0.0961566 -0.00233823 0.264754 -0.312278 -0.0654753 -0.222595 0.0237323 -0.170061 -0.18109 -0.0496854 0.0612324 0.016107 0.266993 0.0151036 -0.115591 0.144804 -0.320377 0.00647011 -0.157369 0.0436739 0.14335 -0.18735 0.0517278 -0.0829317 0.0024012 0.0401688 0.0917607 -0.110414 -0.0855137 -0.301841 -0.116127 -0.09508 0.0484122 0.240959 0.105497 0.0078957 -0.00948785 0.0023253 -0.194506 -0.199587 0.173459 -0.000300262 -0.0369726 0.0733053 -0.0079548 0.117308 0.00677963 -0.0272762 0.0248667 -0.0238093 -0.00431338 0.0888546 -0.0365115 0.0932118 -0.00993677 -0.197936 0.0505159 0.0679755 -0.0550437 -0.0222952 0.0641793 -0.154949 0.00591823 0.26501 0.0062456 0.0192799 0.217359 -0.144347 0.0919592 0.0957218 -0.165134 0.0716854 -0.160672 0.21623 0.0322851 -0.162992 -0.19058 -0.21732 -0.123843 0.154184 0.00380653 0.0584154 -0.157222 0.252282 -0.112008 0.0984126 -0.308196 0.0144195 -0.0543361 0.0269719 0.204118 -0.0948974 0.43662 0.153695 -0.00378392 -0.154804 -0.00917919 -0.0812179 
