40 200
w8 0.176341 0.0532413 -0.445556 0.098008 -0.0809865 0.0624219 -0.49302 -0.211917 0.0742147 0.126806 -0.29102 0.0463067 -0.354042 0.431362 -0.419607 -0.34644 0.457949 -0.00399175 0.223958 -0.219517 0.0828682 0.236636 0.126982 0.362589 0.215968 -0.221071 0.109432 0.0182953 0.135763 0.144895 -0.109451 0.0416333 -0.253701 0.019803 -0.199621 -0.342845 0.43359 -0.133904 -0.21639 -0.230543 0.20261 0.28782 0.446225 0.0215983 0.0770232 0.3818 -0.308107 0.0723052 0.143882 -0.205964 0.212863 0.107883 0.316488 0.143301 0.386106 0.292885 0.152148 -0.398784 -0.403137 0.240407 -0.417152 -0.316038 0.277649 -0.0373125 0.148848 0.352846 0.577738 -0.0255607 -0.200677 0.25138 -0.0358707 -0.109886 0.15428 -0.0717897 -0.300271 -0.182205 -0.0147444 0.1577 -0.0111389 -0.320255 -0.068451 -0.240621 0.125761 0.343136 -0.245822 0.392197 -0.0101219 0.211113 -0.0552449 -0.0319151 -0.0860978 -0.487627 0.237738 0.705264 0.13934 -0.492237 -0.128797 0.197918 0.023778 -0.0227561 -0.398184 -0.0151949 0.0708746 -0.0569704 -0.161863 0.284471 -0.26038 0.325834 -0.264816 -0.585927 0.194034 0.281321 -0.0173044 -0.128122 -0.315877 -0.101717 0.187181 0.384651 -0.0519726 0.313202 -0.36375 -0.0327159 0.338387 -0.0992822 -0.332869 -0.012495 0.217002 0.459988 0.0377435 -0.0286003 0.642819 -0.217315 0.106676 0.594552 0.476272 0.0511829 0.313879 0.0201309 0.0912806 0.236508 0.170937 0.00876746 0.395065 0.329466 -0.376082 0.0954028 0.0558341 0.027202 -0.018585 0.00748714 0.283844 0.331637 -0.17048 0.433994 0.0182787 -0.0789674 -0.501048 0.414252 -0.313162 -0.315358 0.0887664 -0.333915 0.355041 -0.0812053 0.10407 0.189135 -0.177612 0.410664 0.0971308 0.0601 0.6274 0.685566 -0.175054 0.174701 -0.143983 -0.154725 0.0617804 0.1604 -0.644352 0.296818 0.0454932 -0.193133 0.0309176 0.0709631 0.143646 0.396799 0.065198 -0.266975 0.0388184 -0.147389 -0.362263 0.43529 -0.249231 -0.0248239 0.163891 -0.316312 -0.102918 0.354625 -0.174694 0.140652 
w6dim 0.0527096 0.0275717 -0.0224697 0.0358465 0.059367 -0.0746657 -0.0774612 0.0367982 0.0433476 0.0121669 0.0844087 0.13935 0.101423 0.13303 -0.0502754 0.0401382 0.120606 0.00256693 0.142323 0.126062 0.0787074 -0.0537994 -0.025574 -0.0248822 0.0622379 0.00263554 -0.0707357 0.0598911 0.0529072 -0.139749 0.0410976 -0.103866 0.0766064 0.19528 0.0135693 -0.00213238 0.214858 -0.0470153 -0.0535019 0.00548813 -0.0848495 0.00845567 0.0745208 0.110512 -0.0273689 0.111763 0.126413 -0.0171925 0.123083 -0.0482773 -0.0218781 0.0860411 0.104689 0.111576 -0.024318 0.0593434 0.0602419 -0.0161918 0.00761364 0.0110406 -0.0801369 0.0628811 0.158328 -0.0254044 -0.0118945 0.0419452 -0.0406786 -0.00828877 0.010545 -0.00131581 -0.0804755 -0.0381536 -0.00110389 -0.200299 0.0715775 0.0155705 0.0609605 0.084259 0.011236 -0.0753557 -0.137985 -0.0421326 0.0269716 0.189894 -0.106659 0.0782313 -0.0816067 -0.0632581 0.0366304 -0.0472063 -0.052101 -0.0907159 0.0371446 0.0137077 -0.0512631 -0.0943622 -0.0594278 -0.0093307 0.08229 0.0555125 -0.151666 -0.0312499 -0.00199319 -0.0774266 0.0334321 -0.00254509 -0.0058697 0.0180962 -0.109429 -0.177519 -0.00206946 0.0268308 -0.177066 -0.0244139 0.0437648 0.131935 -0.00163323 -0.0310118 0.0319808 -0.203634 -0.096163 -0.0116854 -0.0628043 -0.0415644 0.0105496 0.100102 0.134219 -0.000659616 -0.0497996 -0.0824174 0.141785 -0.0167443 -0.00161088 0.116817 -0.0276992 -0.0168476 0.0235338 -0.133652 0.0590925 -0.0689285 0.150754 0.152603 0.0740511 0.0453282 0.0649526 -0.118813 0.0462185 0.0278624 -0.0885164 0.148008 0.0823609 0.0526261 -0.142365 -0.0364053 0.0343371 -0.181266 -0.0607808 0.111301 -0.0728644 -0.114592 0.0511 -0.123422 0.0632442 -0.0169464 0.00956637 -0.0383868 -0.0773651 0.105227 0.130482 0.152522 0.110275 0.275758 0.0738009 0.0644531 -0.0588066 -0.0534848 0.0103389 -0.0208366 -0.0798284 0.0665128 0.0961376 -0.197756 0.0688729 -0.0124919 -0.000614672 -0.0175918 0.0171347 -0.189025 -0.0765158 -0.00120239 0.132588 0.123954 -0.18923 0.0710229 -0.0419966 0.0530641 -0.0122241 0.00643388 0.0173466 0.191674 
w6m 0.0712367 -0.453168 0.0513668 0.0230641 -0.0361079 -0.255572 -0.0768119 -0.102932 0.201442 0.384962 0.147779 -0.000797184 -0.017171 -0.0611958 0.353737 -0.322824 0.016116 0.2992 -0.328355 -0.4952 0.174208 -0.00282371 -0.170023 -0.243905 0.277812 0.0929794 -0.468752 -0.208435 0.127245 -0.0953837 -0.0779901 0.0841141 -0.0135656 0.0959801 -0.495378 0.108573 0.271087 0.0146817 0.151689 -0.0860017 0.0893379 0.122816 0.0934767 0.0909817 -0.370915 0.00719044 -0.166348 0.170264 -0.124225 0.234557 0.172763 0.331753 0.131533 -0.198043 0.356393 0.451869 -0.0184953 -0.0403655 -0.138425 0.119102 -0.270624 -0.163854 -0.0730146 -0.0706048 -0.335973 0.258699 0.506554 0.271791 0.147638 0.109923 -0.023373 0.0711161 0.321545 -0.383289 -0.00589895 0.540121 0.194821 -0.00363454 0.382874 0.102202 -0.34092 -0.23336 -0.207118 0.144427 -0.479952 0.175338 0.142029 0.0307064 -0.200779 -0.0325624 -0.308827 -0.363563 -0.0522028 0.0600913 0.0145944 -0.205334 -0.209008 0.372913 0.377949 0.0153711 -0.494711 0.0534668 0.188798 -0.335735 -0.0813847 -0.0599366 -0.105246 0.127404 -0.07542 -0.783324 0.146835 -0.209733 -0.269118 -0.424061 -0.332648 0.278044 0.311642 0.443286 -0.181529 0.0297674 -0.820592 0.006827 0.361198 -0.0281504 -0.383108 -0.0740579 0.373834 -0.0574883 0.151613 -0.295681 0.235892 -0.193792 0.232027 0.0706486 0.136509 -0.257904 -0.0265618 -0.0178742 0.142739 -0.169188 0.233746 -0.0966384 0.0424461 0.0421888 0.00368061 -0.365557 0.114785 -0.0858755 -0.419439 0.12947 0.578309 -0.0490524 -0.0751223 0.019806 0.063831 0.0920158 -0.276163 0.610282 0.223858 -0.0700241 -0.0217206 -0.0113599 0.305471 0.182766 -0.388481 0.0417032 -0.00400685 0.49567 0.19176 0.294817 0.548979 -0.0587376 0.00866554 -0.112525 0.0786895 -0.101481 -0.0447296 0.191273 -0.318051 0.211964 0.182927 -0.123414 -0.345735 -0.14453 0.103755 -0.184436 -0.163449 -0.354108 -0.375611 -0.194112 -0.286578 0.215553 -0.291639 0.0628609 -0.360697 -0.0251981 0.153459 0.396503 -0.0677583 0.167557 
w67 0.258518 -0.387476 -0.134862 0.0447641 -0.297349 -0.155001 -0.430111 -0.0805734 -0.00142713 0.371111 0.506236 0.30466 0.0638739 0.261465 0.139124 -0.206591 -0.0345211 0.204596 0.182765 0.0379951 0.133039 -0.0559421 0.0443427 0.0805267 -0.0426576 0.02386 -0.55265 -0.0282426 -0.0160277 -0.0174973 0.197543 -0.131199 0.178505 0.154572 -0.373388 -0.232927 0.320162 -0.00405699 0.0778235 0.026425 0.194474 0.178213 0.125989 -0.142908 -0.318589 -0.0264027 0.0265954 -0.024861 0.184797 0.130556 -0.0650206 0.262991 -0.0526494 0.053964 -0.00314181 0.127712 -0.0747219 0.0358443 -0.028688 -0.252291 -0.298442 -0.109541 0.155887 -0.0599173 0.0452595 -0.0736345 0.324114 0.192444 0.206851 -0.00292595 0.211446 -0.0151309 -0.0994622 -0.281165 -0.012162 0.0342182 0.190354 0.248637 0.0991627 -0.131887 -0.396069 -0.118795 -0.126252 0.221717 -0.0763852 -0.0302103 -0.140014 -0.0440765 0.0476379 -0.145268 -0.388551 -0.499268 -0.288313 -0.125054 -0.116441 -0.124489 -0.325177 0.449619 0.249945 -0.251956 -0.480664 -0.0631222 -0.160135 -0.180195 0.226639 -0.0114008 -0.132485 0.0622297 -0.142424 -0.548676 0.243127 -0.242054 -0.222944 -0.0648876 0.0187734 0.0690156 0.0811707 0.0776456 0.0162629 -0.33851 -0.316554 0.134796 0.347549 -0.144469 -0.131608 0.158618 0.433687 -0.127811 -0.0202512 -0.202839 0.448568 -0.112254 0.147097 -0.0540448 0.143694 -0.238494 -0.00583958 -0.281387 0.157385 -0.249444 0.00932817 -0.0194607 0.142669 -0.0354334 0.278863 0.0301703 0.250639 -0.366274 -0.35741 0.226354 0.380935 0.0887719 -0.000374947 0.0843362 -0.0284525 0.0397784 -0.146826 0.174818 0.407278 0.0488909 -0.044814 0.0353773 -0.0723082 -0.00549306 -0.0384061 -0.0329378 -0.0918152 0.12626 0.0654538 0.386829 0.164024 0.211026 -0.0257056 -0.203488 0.191822 -0.231467 0.0202867 -0.15593 -0.192614 0.131315 0.0213834 -0.3646 -0.232618 -0.182871 0.15883 -0.0638984 -0.251206 -0.265706 -0.147599 0.0664636 -0.257061 0.1952 -0.256717 -0.0282753 0.105832 0.0960912 -0.00336452 0.0960889 0.190112 0.0368847 
w6 -0.0111417 -0.450213 -0.460014 0.17667 -0.501536 -0.0951569 -0.494493 -0.698961 0.124437 -0.188548 -0.167359 0.107388 0.106788 0.124167 -0.0281907 0.126633 0.358783 -0.0285681 0.00902592 -0.148172 0.218752 0.0105753 0.148234 0.21212 0.293713 0.0052743 -0.215033 -0.414457 -0.109445 0.0428083 -0.0711069 0.238252 0.0721313 0.0520331 -0.224644 -0.124864 0.626127 -0.273347 -0.210099 -0.169137 0.131325 0.448022 0.28877 -0.260557 0.114685 -0.279655 0.00921821 -0.0281763 -0.0831801 0.0135753 0.214545 0.336206 -0.0296442 0.201983 0.316068 0.330689 -0.213739 -0.193604 0.00363136 -0.098076 -0.246698 -0.371213 -0.115152 -0.0787763 -0.0836389 0.46696 0.478037 0.170357 0.164576 0.210964 0.141219 -0.0365311 -0.032351 -0.484596 -0.280078 0.27757 0.36695 0.387119 0.209687 -0.240945 -0.13431 -0.261656 -0.330728 0.349018 -0.213552 0.236052 -0.116062 0.131676 -0.382527 -0.489416 -0.319567 -0.526399 -0.0829801 0.435522 0.093646 -0.476522 -0.409283 0.686595 0.185736 0.0784087 -0.742895 0.0740073 -0.241567 -0.0337613 -0.163145 0.234863 0.0250596 0.391725 -0.422356 -0.443922 0.398729 -0.129023 -0.395113 -0.142244 -0.158601 0.349897 0.20461 0.138069 0.201541 0.143253 -0.61653 -0.269493 0.285704 -0.0134447 -0.592244 -0.0989032 0.23306 0.0118707 0.096792 -0.292886 0.750688 -0.0778724 0.0804993 0.265026 0.46316 -0.0880167 0.0284289 -0.0628081 -0.142802 -0.0710347 0.370492 -0.0844164 0.309728 0.00120434 -0.107338 -0.215984 0.256582 -0.21944 -0.284307 -0.135204 0.598747 0.203523 -0.139287 -0.0518316 0.151448 0.13469 -0.00332497 0.346477 0.153848 0.047025 -0.116785 -0.168418 0.0684923 -0.0418712 -0.108135 0.591249 -0.394446 0.416505 0.146378 0.301736 0.468785 0.428322 -0.249555 -0.386281 0.114433 -0.484762 -0.242756 0.0936648 -0.251908 0.259777 0.173179 -0.337321 -0.139052 0.0616964 0.00910899 -0.224603 0.170397 -0.633977 -0.0776336 -0.0722001 -0.111425 0.534659 -0.344625 0.147764 -0.190959 -0.228274 0.0420848 0.118795 0.272761 0.00275956 
w37 -0.156793 -0.193923 -0.110386 0.12505 0.11751 -0.132491 -0.0408374 -0.00389002 0.0854547 0.0566545 -0.0177055 0.288212 -0.0327574 0.295199 0.049906 -0.0586874 0.393803 -0.206018 0.146643 -0.383685 0.0490494 -0.031308 -0.00423377 0.0207068 0.0723545 -0.216016 -0.136644 -0.0396672 -0.125389 -0.0303997 -0.0595735 -0.012035 0.219696 0.0999839 -0.263196 0.102179 0.412056 -0.0299733 -0.0740543 0.188132 0.180925 0.201277 0.283011 -0.0426832 -0.043531 0.247875 -0.116451 0.241435 0.250406 -0.0849293 0.0258961 0.222115 0.188123 -0.0379972 0.228066 0.152791 0.143133 -0.192475 -0.249853 0.0572553 -0.240207 -0.0900499 0.162455 0.171598 -0.150738 0.0461307 0.13676 -0.113239 0.161135 0.121931 -0.05908 0.0550321 0.192711 -0.209362 -0.240067 0.222237 0.0800369 0.122267 -0.0507992 -0.205971 -0.293949 -0.0957039 0.0462034 0.178514 -0.0184119 0.294937 -0.0900913 0.0400393 0.0453317 -0.0355379 0.0665726 -0.231843 -0.0906706 0.36676 0.143308 -0.208795 -0.0457427 0.0968941 -0.0222571 -0.0358426 -0.390076 0.104441 0.12695 -0.194248 -0.180637 0.153017 -0.111106 0.211463 -0.244016 -0.369467 0.291017 -0.0291535 -0.0917742 -0.0812035 -0.0899269 0.177663 0.20995 0.0593633 0.237755 -0.0568919 -0.471699 -0.0582228 -0.00807371 -0.349474 -0.229826 0.157533 0.230895 0.0404465 0.019547 0.101683 0.361806 -0.135552 0.104622 0.155844 0.17514 0.117257 -0.0748948 -0.193678 0.0713162 -0.0866139 0.0415119 0.0487337 0.173888 0.0938396 -0.131643 -0.0937527 0.136809 -0.106667 -0.400913 -0.0830136 0.329512 -0.016984 -0.0571051 0.18888 0.109095 -0.102352 -0.116501 0.107278 -0.100145 -0.266842 0.115044 -0.0333148 0.168817 0.0505115 0.127082 0.327867 -0.134572 0.255499 -0.0847425 0.113263 0.248282 0.196235 0.0280499 -0.0962142 -0.17888 -0.0584873 0.235794 0.0167763 -0.265904 0.111265 -0.0096739 -0.175008 0.0392569 0.105983 -0.105 -0.13733 -0.128775 -0.0973066 -0.133375 -0.266364 -0.0816538 0.163728 -0.171266 -0.0729553 -0.136819 -0.206532 0.0527959 0.14078 -0.0230648 -0.041988 
w3 0.0519496 -0.215447 -0.775753 0.278377 0.0089631 -0.101645 -0.331539 -0.392059 0.164821 0.248051 -0.472402 0.381196 -0.47414 0.394697 -0.0720692 -0.153699 0.376418 0.0117631 0.237251 0.116833 0.588679 -0.225732 0.237102 0.506271 0.326946 -0.239305 0.279908 -0.294777 0.160848 0.139694 -0.0742827 -0.438878 -0.053238 -0.160495 -0.10106 -0.174221 0.396294 -0.0628259 -0.0200226 0.0435833 -0.093928 0.114595 0.23245 0.0224146 0.225959 0.0371709 -0.176727 -0.102991 0.15394 -0.233624 -0.109361 0.0324157 0.304172 0.0882143 0.106535 0.014489 0.0921474 -0.14343 -0.59541 0.219268 -0.141955 -0.350183 0.563741 0.123212 -0.0679623 0.231757 0.463281 -0.177042 -0.349418 0.337122 -0.129029 0.041006 0.59597 -0.440528 -0.0690937 -0.0891625 0.00624529 -0.0493409 0.119993 -0.258192 -0.243875 -0.179161 -0.12765 0.426211 -0.354455 0.48228 0.267858 0.228897 -0.092707 -0.202472 -0.00877681 -0.314305 -0.0809285 0.613526 0.39452 -0.18541 -0.204226 0.0172535 0.296582 -0.447767 -0.606479 0.415167 0.303204 -0.224102 -0.00405077 0.100368 0.113222 0.245777 -0.185952 -0.690518 0.0240222 0.120555 -0.174459 -0.131467 0.103441 0.211346 -0.141437 0.3372 0.228225 -0.140063 -0.342608 -0.102378 -0.0174984 0.114825 -0.368985 -0.134981 0.274535 0.17671 0.259029 -0.000760455 0.402322 -0.367725 0.218501 0.401302 0.356567 0.0451892 0.182241 0.202517 0.285305 0.445988 0.337037 0.0796782 0.248501 -0.117187 0.151801 0.0342451 0.183465 -0.0815918 -0.439048 -0.09643 0.148003 0.342892 0.205372 0.190717 0.402474 -0.272961 -0.0212829 0.023353 -0.180367 -0.123823 0.0318854 -0.22028 0.288419 0.0768059 0.130557 0.29497 -0.0931421 0.224788 0.12032 0.250299 0.225243 0.209475 0.0241158 0.0142926 -0.18912 -0.139332 0.0216225 0.305547 -0.413958 0.000324808 0.265658 -0.258639 0.188189 -0.01061 -0.126608 0.209458 -0.0846313 -0.0669262 -0.344418 -0.104203 -0.182664 0.12843 -0.177827 -0.0815716 -0.0898613 0.181422 -0.0850775 0.383471 0.113644 0.00458509 
w10m -0.113447 -0.0318259 -0.114081 0.158355 -0.316612 0.017202 -0.239222 -0.175192 0.43494 0.00433601 0.0436676 0.38494 0.206965 0.324926 -0.107957 0.00149746 0.825491 -0.0307736 0.257675 -0.443364 0.0938827 -0.283962 -0.0113532 0.374171 0.218519 0.265326 0.101922 -0.333231 0.027047 0.154192 0.0569068 0.0992784 -0.0428173 0.143491 -0.5443 -0.237784 0.345994 0.0136923 -0.0671923 0.170835 0.727423 0.455806 0.481401 -0.175406 0.285104 0.389723 -0.29285 0.383863 0.25232 -0.199047 0.176387 -0.0295661 0.357497 0.409213 0.467515 0.34211 0.0695045 -0.674952 -0.199596 0.28224 -0.413564 -0.434374 0.240559 -0.112689 -0.230734 0.477313 0.352693 -0.130053 0.016675 0.244408 0.20194 0.284041 0.362205 -0.244361 -0.45585 0.0835328 -0.0383752 0.240499 -0.106385 -0.394624 0.0538591 -0.312042 -0.0493268 0.249717 0.153683 0.309308 0.146606 0.387421 -0.0275942 -0.257893 -0.254639 -0.479286 -0.0644714 0.327155 -0.11479 -0.161903 -0.19135 0.265853 0.127892 -0.215609 -0.856696 0.214066 -0.0197818 -0.154835 -0.264243 0.488312 -0.204973 0.358365 -0.0335974 -0.72082 0.242997 -0.261073 -0.359591 -0.12557 0.0774843 0.288704 0.350226 0.0916768 -0.113282 0.374543 -0.94435 -0.0779578 0.224621 -0.293483 -0.504904 -0.156193 0.509968 -0.0847483 0.15678 0.225364 0.60891 -0.276274 0.347307 0.319976 0.184138 0.294354 0.0992954 -0.21656 0.0390801 -0.0292114 0.303543 -0.160056 0.292611 0.0625156 -0.42557 0.11607 0.360672 -0.209537 -0.481739 0.270211 0.384227 -0.176047 0.225629 0.179369 0.212991 -0.0704331 -0.399327 -0.0388899 0.0230918 -0.265106 -0.00818532 -0.380527 -0.0353016 0.0643639 0.0788621 0.361262 -0.41328 0.236739 0.0322332 0.289106 0.422806 0.52376 -0.206265 0.368184 -0.036562 -0.0776101 0.313891 0.169515 -0.269334 0.244268 -0.0842005 -0.212478 -0.132906 0.312901 0.0159913 0.195017 0.129531 -0.229704 -0.143218 -0.252801 -0.298763 0.386273 -0.406557 0.155604 0.0935903 -0.188917 -0.1379 -0.187862 -0.40425 0.134832 
w107 0.316772 -0.215993 -0.185656 -0.00333465 0.302707 -0.167429 -0.0387063 -0.307489 0.23427 0.16069 0.151165 0.391968 0.104283 0.183191 0.00962306 -0.207389 0.313669 0.296032 0.159031 0.020586 0.450441 -0.122652 0.272957 -0.0021576 0.246892 -0.0562074 -0.290658 -0.329596 -0.0426537 -0.297446 -0.0688446 -0.129156 -0.023475 -0.0506992 -0.291231 0.0271247 0.177661 0.247638 0.020188 -0.0534317 -0.0224532 0.0354917 0.289126 -0.109329 0.0129226 0.0772005 -0.174907 -0.313404 0.203792 -0.163314 -0.143222 0.131136 0.0248387 -0.0742521 0.378296 -0.0557585 0.0175957 -0.239968 -0.178547 -0.104595 0.00872822 -0.325666 0.379984 0.147269 0.0679236 0.0293627 0.0864116 -0.00778878 -0.0949635 0.206368 -0.0144401 -0.00715419 0.206569 -0.0782471 -0.242027 0.491094 0.125274 0.0446128 0.161955 -0.131222 -0.209462 -0.0433242 -0.0730196 0.56518 -0.188045 0.142693 -0.073335 0.0623872 -0.169431 -0.158658 -0.118391 -0.240639 -0.325195 0.0343202 0.284328 -0.260305 -0.202744 0.048306 0.255975 0.0734991 -0.649399 -0.0242811 -0.0129774 -0.187982 -0.012043 0.286778 -0.141896 0.15922 -0.0808545 -0.347642 0.134798 0.230751 -0.060848 -0.0824819 0.157223 0.238146 -0.0681645 0.170536 0.0967042 -0.314222 -0.401051 0.0279097 0.104716 -0.00981667 -0.326669 0.222649 0.349067 0.0593679 0.00731067 -0.169823 0.526899 -0.124955 0.314923 0.404289 0.445183 0.0576184 0.426374 -0.293737 0.20757 0.0632351 0.291492 0.00511753 0.102466 0.184802 -0.0203792 0.0138388 0.547279 -0.00150802 -0.164236 0.0854354 0.226664 0.0931516 0.0682052 0.30692 -0.176349 -0.0905695 -0.158801 0.218798 -0.0121292 -0.0420872 0.111817 -0.373398 0.00289556 -0.0965568 0.0086739 0.171731 -0.221522 0.218591 -0.105761 0.242097 0.14714 0.168491 0.0480711 0.132225 -0.0681874 0.0923354 0.0750678 -0.145158 -0.0317295 0.495462 -0.133752 -0.234729 -0.250772 -0.00943715 0.213282 -0.200762 -0.356793 0.0648298 0.118754 -0.0232255 -0.296455 0.265696 -0.219682 -0.0694484 -0.255573 -0.0206633 0.0458606 -0.108651 -0.100418 0.22054 
w1 0.299453 -0.148143 -0.409811 0.156466 0.0185574 -0.13025 -0.324072 -0.397803 0.115169 -0.00620023 -0.0556356 0.415483 -0.194342 0.542912 -0.302047 0.00929352 0.562311 0.0335823 -0.00183501 -0.0338712 0.273444 -0.00582847 0.321339 0.194458 -0.0283102 0.0354478 -0.338293 -0.270083 -0.0909181 -0.0924602 -0.111762 -0.139152 -0.164914 0.252032 -0.207811 -0.263963 0.475017 -0.0380448 -0.189521 0.0684476 0.484141 0.38476 0.382002 0.0633535 0.0990662 0.145304 -0.139784 -0.0912702 0.143502 -0.168867 -0.0649674 0.344336 0.285504 0.370598 0.469234 0.276271 0.102641 -0.162822 -0.285741 0.358208 -0.403286 -0.362566 0.146675 0.19895 -0.38702 0.179215 0.471484 -0.0316743 -0.303241 0.29203 -0.144847 0.0774807 0.288255 -0.357743 -0.382045 0.191607 0.164012 0.452362 0.0208072 -0.43205 0.0974351 -0.274479 -0.289376 0.619211 0.0562246 -0.0935042 0.0800931 -0.142048 -0.104896 -0.0889099 -0.406466 -0.472902 -0.00630671 0.19387 0.0701696 0.00689595 -0.638511 0.475986 0.18684 0.113101 -0.709748 -0.186315 -0.0427139 -0.0922467 -0.484999 0.491248 -0.330053 0.411172 -0.225177 -0.792615 0.438354 0.0946744 -0.53643 -0.209326 -0.173015 0.318896 0.051847 0.377917 0.11449 0.145951 -0.679438 0.198704 0.0409802 -0.240301 -0.327905 0.074145 0.568533 0.247448 0.0339715 -0.691613 0.44548 -0.315257 0.365331 0.700245 0.457333 0.0413798 0.25254 -0.000111495 0.288849 -0.0609313 0.198184 -0.118848 0.45435 0.24286 -0.182195 0.207722 0.00407189 -0.326844 -0.331042 0.0105776 0.27075 0.591374 0.0875387 0.138148 0.0689292 0.00776251 -0.196248 0.427669 -0.0704909 -0.452297 -0.0459399 -0.433244 0.264301 -0.333233 0.12628 0.430608 -0.122675 0.197535 0.253728 0.445519 0.250391 0.26643 -0.113224 -0.238368 0.040938 -0.21813 -0.18608 0.159323 -0.459304 0.429412 -0.0171301 -0.0481194 -0.065735 0.360181 -0.0646566 -0.270618 0.435232 -0.0659503 0.00536289 0.144172 -0.551797 0.370229 -0.154964 -0.0307701 -0.0848295 -0.244463 0.0374414 0.317955 0.0863944 0.0725372 
V7 -0.0991387 -0.247272 -0.0481109 -0.0264243 0.185897 -0.0957284 0.215802 0.0511758 0.103938 -0.0213498 -0.166917 0.371623 0.378775 0.0180489 -0.554808 0.356692 0.0292841 0.164682 0.0853139 -0.0675929 0.227756 -0.0507578 0.4614 -0.152495 0.293322 -0.090869 -0.00203327 -0.00414101 0.370606 -0.0103155 0.0212462 0.0808898 -0.0714069 0.328684 -0.303898 -0.0462739 0.547938 0.198014 -0.126078 0.0108746 -0.110685 0.214411 0.382649 -0.0327355 -0.196681 0.681832 0.00167161 0.40821 0.28809 -0.145296 -0.168618 -0.0379309 -0.151516 0.272786 0.13163 0.183186 -0.0444848 -0.0893924 -0.189651 0.118885 -0.0818847 0.130281 0.160927 -0.0588248 0.00350714 0.0293626 0.0446606 -0.0850102 -0.136587 0.315069 0.0925709 0.0838649 0.204736 -0.245206 -0.277941 0.148495 0.139879 0.384769 -0.174984 -0.394724 -0.185731 -0.11828 0.0254824 0.342352 0.352599 0.0357795 0.364524 0.263318 0.245447 -0.0400673 -0.0256647 -0.0585009 -0.392278 0.214495 0.162612 -0.173492 0.159907 -0.119529 -0.146082 -0.153749 -0.507344 0.0726798 -0.0653802 0.07712 -0.231185 0.0276341 0.234273 0.0935733 -0.0979969 -0.234887 -0.152656 -0.0233968 0.126186 -0.228737 -0.234206 -0.0319053 0.288692 -0.141292 0.191189 -0.308496 -0.337318 -0.019113 -0.339598 0.0579382 0.0130534 0.102124 0.106029 0.0310789 -0.125818 -0.013042 0.0124417 -0.0178202 -0.16702 -0.011705 0.0239822 -0.0107385 0.284924 -0.0317175 -0.149523 0.102092 0.167395 0.241533 0.162882 -0.00741803 -0.00441258 -0.271032 -0.0658407 -0.22945 0.0495945 0.224333 -0.105097 0.432237 0.184418 -0.0565703 0.218473 0.0937684 -0.123066 0.277156 0.0256186 0.0476019 0.0607261 -0.546438 0.159851 -0.275434 -0.0280375 -0.0588924 -0.322235 0.139985 0.1594 0.0738228 0.271 0.229647 -0.0694014 0.249797 -0.377079 -0.350175 0.0195697 0.180374 -0.363894 0.445413 -0.0328498 -0.01603 0.00673778 0.38793 0.171184 -0.160551 0.0514043 -0.0974735 0.10157 -0.224327 0.0939687 -0.0323779 -0.368679 -0.0397593 -0.0442412 -0.0860661 0.123646 -0.00636184 0.219957 0.235379 
w1dim 0.0499332 -0.0146518 -0.112168 -0.0356274 0.0956295 -0.110328 0.0150118 0.07154 -0.05317 0.0331379 0.181358 0.123121 0.192712 0.178602 -0.00157406 -0.04435 0.0842041 0.115571 0.0192478 0.00725064 0.0383308 0.13001 -0.0198459 -0.128752 0.0712205 -0.0990702 -0.0909962 0.0546782 -0.00193488 -0.190897 -0.0812662 -0.0824986 0.11897 0.275995 -0.113754 0.0156019 0.186692 0.0134265 -0.0154126 0.027583 -0.115622 -0.0711837 0.155447 0.1224 -0.13191 0.203324 0.0525419 0.00288715 0.198383 -0.0314884 -0.0248853 0.16809 0.141625 0.0632466 0.0149484 0.0879397 0.119667 -0.00408802 -0.0418116 0.0358472 -0.110249 0.07803 0.190032 -0.0231491 -0.0520096 0.0804837 -0.0465346 -0.0653384 0.0739379 0.02807 -0.0491663 0.0577346 0.0815882 -0.247866 0.0781332 0.116887 0.0784268 0.191857 -0.0157379 -0.0558187 -0.165632 -0.0210611 0.0101673 0.178031 -0.116776 -0.0583665 -0.0885473 0.0451139 0.0230442 -0.0650356 -0.0893479 -0.118572 0.0145209 0.0594897 0.00356373 -0.0678761 -0.0648636 0.0272027 0.0882926 0.118725 -0.153555 -0.0556445 0.0331841 -0.0610048 0.0532484 -0.0216709 0.00108492 0.0274518 -0.166637 -0.120966 -0.00926796 -0.0885892 -0.0500534 -0.125835 -0.023308 0.0645825 0.0331775 -0.0284767 0.0134856 -0.152442 -0.0405149 -0.0807279 -0.0388543 -0.0286201 0.106918 0.122557 0.0659905 -0.0870148 -0.0768416 -0.156223 0.170238 -0.0112198 -0.0559481 0.0833318 -0.093023 -0.0659893 0.0930031 -0.113348 -0.0537552 0.0383196 0.162555 0.142218 -0.0367144 -0.0422342 0.131329 -0.120582 -0.019476 -0.068459 -0.0687426 0.231806 0.183772 -0.0383452 -0.208924 -0.0195876 0.0445144 -0.279438 -0.0837789 0.076572 -0.0182082 -0.0753081 -0.0232753 -0.107537 0.0407413 -0.0758284 -0.0627917 -0.0106728 0.0619036 0.0682814 0.0930315 0.153401 0.0579773 0.199363 0.158435 0.068872 -0.0783738 -0.0733192 0.113237 -0.16197 -0.0332417 0.0712775 0.190125 -0.147694 0.0404203 0.0509584 0.0645051 -0.0224366 -0.0976808 -0.232372 0.0402609 -0.0786246 0.175939 -0.00939742 -0.137757 0.0993075 -0.187034 2.02355e-05 -0.00760752 -0.0659379 0.0429139 0.0715387 
v -0.00873091 -0.23173 -0.440359 0.0102895 0.235467 -0.204242 0.0247765 -0.0909142 0.0710151 -0.00147104 -0.132436 0.542233 0.165331 0.317609 -0.214341 0.0403547 0.458245 -0.1848 0.182947 -0.346778 0.354803 -0.321558 0.461059 -0.0346209 0.311172 -0.0938326 -0.0693617 -0.112759 0.311815 -0.154397 -0.237598 -0.0894205 0.219087 0.183813 -0.301262 -0.136325 0.267225 0.244189 0.231123 0.101677 -0.111788 0.0255962 0.452036 0.0870552 0.0369282 0.21782 -0.356993 0.0564039 0.166048 -0.35197 0.0842059 0.233099 0.352269 0.202253 0.244853 0.0892743 0.430121 -0.00370893 -0.116524 0.303166 -0.142317 -0.04671 0.381788 -0.143285 -0.0214091 -0.00315839 0.371229 -0.0752591 -0.165373 0.47457 -0.188861 -0.247525 0.310008 -0.224918 -0.45285 0.270717 -0.0719274 0.136638 -0.0429608 -0.353225 -0.170033 0.0843367 -0.0603362 0.152651 -0.224616 0.11491 -0.0021892 0.337151 -0.183802 -0.15247 -0.247588 -0.0637083 0.0834554 0.016857 -0.192638 0.054482 0.161452 0.164725 0.259976 -0.0759193 -0.539439 0.401046 -0.156653 0.067144 0.0351905 0.106991 -0.0131199 0.0676632 0.0829003 -0.60348 0.205024 0.154926 -0.306867 -0.400943 0.141842 0.309069 0.0406498 0.03608 0.0752297 -0.239566 -0.53414 -0.0184594 0.0799645 0.00665572 -0.348769 -0.327943 0.0665867 0.0930056 -0.109368 0.000931305 0.541786 0.0408963 0.0625892 0.112831 -0.178386 -0.0544259 0.102557 -0.13551 -0.00509404 0.086199 0.285734 0.00901488 0.438426 0.143824 -0.167576 0.00316486 -0.170896 -0.0293548 -0.14383 -0.145146 0.231082 0.0594083 0.242622 0.189756 0.0197239 -0.215552 -0.134445 0.113065 -0.0992699 -0.12336 0.0440363 -0.231938 0.0325407 -0.0322063 -0.18267 0.198789 -0.0215945 -0.0445681 -0.274559 0.220845 0.0839654 0.302944 -0.10175 0.259845 -0.0774371 0.124221 0.259994 -0.229306 -0.408814 0.0943494 -0.138235 0.243175 -0.258513 0.209091 -0.015464 -0.29925 0.0211352 0.110472 -0.0898394 -0.149609 0.102866 0.0597395 -0.067108 -0.176459 0.00759423 -0.12599 -0.526847 -0.0763128 -0.0910048 -0.0606774 
V -0.0680108 0.0541868 -0.0897853 0.141071 0.0186457 -0.338744 -0.166025 0.0291415 0.154975 -0.00029106 -0.0476535 0.00512413 -0.0867028 0.222825 -0.123563 0.206295 0.0445914 0.00759526 0.163425 0.0767409 -0.175023 -0.0809896 -0.0110094 -0.0710607 0.211167 0.068544 -0.0444802 0.232739 0.3169 0.0798268 0.116281 -0.0559229 0.110723 -0.0855711 -0.311519 -0.1251 0.301032 -0.183929 -0.0740175 0.0756555 0.00391832 0.58525 -0.0670641 -0.0771185 -0.0309758 0.104583 -0.0542782 0.108143 -0.0605587 -0.285794 0.0679338 0.203682 0.224467 0.165611 0.0628299 0.131568 0.318633 -0.204449 -0.0117078 0.0785881 -0.336902 -0.326579 0.221964 -0.0572391 -0.120044 -0.0172657 0.145461 0.0789622 -0.0501644 0.303782 -0.198754 -0.227071 0.262007 -0.129929 -0.0961483 0.0342635 0.138823 0.0597059 0.168669 -0.119658 -0.115705 -0.061153 -0.0077629 -0.0555953 0.0967152 -0.0134634 0.295531 -0.00723552 0.164426 -0.311484 -0.164853 -0.242372 -0.304252 0.0572511 -0.0504873 -0.0497602 0.071869 -0.0528546 0.195258 -0.0323649 -0.160506 0.191055 0.0471135 -0.269282 -0.255295 0.0163947 0.200332 0.0780732 -0.155712 -0.0890472 -0.120227 0.121639 -0.133206 -0.171336 -0.035571 0.109129 -0.0591481 0.112723 -0.00144568 0.0526349 -0.143817 0.0671116 -0.0991875 0.0621633 -0.287376 -0.0589863 -0.0246449 0.0461679 0.0425732 -0.057318 0.306579 -0.135841 -0.00986185 0.110257 0.129981 -0.0836159 0.377552 -0.0686482 0.0995987 0.0167572 0.142342 0.199356 0.199684 -0.0241902 -0.019975 -0.0986559 -0.0847613 -0.0753558 0.017091 -0.272293 -0.0308058 0.404383 0.0880037 0.0125802 0.250648 0.0539057 -0.159818 0.262661 0.257575 0.00766354 0.251019 -0.355071 0.32338 -0.0811723 -0.0277336 -0.0540098 0.0993036 0.230101 -0.00703531 -0.0605785 0.0548525 0.164746 -0.0418668 0.0814625 -0.0211904 -0.0225853 0.00216435 0.0999867 -0.0168192 0.289435 -0.0255777 -0.0415673 -0.00818384 0.159335 0.281778 -0.370921 -0.172928 -0.139819 -0.109921 -0.148635 -0.0116587 0.104169 -0.0458588 0.0333892 0.150573 -0.171672 -0.000478245 0.170759 -0.0322601 0.149377 
w8m -0.106488 -0.324363 -0.367072 -0.140721 -0.192424 -0.410541 -0.409048 0.0104032 0.184093 0.0410464 0.42319 0.187011 0.00603263 0.13745 0.0658815 -0.0800047 0.221137 0.0297189 -0.123177 -0.232561 0.0328 -0.224575 0.26773 0.310083 0.292304 0.142487 -0.154995 -0.117904 0.212882 -0.120601 -0.33519 0.115932 -0.0433601 -0.0861733 -0.238239 -0.0946973 0.393323 0.122291 0.0681259 0.125537 0.363945 0.291558 0.0722102 -0.30348 -0.0167853 -0.0572617 -0.182984 0.306945 0.165086 0.0399358 -0.0366096 0.508042 0.442075 -0.100613 0.111984 0.268098 0.191581 -0.179283 -0.229467 -0.0892526 -0.09831 0.116111 -0.00263776 -0.14063 -0.397084 0.216725 0.312176 -0.260613 0.072459 -0.193864 0.242643 -0.0101199 0.132008 -0.440535 0.137408 0.0581895 0.380323 0.0874982 0.250472 -0.278137 -0.301579 -0.0156581 -0.284758 0.354254 -0.134459 0.210386 0.0674617 0.0166239 -0.323575 -0.0712496 -0.107597 -0.257172 -0.0611792 0.234672 -0.116797 -0.0885154 -0.172293 0.306058 0.234023 -0.317628 -0.105125 -0.100854 -0.24109 -0.325583 -0.122236 0.177246 -0.205592 -0.15609 -0.348256 -0.572584 0.368462 -0.0266888 -0.324872 -0.144948 -0.101232 0.0415912 0.0580565 0.229056 -0.273602 -0.240493 -0.401822 -0.0332044 0.260622 0.0166187 -0.337648 -0.172196 0.265274 -0.11332 0.175997 -0.198727 0.549906 -0.463951 0.294949 0.152484 0.28903 -0.209344 0.300404 -0.212305 0.0545547 -0.378126 0.05536 0.238129 0.0573252 -0.189268 0.00516778 0.268247 -0.0544483 -0.0135018 -0.173906 0.18594 0.479952 -0.0440507 0.107584 0.100641 -0.0723206 -0.261096 -0.173258 0.392384 0.206608 0.131133 0.20351 -0.317297 0.185772 0.111304 -0.313966 0.0997095 -0.0379344 0.498153 0.342585 0.554468 0.106589 0.172852 0.0179133 -0.0712078 -0.186655 -0.138435 -0.175691 0.0940545 -0.116957 0.0876818 0.19997 -0.369922 -0.0615132 0.484948 0.0570887 -0.147066 -0.198992 -0.176746 -0.288939 0.029096 -0.00166526 0.115475 -0.270703 -0.0141234 0.561529 0.226467 -0.0769415 0.213157 -0.0561674 0.056211 
w3m -0.378248 -0.00452223 -0.539117 -0.0119247 0.153863 -0.00221924 0.101556 -0.127631 0.465605 -0.0596085 0.146052 0.0958258 0.0119064 0.359445 0.136491 -0.0539346 0.218073 0.138274 0.292741 -0.0616674 0.210561 -0.425069 0.330183 -0.0542353 -0.109042 0.32132 -0.191596 -0.298437 0.0888866 -0.157419 -0.351577 0.0614022 0.168395 0.0262085 -0.152933 0.187433 0.567337 0.10888 0.0871394 -0.0926389 0.115571 -0.102949 0.221111 -0.367919 -0.0671567 0.0859872 0.0848299 0.252528 0.244977 -0.12331 0.298911 0.473536 -0.199054 -0.0945122 0.415199 0.112935 0.179806 -0.0608264 -0.331574 -0.097608 -0.331391 -0.175112 0.522771 0.100671 -0.0202817 0.150322 0.40513 -0.078815 -0.206246 0.141991 0.225579 0.0614907 -0.08778 -0.283211 -0.0862241 0.33231 0.0581027 0.216433 -0.0635716 -0.295431 -0.362073 -0.313046 -0.0141547 0.0790522 0.0916444 0.211227 -0.160711 0.260112 -0.0882624 -0.287667 -0.0987337 -0.228476 -0.335122 -0.0360993 -0.0124437 0.0203849 -0.157692 0.203841 0.16388 -0.242915 -0.45021 0.450556 -0.175547 0.33133 -0.0596298 -0.0236315 -0.103843 0.42777 -0.0235513 -0.263248 -0.10648 0.0896882 -0.501115 -0.130696 0.00214016 0.137284 0.196236 0.164951 0.236537 0.152671 -0.550995 0.206323 0.187461 -0.0791009 0.0769652 0.162368 0.276809 -0.00647868 0.29065 -0.0711531 0.486382 -0.256181 0.19525 0.0874155 0.0409594 0.00958108 -0.140194 -0.388711 0.00660721 0.345562 0.124092 0.138764 0.276854 0.060119 -0.209793 0.100481 0.0426407 -0.11577 -0.36334 -0.00884098 -0.00468045 0.0623635 0.0203923 0.286548 -0.267299 0.117584 -0.251172 0.156371 -0.208346 -0.324071 0.206147 -0.204401 -0.236458 0.0165932 -0.123689 0.325322 -0.31365 0.324851 0.0329079 0.106667 0.360452 0.249728 0.0391905 0.235871 -0.176232 -0.101771 0.237509 0.107238 -0.194379 0.0764099 -0.136654 0.17818 -0.083304 -0.161507 0.112763 -0.315912 -0.105165 -0.195034 -0.139219 -0.140879 -0.0370309 0.389005 -0.296629 0.134876 -0.431116 -0.180634 0.331921 0.143371 0.352036 0.0717208 
VIdim 0.0277338 0.00606681 -0.0162803 0.0103943 0.0289616 -0.0523344 -0.0782857 0.0122562 0.0388543 0.0110958 0.0962825 0.0825879 0.0600373 0.0478867 0.0623058 -0.00520529 0.060245 0.0253367 0.0867724 0.0288467 -0.0186675 -0.0580341 -0.0132746 -0.0361294 0.00792115 -0.0441876 -0.0668497 0.0229974 0.0537821 -0.0623139 0.0224387 0.0275473 0.0643032 0.0635122 -0.0356632 0.0262515 0.0525325 0.0197056 -0.0188176 -0.00791528 -0.0109313 0.0381769 0.0783911 0.013882 -0.0395104 0.0734728 0.082828 0.0829234 0.0895167 -0.042759 0.0118357 0.0701987 0.061948 0.0135616 0.0289787 0.0565225 0.0784747 -0.0262731 -0.0202019 -0.0129233 -0.0156375 0.00344593 0.0837833 0.0273278 -0.100269 -0.00810769 -0.0451214 -0.0289126 0.0420755 0.0328549 -0.011264 0.0110035 0.0215447 -0.109729 0.0510656 0.0165799 0.0716308 0.012226 0.00815225 0.0155789 -0.0702512 -0.0798567 0.0423771 0.088911 -0.0954238 0.0180531 -0.0651653 -0.0323173 0.0306024 -0.0501384 -0.0701206 -0.0862354 0.0328006 0.0591751 -0.00976384 -0.0310811 -0.0308962 -0.0367767 0.0560782 -0.0510304 -0.112153 0.066522 0.0288954 -0.0235577 0.0331458 -0.0187389 0.00957191 0.0165402 -0.0876911 -0.0810655 0.0153349 -0.00112349 -0.0393519 -0.0659024 0.0591026 0.0964548 0.00412283 -0.0434782 -0.0112099 -0.125275 -0.00574993 -0.0338686 0.0140284 -0.0455454 -0.0156357 0.0929625 0.0530092 0.00196704 -0.0791039 -0.0719999 0.078904 0.0330862 0.0142856 0.0459704 -0.0242187 0.0157989 0.0551939 -0.0868797 0.0134908 -0.0446276 0.11862 0.0611581 0.0169778 0.0224303 -0.00749171 -0.081014 0.0233263 -0.0501554 -0.0460338 0.0937816 0.0413363 0.0474608 -0.0512007 0.039644 0.0539087 -0.0894668 -0.0548237 0.0281029 -0.0238258 -0.0413691 0.0258861 -0.0690528 0.0464648 0.0209219 0.0372306 0.0112033 -0.0374057 0.0731266 0.0420579 0.0335467 0.0232714 0.0873683 0.0295611 0.0446948 -0.104889 -0.0299158 0.041609 0.00553379 0.0145542 0.0739971 0.0527831 -0.100999 0.0239921 -0.0119728 0.0202667 -0.0388652 -0.0790892 -0.165293 -0.0180226 -0.0345745 0.0922445 0.0554494 -0.105386 0.0229904 -0.0355358 0.00676616 -0.0134411 -0.00269995 -0.0309673 0.110611 
ii 0.0159855 -0.0421544 -0.123405 0.0366337 0.165689 -0.0935655 -0.0873642 -0.154267 -0.0387658 0.265641 -0.115962 -0.00145421 0.138836 0.477385 -0.0208099 0.272424 -0.00308227 -0.00597684 0.126802 -0.0963358 0.121488 -0.079902 0.177685 -0.119026 0.107839 -0.0234006 -0.124034 0.0985539 0.033622 -0.0063667 -0.0204082 -0.0204696 0.142925 0.206695 -0.0511198 -0.00466742 0.132812 -0.142285 0.0774139 -0.0869531 -0.0446682 0.151714 0.207221 0.0742548 -0.0413355 0.0913196 0.160921 0.0749762 0.169394 -0.116504 0.138904 0.344175 0.0381064 0.201769 0.0447575 0.252502 0.136819 -0.216508 -0.216555 0.0875843 -0.147713 -0.116211 0.325197 0.0843165 0.0334698 -0.143809 0.303906 -0.00536883 -0.0176185 0.185009 -0.0528762 -0.0337825 0.218056 -0.129099 -0.238696 0.139426 -0.0719211 0.243982 0.220304 -0.0782943 -0.206118 -0.0155118 -0.0624099 0.0769061 0.00296587 0.230465 0.0288405 0.187865 0.0674547 -0.0821571 0.133284 -0.300227 -0.119711 0.242952 0.000101461 -0.0490852 0.319646 0.0635598 0.379509 -0.0475939 -0.246062 0.334685 0.101227 -0.316057 -0.123411 -0.0647509 0.185812 -0.100266 -0.070774 -0.0355258 -0.0099282 -0.0510135 -0.233938 -0.200422 -0.0395175 -0.0986863 0.112082 -0.046416 0.122674 -0.139552 -0.0905533 0.0523689 0.0320019 -0.00841703 -0.110905 0.101909 -0.0715123 0.105174 0.0912682 -0.0936623 0.185213 -0.3126 -0.0382744 0.0245401 -0.0130775 0.157557 0.246712 -0.047619 0.0405122 -0.0453205 0.300653 0.0338941 0.170071 0.0542825 -0.0230889 -0.200497 -0.0379146 -0.20618 -0.0742272 -0.18878 0.110588 0.047511 0.0868008 0.0653469 0.270942 0.00173614 -0.1277 0.164683 -0.00074924 0.0695856 0.12959 -0.375943 0.109635 0.111467 -0.134641 0.269167 0.0575625 0.183637 -0.0341993 0.100142 0.0983743 0.238036 0.160831 0.0752786 0.0246422 0.110885 0.0333625 0.179636 -0.207479 0.00971858 -0.1071 -0.0950428 -0.10162 0.105438 0.11363 -0.271427 0.0595436 -0.127663 0.041291 -0.14532 0.128846 0.1782 -0.277705 -0.0652806 -0.011344 -0.133303 0.0414667 0.118328 -0.030398 0.236167 
IV -0.157114 0.0799558 0.10028 -0.0563088 0.0870685 -0.0608721 -0.260897 -0.110018 0.147267 0.243905 -0.0325567 -0.0510028 0.191924 0.263394 -0.277992 0.106706 -0.136953 0.120291 0.169981 -0.025455 0.0552269 -0.028786 0.135807 -0.0447596 0.110809 0.196996 -0.113681 -0.00726686 0.382137 -0.110725 0.0163232 -0.0219983 -0.0496435 0.0830763 -0.254083 -0.318082 0.165454 -0.110056 -0.127515 -0.114968 0.00439188 0.306246 0.0554477 -0.0871701 -0.00210322 0.0955201 -0.083114 0.159216 0.166658 -0.241602 0.0784567 0.132762 0.112247 0.0528491 -0.103768 0.264078 0.345827 -0.288824 -0.0946394 0.15051 -0.312495 0.0415339 0.273895 -0.205881 -0.145948 0.0841197 0.272252 -0.0806262 -0.254455 0.285167 -0.142496 0.146513 0.0988885 -0.0539651 -0.149851 0.0642732 0.0191091 0.189848 0.105708 -0.194608 0.00895382 -0.0749127 -0.106647 0.186836 -0.0372328 0.0323613 0.295262 0.128109 0.138429 0.124877 0.0342587 -0.0349192 -0.157958 0.416107 0.190059 -0.172102 0.211164 0.0606707 0.180577 0.0760821 -0.284764 0.223534 0.0591997 -0.286574 -0.161981 -0.107639 0.0588145 -0.0845537 -0.192385 0.00777315 0.120364 0.120435 -0.271079 -0.428904 -0.0734254 0.000937826 0.0407336 -0.00851504 -0.0233783 -0.310383 0.013977 -0.00223489 0.213081 -0.0145738 -0.0470485 0.120305 -0.0420579 0.00816511 0.0798853 -0.0477935 0.268084 -0.0113005 -0.0268601 0.145317 -0.0233003 0.028826 0.160786 0.0328805 0.0812717 0.0110514 0.066019 -0.0260936 0.0528127 0.25467 -0.10464 -0.0669783 -0.1064 0.0741047 0.0425443 -0.473057 0.0239984 0.102833 -0.0427144 0.0582366 0.132887 0.0616171 0.0946091 0.427068 0.173519 0.179371 0.0864083 -0.535125 0.105305 0.140613 0.233893 0.31183 0.0710132 0.150699 0.071729 -0.0449618 0.272322 0.358539 -0.114931 0.129531 0.0517603 -0.147186 0.132457 0.26396 -0.253356 0.167199 -0.0305174 -0.159257 -0.146876 0.385082 0.0977458 -0.147607 -0.102996 -0.133023 -0.105017 -0.084264 0.102205 0.196874 -0.217293 -0.178716 0.0680904 -0.167938 0.0164 0.207618 -0.195968 0.181679 
w0 0.0365716 -0.06285 -0.304602 0.0878271 0.222685 -0.135234 -0.282363 0.0669032 0.047192 -0.0248923 -0.0182387 -0.0500962 -0.0407708 0.302696 -0.148237 0.147262 -0.0804446 -0.103364 0.277735 -0.0845326 -0.0709205 -0.106616 0.278628 -0.0057304 -0.0226657 -0.0831518 0.0348448 -0.0925269 0.273506 -0.0925471 0.0454387 -0.0235524 0.0956447 0.171637 -0.0575567 -0.0403352 0.196441 -0.0631305 -0.0193704 -0.038186 -0.157955 0.421447 0.241794 -0.0854614 0.0051731 0.193014 0.0865462 0.180488 -0.0248249 -0.324032 0.109181 0.0332139 0.0847579 0.0985526 0.015636 0.212899 0.120056 -0.0920436 -0.145891 0.22114 -0.109923 -0.290766 0.265013 0.0385063 -0.0911611 -0.300719 0.30943 -0.00851374 -0.134176 0.166203 -0.106293 0.130341 0.0669979 0.0929962 -0.143833 0.12876 0.239365 0.0873476 0.276935 -0.163709 -0.180019 -0.0526458 -0.0588077 -0.0190815 0.0405422 0.20356 0.222382 0.127495 0.091124 -0.106917 0.0817008 -0.234545 -0.158213 0.397448 -0.0783413 -0.0931882 0.281635 -0.0462746 0.335359 0.0896265 -0.18324 0.0949513 0.0676261 -0.163602 -0.0885585 -0.0248148 0.0543142 -0.0870509 0.0607169 -0.26208 -0.0440226 -0.0492548 -0.229948 -0.12381 -0.0601379 -0.0334986 0.0800426 -0.183613 0.0311947 -0.0859856 -0.00440375 -0.0864248 0.127271 0.00487302 -0.224886 -0.0115186 0.106522 0.0654123 -0.0305429 0.00247728 0.286144 0.0821403 0.168131 0.29327 -0.0352067 -0.0165967 0.203484 0.0366436 0.00748195 0.10727 0.0982615 0.0426485 0.245716 0.200933 -0.0585994 -0.270861 -0.0124904 -0.158052 -0.113142 -0.202406 0.195037 0.35743 0.0258269 0.118915 0.109323 0.0663234 0.103206 0.137164 0.254272 -0.07262 0.0586951 -0.317569 0.0803062 -0.0608669 -0.0191656 0.0521682 0.0949009 0.134016 -0.0656863 0.149433 0.0522138 0.376547 0.0219621 -0.114737 0.0130184 -0.152408 0.0149713 0.128009 -0.225272 0.236581 -0.0455389 -0.144451 -0.0580059 0.0892735 0.255899 -0.133258 -0.0955114 -0.146032 -0.034256 -0.171185 0.0195793 0.000269754 -0.290657 0.18968 -0.00322105 -0.131018 -0.0810176 0.0319838 -0.000119019 0.00782304 
vii -0.00803443 -0.356196 0.0124966 0.133455 0.329732 -0.081766 -0.514567 -0.0359339 0.0928669 0.368823 0.243207 0.196249 -0.0573644 0.237769 0.240301 -0.0178056 -0.271998 0.045678 0.152059 -0.140408 -0.0394944 -0.0745691 -0.173069 -0.300869 0.116895 0.239975 -0.629043 0.0888502 0.190205 -0.0773826 -0.294836 0.0183468 0.136608 0.23448 -0.558719 -0.291238 0.178407 -0.165823 0.206344 0.149579 0.00433173 0.367826 0.13677 -0.0837528 -0.136442 0.132852 -0.182441 0.0191453 -0.12215 0.241595 0.170745 0.358864 -0.108527 -0.321405 0.340678 0.359626 0.200906 -0.0409724 -0.157504 -0.0558527 -0.413638 0.223769 -0.0178308 0.021752 -0.12642 -0.199454 0.478803 0.263652 -0.00147839 0.101389 -0.253152 -0.192325 0.379824 -0.325763 -0.456207 0.0361699 -0.151692 0.113356 -0.0146637 -0.30457 -0.464065 -0.38158 -0.21593 -0.254428 -0.180312 0.387125 0.0615346 0.13435 -0.0562753 0.00629889 0.0713078 -0.413455 0.0297478 0.48539 0.202064 -0.118624 0.00733934 0.468406 0.383094 -0.131602 -0.347667 0.239559 0.148091 -0.130768 -0.328806 -0.258498 0.0970253 0.258001 -0.00581102 -0.563544 0.232617 -0.095064 -0.273339 -0.453264 -0.170104 -0.125504 0.0613932 0.0932764 0.0869738 -0.215112 -0.643943 0.104761 -0.00883367 0.062873 -0.060552 0.0955382 0.208909 -0.0246518 0.0950611 -0.515358 0.624863 -0.176895 0.298897 0.189417 0.44396 -0.318474 0.110746 -0.284042 0.255843 -0.427266 0.343349 -0.144916 0.130794 -0.21949 0.160773 -0.201871 0.208874 -0.0929196 -0.297654 -0.313865 0.149356 -0.115063 -0.131694 0.0853242 -0.0383007 0.248655 -0.151903 0.199313 0.280321 0.166707 -0.138063 -0.187865 0.284678 -0.0695833 -0.149925 0.0138109 0.327893 0.349255 0.106386 0.292488 -0.013551 0.0766952 0.19322 -0.226621 0.274134 0.0329335 0.233619 0.242958 -0.183496 0.286745 0.305166 -0.0319632 -0.215186 0.129562 0.174008 -0.288727 -0.197899 -0.00849345 0.0211503 -0.179173 -0.211226 0.338618 -0.425644 0.111287 -0.157159 -0.299058 -0.0313126 0.184546 -0.0498668 0.26141 
III7 -0.154577 0.159167 0.23068 0.0456659 0.224104 -0.210193 0.098247 -0.0714475 0.0216041 0.282335 0.0470766 -0.189988 0.210638 -0.0150183 0.000842765 0.182589 0.0284426 -0.00692456 0.508669 0.00276014 -0.14075 -0.33555 -0.0734208 -0.208959 0.163756 0.0084203 -0.293871 0.268398 0.228395 0.237013 0.0513208 -0.226367 0.14569 0.173369 -0.320857 0.322983 0.168529 0.181466 0.183834 -0.122598 -0.124286 0.505336 0.216706 0.155941 -0.0430074 0.395224 -0.115545 0.211781 -0.0247309 -0.0894271 0.0692979 0.262758 0.408012 -0.0339965 -0.110469 0.316256 0.45737 0.157333 -0.0402062 0.35471 -0.241246 0.0620912 0.106246 -0.166186 -0.253286 -0.168781 -0.0741811 0.154797 0.0877636 0.228583 -0.0675381 0.233779 0.307721 -0.191747 -0.345482 0.154485 0.138091 0.0649899 0.243805 -0.0656246 -0.275399 0.0160799 0.0496312 0.240632 0.0594379 -0.161922 0.443929 0.227119 -0.157738 0.160216 -0.308562 -0.171383 -0.393981 0.172861 -0.222348 0.418912 0.108121 0.0982862 0.287461 0.0456554 -0.477042 0.04239 -0.0110444 -0.478041 -0.191614 0.394812 0.319099 -0.153575 -0.00885758 -0.334467 -0.0919102 -0.241712 -0.271774 -0.244072 -0.254809 -0.156488 0.107955 -0.23571 -0.170703 -0.160158 -0.238409 0.257643 -0.156425 0.371228 -0.439461 0.0962187 0.0808057 0.122044 -0.0379577 -0.167473 0.407378 -0.0448241 0.038487 0.151205 -0.00944937 -0.0975199 0.0916285 0.0109481 0.11064 -0.161892 0.284699 -0.131035 -0.027248 -0.0936882 0.435679 -0.230737 -0.184985 -0.471847 -0.00719888 -0.327502 -0.028514 -0.0734099 0.346013 0.22447 0.227088 0.0802501 -0.17109 0.0400308 0.462118 0.164873 0.392253 -0.56542 0.242023 0.00431239 0.206461 -0.0310352 0.232968 -0.290208 0.0829691 -0.0705272 0.056764 0.43018 0.107879 0.00926414 -0.276162 -0.0688188 0.0357876 0.0445535 -0.261925 0.0203451 -0.284697 -0.408694 0.0101407 0.213854 0.339926 -0.0764232 0.235054 -0.124537 0.213783 -0.435404 0.131436 0.258186 -0.285115 0.101251 -0.035263 -0.238237 0.317095 0.0628039 -0.344705 0.363041 
II -0.0515842 -0.20943 -0.0559422 0.0277117 0.165946 -0.149902 -0.0976215 -0.00257582 0.219624 -0.0861374 0.0515211 0.0715211 -0.00991733 0.404708 0.141026 -0.129591 -0.0171307 0.0776243 -0.161763 -0.168348 0.0763765 -0.320772 -0.2428 -0.267289 0.0993822 0.0529042 -0.175353 0.0830429 0.274143 0.0147609 -0.0145956 0.0163187 0.139981 0.108655 -0.0867959 -0.288648 0.10152 0.0245295 0.0956815 0.108842 0.126025 0.187944 0.194839 -0.0707733 -0.205471 -0.254174 0.116193 0.121032 0.0318515 -0.0168928 0.0926332 0.0350286 -0.0861698 -0.0490771 0.0188561 0.11816 0.164754 -0.223084 -0.207566 0.00894185 -0.172189 -0.131596 0.2504 0.134754 -0.114951 0.168965 0.442437 -0.0933687 0.0659783 0.258513 -0.122655 0.119159 0.263632 -0.130744 -0.0882953 0.38547 0.12415 0.0792216 0.210118 0.253624 -0.301952 -0.22809 -0.0946952 -0.1351 -0.390525 0.145812 0.228675 0.00376627 -0.138394 0.0241467 -0.0349552 -0.356024 0.0532562 0.303357 0.00372193 -0.132524 -0.0124517 0.294226 0.209347 0.00643394 -0.30761 0.287379 0.141023 -0.403574 -0.234873 0.016549 0.1574 0.0434505 0.0726452 -0.344806 0.193746 -0.00164375 -0.381082 -0.132214 -0.0799337 -0.0166595 -0.29166 0.0620692 0.0835559 -0.0455611 -0.362172 -0.00957801 0.106128 0.0403182 -0.455053 -0.132211 0.225926 -0.00511217 0.126926 -0.134162 0.345912 0.0521803 0.177548 0.28977 0.0150264 -0.117386 0.00642809 -0.164462 -0.171749 -0.386846 0.24149 -0.162228 0.139073 0.013435 -0.071036 -0.265103 0.0157808 -0.0173126 -0.151382 -0.225169 0.24347 0.041564 0.0206695 0.285222 0.127753 0.143659 -0.18893 0.255247 0.174247 0.159177 -0.0893637 -0.243619 0.325138 -0.00239282 -0.126885 0.0513021 0.167946 0.28842 -0.0450905 0.317213 0.121351 0.216313 0.110244 0.202119 0.0286715 -0.178248 -0.093495 0.13898 -0.262916 0.000289456 0.171433 -0.209271 -0.289469 0.020226 0.020443 -0.302764 -0.175655 -0.299075 -0.121727 -0.0118782 0.016771 0.370344 -0.224149 0.102109 0.172735 -0.145818 0.00044583 0.389612 0.20059 0.196707 
w17 -0.0162316 -0.287829 0.00279263 -0.173394 0.0972406 -0.291754 -0.188028 0.0883501 0.287511 0.0215631 0.114229 0.224436 0.192549 0.0578112 0.0196578 0.190777 0.101239 -0.094 0.0729041 0.0609625 0.219503 -0.0380943 0.284221 0.0484529 0.274817 0.17879 -0.270311 -0.0998181 0.18205 -0.213575 -0.136855 -0.32076 0.243313 0.134304 -0.124332 0.269249 0.422643 0.146401 0.0577703 0.17318 0.251029 0.0352782 0.245215 0.103374 0.103588 -0.0332869 0.204245 0.121796 0.198962 0.0452434 -0.0335569 0.294025 0.170178 0.212953 0.261366 0.252888 0.12563 -0.145131 0.0731619 0.125118 -0.0956296 0.0983404 0.119746 0.348583 -0.166555 0.0528674 0.0756151 -0.0117067 0.153473 -0.131761 -0.286825 0.167194 0.191594 -0.179084 -0.200606 0.39599 0.121962 0.15341 0.0441148 -0.142022 -0.276273 -0.16632 0.0708475 0.228452 -0.132391 0.190786 -0.294847 0.0380676 0.0736999 -0.048387 -0.0453594 -0.0815622 -0.00115994 0.202834 -0.0636445 -0.342698 0.104803 0.309475 0.064111 -0.0681263 -0.345253 -0.0893176 0.0860891 -0.409714 -0.0564611 0.0643319 0.0470782 0.0580826 -0.238586 -0.489659 0.157263 -0.0598451 -0.226759 0.0230052 -0.0760979 0.15555 0.132802 -0.112837 -0.0397157 -0.335424 -0.326236 0.0252165 -0.0774541 0.00172191 -0.281116 0.070951 0.104434 -0.0982828 -0.00248831 0.0694065 0.134121 0.0583956 0.0841654 0.33574 -0.0337403 -0.087448 0.41006 0.0028393 -0.015995 -0.181063 0.36375 -0.138996 0.0557144 0.318355 -0.266399 0.106945 0.224105 -0.159193 -0.222501 0.0294333 0.0393983 0.14135 -0.13495 -0.0296537 0.060852 -0.143529 -0.169404 0.167926 -0.0544594 0.0239486 0.245715 -0.0668416 0.210189 -0.30417 -0.0717311 0.161004 -0.205612 0.324651 0.097047 0.366023 0.164693 0.138412 -0.00510206 -0.00355727 -0.0903985 -0.187181 -0.165954 -0.170022 -0.407628 0.155334 -0.14006 -0.088918 0.034387 0.172278 0.0724816 -0.245744 0.0106334 -0.123886 -0.350935 0.0114123 0.0612548 0.135175 -0.166583 0.143212 0.0486041 -0.0334562 0.210486 -0.154337 -0.0400875 0.266973 
II7 -0.10541 -0.388741 0.109189 0.22773 0.342042 -0.0685268 0.0241273 0.0213358 -0.00805556 -0.0354653 0.172195 -0.134478 0.0888668 0.0847025 -0.0492433 0.333973 0.251211 0.026195 0.182714 0.0224015 0.233833 -0.14563 0.126277 -0.216858 0.0626995 0.404471 -0.271066 0.232153 0.334748 -0.175138 -0.157527 -0.176683 0.20687 0.324766 -0.0747534 -0.0375358 0.322731 0.228029 0.0556163 -0.15783 -0.156928 -0.0089513 0.428771 0.253806 -0.212354 0.11778 -0.132815 0.169679 0.1346 -0.0681206 -0.123056 0.0365681 0.263718 -0.0113537 0.015722 0.134497 -0.0871622 -0.33385 0.0311412 0.402696 0.0166332 0.0707654 0.183757 -0.0429567 -0.116743 -0.111856 0.125155 -0.201328 -0.0435069 0.251569 -0.0875592 -0.144629 0.525724 -0.253821 -0.387369 0.369794 0.161983 0.150352 0.180134 -0.134615 -0.0133284 0.0306979 0.173884 0.111548 0.062423 0.165107 0.104098 0.204203 0.324415 0.164495 0.0316314 -0.211669 -0.174509 0.26388 -0.0631532 -0.0964199 0.258637 0.0035892 0.250817 0.20529 -0.51362 0.147956 0.155968 -0.445964 -0.499233 -0.152446 0.286147 -0.16447 -0.186181 -0.136452 -0.0174684 -0.148498 0.0234722 -0.240907 0.0157734 -0.185312 0.0310497 0.136848 -0.0207376 -0.114288 0.00425354 -0.0864237 -0.205195 0.152913 -0.0865005 0.127214 -0.115326 0.030333 -0.0887106 -0.146671 0.36509 -0.0636847 -0.0282593 0.38825 0.00217004 -0.0553904 0.51668 -0.00377894 0.133897 0.109141 0.130207 0.113386 -0.095328 0.0030729 0.130772 -0.273066 0.0932616 -0.394676 0.218614 -0.209317 0.0692679 0.287351 0.122388 -0.0170645 0.391597 -0.0660878 -0.377362 0.183819 0.1672 0.311596 0.170647 -0.36958 0.121739 -0.166695 -0.265967 0.119301 0.0486068 0.145747 0.435354 0.0816547 0.106172 0.340202 0.30435 -0.342434 -0.248808 -0.23076 0.116183 -0.0244474 -0.130009 0.340669 0.0529455 -0.196951 0.0443613 0.355801 0.140351 -0.415359 0.0614807 -0.17297 0.161114 -0.0800479 -0.0274013 0.0164958 -0.307993 -0.148392 -0.0925775 -0.161809 0.128937 -0.0846667 0.211462 0.34959 
III -0.0315299 0.135468 0.0464768 0.149694 0.0222879 -0.250406 -0.354668 -0.14752 0.00875043 0.0680834 0.0998781 -0.15118 -0.416168 0.206799 0.157085 0.0816514 -0.107886 0.182776 0.241419 0.106052 -0.00121696 -0.110139 -0.101532 -0.108281 0.0859017 -0.284909 -0.308711 0.142423 0.0834643 -0.000355049 0.157751 -0.126254 -0.0630831 -0.0693136 -0.257173 -0.0849176 0.102032 0.0232937 0.184938 -0.0990869 -0.136003 0.600822 0.072918 -0.110419 -0.114489 0.20819 0.0329075 0.206538 -0.206181 -0.258436 0.266271 0.144241 -0.047332 -0.178841 -0.0289291 0.128458 0.262871 -0.279098 -0.149929 0.0453194 -0.362199 -0.372137 0.106646 0.0169555 -0.13264 -0.195233 0.230305 0.174486 0.0134152 0.0179946 -0.246396 0.0309971 0.165409 0.031324 -0.192442 0.147884 0.244969 0.111726 0.00756353 -0.187675 -0.0160824 -0.121916 -0.155971 -0.0295302 -0.050016 -0.101664 0.293877 0.074759 -0.267278 -0.112887 0.026715 -0.289083 -0.000608586 0.0240418 -0.0423206 -0.185098 -0.163036 0.384526 0.206841 0.00641487 -0.266987 0.124262 0.264301 -0.341703 -0.279 -0.0017168 0.224197 -0.0902262 -0.123679 -0.206517 0.101088 -0.0800841 -0.220078 -0.204882 0.00257135 -0.00628825 0.0236399 0.216924 0.0690192 0.264265 -0.0475211 -0.190281 -0.00577512 0.138146 -0.275174 -0.117753 0.359816 0.294584 0.0591637 -0.0373227 0.480767 -0.056114 -0.0954423 0.206339 0.210159 -0.218838 0.413028 -0.0924946 -0.0198147 -0.268143 0.132698 0.0995418 0.0617962 -0.0687097 0.184901 0.0333483 -0.256345 -0.134782 0.109987 -0.158737 0.147541 -0.0151266 -0.244932 0.416972 0.0163497 -0.10745 -0.135932 0.398744 0.18629 -0.014577 0.0686941 -0.248562 0.349762 0.174165 0.465082 -0.169712 0.0585636 0.312269 0.204393 0.0557026 0.494404 0.263061 0.173274 -0.131593 -0.171621 0.0121452 -0.0673231 0.0205674 -0.0703696 0.0771641 0.201495 -0.0313385 0.0325212 0.129139 0.114876 -0.391371 -0.0656221 -0.140662 0.00186864 -0.109042 -0.0427852 0.210035 -0.249047 -0.0643866 -0.060673 -0.242691 0.164588 0.0216386 -0.286404 0.164461 
Idim 0.0709364 -0.0291339 -0.147318 0.105611 0.153328 -0.167134 -0.264167 -0.0171107 0.131909 -0.174074 0.25709 0.182883 0.202984 0.165723 0.0899484 -0.0493761 0.139261 0.0596663 0.138718 -0.00500127 0.266496 -0.177759 0.0655952 -0.0076037 0.0585939 -0.142274 0.214947 0.112278 0.139947 -0.187684 -0.0124204 0.0389882 0.070321 0.298841 -0.076083 -0.021985 0.0538792 0.0309268 -0.202221 0.164556 0.0295124 -0.0448776 0.15353 0.108654 -0.0675496 0.259614 0.194237 -0.0973209 0.16912 -0.00953516 -0.0219037 0.177648 0.144923 0.0939786 0.280489 0.133708 0.136337 -0.0885949 -0.0512035 0.099669 0.00296392 -0.0700022 0.290199 0.0219664 -0.129949 -0.0945766 -0.00116428 -0.0458396 -0.0700954 0.0108752 -0.0559165 -0.149016 0.0207469 -0.222627 0.05915 -0.00789214 0.245431 0.133202 -0.0385669 -0.190971 -0.15154 -0.135022 0.0223853 0.38742 -0.227659 -0.107318 -0.222237 0.0916793 0.0552644 0.0284378 -0.039055 -0.195169 -0.0159043 0.20814 0.0561623 -0.108654 -0.0386444 -0.0157078 0.0575732 0.0130055 -0.424228 -0.0156653 0.0340733 -0.173417 0.05294 0.0356366 0.0896989 0.0993504 -0.170617 -0.0547777 0.117839 0.0906057 -0.0083031 -0.0385208 -0.0104337 0.0617057 0.142893 0.0242536 0.0644483 -0.293636 0.00649966 0.203978 -0.00875059 0.125897 -0.160587 0.103777 0.166733 -0.0159527 -0.105835 -0.175288 0.391336 0.165794 -0.0673518 0.0576009 0.0205644 -0.147167 0.0951231 -0.254861 -0.0377743 -0.0676752 0.0553432 0.148366 0.101628 0.131817 -0.0733655 -0.1728 0.110309 -0.0875292 -0.039361 0.116543 -0.0555879 0.243829 -0.00412485 0.32204 0.2794 -0.155935 -0.116888 0.0663325 0.259515 -0.0587843 -0.112051 -0.0847135 0.10564 -0.0750052 0.211645 -0.0542067 -0.140713 -0.0388762 0.00826325 -0.108337 -0.122197 0.217491 0.0184511 0.00856919 -0.0639259 -0.100747 0.0648568 -0.161809 -0.0799021 0.289901 -0.0140745 -0.169308 -0.0192418 0.0658452 0.134825 -0.249206 -0.270701 -0.38511 -0.0540352 -0.0270231 0.0387212 -0.0140708 -0.0419706 -0.13717 -0.160715 -0.145609 0.0284144 -0.114104 0.131287 0.159183 
VI7 -0.116534 -0.350729 -0.324079 0.292664 0.293906 -0.328864 -0.0392433 0.0186049 0.157364 -0.160553 -0.0560779 0.274395 0.293102 0.168967 -0.0787968 0.0447578 0.00210918 0.111304 -0.225766 -0.12308 0.475718 -0.078354 0.263509 -0.358676 0.185375 0.0571436 -0.506573 -0.288161 0.442379 -0.213592 0.0475179 -0.0714123 0.405398 0.064132 -0.111761 0.072924 0.196723 0.554226 -0.00420822 0.242361 -0.196011 -0.101959 0.439766 0.196287 -0.506689 0.518766 0.050542 0.211446 0.340866 -0.214918 0.010724 0.403007 -0.0237003 -0.0590223 0.263026 0.370256 0.421031 0.104586 -0.125672 -0.117719 -0.148654 -0.148266 0.0449134 0.182622 -0.191441 0.213326 0.254963 -0.15903 -0.162728 0.379227 -0.0520931 0.174507 0.407462 -0.49162 -0.0859137 0.301366 0.0773072 0.179821 0.066971 -0.0419539 -0.226701 0.107188 -0.32686 0.227564 -0.00907952 0.185853 -0.21076 0.39459 0.133316 -0.191009 -0.126425 -0.010083 -0.350929 0.25738 -0.154919 0.128114 -0.0360679 0.0578324 0.200333 -0.274455 -0.63658 0.147261 0.0760946 -0.198145 0.0989221 -0.0603735 0.202375 -0.30286 -0.137707 -0.359953 0.110903 -0.217983 -0.276335 -0.36646 -0.263607 -0.109984 0.0283978 0.0191823 0.412108 -0.607621 -0.191525 0.145059 0.177234 0.0650993 -0.136838 -0.140608 -0.00928912 0.135039 -0.060175 -0.0299632 0.457129 0.136146 -0.0219872 0.184298 -0.0772325 -0.225634 0.168586 -0.136664 -0.27271 0.148353 0.0377166 -0.253477 -0.00345005 -0.211241 -0.241533 -0.538402 0.115044 -0.366682 -0.119558 -0.174086 -0.0722703 0.156165 0.264821 0.252734 0.0185985 -0.221309 -0.225962 0.226286 0.513391 -0.102224 0.211772 -0.224551 0.454344 -0.12015 -0.203783 -0.0412215 0.153893 0.288651 0.0345539 0.356011 -0.0625331 0.257493 0.012304 0.0921203 0.0125039 -0.155213 0.0133482 0.155126 -0.0919694 0.43265 -0.0456817 -0.0204897 -0.184477 0.372489 0.0636604 -0.217479 0.00927826 -0.0850432 0.222936 -0.292577 0.131348 0.307389 0.20557 -0.0150387 -0.179561 -0.102352 0.0371571 -0.165694 0.0878242 -0.039512 
VI -0.104184 -0.305098 -0.181269 0.123119 -0.0214459 -0.232687 -0.132187 -0.0149905 0.0806046 0.101254 -0.1439 0.263264 -0.116022 0.433999 -0.127704 -0.165207 -0.0540446 0.317712 0.127192 -0.106303 -0.0251188 -0.157468 -0.391908 -0.161453 0.10717 0.287395 -0.390839 0.0694468 0.23888 -0.156427 -0.0109745 0.0594236 0.0711563 0.0608779 -0.579605 -0.015729 0.240598 0.168711 0.00789914 -0.0440279 -0.123027 0.309041 0.210836 0.0220387 0.0578636 0.181708 0.166831 0.0889624 -0.25882 0.114233 0.135871 -0.0390113 -0.114479 0.0105932 0.143695 0.1707 -0.156118 -0.130654 -0.175415 0.0675805 -0.324277 -0.244148 0.227701 0.312231 0.0639169 0.158899 0.607987 0.0693574 -0.0520008 0.178019 -0.0571832 -0.235067 0.177003 -0.348716 -0.0836901 0.326313 0.0583842 -0.189792 -0.0611381 -0.183877 -0.197787 -0.180517 0.0123976 -0.157721 -0.270613 0.166708 0.290308 -0.0870138 -0.198848 -0.352096 -0.0446423 -0.187713 -0.00240072 0.526415 0.0862584 -0.144723 -0.113307 0.445988 0.257871 0.122856 -0.213689 0.256924 0.0899651 -0.0855747 -0.327654 -0.0994229 0.108022 -0.0619519 -0.036433 -0.457332 0.298055 -0.100787 -0.0816765 -0.324469 -0.191802 0.0954407 -0.0262912 0.116698 0.15555 -0.0969346 -0.562329 -0.158253 -0.0369007 -0.0616433 -0.463077 -0.125319 0.187633 -0.112384 0.240609 -0.324243 0.487476 -0.0934867 0.0191921 0.3477 0.206093 -0.140002 0.16251 -0.133808 0.000973486 -0.247927 0.309907 -0.00055386 0.0552587 -0.0367109 -0.224724 -0.270162 -0.0371637 -0.234047 -0.101375 -0.251926 0.448547 0.0481777 -0.0610617 0.157237 0.134536 -0.0994157 0.132297 0.397372 0.382245 0.17229 -0.065011 -0.178601 0.43526 0.191429 -0.349406 0.0197656 0.212885 0.593661 0.043611 0.444907 -0.0293873 0.166936 -0.00693926 0.094976 0.313859 -0.409596 -0.0174343 0.16132 -0.100139 0.0142601 0.303592 -0.184132 -0.26402 -0.0196709 -0.0604568 -0.0152238 0.0627276 -0.26991 -0.0508521 -0.185021 -0.0933455 0.226838 -0.495855 0.025735 -0.0346035 -0.131465 0.0158171 0.230625 0.0088001 -0.0159617 
IV7 -0.11025 -0.294103 -0.0511787 -0.292415 0.070544 -0.0795245 -0.00463065 -0.145411 -0.0285675 0.0735823 -0.0698874 0.0889675 0.124618 0.0757333 -0.185349 0.21167 0.281728 -0.0998284 0.339902 -0.542492 0.60719 -0.202302 0.323898 -0.244466 0.581115 0.0588362 0.16396 -0.0429172 -0.130996 -0.0511396 0.174511 0.0396634 -0.0733703 0.143398 -0.344252 -0.0223965 0.405088 0.00529451 -0.170925 0.157487 0.0280027 0.314623 0.725863 0.116022 0.119663 0.499922 0.0602314 -0.0165703 0.135103 -0.362143 0.0877061 0.220002 0.00543764 0.384055 0.285679 0.0337032 0.224122 -0.116488 -0.139167 0.556861 0.0837946 -0.170069 0.393512 0.362263 -0.0997893 -0.0620581 -0.248553 -0.258506 -0.00780664 0.274046 -0.371251 0.131651 0.658555 -0.521036 -0.310371 0.0859677 0.394839 0.275411 -0.146168 -0.522808 -0.409546 0.285868 0.0370392 0.336378 0.118689 0.268123 0.245014 0.203699 0.440966 -0.104948 0.137046 -0.351096 -0.245318 0.347068 0.0485358 -0.253706 0.310228 0.135861 -0.234727 -0.0559746 -0.823606 0.306873 0.35968 -0.344714 -0.197095 0.289465 0.0305154 0.337202 -0.105119 -0.985069 -0.298416 -0.17362 0.0979008 -0.0139868 -0.0236879 0.14569 0.400934 -0.0512922 0.171669 -0.152333 -0.286869 0.17172 0.0254302 -0.0648988 -0.57906 0.0725891 -0.0111878 0.00404199 0.0824876 0.0332514 0.436172 0.0350499 -0.221785 0.178383 0.0614757 0.0282139 0.281338 0.0459197 0.150983 0.146728 0.287753 -0.188514 0.128675 0.345805 -0.00220573 -0.0257152 0.173851 -0.406584 -0.432879 0.111609 0.278062 0.116692 0.218062 0.121532 0.307769 -0.0344888 -0.526533 0.259015 0.012173 -0.0626644 0.16316 -0.530568 0.0784943 -0.0896146 0.244765 0.223557 0.163965 -0.334733 -0.165358 -0.215537 0.460323 0.338993 -0.202525 0.221114 -0.202135 -0.180928 0.205087 -0.153027 -0.456055 0.113308 -0.0459184 0.0459336 -0.250216 0.030876 0.241412 -0.231989 -0.133938 0.0358302 -0.0524872 -0.356441 0.211706 -0.0442306 0.0168672 0.115981 -0.322763 -0.390682 0.00794447 -0.0593312 -0.269099 0.120923 
I7 -0.103886 -0.0456961 -0.123923 -0.102051 0.19812 -0.0697064 -0.0939598 -0.0936114 0.369727 -0.0375071 -0.00948461 0.272638 0.25122 0.198135 -0.136955 0.254332 0.444237 0.374805 0.0406245 0.234195 0.411369 -0.124958 0.717948 0.0516952 0.406561 0.15519 0.238897 0.201776 0.466654 -0.194592 -0.0954234 0.0451354 -0.00277184 0.0649398 -0.330601 -0.32476 0.334892 0.062349 -0.219339 0.46552 0.0509774 0.241312 0.175605 -0.192404 -0.0753806 0.311394 0.102237 0.0583941 0.163321 -0.0101787 -0.195461 0.0880553 0.273808 0.191649 0.0417431 0.0537749 0.223862 0.12182 -0.243088 -0.0679273 -0.0512611 0.0234017 0.408592 0.0484923 0.082908 -0.217958 -0.161725 0.0292162 -0.127868 0.253492 0.106664 0.211427 0.426761 -0.194641 -0.422768 0.110901 0.510865 0.193429 0.0281933 -0.177336 0.0194916 -0.357399 0.0908311 0.478623 0.224891 0.00278824 0.328889 0.166575 0.176323 -0.12784 -0.0659864 0.163728 -0.150844 0.516511 -0.0168294 -0.288879 0.152559 -0.298185 0.0524682 0.0132363 -0.623566 -0.143954 0.00762556 -0.406867 -0.362223 0.0739617 -0.0859488 -0.311836 0.0367367 -0.263244 -0.14718 0.253143 -0.0778323 -0.118281 -0.0831288 -0.0394118 0.145047 -0.0313419 -0.0235441 0.112968 -0.671776 0.117329 -0.504574 0.171047 -0.0254161 0.508124 -0.212214 0.246401 -0.0821457 0.0373279 0.423682 0.199761 -0.0550962 0.476087 0.0764457 -0.125722 0.189382 -0.0663445 0.00411115 -0.0159374 0.085819 0.0787287 0.497713 0.30213 0.0106649 0.12445 0.112273 -0.223913 -0.222785 0.0931209 -0.37409 0.316292 0.245156 -0.0186284 0.347919 -0.333038 -0.262845 0.169826 -0.041433 0.187737 0.398492 -0.345462 0.2775 -0.534357 0.0729098 -0.00694783 -0.0805789 0.169673 0.197598 -0.220007 0.106291 0.335277 -0.0837027 0.14161 -0.180104 0.115151 0.0976394 -0.110488 -0.455957 -0.0483641 0.197296 -0.116936 0.262862 0.46512 0.167184 -0.418042 0.0139901 -0.124287 0.0177404 0.190019 -0.0792318 0.329952 -0.188491 0.144037 0.104402 0.147265 -0.0870771 0.0480735 0.0954526 0.0147128 
VII -0.333893 -0.285978 -0.116539 -0.317876 -0.0840053 -0.36986 -0.370775 -0.162504 0.498685 0.0985322 0.207644 -0.037881 -0.0991332 0.506817 -0.148599 -0.240859 -0.183149 0.0450976 -0.439866 -0.123952 0.131662 0.0668944 -0.0400798 -0.448369 0.294255 0.392793 -0.281801 0.0446468 -0.233589 -0.13787 -0.0489071 0.307649 0.16639 0.100656 -0.270835 -0.139912 0.391093 -0.221039 0.115687 -0.0868657 0.163857 0.443249 0.118246 -0.216643 0.0312747 -0.14873 -0.0420458 0.160485 -0.0332438 0.184109 0.0792136 0.365108 -0.198162 -0.0260082 0.0814217 0.269463 -0.00220527 -0.498525 0.363297 0.256872 -0.392223 0.0103969 -0.0704336 -0.0679195 -0.424709 0.240271 0.176456 0.229133 0.390293 0.170814 -0.047452 -0.315984 0.196223 -0.0453099 -0.0879738 0.163736 0.349973 0.358284 0.156117 -0.249733 -0.0939201 -0.234036 -0.266947 0.274173 -0.235095 0.0159859 0.0709873 -0.0936765 -0.132801 -0.218242 -0.171281 -0.134235 0.0553621 0.0604894 -0.0378076 -0.117542 -0.122506 0.747593 0.196508 0.00337347 -0.230411 0.20029 0.202436 -0.102514 -0.447381 -0.0855495 0.0420789 0.0297612 -0.20833 -0.480374 0.213648 -0.118765 -0.365427 -0.335909 -0.161622 0.174008 0.401651 0.356901 0.0578647 0.00549247 -0.202148 0.140108 0.0900677 -0.125586 -0.162432 -0.304501 0.210169 -0.0881233 0.309503 -0.384341 0.264395 -0.0816056 -0.269272 0.207465 0.318314 -0.0565041 0.0995797 -0.0634475 -0.0101146 -0.445455 0.110775 -0.0634184 0.137143 -0.0701342 0.113216 -0.16176 0.154917 -0.271428 -0.30065 -0.070617 0.35127 0.122481 -0.21867 0.303044 -0.0635173 -0.212743 -0.200751 0.606576 0.263039 -0.239806 -0.0785136 -0.212995 0.206491 0.336644 -0.227214 0.128171 0.422367 0.323107 0.399711 0.2059 0.590801 0.279689 -0.39114 -0.287108 0.146895 -0.0750654 -0.103715 0.147405 -0.279894 0.244659 0.379417 0.041979 -0.118692 0.11813 0.154186 -0.40002 0.0769976 -0.39463 0.100319 -0.180301 -0.107113 0.337284 -0.167222 0.240482 -0.0429667 -0.167654 0.427169 0.432713 0.110008 0.30576 
w87 0.145525 -0.34822 -0.002684 -0.162185 0.379846 -0.41379 -0.0288054 -0.306746 0.29598 -0.159186 -0.000758014 0.218178 0.0796442 0.0612316 -0.0964425 0.215669 0.228448 0.162578 -0.160515 -0.049488 0.420543 -0.333406 0.133948 -0.257966 0.241208 -0.0611556 -0.2472 0.0265856 0.0786978 -0.408161 -0.0397484 -0.0102219 0.249668 0.162905 -0.39946 0.0849904 0.396706 0.170561 0.0356182 0.160005 -0.0107921 0.0917377 0.375331 0.092923 -0.0882899 0.159146 -0.0484854 -0.0140147 0.174232 -0.235382 -0.0295065 0.579825 0.179268 0.14959 0.363826 0.229855 0.0204619 -0.362004 0.138195 -0.198993 -0.0614112 -0.169656 0.219155 0.23401 -0.26426 -0.0726273 0.382171 0.0175507 -0.0558782 0.137068 0.0750643 -0.116902 0.313643 -0.465603 -0.397506 0.403092 0.527126 0.28341 0.211381 -0.458339 -0.233501 -0.250263 0.0379025 0.577951 0.0831199 0.202972 0.0717305 0.207941 0.013108 -0.03894 -0.131873 -0.183176 -0.337049 0.200709 0.137416 -0.135019 -0.0563659 0.148101 0.131587 -0.402849 -0.600858 0.130831 -0.149765 -0.457004 -0.563435 0.126412 -0.170761 0.11061 -0.340406 -0.506746 0.191268 0.0619162 -0.159889 0.339532 -0.0281891 0.188727 0.261417 0.219951 0.48088 -0.215552 -0.754171 0.112041 0.121629 -0.307497 -0.346548 -0.104346 0.253811 0.288936 0.0444536 -0.230541 0.39659 -0.195743 0.146656 0.482337 0.276071 -0.00343907 0.315529 -0.128151 0.163677 0.105838 0.419931 -0.27887 0.425886 0.211496 -0.340539 0.0329955 0.259703 -0.173759 -0.457772 -0.241487 0.594641 0.158352 0.341039 0.230153 0.0497988 0.136645 -0.0728338 0.116758 0.0992733 -0.0480006 0.231125 -0.310555 0.0943151 -0.0487224 -0.147794 0.259003 -0.358035 0.250504 -0.0617665 0.272746 0.210056 0.466668 0.0133312 0.125874 -0.345455 0.0125496 -0.113765 0.0698604 -0.161167 0.534346 0.0344437 -0.264983 0.0334518 0.277404 0.24538 0.00970664 -0.132238 -0.382406 -0.166247 -0.0291173 -0.28 0.283833 -0.175726 0.159848 0.0915948 -0.327182 -0.0281008 -0.0615545 0.318625 0.298731 
w1m -0.0119725 -0.318946 -0.169115 -0.0879097 0.0463213 -0.404209 -0.311531 0.211541 0.231363 0.292905 0.131152 -0.100963 -0.0908581 0.106266 0.391048 -0.0498324 0.289073 0.173764 -0.154477 -0.207436 -0.251185 -0.125845 -0.184513 0.0279082 0.182408 0.153413 -0.0735577 -0.018217 0.222879 -0.276928 -0.00649113 0.134762 0.205961 0.312101 -0.471419 -0.0795892 0.34391 0.476137 0.258196 -0.144469 0.180976 0.104735 0.00623585 -0.194677 -0.233651 0.0148243 0.083383 0.170151 -0.0592707 0.0226818 0.0352624 0.402244 0.372367 -0.0460181 0.316854 0.324408 -0.0325032 -0.116444 -0.35152 0.112774 -0.197837 -0.250297 0.187079 0.189021 -0.167787 0.241211 0.221204 0.0746236 -0.060288 -0.0341125 0.156209 0.00347825 0.0768823 -0.363587 0.0463953 0.302098 0.215717 0.135103 0.0390228 0.0244138 -0.210828 -0.134124 -0.00729937 0.42907 -0.258606 0.183493 0.0169452 -0.0854211 -0.311516 -0.0845155 -0.233348 -0.264514 -0.23298 0.351788 -0.0809437 -0.0880993 -0.224388 0.507241 0.16745 -0.446654 -0.0278069 0.198774 0.148319 -0.226069 -0.107088 0.22896 0.136435 0.167315 -0.276698 -0.287247 0.253097 -0.0243173 -0.177955 -0.0644344 -0.154123 -0.0391103 0.110967 0.398376 0.255402 0.00849066 -0.558469 0.170496 0.13372 -0.127866 -0.266397 -0.0370826 0.288559 -0.045109 0.113712 -0.172563 0.464221 -0.196586 0.240999 0.448495 0.4116 0.0372021 0.00369055 -0.130488 0.0905506 -0.0981123 -0.0210608 0.106914 0.188501 0.0676602 -0.373807 0.00714353 -0.0312675 -0.160781 -0.223972 -0.139374 0.826719 0.334895 0.0537237 0.179935 0.07277 -0.142602 -0.0643021 0.343982 0.200939 -0.0506729 0.133307 -0.160907 0.11948 0.180964 -0.431253 -0.143886 -0.195058 0.572321 0.0678676 0.180712 0.241797 0.205473 0.410103 -0.261922 -0.315645 -0.0123177 -0.186255 -0.00388804 -0.576437 0.169074 0.00633527 -0.325833 -0.264759 0.251557 0.039784 0.0401016 -0.199571 -0.495394 -0.195213 -0.0161589 -0.231433 0.349237 -0.461512 0.0361836 0.0339667 -0.0703385 0.0692826 0.170139 0.177186 0.00677452 
VII7 0.0517647 -0.590514 -0.129241 0.00294948 -0.0628158 -0.0756267 -0.326524 -0.260632 0.102361 0.421061 0.424804 -0.0887103 0.142711 0.231103 0.156565 -0.168173 -0.212836 0.0236989 0.389196 -0.0662553 -0.0105869 0.0232002 0.0392797 0.0327052 0.156268 0.51998 -0.753462 -0.256371 -0.0524874 -0.0993982 -0.0330178 0.124635 0.13361 0.149323 -0.0497266 0.11717 0.247607 -0.158209 0.03873 -0.0744752 0.128364 0.379364 0.13455 -0.325228 -0.0713435 0.0677671 0.0521649 -0.185605 0.0365115 0.160198 0.193288 0.256861 -0.224181 0.0203641 0.0269883 0.229891 0.117667 -0.0684149 0.0918582 -0.0114895 -0.291651 0.0476269 0.268142 0.0402607 -0.281092 -0.281171 0.231772 0.11738 0.0655714 0.161981 0.0706691 0.36915 0.0272141 -0.527634 -0.3114 0.00922198 0.0426369 0.332657 0.0779723 0.0512863 -0.703888 -0.27232 -0.0209458 -0.194866 -0.00322418 0.152261 -0.374795 0.122582 -0.102735 0.135342 -0.0819348 -0.327768 -0.390472 -0.0353571 -0.292518 -0.301975 -0.0462939 0.404414 0.32612 -0.128821 -0.547308 0.104449 -0.0664361 -0.0571416 0.0719413 0.0591371 0.0961685 0.0605523 -0.0353563 -0.228671 0.165803 -0.259032 -0.426026 -0.154629 0.0375712 -0.0650847 0.113888 0.110444 -0.101909 -0.164883 -0.225901 -0.0757603 0.056981 -0.0310179 -0.263879 0.201226 0.00592804 -0.0612575 0.119514 -0.103982 0.467764 -0.235904 0.0383459 0.145233 0.255079 -0.298898 0.187716 -0.1883 -0.0184608 -0.387734 0.235944 0.0835542 0.12045 -0.0750915 0.110448 -0.0492761 0.373864 -0.362752 -0.247634 -0.0220312 0.146788 -0.117732 -0.0759536 -0.0365271 -0.0533144 0.147754 -0.216851 0.0795861 -0.0259823 0.182965 -0.0393564 0.0800132 0.194831 0.116266 -0.0756446 0.318273 0.142073 -0.0402687 0.099529 0.146072 0.127065 0.197846 -0.101646 -0.397734 0.23291 -0.301419 0.089898 0.200493 -0.145996 0.0273876 -0.00283482 -0.0696675 -0.28134 -0.00212921 0.247966 -0.418437 -0.0366764 -0.0480084 -0.0421968 -0.00932403 0.303783 0.414525 -0.222319 0.105804 -0.344268 -0.21063 0.276471 -0.0770382 -0.159975 0.295598 
i -0.303793 -0.0221357 -0.627126 -0.00924799 0.223402 -0.0485383 -0.183211 -0.409065 0.434335 0.186261 -0.152819 0.382249 -0.101494 0.447092 -0.164199 -0.148224 0.383708 -0.0255556 0.148424 -0.383998 0.353734 -0.49675 0.494803 -0.0637585 0.27623 0.22184 0.00439053 0.143759 0.41447 -0.0439578 0.0140172 -0.023982 -0.0152957 0.182005 -0.526361 -0.348704 0.571912 -0.0489426 -0.458683 0.1821 0.367678 0.0738108 0.264057 0.120556 0.306993 0.140828 -0.109728 -0.0750614 0.345708 -0.197722 0.0532892 -0.00316141 0.151645 0.125259 0.215504 0.0281934 0.0258042 -0.131164 -0.396529 0.266832 -0.35715 -0.317746 0.398574 0.312175 0.0977787 0.342573 0.260779 -0.121018 -0.184387 0.268836 0.118084 -0.0153768 0.104298 -0.356544 -0.13922 0.17067 0.059543 0.190247 0.0647842 -0.126733 -0.120968 0.0418678 -0.371696 0.467578 -0.000908649 0.118425 0.060233 0.356523 -0.0356565 -0.249326 -0.100982 -0.265656 -0.127294 0.537258 -0.141598 -0.279132 0.00258579 0.0579965 0.100391 -0.222518 -0.840125 0.186308 0.239462 -0.519436 -0.298144 0.493102 -0.245315 0.306025 -0.277627 -0.594691 -0.161855 0.239049 -0.0982217 -0.0168979 0.203815 0.108457 -0.0093284 0.0867225 0.119123 -0.447262 -0.632666 -0.114009 0.208451 0.107658 -0.247828 0.0700689 0.409577 -0.0880834 0.426574 0.0168979 0.393075 -0.0887177 0.0668256 0.399907 0.000364565 0.244435 0.0496053 0.0229932 0.0410997 -0.224078 -0.0637931 0.394378 0.361918 0.496966 -0.258944 0.122327 0.0357597 -0.595494 -0.320753 0.0991529 0.106354 0.0692038 0.155959 -0.0625142 0.317741 -0.0519358 -0.493163 0.0576123 -0.218709 -0.294545 0.0762173 -0.620151 0.0324267 0.0558052 0.125548 0.329666 -0.172107 0.387937 -0.117247 0.168034 0.0929679 0.181523 0.159819 0.380354 -0.522179 0.14272 0.215379 -0.22486 -0.168086 0.227029 -0.51483 -0.0533457 -0.323324 0.301994 0.0378034 0.006604 -0.264581 -0.0246397 -0.338778 -0.0719252 -0.0257129 0.533097 -0.363993 -0.229677 0.288696 -0.243143 -0.0633396 -0.0960148 -0.368035 -0.239811 
iii -0.00927524 0.0940958 0.00677173 0.0502747 0.128471 -0.177115 -0.217159 0.149438 0.124667 0.155077 0.115088 -0.0485345 0.165754 0.18848 -0.0448299 0.0447907 -0.0966621 -0.134684 0.229594 -0.0431131 -0.0995429 -0.254508 0.00736636 -0.0222042 0.0816218 0.109985 -0.284298 -0.0310099 0.205422 -0.069198 0.0572569 0.085487 0.217926 0.0803295 -0.177216 -0.237002 0.347328 -0.0422036 0.113741 0.0418541 0.00775229 0.341671 0.120928 0.0568944 -0.16208 0.252704 0.0584109 0.0551405 -0.0292726 -0.0985996 0.00685065 0.0952668 0.0541379 -0.1041 0.0302304 0.102732 -0.00282674 -0.174629 -0.0392191 -0.0467561 -0.194724 -0.18232 0.161451 -0.133384 -0.133471 -0.0290493 0.210568 0.209617 -0.140583 0.113248 0.0197593 -0.0432169 0.171941 -0.185491 -0.170757 0.157233 0.0629285 -0.080171 0.142505 -0.0469878 -0.188586 -0.230169 -0.0682422 0.0513676 -0.225411 -0.139309 0.332281 0.103263 0.162392 -0.0862873 -0.15093 -0.154435 -0.334343 0.113814 -0.118943 -0.0707634 0.236229 -0.110959 0.459795 0.0686157 -0.196222 0.215239 -0.0193445 -0.00817319 0.0265812 -0.0652967 0.0610295 -0.0370507 -0.132117 -0.223399 -0.0331627 0.00414239 -0.437944 -0.307866 -0.0610527 0.0781877 -0.00244925 0.0652832 -0.116496 -0.0218837 -0.262522 0.0442014 0.238638 0.0173622 -0.195297 0.0431444 0.0760213 0.00686103 0.0381509 -0.0186379 0.352849 -0.22124 -0.0495471 0.109063 0.211365 -0.140937 0.311265 -0.154855 -0.116898 -0.307877 0.134825 0.0150841 0.331091 0.0189386 -0.0320325 -0.172691 0.289179 -0.20075 0.15572 -0.190133 -0.00973414 0.43977 0.117549 0.0563403 -0.0903842 0.165956 -0.0388861 0.226047 0.393345 -0.0837032 0.1122 -0.362124 0.133853 -6.97892e-05 -0.143633 0.183858 0.0675712 0.414444 -0.100076 0.213709 -0.0161524 0.0897953 0.08815 0.124036 0.0587441 -0.0967307 0.0489378 0.190541 -0.163154 0.151683 0.0353171 0.124054 -0.0787867 0.113259 0.32033 -0.222717 -0.122777 -0.223135 0.109018 -0.0621277 -0.0426113 0.0325875 -0.279147 -0.0108426 0.0530601 -0.237281 0.0294042 0.0220757 0.0121414 0.122772 
iv 0.0672443 -0.211863 -0.215335 -0.253065 0.251534 -0.568807 -0.0520765 0.206385 0.153111 -0.25211 0.123058 0.0887385 0.0565282 0.0899055 -0.166172 0.0953509 0.332331 -0.0805191 0.0331236 -0.215591 0.322509 0.150903 0.393033 0.0337857 0.275737 -0.281769 -0.0415909 0.127597 0.434887 -0.0536825 -0.315535 0.114507 0.242664 0.0487933 -0.0295184 0.0224786 0.199495 -0.184576 -0.071139 0.157376 0.132299 0.129163 0.174195 0.0560213 -0.0770175 0.123966 -0.0328711 0.129894 0.143932 -0.413205 0.0491866 0.284384 0.110544 -0.162497 0.407188 -0.00117242 0.372065 -0.243428 0.163566 0.108717 -0.0632818 0.0141809 0.351662 0.0807927 -0.176408 -0.126577 0.180836 -0.175282 -0.0593144 0.318159 0.0914484 -0.220085 0.122754 -0.125511 -0.254146 0.269682 0.0736941 0.158098 0.0988902 -0.111376 -0.236776 -0.287417 -0.161045 0.0744335 -0.128101 -0.086255 0.154663 0.260808 0.125625 -0.117104 0.0960837 -0.229086 -0.0465357 0.200795 0.147548 -0.0545002 -0.158285 0.196089 0.186589 -0.303135 -0.557089 0.226068 0.065694 -0.153293 -0.447053 0.109961 0.0387169 0.13048 -0.213092 -0.390416 0.10345 0.0586324 0.058178 0.171692 0.0861444 -0.0684092 0.0465458 0.16829 -0.0665484 -0.0513268 -0.280816 0.221999 -0.245255 0.23026 -0.329266 -0.0206762 0.248555 0.114186 -0.0277463 0.00298551 0.2697 -0.0246669 -0.0940026 0.453604 -0.0915303 -0.0720374 0.32786 -0.16902 0.143308 0.207274 0.0876406 -0.10764 0.497389 0.120049 0.0264362 0.0681425 -0.095166 0.116211 -0.0632612 -0.147065 -0.0234011 0.336296 -0.0452669 0.385595 0.00788694 0.0738747 0.00143777 0.0247902 -0.128833 0.0738318 0.278716 -0.291821 0.195939 -0.099271 -0.0378448 0.184483 -0.360371 0.00965607 0.198422 -0.123613 0.191835 0.249278 -0.168241 0.0670937 -0.0954015 -0.0950366 -0.0758486 -0.00302366 -0.336004 0.177046 -0.0474665 -0.160501 0.127191 0.197522 0.449897 -0.0747235 -0.0743869 -0.181749 -0.163477 -0.186541 -0.0925617 0.160335 -0.155761 -0.130636 -0.0495715 -0.369658 -0.0510126 -0.0976906 -0.169588 0.370773 
w10 0.0844608 -0.148696 -0.609253 0.0403124 0.135579 0.00262297 -0.174483 -0.137496 -0.12606 0.170087 -0.556747 0.327106 -0.152762 0.307774 -0.160754 0.0713768 0.182385 0.200759 0.0727323 0.0641549 0.550913 -0.0933749 0.311016 0.193928 0.222608 -0.305523 0.152859 0.0294401 0.210214 0.0499457 0.184788 -0.287671 -0.0794712 -0.0146185 -0.533038 -0.175403 0.0978681 0.174487 -0.00296565 -0.0321875 -0.0367414 0.0385076 0.400032 -0.0978688 0.216627 0.311536 0.00613784 0.0140109 0.100958 -0.47184 -0.0808214 0.189611 0.0883604 0.493806 0.180926 0.247562 0.0162515 -0.242714 -0.273466 -0.0122336 -0.0689423 -0.312173 0.227632 0.120502 -0.0314883 0.0972586 0.511694 -0.251865 -0.378088 0.281725 -0.358565 -0.0335448 0.234036 -0.190749 0.0535481 0.13651 0.166218 0.119162 0.00895468 -0.153261 -0.0197341 -0.0476498 0.0746836 0.400692 -0.0556989 0.240968 0.252996 0.167062 0.0973208 -0.373541 0.0531275 -0.286471 -0.0652739 0.394317 0.0838152 -0.107357 -0.129521 -0.0647339 0.197039 -0.0938142 -0.41979 0.195035 0.0470805 -0.183522 -0.146634 0.0287931 0.0600122 0.208696 -0.154183 -0.338852 -0.0502151 0.506337 -0.121146 -0.137775 -0.139113 0.0737874 -0.074862 -0.0581904 0.375112 -0.25662 -0.0656228 -0.129053 0.067593 0.116861 -0.214614 0.000210467 0.111927 0.138507 0.0169513 -0.109663 0.497673 0.00614775 0.373355 0.189814 0.42574 0.063273 0.241159 0.0631217 0.115698 0.0583851 0.281915 0.213604 0.271606 0.173308 -0.0995964 -0.337811 0.233451 0.05145 0.0717944 -0.0284888 -0.173851 0.185461 0.273334 0.286701 0.0863343 -0.211742 -0.068532 0.506783 -0.0811917 -0.279145 0.242724 -0.33082 0.101891 -0.0969684 0.0197869 -0.0699762 0.0621908 0.203667 -0.0596036 0.155451 0.118839 0.0414917 0.126109 0.0648376 -0.120743 -0.115434 0.18737 0.178417 -0.426138 0.296498 -0.0147457 -0.00648803 -0.0212387 0.104155 -0.0179714 -0.20248 -0.276761 -0.0379027 -0.137559 -0.172846 -0.00995162 0.280322 -0.243283 0.10382 0.124219 0.105744 -0.324865 0.270059 -0.0147164 0.0697168 
vi 0.0267527 -0.0440922 -0.279258 -0.0812699 0.119063 -0.271618 -0.0770755 0.077944 0.338266 0.0243419 -0.154304 -0.0433107 0.0490431 0.316838 -0.197796 0.0908977 -0.217638 -0.179514 0.258139 -0.106953 -0.122279 -0.0290948 0.110638 -0.0134419 0.218356 0.0412893 0.157815 0.0394249 0.14267 -0.0648879 -0.113484 0.152129 0.203412 0.323482 -0.193665 -0.218627 0.0395348 -0.0199013 -0.164867 -0.155062 -0.145693 0.564425 0.132711 -0.264938 0.0305264 -0.132123 0.0785376 0.138143 -0.0961398 -0.317175 -0.16897 0.118478 0.0883851 0.00158564 0.0550205 0.214106 0.193081 0.00369751 -0.125039 0.1761 -0.227637 0.0269384 0.238106 -0.0815049 0.0137103 -0.174843 0.351924 0.169105 -0.387974 0.100065 -0.112203 0.210735 0.145003 -0.162752 -0.10175 -0.00831492 0.123587 0.135439 0.302232 -0.145489 -0.123343 0.0571458 -0.097886 -0.0384391 0.0156757 0.281395 0.356298 0.0680207 0.112415 -0.0851156 0.14706 -0.377064 -0.264232 0.350035 -0.0252265 0.16388 0.245088 -0.130853 0.28877 -0.26032 -0.223434 0.166288 0.00427453 -0.246429 -0.124887 -0.152832 0.215587 -0.204852 0.080381 -0.379588 -0.00775719 0.0126564 -0.190174 -0.135679 -0.0806677 0.168484 0.217301 0.0664379 0.0702606 -0.0643713 -0.0798221 0.110301 0.0244975 -0.0614153 -0.327467 0.0677881 0.0485463 0.0733213 -0.180393 -0.200236 0.191398 -0.15864 0.0554916 0.1753 0.0942967 0.157077 0.295996 -0.0580865 -0.0323378 -0.0914054 -0.11058 0.101084 0.121789 -0.00261252 0.0296268 -0.322337 0.109327 -0.0995182 -0.151207 -0.216785 0.170936 0.038317 -0.0723369 0.0881233 0.236125 0.0739643 0.0522698 0.293496 0.080418 0.0139349 0.0681298 -0.272905 0.128779 -0.0437746 -0.259798 0.153597 0.122095 0.0852677 -0.0196309 -0.0244498 0.0770269 0.224723 0.0848082 0.0131533 -0.0894394 -0.313853 0.06245 0.419826 -0.199886 0.153941 0.138227 -0.29373 -0.00393136 0.089773 0.290749 -0.266595 -0.0106294 -0.408302 -0.00672956 -0.206498 -0.0155137 0.040219 -0.301787 0.0634497 -0.0575373 -0.0740959 0.0737642 0.178906 0.0167262 -0.0979473 
